svm_type c_svc
kernel_type rbf
gamma 0.5
nr_class 80
total_sv 358
rho -0.097485200422046336 0.021107387651449174 -0.02704717376086389 -0.39012092275519317 -0.33306453448449586 -0.2859401209336519 -0.31303856625300813 -0.43895759654417404 -0.13244132401040234 -0.22107823956516062 -0.3215388759889139 -0.50121655763101025 -0.30950410716227084 -0.20872378749670265 -0.12862413146818549 -0.29695682647011029 -0.13964672177194204 -0.38765259226581367 -0.047744509395526817 -0.084801964948432965 -0.35331945198165887 -0.30723882649221951 -0.25535522656349235 -0.079577342755235231 -0.046837508783647862 -0.27700801180516837 -0.36986000331055569 -0.32775907760880735 -0.1373744407239193 -0.36481624667307028 -0.39376073364358471 -0.44454611629394353 -0.16364161089980292 -0.10226625720069372 -0.05738397328249506 -0.40727676734324575 -0.36276649186408927 -0.17178151931805222 -0.27385966790064442 -0.21390871684972876 -0.18408933982358522 -0.41596210451208648 -0.22764120263100271 -0.11195420246352267 -0.33231519545511251 -0.18408933982358522 -0.40593538049651307 -0.21390871684972876 -0.41596210451208648 -0.4855464337539358 -0.2239333850818904 -0.39410531830501516 -0.36679757388304829 -0.47138433795267298 -0.29827265783386514 -0.4855464337539358 -0.2239333850818904 -0.39410531830501516 -0.47138433795267298 -0.36484701790740709 -0.37777125136518019 -0.28855628484733165 -0.43972684397733081 -0.35310946395866444 -0.42427711284807273 -0.21433160856786282 -0.41719108438357172 -0.28855628484733165 -0.42427711284807273 -0.27782579167077776 -0.42128087264201108 -0.48197332052417519 -0.41018815870228248 -0.47596513952957897 -0.36400524006861545 -0.43788403794745479 -0.44370893425102209 -0.41168178133886668 -0.44769930779564593 0.1339532562165886 0.046131821886312901 -0.64889422379189587 -0.40399166925575797 -0.26613790819327082 -0.60507787695199455 -0.30121968053142856 -0.055118977271687568 -0.1351148226966295 -0.26785713652352361 -0.29821852304700208 -0.25252976859594373 -0.2106880015128155 -0.079713762204452379 -0.24057148424402203 0.037093857645572527 -0.42858806151613593 0.10070292005674779 -0.0050756038203066929 -0.24226461361581272 -0.21519697352168923 -0.16029600302500377 -0.0052171464967388781 0.030153083726486851 -0.14978259728086518 -0.30290740482182743 -0.24912156946765932 -0.064439086053410463 -0.29217555731621769 -0.263418037891191 -0.23877952689097906 -0.063752156280592734 -0.050740710479142262 -0.011531704016756064 -0.25476014643246542 -0.22408585593715816 -0.083951461986541284 -0.17215649942396205 -0.13111997203538953 -0.10095008274732296 -0.17371518756534907 -0.13139345362276725 -0.027940961772835549 -0.195157122488438 -0.10095008274732296 -0.22679656682553265 -0.13111997203538953 -0.17371518756534907 -0.27684782593088814 -0.13172841747951364 -0.24643986269333226 -0.23990728302468364 -0.29389087690548493 -0.13574224462766354 -0.27684782593088814 -0.13172841747951364 -0.24643986269333226 -0.29389087690548493 -0.23767029367606415 -0.19790872047324801 -0.15755196376318401 -0.28150532420339497 -0.19062176297680414 -0.27643418387946 -0.11180817745389808 -0.29813833595607259 -0.15755196376318401 -0.27643418387946 -0.16219843558519464 -0.26748126986017656 -0.28395085168094758 -0.29140261004072193 -0.28150975290350816 -0.26106514867245434 -0.27026091165174249 -0.27913000910900493 -0.26890074224385646 -0.29859703541055427 -0.17873129178394601 -0.57912967174723218 -0.45989551837839449 -0.35567178728852467 -0.44576960234165136 -0.39534971411677788 -0.15599042171220867 -0.22600277676163297 -0.37591992863108992 -0.39270565158173437 -0.346367042084546 -0.32457235923381617 -0.17638913839034795 -0.25103289654407646 -0.23331258069361396 -0.65338840707808821 -0.16035023858202332 -0.085012146702760472 -0.31746410564275429 -0.29046534696736037 -0.2402393075034539 -0.0835843918964954 -0.048831487128590978 -0.2272989819837041 -0.37246660839020285 -0.32119278665495438 -0.14203511729016449 -0.37496109379589254 -0.37583289869615866 -0.3266283473029441 -0.1542927441659204 -0.14259585102681438 -0.098688972287093099 -0.3485887195304842 -0.3053745637471072 -0.16609002741988163 -0.2576915516999575 -0.21066630419624474 -0.19136800974517862 -0.27525979792180411 -0.2148736556718058 -0.10898014462678023 -0.298470887410138 -0.19136800974517862 -0.32856402036858906 -0.21066630419624474 -0.27525979792180411 -0.37271073435517083 -0.21017546734634801 -0.32612675069381269 -0.32747274042603436 -0.38627982217821349 -0.22724234382423134 -0.37271073435517083 -0.21017546734634801 -0.32612675069381269 -0.38627982217821349 -0.33160823050882932 -0.28661700406754165 -0.24888817705802485 -0.35641661280835452 -0.28520503929980584 -0.36586433288128517 -0.18850551917047986 -0.36999960941460508 -0.24888817705802485 -0.36586433288128517 -0.25368433326187351 -0.3453198015167227 -0.36925795801939781 -0.36459217745096534 -0.36007917321575328 -0.33408188364812547 -0.35437517308794758 -0.35291590008098583 -0.34916851450248837 -0.37384777132313163 -0.45334580332321567 -0.3155232550974722 -0.39210540502612112 -0.34709740726565452 -0.34822410412840848 -0.14167704238865544 -0.1757652581069705 -0.33061007921819635 -0.34033427102843089 -0.29692644506752036 -0.27025787093126669 -0.12882709882096269 -0.19656568342714545 -0.12527673827105057 -0.47282933326739424 0.049460460054776521 -0.041343285762443518 -0.27634777157031115 -0.2370835410573737 -0.19575843636223644 -0.041199310997471407 -0.006180862754070122 -0.1852973210096063 -0.33512922069376921 -0.28045423229722449 -0.100179184521471 -0.31594389879852891 -0.3114800788013089 -0.27758599962362762 -0.10579771207659126 -0.099399846143085474 -0.051767773148693498 -0.30124701729632059 -0.26104265844885344 -0.1207137185790141 -0.20897346707561892 -0.16695403609819581 -0.14417070320306877 -0.22193525590885793 -0.16419983420545012 -0.064928112354872627 -0.24283095888982573 -0.14417070320306877 -0.27146687523475388 -0.16695403609819581 -0.22193525590885793 -0.32078025257569526 -0.16725796736122381 -0.28153123066726499 -0.27804367470500235 -0.33746596499006448 -0.17839537669680283 -0.32078025257569526 -0.16725796736122381 -0.28153123066726499 -0.33746596499006448 -0.27287474821484214 -0.23706282337616955 -0.20165352503718828 -0.31560899779424301 -0.2319484733438606 -0.3174895765828521 -0.16003535077179956 -0.33101184252935389 -0.20165352503718828 -0.3174895765828521 -0.20774664706462367 -0.30240496321089155 -0.32122771577035125 -0.32472656535985484 -0.31653375227949992 -0.29466166544781519 -0.30770367131174442 -0.31274197082192035 -0.30469609652893642 -0.33277950156870512 0.13321444629189594 0.073401280111885223 0.46346564392528444 -0.034055381820069681 0.52270263198552391 0.14047928553386183 0.003842220541354626 -0.030909876235328745 0.018721496760382206 0.064061038188839112 0.19621914194602971 0.22235947849454507 0.26265431175849385 0.088117100141431037 0.52892027767014005 0.26539802848842714 0.029293283067974171 0.086427060161257271 0.11485476310064159 0.26516382127502625 0.30083848709084532 0.12483778403755885 -0.036146671758278633 0.025117508871078126 0.20884540546890037 -0.0011036886046081672 0.010170254540426492 0.033402175903938396 0.21167410239168252 0.2234553634554991 0.25914353876927149 0.016925611623533329 0.048754929410858627 0.19008677910666735 0.10355675645822916 0.14989680150564608 0.176566439591023 0.10450070447541186 0.15315203700025873 0.24442453006630993 0.081775162184549069 0.176566439591023 0.04921952655601218 0.14989680150564608 0.10450070447541186 -0.0068725484413103138 0.14308470116087091 0.025012169918480095 0.032495706940799833 -0.025425323153302423 0.14164096326495307 -0.0068725484413103138 0.14308470116087091 0.025012169918480095 -0.025425323153302423 0.044234975688046872 0.075938643968628081 0.11884427898477597 -0.012798503751717984 0.094495092633877995 -0.0068721167736698861 0.16594391210660422 -0.030904985710474737 0.11884427898477597 -0.0068721167736698861 0.1163743727708868 0.0024705701036472163 -0.015204814353316344 -0.023391637886609796 -0.012773121767641706 0.0092396100146986942 -0.0004101949727221968 -0.0099957123302904915 0.00099302739309906399 -0.031447747187401141 0.061807575626628877 0.10904100199376023 -0.076601665575722372 0.15286692631925378 0.098468159394699786 -0.038807184017783866 -0.073415783349660022 -0.023900246370696727 0.021408974342159961 0.15437963078337727 0.1060986695002953 0.213188667817513 0.089195944441995606 0.35347990371576637 0.22497063651967344 -0.013373144187638297 0.038384399171427906 0.072536322624297808 0.22481735950998907 0.25995959880926556 0.082677498720118994 -0.078643487665976231 -0.017674190935659358 0.1677154065692045 -0.043818529972056743 -0.03250468563174299 -0.0092082864876239304 0.16997203853449785 0.18184192277116626 0.21775305736756523 -0.025799053327272333 0.00596601732474231 0.14877274426249765 0.061091120526115227 0.10637217774064288 0.13461507562062588 0.061981955388283584 0.10879441832473886 0.2034351000972878 0.039210263007228331 0.13461507562062588 0.0065431447428046961 0.10637217774064288 0.061981955388283584 -0.049551948372999199 0.10103862399802736 -0.017673129285110511 -0.010205035212883698 -0.068039455641465574 0.099328407018292458 -0.049551948372999199 0.10103862399802736 -0.017673129285110511 -0.068039455641465574 0.0013775116092402098 0.033408563362689263 0.076430968376069927 -0.055456722203822667 0.051529146723234172 -0.049520133007679212 0.12369662841736502 -0.073419430518264467 0.076430968376069927 -0.049520133007679212 0.073817791280833767 -0.040182319667566399 -0.05779995808747837 -0.065981731369372174 -0.05537294034603945 -0.033473371719863532 -0.043035597378682962 -0.052772698120213714 -0.041739424021559259 -0.073986854159874396 -0.15574562231505329 -0.10652945569507399 0.18484930917907769 0.068588853897329688 -0.068821645646897758 -0.10336600324637905 -0.054060845098182014 -0.008642959717522599 0.12482508775890588 0.074842460313762404 0.19148525193909921 -0.067298334927469464 0.31608636608996127 0.19624588867073725 -0.04345953270421065 0.007783863701412784 0.042551535890535147 0.19610275998163221 0.23380274138354276 0.052668358426809884 -0.10855701727160345 -0.047734848304038784 0.13836253727749345 -0.073784814058850123 -0.062546883437318332 -0.039371753609931073 0.14039124250025239 0.15252083539845704 0.18877556025697806 -0.055900225981634515 -0.024052386748433977 0.11912915918535089 0.031136296123091111 0.075622765659516047 0.10470536922943958 0.031846634086617878 0.078616583964828304 0.17437030112488841 0.0091411430979789609 0.10470536922943958 -0.023502404617144319 0.075622765659516047 0.031846634086617878 -0.079556776965429579 0.071229536063907389 -0.047757628573289718 -0.040308793421996877 -0.097943418875030983 0.069393324871132867 -0.079556776965429579 0.071229536063907389 -0.047757628573289718 -0.097943418875030983 -0.028743022865239051 0.0033399258127353535 0.046577686212583659 -0.085375744884308435 0.021458560669069305 -0.079479905971001685 0.093763127330675489 -0.10329581183224881 0.046577686212583659 -0.079479905971001685 0.043700785718305636 -0.070283587194080954 -0.087821424420050642 -0.095834380704483121 -0.085369865094030176 -0.063455693752989678 -0.073083735665182656 -0.082651398082504754 -0.071674481286043895 -0.10380457803472903 -0.099295349806946001 0.23657056133511681 0.075669073157969877 -0.061684615715315368 -0.096227081952560953 -0.046776514744075348 -0.0014235837238502414 0.13209792737227466 0.093318324080198467 0.26876432739706696 0.052480661690587189 0.44290114437196243 0.20326424771943982 -0.036140349991197834 0.015934365873658062 0.049768857499008785 0.20307711013453725 0.23976002727054149 0.059842829738016579 -0.10132856364341057 -0.040654943056146066 0.14541928136571125 -0.067027583595699894 -0.055338692306430272 -0.032079709387642541 0.14790088282926309 0.16002874411045351 0.19644798748182543 -0.048631827672769461 -0.016893126907431822 0.12615298744758116 0.038310999198159161 0.083396470604363018 0.11206637926500818 0.039054587920509594 0.086534099713022783 0.18159022963908303 0.016299625349146734 0.11206637926500818 -0.016306828493164803 0.083396470604363018 0.039054587920509594 -0.072401198807483844 0.078438326747377052 -0.040547880356656095 -0.033155918941737646 -0.090851401218739677 0.076549248917175822 -0.072401198807483844 0.078438326747377052 -0.040547880356656095 -0.090851401218739677 -0.021566798838830472 0.010591375484044117 0.053771337017103606 -0.078166933292797808 0.028743390960866099 -0.072318320483040349 0.1010813607538336 -0.096211284057183113 0.053771337017103606 -0.072318320483040349 0.051075937122137767 -0.063124297159199719 -0.080573906544608845 -0.088804472715631355 -0.078228553691146993 -0.056223042882769379 -0.065845518306253056 -0.075502129761621045 -0.064516116767677947 -0.096727692873684212 0.28011986050998766 0.2306771173814178 0.053496165672438332 0.020557993823094249 0.013958233997286316 0.072627357263242348 0.32475013462181906 0.17173761406950186 0.27029302479872425 0.033200948499935386 0.32702173678538354 0.29706531074322468 0.071000624437053336 0.11398805135561213 0.15106113167810284 0.29632415621826408 0.32791891088977498 0.24836143326001592 -0.0014771314913279313 0.059030470425572606 0.24122141446683407 0.033240730751775131 0.055504140961574022 0.051124553594074161 0.27548366572071409 0.34694409781521679 0.34367284932122044 0.060519331209076349 0.10775229913969137 0.26155124491174514 0.14405372448298043 0.17959095681894355 0.24171597972681927 0.15003446844458052 0.18372485110030923 0.30606769606337986 0.12492956225854079 0.24171597972681927 0.087533739132287972 0.17959095681894355 0.15003446844458052 0.085410715240242907 0.20056469439296895 0.066096428104993873 0.077249969642398997 0.012591183612878171 0.18362638024048883 0.085410715240242907 0.20056469439296895 0.066096428104993873 0.012591183612878171 0.078837660341294372 0.19785879396108591 0.1673436778502973 0.035318231193633969 0.13434285237856727 0.022909059128262226 0.23288628135096895 -0.018533190091445106 0.1673436778502973 0.022909059128262226 0.16805718266666031 0.068016016457607548 0.028795887295993316 0.028413408392403347 0.032925262492879852 0.083414334532425166 0.0042843448677164046 0.025135656149585864 0.037574676269204924 -0.023654790530084853 -0.11319055024233005 -0.2474585126726456 -0.27722594924740906 -0.23108990170804408 -0.18945713423695892 -0.058726675882936431 -0.41094634954329423 0.10692103760510778 -0.30186399190004282 0.1398770136973552 0.01938306481421942 -0.22058355346442285 -0.19840297204084803 -0.13900173664538512 0.017981683720433291 0.056564380192037862 -0.12726886890675718 -0.28185703149824992 -0.23495416631753005 -0.041374208560157381 -0.29460702719873194 -0.24509444145900147 -0.2175568889996197 -0.042955245806452193 -0.028838733015171474 0.013804619165165413 -0.23397952894839669 -0.20227590604795606 -0.061113060535365964 -0.1520146078864581 -0.11607916049761045 -0.080456985382761262 -0.15434831927929538 -0.1140845457162387 -0.0038486509587763586 -0.17574148535198778 -0.080456985382761262 -0.20924821054171139 -0.11607916049761045 -0.15434831927929538 -0.25594566302803406 -0.10899172500873003 -0.22495751223497784 -0.21884036022381123 -0.27336758825872004 -0.11622074859912609 -0.25594566302803406 -0.10899172500873003 -0.22495751223497784 -0.27336758825872004 -0.22499135696982345 -0.17572489603093447 -0.13666068530400741 -0.26007711538966927 -0.17756787051733 -0.25536265511610245 -0.091359972673119225 -0.27691660278188479 -0.13666068530400741 -0.25536265511610245 -0.14433680501493884 -0.24592585357916716 -0.26271440431751486 -0.27001443159303445 -0.26025977500481584 -0.23946014526245918 -0.24889396888329163 -0.25754783997584002 -0.24735436745708761 -0.27747360133263593 -0.64461195161086626 -0.23676413933721119 -0.55614441626801059 -0.40694503715970387 0.066162950909301452 -0.0020958204808574164 0.10675897974206564 -0.14144299075774902 0.16469794522304484 0.1458675684823722 -0.086532598577507211 -0.063321744875320288 -0.047814866225670806 0.12930297228214677 0.16345812057834713 -0.01473804516348905 -0.18596860586236624 -0.11924893398147859 0.07048091460095092 -0.16229906830816801 -0.14842819163766996 -0.85435004175887297 0.11737939569427418 0.19612398759513661 0.23578861708543419 -0.17441109218156928 -0.071938609584877758 0.25622340460704829 0.054254101443858838 0.0059488191862625923 0.0051524063384241698 -0.12964474047124155 0.012155575714324726 0.21506467501439464 -0.071802352140568251 0.0051524063384241698 0.013882414224348971 0.0059488191862625923 -0.12964474047124155 -0.6202743048382352 0.14592721579680959 -0.41372357917941482 -0.43330201040191635 -0.33529696620555405 0.0086208815105894634 -0.6202743048382352 0.14592721579680959 -0.41372357917941482 -0.33529696620555405 -0.16115323559674166 0.026819910327406726 -0.084881549371911946 -0.21484914600725877 -0.14440398894590492 -0.28828251235046309 -0.017964531421363297 -0.080291745906855838 -0.084881549371911946 -0.28828251235046309 -0.066036270700061753 -0.051947927569897294 -0.55022652059956201 0.051896511651512989 0.018016377577563712 -0.13755177606531724 -0.29303916075536529 -0.11281952715643534 -0.23923753453650756 -0.23286746261105354 0 0.15054689892994666 0.32272481158630867 0.55735547750184078 0.13513274052578098 0.24855686456759823 -0.0047449717494595003 0.30407445802333838 0.27429516557279471 0.084494509928139089 0.077127724984980051 0.11523465345429079 0.26132460001944502 0.29360502955006723 0.13221043311834252 -0.040220514344737245 0.02122223297055106 0.20516827447861649 -0.0079675831910879288 -0.0054046118160696608 0.040271623201472123 0.28299775988834958 0.39591316265650323 0.51471687426291368 -0.011049698171508141 0.051575494943574732 0.31413911077551648 0.14822788291896508 0.14318196914364931 0.38393712647312683 0.12025579092455629 0.15355752556634694 0.38138680873457625 0.098168947294430223 0.38393712647312683 -0.030603598892744305 0.14318196914364931 0.12025579092455629 0.17480492498189126 0.22494177308598723 0.097167593862586429 0.2733123560842769 0.016447392132286673 0.16213915369282822 0.17480492498189126 0.22494177308598723 0.097167593862586429 0.016447392132286673 0.017143869756613427 0.11813238879169013 0.16212161970142452 -0.015233442006879341 0.0095400072505320704 0.050367030343546927 0.32491580611168741 -0.0036195454169188936 0.16212161970142452 0.050367030343546927 0.21215303886006906 0.010712738116061967 0.028562603759068387 0.029793820780369067 0.019693343115693047 0.0051746279002466162 0.12570499817954109 -0.030184202806149973 0.097085414295067798 -0.020414907061443884 0.12138790083253051 0.3375187242724168 0.30953473906303286 0.16866051832046089 0.26821036875908066 0.029993353380584852 0.32421193725636083 0.29634127899274937 0.071247591520139944 0.11099305996546392 0.1502564261873125 0.29336469291000927 0.32492611680390732 0.33436846449694219 0.0044539203617827818 0.055869862029330732 0.23820986538641153 0.030086335358467203 0.050159184294218694 -0.0014273790534974236 0.28117719259522039 0.36376021054983115 0.34903730777310682 0.094042054702280525 0.13032492342089957 0.37508095372721278 0.15131107981997347 0.1765143716542211 0.26896796341635798 0.14679719859112519 0.18261882003647645 0.34572851066080046 0.12756192077947714 0.26896796341635798 0.10151890756649681 0.1765143716542211 0.14679719859112519 0.10896365022993999 0.26009061261036764 0.057400633364071717 0.011307710045388124 0.032866387382196306 0.19844931292398652 0.10896365022993999 0.26009061261036764 0.057400633364071717 0.032866387382196306 0.076920052871219155 0.45990092814838868 0.1251931845973043 0.073760359249015986 0.13824445502683255 -0.013250217937107425 0.22278274094823772 0.0031092369630357892 0.1251931845973043 -0.013250217937107425 0.1447925854757616 0.33755167590817403 -0.0044956945856403883 0.15454984450791662 0.21400581379887348 0 -0.038283873213134395 0.10740550027271964 0.044024350947603902 -0.0047374276826639694 0.16560317550747949 0.39960381088231889 0.12007949171021166 0.22289703111863782 -0.019656164292936967 0.28028153733255384 0.25735853390382046 0.048410721660293712 0.061858497130920648 0.1142404351549271 0.24725352254202634 0.27998696579487986 0.18118933609130841 -0.053910170460315245 0.0062635606119268951 0.19094699874926727 -0.020096196950576413 0.028426249439106693 0.16595005656190415 0.2282127840001032 0.3506181048624985 0.46294850928064957 -0.019080751361718586 0.13255391593484622 0.47058551405072735 0.18263994447091414 0.12812429609567941 0.18982367181486698 -0.045374523898195421 0.1372085258932168 0.31144309394335312 -0.026357702875893056 0.18982367181486698 0.03890974424816547 0.12812429609567941 -0.045374523898195421 -0.011841476766538728 0.23056759057321882 0.15668861497616035 0.13585304485097024 -0.085695978884793342 0.10990750384926086 -0.011841476766538728 0.23056759057321882 0.15668861497616035 -0.085695978884793342 0.024731063000721802 0.17300309793130772 0.064967712497170954 0.08357044957885941 0.056544066742846136 -0.28610849865075083 0.1729103560569358 -0.014582297965403326 0.064967712497170954 -0.28610849865075083 0.12963468661402075 -0.015808285611233586 -0.099509293816039415 0.082180271665715482 -0.15995252919333508 0 -0.076670085160241486 0.031899175927122006 -0.01359561153002008 0.035246195352822751 0.47118466012025423 0.075419922111610235 0.19038119527116285 -0.064942588713313737 0.24495869244394192 0.21310054359291417 0.023769675575198785 0.016535157082469082 0.051338160281506229 0.20433761938470166 0.23762370942998384 0.18092282930388631 -0.10289928459897504 -0.039246618833249564 0.14683663211113027 -0.068961796055387325 -0.077007019842996266 -0.14647290227745768 0.19560999494144646 0.3420380513654564 0.40464949962747082 -0.075310249802303886 0.0046170396517701742 0.26748370225817564 0.084834129769930655 0.083356435865380676 0.28236408809629793 0.068176259838537798 0.094164369807224826 0.26353923049122868 0.18387354125397787 0.28236408809629793 0.031689147879031015 0.083356435865380676 0.068176259838537798 -0.017469449809602522 0.17347741251338958 0.041723991601286668 0.022522147883594582 -0.23568514829624362 0.12383143682309808 -0.017469449809602522 0.17347741251338958 0.041723991601286668 -0.23568514829624362 -0.023310177911435793 0.14438347753947584 0.0092322300852643504 -0.01562634144143393 0.0103970310079386 -0.28331267506025309 0.17946639986320792 -0.031879394661105308 0.0092322300852643504 -0.28331267506025309 0.07550190638020518 -0.06431485899899983 -0.046849135386171269 0.090464982259642168 0.02660099781659326 0 -0.06653954250044386 -0.037044135906262196 0.071247571392104261 -0.060297906882406535 -0.060406407960218157 0.060357573586612465 -0.19721014154485905 0.1167948917211586 0.076906247422709698 -0.089513715928567994 -0.12804746982344928 -0.06785074743671711 0.073016666046588088 0.10772320562221242 -0.08764006745480693 -0.23977466957221724 -0.17718416297277123 0.013716911769519322 -0.25552156000640092 -0.56141902270994226 -0.2883863592415753 -0.0019673670160471734 0.076995909584317762 0.21035438850633992 -0.40546892321328337 -0.13777993463134694 0.13119798022768256 -0.080402114848674988 -0.051394271460034467 -0.092016777687871518 -0.19790922971322905 -0.05885489088461248 0.05997982934132795 -0.2787801951660086 -0.092016777687871518 -0.21826438376250382 -0.051394271460034467 -0.19790922971322905 -0.71657388600140293 0.047374521561959482 -0.22098827170635266 -0.31408389453923702 -0.43664258158971858 -0.069507993051814349 -0.71657388600140293 0.047374521561959482 -0.22098827170635266 -0.43664258158971858 -0.23252586337845624 -0.10164750863942662 -0.26794024837939306 -0.27226263583347843 -0.24590943970526949 -0.34831765965849515 -0.21680744223230242 -0.25955335332306378 -0.26794024837939306 -0.34831765965849515 -0.28656281763906472 -0.25074769891142534 -0.34682946282265009 -0.22298372858071341 -0.15439022675525138 -0.24197992250924927 -0.24570038573090236 -0.24865624765724792 -0.23151884272309325 -0.28732740086336012 0.18363251239722747 -0.15514402888622031 0.21215461037440872 0.14461478510509504 -0.10966965138278323 -0.0005729739313511047 -0.024282328944907849 0.13854216568567432 0.1907011432063227 -0.013896549342995201 -0.17381894265248662 -0.10574513283071496 0.072456933928756004 -0.15767270406845774 -0.12938380354834875 -0.10569269002679474 0.077444828671902111 0.088922771983902194 0.13475358904475956 -0.12209182849399848 -0.090491801516726603 0.053012064735609404 -0.036039667101605291 0.019005646174142757 0.0394297580541925 -0.035712379647628106 0.024838626000396075 0.11724281298311463 -0.058460126723157153 0.0394297580541925 -0.092012717758054308 0.019005646174142757 -0.035712379647628106 -0.14546149184805768 0.0047073795895187648 -0.11393982672868939 -0.10683904249971798 -0.16372649389394905 0.0033143809279354377 -0.14546149184805768 0.0047073795895187648 -0.11393982672868939 -0.16372649389394905 -0.10239809039842922 -0.063248057183218451 -0.020398512976624317 -0.15099939147247868 -0.052844355232195279 -0.14542102978932428 0.02836739137622327 -0.16870623939156992 -0.020398512976624317 -0.14542102978932428 -0.023613713268631244 -0.13613784810221563 -0.15344113010513877 -0.16143828222105405 -0.15104247152360378 -0.12948578076538414 -0.13899578995514847 -0.14836942505518402 -0.13763460229111824 -0.16915840608013713 -0.24178015389371796 0.13794633751715615 0.033054638416272986 -0.20864317515206995 -0.19311297681811387 -0.12675663387841873 0.031040799087468169 0.066330255025057142 -0.11440886202690626 -0.26965875833370229 -0.21911894617646532 -0.028401690050838563 -0.28875255722614268 -0.25213758831392052 -0.20925856983564578 -0.026799250819091576 -0.020381071604380352 0.033322925352533291 -0.23124882264203661 -0.19172807813301415 -0.048589307449198503 -0.14585227614168683 -0.098384636097917325 -0.072279943942087449 -0.15192432011407866 -0.095568319321195513 0.015306282500329466 -0.17875980856826232 -0.072279943942087449 -0.20733731777210701 -0.098384636097917325 -0.15192432011407866 -0.25082878201795794 -0.096660577153923372 -0.21475709232183052 -0.21215564121278979 -0.26735434136952851 -0.10418279108508063 -0.25082878201795794 -0.096660577153923372 -0.21475709232183052 -0.26735434136952851 -0.21487002224898166 -0.16513245695862883 -0.1283121973900864 -0.24840833687787675 -0.16435064416072181 -0.24687849564163913 -0.079765479711519274 -0.2649899621193631 -0.1283121973900864 -0.24687849564163913 -0.14073751442091817 -0.23443987551625764 -0.2535474048206548 -0.25813466972921373 -0.24918602891480846 -0.2272644980105496 -0.23915670797525282 -0.24567702397633909 -0.2368225692407826 -0.26611429358152106 0.7140598232300378 0.26594923009401855 0.030174712388530658 0.083653930663618023 0.11581142216173056 0.26570256193840774 0.2995116202794717 0.12570157120670578 -0.035298999273093053 0.025849231632263377 0.20968824174611075 -0.00025160861089829696 0.011074761903755941 0.03430730135002287 0.21279345640700045 0.22446400865012653 0.26009944872730456 0.017731844379562208 0.049481728520079177 0.19098817617282879 0.10439308008322327 0.15006119401096218 0.1774264041932854 0.10565173487143661 0.1528985228679493 0.245070399016731 0.082686741372105341 0.1774264041932854 0.050103136647286571 0.15006119401096218 0.10565173487143661 -0.0060681418716273658 0.14395253996601762 0.025843804980999582 0.033234103239506249 -0.024620232493938812 0.14274581154911145 -0.0060681418716273658 0.14395253996601762 0.025843804980999582 -0.024620232493938812 0.045016868767094299 0.076886745475539767 0.11976706831987861 -0.011960308490394365 0.09533948567415397 -0.0060459747448235518 0.16703104623448706 -0.030031671829166794 0.11976706831987861 -0.0060459747448235518 0.11719562463622581 0.003300032882478559 -0.014323708454084228 -0.022512082816152298 -0.011896363782507149 0.01011062367770622 0.0004660204136715176 -0.0091905366224327486 0.0017880685802828384 -0.030618827802241746 -0.031993509231220248 -0.26719482627198199 -0.23693729876163414 -0.18672748208511114 -0.031760337938428883 0.0033625149158428001 -0.1756930347766239 -0.32673071233453715 -0.27361984627217678 -0.090765082470658912 -0.3177519636318164 -0.29550891297753029 -0.26600000434865595 -0.095346421703507836 -0.087436067926015076 -0.042912723888405162 -0.28461981406004871 -0.24997505023801617 -0.11092216070298838 -0.20043749438406461 -0.16008684036235851 -0.13433230774901966 -0.21344946070540266 -0.1581985136561965 -0.055533265553795057 -0.23056220859496587 -0.13433230774901966 -0.26087743844415062 -0.16008684036235851 -0.21344946070540266 -0.3050600959462561 -0.15785348654343381 -0.2719271105261109 -0.2670390912417237 -0.32215326355419716 -0.16865884971134876 -0.3050600959462561 -0.15785348654343381 -0.2719271105261109 -0.32215326355419716 -0.26727424037757536 -0.22432849950117151 -0.18796343821566244 -0.30596056475003147 -0.22437527387291881 -0.30320061875935822 -0.14956706726211924 -0.32212170322297029 -0.18796343821566244 -0.30320061875935822 -0.19815481948237954 -0.29229919922611997 -0.30946626483789313 -0.31546505272717668 -0.30626574210019963 -0.28566084532091851 -0.29609695216296217 -0.30339580466152355 -0.29409012773141313 -0.32296199438443901 -0.24677063025598581 -0.29648822486341714 -0.22471415090120994 0.0051549362182111433 0.038069950450681102 -0.14576159483353412 -0.29829292855763773 -0.44799794031739998 -0.059357908169126138 -0.32011214166240753 -0.27635200460692511 -0.2588249938980568 -0.059113730560094384 -0.047445663860681997 -0.0076586475789298834 -0.26682621174030702 -0.22862674574769562 -0.093442342403246628 -0.23641900029459256 -0.17944413301406878 -0.097579560032384619 -0.18436703276274644 -0.18369694872123879 -0.047231210626713989 -0.20030173397305104 -0.097579560032384619 -0.2748202230433085 -0.17944413301406878 -0.18436703276274644 -0.2818656518759638 -0.13692130769109362 -0.25896441984849033 -0.25474792502814275 -0.29992751250246663 -0.14135427211299506 -0.2818656518759638 -0.13692130769109362 -0.25896441984849033 -0.29992751250246663 -0.27641120641082051 -0.19559916425140125 -0.16284822811685465 -0.27795906065085496 -0.19427708022833423 -0.27756015416243157 -0.10871635525084722 -0.29418816464845887 -0.16284822811685465 -0.27756015416243157 -0.16900821245752309 -0.26470212515805913 -0.28948816251629744 -0.28750250262828153 -0.28085787717225547 -0.2566642112659917 -0.27480782139735632 -0.27539779904923661 -0.26854743433318046 -0.29552116270317269 0.05114702127986815 0.083789761805533255 0.23739302677056742 0.27012036656052058 0.074816291406700167 -0.057822684964990274 -0.0043415808161567431 0.18067026731189906 -0.031496790162249981 -0.017912678058487012 -0.26340285859822321 0.20693811099577747 0.23526123324097734 0.24980530904677864 -0.01962918929837526 0.0096701820858050465 0.54744853797295512 -0.14952251199597405 0.11761622502423648 0.13642657638674296 0.078424699502678816 0.12536917657837213 0.29384172515466367 0.050276548805100157 0.13642657638674296 0.051742666840680629 0.11761622502423648 0.078424699502678816 -0.11508095659596329 0.62618012732954187 -0.23721203656207687 -0.11717172247653937 -0.078076688447649784 0.11928957642911113 -0.11508095659596329 0.62618012732954187 -0.23721203656207687 -0.078076688447649784 0.0086821295924860743 0.12582323317065641 0.072722667815720579 -0.070448366623866956 0.055622869638177093 -0.078392276225354288 0.1426390292851604 0.059539751040391047 0.072722667815720579 -0.078392276225354288 0.073650508195653538 -0.01190504670913463 -0.093992821395572496 0.059145648008334863 -0.0064066594733370036 0.00061395194804823145 -0.042749544989846192 0.024811476491313281 -0.03747797748493191 -0.092376348422164259 0.037416102252232082 0.20382423309768671 0.24568499155561432 0.045152274186189702 -0.11599557900495573 -0.039364617163025341 0.13080150360559292 -0.12307635273697723 -0.072537902102565818 -0.047617969300446185 0.15533505424348032 0.16017619213375495 0.22962804881950069 -0.064231749768897936 -0.031823401568162435 0.1137508427625053 0.023862479378496164 0.076078822980022331 0.11053260972958702 0.027531883915056652 0.30305682816700913 0.2417245877513797 0.0024643479915308357 0.11053260972958702 -0.022876477803883809 0.076078822980022331 0.027531883915056652 -0.087720141086891121 0.064049389170042187 -0.055802358347340292 -0.048968084552258796 -0.10637456914509123 0.070910007146853096 -0.087720141086891121 0.064049389170042187 -0.055802358347340292 -0.10637456914509123 -0.0064026940414380392 -0.0042758957174395453 0.044167904266475287 -0.093027610837814356 0.0217222601756022 -0.087470537903498458 0.098992563379317611 -0.11085960982604426 0.044167904266475287 -0.087470537903498458 0.049944175551610681 -0.07785858416355132 -0.09567973475073327 -0.10350444587436221 -0.09301608745060809 -0.071074773843501096 -0.080924890728750379 -0.09027326208404475 -0.07949318980568508 -0.11145149271623921 0.16131825141398562 0.18906883498417548 0.01148717055009537 -0.15076644467459427 -0.089125875014765391 0.096314673529399375 -0.16362741079071608 -0.20810994204532737 -0.071991850266639429 0.14117150192035929 0.13631615992894686 0.22260233033446272 -0.11198944878447872 -0.05550278611400087 0.12086838350697816 0.056892965584397069 0.032236885198469303 0.10190066236051758 -0.01700846955542272 0.028528089372740827 0.21610637590490078 -0.03818179059074938 0.10190066236051758 -0.10800831672698435 0.032236885198469303 -0.01700846955542272 -0.1230762175373394 0.030153122295822586 -0.086695357552995303 -0.084443358451804743 -0.1451690301797802 0.031596486940453125 -0.1230762175373394 0.030153122295822586 -0.086695357552995303 -0.1451690301797802 -0.15248786481925009 -0.035561720209081459 0.011616522339271892 -0.12982817285092549 -0.03767533263329078 -0.12403662271928512 0.062074070844589407 -0.14878851052053368 0.011616522339271892 -0.12403662271928512 0.020368425975283978 -0.1209953803004479 -0.14658994067696124 -0.14191822852877489 -0.12947524673585245 -0.10728277814734208 -0.11388155105780108 -0.12705575527551463 -0.12307893203629672 -0.1488420925683584 0.019257778084712626 -0.14479820580480512 -0.29808918174229432 -0.4198725007958431 -0.059252402901008909 -0.27109115470126988 -0.2557228038208188 -0.23359496265312907 -0.057915197332970937 -0.045017062612408794 -0.0076249412992298515 -0.24927109137495829 -0.21897117942017644 -0.078849415799949377 -0.16792300588359477 -0.13504593290087472 -0.093332158580327798 -0.16540896868399391 -0.13537070574685772 -0.023573421701593666 -0.18748171098508756 -0.093332158580327798 -0.2208146127227919 -0.13504593290087472 -0.16540896868399391 -0.2713184205839046 -0.12660183007399736 -0.24159938408736958 -0.23460310146049065 -0.28834285854815273 -0.12980290985870108 -0.2713184205839046 -0.12660183007399736 -0.24159938408736958 -0.28834285854815273 -0.22940092183546712 -0.19272732102265799 -0.15110445178373041 -0.27680135272791423 -0.1762207397045675 -0.27130436855966744 -0.10423615517984269 -0.29334409642155956 -0.15110445178373041 -0.27130436855966744 -0.15401876479024493 -0.26259934320177197 -0.27895642069803567 -0.28649779941280756 -0.27675539429806184 -0.25628738413370306 -0.26530152363309917 -0.27422080565316642 -0.26400056714033809 -0.29379171781432029 -0.17885592689381857 -0.32971072536862389 -0.28909747866692942 -0.094065192747816953 -0.29939089816294912 -0.28791235634670914 -0.26633063238769328 -0.09241260443874226 -0.079906505154035662 -0.042743609061230974 -0.28172113577801022 -0.25217883474469555 -0.11337526106028679 -0.19988055623146819 -0.20367505622480145 -0.12781764425189965 -0.19921007005309849 -0.16623829878205301 -0.057623870786405296 -0.22078082521495157 -0.12781764425189965 -0.25180919773012733 -0.20367505622480145 -0.19921007005309849 -0.30344448984449196 -0.16080000752752388 -0.27409578120787964 -0.26726884249211746 -0.32010689502634571 -0.16329503015877431 -0.30344448984449196 -0.16080000752752388 -0.27409578120787964 -0.32010689502634571 -0.25766480493580585 -0.22621132274497183 -0.18495823785153701 -0.30872122640665911 -0.20937459556535756 -0.30342192373577986 -0.13867904070815187 -0.32498372398358566 -0.18495823785153701 -0.30342192373577986 -0.18779615715693701 -0.2949211568863383 -0.31088743496631382 -0.31836187480000361 -0.3087578943649244 -0.28870510167344243 -0.29749474401882153 -0.30616797631480486 -0.29625419829721561 -0.3256313309676192 -0.24144912614885397 -0.10022022180082764 0.086249830897379087 -0.12626325299620181 -0.11968850254650382 -0.061573181057148936 0.10033091380916467 0.1047980613229345 0.19722083631308623 -0.11233099781057088 -0.19392378810389613 0.15469155051916145 -0.01998402663910091 0.02189675900685803 0.059607636045611347 -0.022454015884380299 0.025619220956259164 0.16920068226203364 -0.054587516281530447 0.059607636045611347 -0.077914295698363972 0.02189675900685803 -0.022454015884380299 -0.099296226207150479 0.034841124865526776 -0.12588570111301939 -0.081030148639586672 -0.14272490353375719 0.018673041401128746 -0.099296226207150479 0.034841124865526776 -0.12588570111301939 -0.14272490353375719 -0.082581751763365227 -0.12628530946958491 -0.017566931621250823 -0.54036667487284984 -0.03407504289741229 -0.17644827145021455 0.044635456915604159 -0.6825220869361841 -0.017566931621250823 -0.17644827145021455 -0.0089600207960619377 -0.57538906585939931 -0.0021061645859039441 -0.87802727471808972 -0.13983656848446308 -0.90762338587317881 -0.081182675023367928 -0.83282316674218504 -0.32006180386275251 -0.34695794041829348 0.061072396088429265 0.24316949401349652 0.035142404461752923 0.046425434195442726 0.070314215070437502 0.24672186596786697 0.26254090495339888 0.30101438590208501 0.053295157177586573 0.084496332205980559 0.25230115677740617 0.14017986798308368 0.18152348532363316 0.21320549468444913 0.14016534631505764 0.18513817099749227 0.27978642202741577 0.11778372557150801 0.21320549468444913 0.085144168247052121 0.18152348532363316 0.14016534631505764 0.030366554031519163 0.18980511252573534 0.059538608036102093 0.069449591669780833 0.010748333333294779 0.17653629413164945 0.030366554031519163 0.18980511252573534 0.059538608036102093 0.010748333333294779 0.080033905761002888 0.11160742186202695 0.15527345379037874 0.025232901572930753 0.12972795908261112 0.029369608450438209 0.20139090014120686 0.011863492236039235 0.15527345379037874 0.029369608450438209 0.15234887615853843 0.022262432125404893 0.018429516895746598 0.0090901642178922836 0.030144899007292385 0.015460637521882731 0.034719241107347532 2.7755575615628914e-17 0.036788516193185468 0.0073423629984187997 0.18490267432511895 -0.030017306577737147 -0.014668652904501041 0.0084543044920130095 0.19874301201071021 0.20483564257684192 0.26347518336042969 -0.0081769655903106784 0.023756208117421101 0.17044579384761724 0.081982724210134791 0.13800237224329293 0.15974783285343994 0.080341998538868573 0.22853937457935317 0.26340271067223364 0.058403882164643227 0.15974783285343994 0.021429407174176112 0.13800237224329293 0.080341998538868573 -0.032039191492648458 0.12028618986180553 -0.00010123830223178087 0.0073588555650719364 -0.050671243839623049 0.122061550308556 -0.032039191492648458 0.12028618986180553 -0.00010123830223178087 -0.050671243839623049 0.014455057758297932 0.051183220217880271 0.09707720564964796 -0.037783841260824368 0.072586368538090751 -0.031984608938480194 0.1445583343900331 -0.05582858518950469 0.09707720564964796 -0.031984608938480194 0.096768077613537284 -0.022537129697670223 -0.04030049874570172 -0.048381476841110847 -0.037786148011909347 -0.015757390518794455 -0.025521999345783489 -0.035094372669509051 -0.024076713904345837 -0.056405679255274392 -0.20986138768673659 -0.19918831794648181 -0.17670400842321779 0.0020685700470858999 0.014349710809445462 0.051720678332777548 -0.19265681765763695 -0.16180604607606028 -0.019557376045509303 -0.10774320379806483 -0.064461769053401022 -0.034083484317937056 -0.10697122844670807 -0.06077330904715212 0.036890509517220831 -0.12936610158969258 -0.034083484317937056 -0.16132919031329623 -0.064461769053401022 -0.10697122844670807 -0.2155486290540756 -0.067768419932355883 -0.18487247439458396 -0.17766523360868625 -0.23310884821369851 -0.069658483178082459 -0.2155486290540756 -0.067768419932355883 -0.18487247439458396 -0.23310884821369851 -0.1663616289552351 -0.13505219592329143 -0.092436917247813569 -0.22105575690558402 -0.11723576468143404 -0.2155387638732662 -0.04514815563718285 -0.23824304502499666 -0.092436917247813569 -0.2155387638732662 -0.095151644258593349 -0.20657592222789117 -0.22337329568406505 -0.23111685066600371 -0.22115858318843032 -0.20005488150199896 -0.20923872660422146 -0.21857720994041963 -0.20797615471277886 -0.23875748392079574 0.083918064194368647 0.036349613757915011 0.26850412423477843 0.2895820219741076 0.3562005481111401 0.020398670403339158 0.051322484293613961 0.21360113809526032 0.11914235936770132 0.15126248697573771 0.21407319156742996 0.10241934154807464 0.20415926802561693 0.30904090085186531 0.077445227364080202 0.21407319156742996 0.068005421572377323 0.15126248697573771 0.10241934154807464 -0.0054197288233025611 0.15522891591417581 0.02454859446261538 0.031265200361334101 -0.023617376293449899 0.15350202894694079 -0.0054197288233025611 0.15522891591417581 0.02454859446261538 -0.023617376293449899 0.068522060552910075 0.078637983764337852 0.134726944290992 -0.01179320492289219 0.13407094634461847 -0.0054877374347326738 0.18809397441962353 -0.029982051006621734 0.134726944290992 -0.0054877374347326738 0.1448248530376858 0.0033948639974368312 -0.014965796815510806 -0.022455132740381616 -0.011841281078289329 0.010168030339175849 0.00088422267955318601 -0.0090568188323181496 0.0018060337974763708 -0.03050555713884744 0.031598574416903412 0.34649795896069274 0.4851206905976973 0.4869555149427523 -0.041937368812357718 0.041508408733301271 0.24445616728607189 0.30478286139564387 0.13697240996198959 0.27889283013121008 0.089445478963431024 0.14855309668964367 0.36056948222561852 0.057896341443813538 0.27889283013121008 0.048633306288080755 0.13697240996198959 0.089445478963431024 -0.06740995353633604 0.17645522213310968 -0.031772628315105127 -0.002716179319921022 -0.047941316803941182 0.15252409999573996 -0.06740995353633604 0.17645522213310968 -0.031772628315105127 -0.047941316803941182 -0.017970664098948003 0.062652643273027719 0.14458140637054501 -0.025633711748895425 0.070651323553235973 -0.022404319779577492 0.2079712895046141 -0.043428807014943921 0.14458140637054501 -0.022404319779577492 0.17241120908942109 -0.030513467475190025 -0.058876025629601446 -0.037410495262626409 -0.025479555667980901 -0.0016776497607090429 -0.009035123942332933 -0.022289777939258695 -0.044289005972210478 -0.045024948191649816 0.20910483455706394 0.33171141060179199 0.31589335165710303 -0.034541477022434715 0.1188229608181999 0.58152952187488438 0.13177115559329711 0.11380481231242232 0.073719307118353936 0.046073933107887273 0.12611402754004275 0.2889483542440488 0.063294213447425446 0.073719307118353936 0.054681611016787979 0.11380481231242232 0.046073933107887273 0.18815904255741989 0.25782202440297441 -0.068922082370855231 -0.22370386413514737 -0.064847652556269939 0.12738472543472004 0.18815904255741989 0.25782202440297441 -0.068922082370855231 -0.064847652556269939 -0.017469674176555552 0.39802637684393671 0.011972024383117161 0.0043453237279679757 0.0025547573276993541 -0.038016662574052916 0.13018937483170132 0.021280569639134623 0.011972024383117161 -0.038016662574052916 0.045027270094159508 0.032206489165941245 -0.0081550965936057641 0.076325322400255205 0.24946004317941514 0.00064111488992836215 0.11534865629132601 0.037788537874066615 0.23529403181610906 -0.019619992663808754 -0.066752227717867735 0.12627166930105599 -0.45748855955059958 -0.13182968269946255 -0.022331434127197049 -0.1690046655608283 -0.071877900373090692 -0.048301502751925691 -0.169177386651676 -0.068659324375847666 0.059134528700484905 -0.17667934786955861 -0.048301502751925691 -0.2518877126764818 -0.071877900373090692 -0.169177386651676 -0.26533282120115886 -0.074788599408783032 -0.23829085138699302 -0.22194137271077077 -0.31308501696835245 -0.096383303945582727 -0.26533282120115886 -0.074788599408783032 -0.23829085138699302 -0.31308501696835245 -0.23276398719141431 -0.1681553379004761 -0.1391097924259713 -0.25874268636581693 -0.18401790920318359 -0.27913655019763473 -0.065290734950941232 -0.26392151390362173 -0.1391097924259713 -0.27913655019763473 -0.13806504734670816 -0.23537968310941759 -0.27436761329296877 -0.25534600685767872 -0.26287814380464863 -0.22244057493934632 -0.24390397484491613 -0.26357642113707763 -0.23339904833718145 -0.27097284774891617 0.077012666336495478 -0.30953461246622938 -0.15707598579739593 -0.04771684033366165 -0.1687706444616052 -0.080151248658388796 -0.10296404863058245 -0.19968668908270856 -0.082921912584317956 0.027401504873685274 -0.23910167926336603 -0.10296404863058245 -0.23521453250682525 -0.080151248658388796 -0.19968668908270856 -0.4595029469322176 -0.094136755242934009 -0.30481172894033365 -0.29761012783615959 -0.37394124465546286 -0.10654263109697285 -0.4595029469322176 -0.094136755242934009 -0.30481172894033365 -0.37394124465546286 -0.22459941493812416 -0.22006705951172176 -0.20387074107403119 -0.29673884073010337 -0.20168060542075392 -0.38373094371641625 -0.12735299130658881 -0.31400798262681356 -0.20387074107403119 -0.38373094371641625 -0.17630715459956198 -0.27036797313384642 -0.37987345866309735 -0.28850615039796168 -0.29272542047057015 -0.28627843804149883 -0.31592145744557121 -0.3131713318175578 -0.28441480970322608 -0.30319467177975001 -0.48909527479273479 -0.20779185521297303 0.083952956454259972 -0.34349735742989157 -0.12477218185499916 -0.23156247036595501 -0.29680993618902607 -0.11961853077695593 -0.041404442623077083 -0.36149257176385269 -0.23156247036595501 -0.37891108637407339 -0.12477218185499916 -0.29680993618902607 -0.63501423227725873 -0.075506542255384002 -0.28676784785291204 -0.43848315005292315 -0.45712084907027983 -0.15658057937018793 -0.63501423227725873 -0.075506542255384002 -0.28676784785291204 -0.45712084907027983 -0.31308479106361026 -0.18881302979824416 -0.27895268109927873 -0.35523511427079063 -0.293974008382765 -0.39085076415148723 -0.21408957694143535 -0.34775141043242969 -0.27895268109927873 -0.39085076415148723 -0.32780399908826674 -0.31562582385550886 -0.41089660886051177 -0.31653022796603614 -0.26479894081787347 -0.31429464483152186 -0.31613690944665274 -0.33421857061726429 -0.28618245957205679 -0.36221741250570111 -0.37341568340664721 0.27508375747030833 0.22677595228491626 0.13031448332601323 0.24014102057836864 0.081921866758786932 0.14285455007836398 0.33945380322346952 0.10194507087306647 0.24014102057836864 0.047729246319990454 0.13031448332601323 0.081921866758786932 -0.072683585344025733 0.18294285241116984 0.015673778665089219 0.069791828473289186 -0.088035687650691211 0.15370971043137893 -0.072683585344025733 0.18294285241116984 0.015673778665089219 -0.088035687650691211 0.015634963558412759 0.018741684498568799 0.14825198280689353 -0.04799734276701665 0.052879556881172185 -0.071752357708474879 0.20497489414302258 -0.062514477191043152 0.14825198280689353 -0.071752357708474879 0.20235221243472257 -0.040269089244073464 -0.089798012194774374 -0.045662823433230026 -0.071265076104162967 -0.018219141259091635 -0.057734601735215739 -0.070967115525288796 -0.03413051391287375 -0.057987474390491435 0.33953497084739953 0.06591282825210823 0.098499397832970681 0.10702940760171283 0.050817054370833101 0.10508050611037793 0.240292154078946 0.026979089873797463 0.10702940760171283 0.028749268995287732 0.098499397832970681 0.050817054370833101 -0.1927658214342142 0.17715410665270151 -0.096710215703944599 -0.095730003986515363 -0.099447042067862257 0.10672347691225997 -0.1927658214342142 0.17715410665270151 -0.096710215703944599 -0.099447042067862257 -0.0071451509578844517 0.070087555268178017 0.055767952853302619 -0.10279503406058972 0.03719561666849059 -0.19518210071107694 0.12515251349380668 -0.006935115535070588 0.055767952853302619 -0.19518210071107694 0.080120565859583423 0.0042608533295405843 -0.26372754856474434 0.01328779520746895 -0.039844606467332282 -0.039283117951218312 -0.13175844429433858 -0.055976649120686429 -0.072666983492037818 -0.10763202260328346 -0.017120236398741325 -0.04523751212088481 -0.12104055246627063 -0.13171381834773144 -0.047574845951741822 0.12223947334056966 -0.15147164280805486 -0.12104055246627063 -0.11060873973450361 -0.04523751212088481 -0.13171381834773144 -0.47528626754414055 -0.12467001539950555 -0.73720901813586026 -0.40090744753883001 -0.31615610901664659 -0.051893892357960894 -0.47528626754414055 -0.12467001539950555 -0.73720901813586026 -0.31615610901664659 -0.20491279842652613 -0.20393565167849456 -0.14062585903145636 -0.29581031349648823 -0.15402426891783194 -0.35601805262549635 -0.058181148476539657 -0.24980459782460712 -0.14062585903145636 -0.35601805262549635 -0.11496423261957264 -0.29242221393225465 -0.56414470016261953 -0.26722940843943876 -0.42836644532883983 -0.21866185471050517 -0.44732372525953246 -0.24564541430508774 -0.40828160458498053 -0.32761250796989949 0.043848031305942531 0.12372367127457054 -0.050899771887811605 0.090731800519210537 0.48981374189369886 -0.057702272154536757 0.12372367127457054 -0.056097230589420954 0.043848031305942531 -0.050899771887811605 -0.18837820168934929 0.077354354604919531 -0.0005515825028949542 -0.24183027566685336 -0.17664147356148865 0.05529682540783229 -0.18837820168934929 0.077354354604919531 -0.0005515825028949542 -0.17664147356148865 -0.054426794119221134 -0.035122712484902015 -0.038452267011985987 -0.12704630046497736 -0.024168847291444882 -0.14359227482150835 0.065951186890028463 -0.14156127817265668 -0.038452267011985987 -0.14359227482150835 0.02871724616869083 -0.13050348570077469 -0.20637201480825396 -0.13458639639376185 -0.1279384945069352 -0.099256644302757102 -0.14823585459140659 -0.12186595253869301 -0.1619626200191952 -0.14822704635927683 0.0319686328442867 -0.04249220790028567 -0.0068696067370311144 0.11396823397488437 -0.065882988300735648 0.0319686328442867 -0.097684126982823291 0 -0.04249220790028567 -0.15335173523777787 -0.0032860703794808459 -0.12193893486046707 -0.11484932897048668 -0.1716195236794181 0.00096949322561591601 -0.15335173523777787 -0.0032860703794808459 -0.12193893486046707 -0.1716195236794181 -0.10402892511190188 -0.071221571673507664 -0.027945543595975963 -0.15897069067462091 -0.054436702220703716 -0.15338090875534716 0.020817236000792213 -0.17649791568651568 -0.027945543595975963 -0.15338090875534716 -0.03040271226041617 -0.14405600978081498 -0.16137545993161517 -0.16923390989109263 -0.15889838342409182 -0.137343730903739 -0.14694672866789735 -0.15626095183795921 -0.14559629751314415 -0.17700328097859844 -0.38291392617091763 -0.03854939141010226 -0.068005464785699604 -0.43370136841646395 0 -0.42479304342099827 -0.031934003182603692 -0.38291392617091763 -0.22025416964289846 0.022410103949547594 -0.1845035699575697 -0.18616496968302462 -0.39329987097469632 -0.057402569141296281 -0.22025416964289846 0.022410103949547594 -0.1845035699575697 -0.39329987097469632 -0.2183508374054503 -0.12983083241454385 -0.28457854705439473 -0.21232446126426907 -0.41033204160111281 -0.21146605137007463 -0.083921024276046849 -0.23996078833192436 -0.28457854705439473 -0.21146605137007463 -0.5502516154067888 -0.20873055682113212 -0.16818572195829853 -0.21401659093794667 -0.16882727810715564 -0.1973151943856879 -0.13903569543299341 -0.23782709730502233 -0.15834159507815618 -0.24614070471558161 0.098112414357032815 0.40756152351878699 0.074082405410804658 0.38292904879173328 -0.045723423801572606 0.042532216252149334 0 -0.087719173229937858 0.049596128319767105 -0.090742430354297951 0.0052777207011781126 -0.12646310228161953 -0.077181257734327935 -0.087719173229937858 0.049596128319767105 -0.090742430354297951 -0.12646310228161953 0.020441504894645541 -0.029595616396523878 0.16980859976527449 -0.12503494360379663 0.17742294354746682 -0.00089109344322774924 0.24571377463849306 -0.14259449173386302 0.16980859976527449 -0.00089109344322774924 0.32041461922683173 -0.10715009487468623 -0.10373662289497894 -0.13182858071988965 -0.1321915033554511 -0.099477528041088129 -0.057858041878712935 -0.13602642919332114 -0.083086949831111312 -0.13372044494587726 0.075206894542696717 -0.092883794267125772 0.038759773336711843 -0.14751253258546043 0.0068111154158758081 -0.09819787255881228 -0.1629281965102915 -0.006565365424499094 -0.13578060725293298 -0.13673066744000953 -0.18446568118523898 -0.030757125890096382 -0.1629281965102915 -0.006565365424499094 -0.13578060725293298 -0.18446568118523898 -0.12530897743338321 -0.077598569239110377 -0.037742809829711566 -0.16327463270903383 -0.066722834589406449 -0.16293627365709099 0.021912332566100656 -0.1806787351206316 -0.037742809829711566 -0.16293627365709099 -0.052036945665728841 -0.14941673415657591 -0.17341838991175829 -0.17335795390493267 -0.16526452896783175 -0.14107636214267116 -0.15727677095800305 -0.16058402713256084 -0.15324469104403823 -0.18184092723906264 -0.34675091471978992 0.06790484465926401 -0.72654360730683976 -0.11401436630637685 -0.40776777763040095 -0.34853867979471997 -0.14187710850900867 -0.36028031635181063 -0.32388467712718122 -0.37969520439637305 -0.16716086717996981 -0.34853867979471997 -0.14187710850900867 -0.36028031635181063 -0.37969520439637305 -0.47773067685390114 -0.25816242914846754 -0.1350382198032363 -0.32286208699712898 -0.44609074255704445 -0.20277348475371926 -0.12042601151849508 -0.33042708156945116 -0.1350382198032363 -0.20277348475371926 -0.35819643675800122 -0.33875093517551991 -0.39893405119365255 -0.30406391960318269 -0.34035101954187946 -0.26938150917854603 -0.34020816113861474 -0.34335708599721743 -0.29356226874751595 -0.35489499983324657 0.43373628381777979 -0.14950891220270301 0.065871623222560585 -0.074189935303112117 -0.10488480941248705 0.084045871409497291 -0.084043812647306329 -0.13997069058549744 -0.28606597713539755 0.054540854772111791 -0.10488480941248705 0.084045871409497291 -0.084043812647306329 -0.28606597713539755 0.012580969305221784 -0.050839784715208447 0.14943911367926915 -0.081608947269725673 0.52428514480751498 -0.028293577763122916 0.41040590713180813 -0.11659069687488825 0.14943911367926915 -0.028293577763122916 0.26412391953567355 -0.091442979466103289 -0.12479766299055263 -0.098477283841759286 -0.093494677653457925 -0.074134250332100748 -0.033671338877880652 -0.098850129073826717 -0.075482242922061502 -0.070283106209456825 -0.42479304342099827 -0.031934003182603692 -0.38291392617091763 -0.22025416964289846 0.022410103949547594 -0.1845035699575697 -0.18616496968302462 -0.39329987097469632 -0.057402569141296281 -0.22025416964289846 0.022410103949547594 -0.1845035699575697 -0.39329987097469632 -0.2183508374054503 -0.12983083241454385 -0.28457854705439473 -0.21232446126426907 -0.41033204160111281 -0.21146605137007463 -0.083921024276046849 -0.23996078833192436 -0.28457854705439473 -0.21146605137007463 -0.5502516154067888 -0.20873055682113212 -0.16818572195829853 -0.21401659093794667 -0.16882727810715564 -0.1973151943856879 -0.13903569543299341 -0.23782709730502233 -0.15834159507815618 -0.24614070471558161 0.097532603313705182 0.045384502092091862 -0.069000766860384116 0.095318590432570183 -0.11098091007169571 -0.16627490924851224 -0.088382546472592652 0.20314313778930135 -0.069000766860384116 0.095318590432570183 -0.11098091007169571 -0.088382546472592652 -0.056925896867351181 0.0052959545256013405 0.1423390602642946 -0.069935060026098395 -0.0072571320496225443 -0.050585102692609109 0.36412338873361449 -0.083725692875915608 0.1423390602642946 -0.050585102692609109 0.23460210824931904 -0.05920017576850084 -0.1407099328571276 -0.07550613205149144 -0.077244828553474504 -0.041114947722824348 -0.13073237718696618 -0.066032669294010971 -0.072494232578733886 -0.089811452633028324 -0.04249220790028567 -0.15335173523777787 -0.0032860703794808459 -0.12193893486046707 -0.11484932897048668 -0.1716195236794181 0.00096949322561591601 -0.15335173523777787 -0.0032860703794808459 -0.12193893486046707 -0.1716195236794181 -0.10402892511190188 -0.071221571673507664 -0.027945543595975963 -0.15897069067462091 -0.054436702220703716 -0.15338090875534716 0.020817236000792213 -0.17649791568651568 -0.027945543595975963 -0.15338090875534716 -0.03040271226041617 -0.14405600978081498 -0.16137545993161517 -0.16923390989109263 -0.15889838342409182 -0.137343730903739 -0.14694672866789735 -0.15626095183795921 -0.14559629751314415 -0.17700328097859844 -0.087719173229937858 0.049596128319767105 -0.090742430354297951 0.0052777207011781126 -0.12646310228161953 -0.077181257734327935 -0.087719173229937858 0.049596128319767105 -0.090742430354297951 -0.12646310228161953 0.020441504894645541 -0.029595616396523878 0.16980859976527449 -0.12503494360379663 0.17742294354746682 -0.00089109344322774924 0.24571377463849306 -0.14259449173386302 0.16980859976527449 -0.00089109344322774924 0.32041461922683173 -0.10715009487468623 -0.10373662289497894 -0.13182858071988965 -0.1321915033554511 -0.099477528041088129 -0.057858041878712935 -0.13602642919332114 -0.083086949831111312 -0.13372044494587726 0.26299183366324486 0.095673187149556319 0.099767338410265735 -0.074569579803578701 0.16674427632353109 0 0.26299183366324486 0.095673187149556319 -0.074569579803578701 0.027822653678412242 0.18175121007025474 0.031522504219115927 -0.0085140628762157815 0.019988375556993346 -0.010153032612047348 0.082541018588326354 -0.014451786205271487 0.031522504219115927 -0.010153032612047348 0.005499206973285431 -0.076612171453501021 0.00038618505488180303 0.030671460397349904 -0.034340501769715315 -0.010402166996607277 0.16048752453772 -0.043256971139577084 0.19438492472155408 -0.030891768793517835 -0.72048408381767493 -0.23462502358690976 -0.23277208537464555 -0.0024651445782833551 -0.26357404609631968 0 -0.72048408381767493 -0.23277208537464555 -0.12500258683698148 -0.098089585280508845 -0.069184806294270859 -0.20491772745236692 -0.075693401566585106 -0.23799583466545943 0.0039313570534473246 -0.15494865957620158 -0.069184806294270859 -0.23799583466545943 -0.060279111765539441 -0.16177194923320365 -0.30186518503721022 -0.13736710450529002 -0.25235588524297775 -0.13243140310036372 -0.25760994433552836 -0.15804036130008303 -0.25079267191014948 -0.2318292024372966 0.10949864922695103 -0.067191731208837993 0.13007755012037089 -0.095595987485797215 0.72009454998603628 0 -0.067191731208837993 0.020197157059352551 0.10723706179218162 0.10795452147945986 -0.045474016770847309 0.084698423207766785 -0.067910874994046119 0.17247632705714774 0.021713282843063526 0.10795452147945986 -0.067910874994046119 0.13882375197228222 -0.062023830038826055 -0.13607672881970082 0.043604209950413524 -0.0067370170963687564 0.0034613861690533294 -0.021612948683114332 0.010209943077675695 -0.069987148893514955 -0.06634959810078353 -0.23376491741619984 0.1286133112545064 -0.099940133431756048 0.23477491308879858 -0.10983874757764468 -0.23376491741619984 0 0.1846385689115842 -0.026822946914895417 0.028610264197024969 0 -0.064329941770696633 0.15009535528785545 0.021621112591142039 -0.026822946914895417 -0.064329941770696633 0.066990762240352983 0.029168196073878078 0.16387037648661534 0.062151018133204318 0.12042184679477635 -0.014438150288110508 0.21110694033675981 -2.7755575615628914e-17 -0.041508870368416176 2.7755575615628914e-17 0.18968781933978382 0.074168585034943987 0.23280512004477621 0.06725534373876102 0 0.050678389445660693 0.11056400153909303 0.18680678954421781 -0.0031428707853830293 0.05215209427909092 0.060794335740068359 0.33803250598063084 -0.010079392819297504 0.18680678954421781 0.060794335740068359 0.2082070701199108 0 0.00070472778202133304 0.019875878923437017 0.0053662483529168855 0.026130789949670229 0.029508826697168821 -0.043233499289332393 0 -0.035186083877844054 -0.16695056217387036 0.0024706922971960204 -0.1300500894975222 -0.18961212708541808 -0.16517839365782827 -0.081835445107271171 -0.047902784915460267 -0.17325330502574468 -0.082035230362734801 -0.17171806853337662 0.0079764522925424783 -0.17813017076914744 -0.047902784915460267 -0.17171806853337662 -0.061238497737359475 -0.15019784000685865 -0.17842239099447729 -0.17099848078236152 -0.17239424457858338 -0.13586233760985991 -0.1730533132806315 -0.1691164089516845 -0.15148434959207657 -0.18361361640045235 0.26299183366324486 0.095673187149556319 -0.074569579803578701 0.027822653678412242 0.18175121007025474 0.031522504219115927 -0.0085140628762157815 0.019988375556993346 -0.010153032612047348 0.082541018588326354 -0.014451786205271487 0.031522504219115927 -0.010153032612047348 0.005499206973285431 -0.076612171453501021 0.00038618505488180303 0.030671460397349904 -0.034340501769715315 -0.010402166996607277 0.16048752453772 -0.043256971139577084 0.19438492472155408 -0.030891768793517835 -0.72048408381767493 -0.23277208537464555 -0.12500258683698148 -0.098089585280508845 -0.069184806294270859 -0.20491772745236692 -0.075693401566585106 -0.23799583466545943 0.0039313570534473246 -0.15494865957620158 -0.069184806294270859 -0.23799583466545943 -0.060279111765539441 -0.16177194923320365 -0.30186518503721022 -0.13736710450529002 -0.25235588524297775 -0.13243140310036372 -0.25760994433552836 -0.15804036130008303 -0.25079267191014948 -0.2318292024372966 -0.067191731208837993 0.020197157059352551 0.10723706179218162 0.10795452147945986 -0.045474016770847309 0.084698423207766785 -0.067910874994046119 0.17247632705714774 0.021713282843063526 0.10795452147945986 -0.067910874994046119 0.13882375197228222 -0.062023830038826055 -0.13607672881970082 0.043604209950413524 -0.0067370170963687564 0.0034613861690533294 -0.021612948683114332 0.010209943077675695 -0.069987148893514955 -0.06634959810078353 0.050678389445660693 0.11056400153909303 0.18680678954421781 -0.0031428707853830293 0.05215209427909092 0.060794335740068359 0.33803250598063084 -0.010079392819297504 0.18680678954421781 0.060794335740068359 0.2082070701199108 0 0.00070472778202133304 0.019875878923437017 0.0053662483529168855 0.026130789949670229 0.029508826697168821 -0.043233499289332393 0 -0.035186083877844054 0.036951014091566134 0.12260467277971462 -0.057606006434480744 0.217673797442334 -0.043234306040436897 0.24533328144830255 -0.075324886154366374 0.12260467277971462 -0.043234306040436897 0.076450401828805054 -0.042534547533577625 -0.063624020476947096 -0.067881121289223217 -0.05673287822470427 -0.034906161309402238 -0.044987401452232643 -0.054727792662472186 -0.043018128493034442 -0.0765580480433561 -0.03434894542902938 -0.280729796917702 0.015831254608850272 -0.25086221784812912 0.139157264090643 -0.011348140794910299 -0.03434894542902938 -0.25086221784812912 0.041000478658029818 -0.3748516280099376 -0.44068813191972894 -0.050765726080732376 -0.60676253858376628 -0.052833695651024803 -0.43258679692835822 -0.092793700207642313 -0.40802574377111395 -0.29822017168575904 -0.12491463135915057 -0.3254729518961117 0.078946209423917044 0.14303963586325649 -0.15596258663827717 0 0.078946209423917044 -0.22161276966065657 -0.081360127975351484 0.021225030513734561 -0.13442127999286058 -0.073250334203992726 -0.12680477961217224 -0.071911668177863236 -0.15069109029236807 0.06717954747422504 -0.14431707465071628 0.11226541529313856 -0.092695098799301393 0.2122382051931414 -0.11463553076479552 0.12488798573800414 -0.092695098799301393 0.14612668771676351 -0.044248952926171398 -0.044009927307672399 -0.09087253111816003 -0.050691038355006782 -0.039952180417580044 -0.054799164708210168 -0.32723561232648379 -0.083705183939571812 -0.10173821403050265 -0.038086216165793815 0.44354136130459709 -0.12843668960739107 0.32511635218183282 -0.038086216165793815 0.39107883314649544 -0.10200034278618302 -0.083598955947030373 -0.12010658531869338 -0.1029829708214054 -0.0864296566968418 -0.074385965615308275 -0.10908976462189166 -0.090973496316073196 -0.13168954249178974 0.22242482637331112 -0.016726244885121751 -0.079255176099130881 0 0.051269444788621873 -0.0010243075934356165 0.09911845369126332 0.035066408418017884 0.057324291535825966 0 0.29267378470292149 0 0.15426930773485537 -0.04433442774855683 -0.22587744902309359 -0.14305919699805303 -0.22237343292284076 -0.33002021164023149 -0.20612928819279089 -0.21896643494559376 -0.20454888186754319 -0.17395017225530027 -0.17611642563099844 -0.18256850964047652 -0.21400485736981179 -0.17146984989953809 -0.23431289545042677 0.15604315955563708 0.016716979545741247 0.1611238695651579 0.1196346282694372 2.7755575615628914e-17 -0.081208905628354228 0.13664903879048476 0.15509335511048652 0.042324995178769587 0.049338502373508286 -0.032657807043883498 0.045906432148822951 0.078946209423917044 -0.22161276966065657 -0.081360127975351484 0.021225030513734561 -0.13442127999286058 -0.073250334203992726 -0.12680477961217224 -0.071911668177863236 -0.15069109029236807 0.06717954747422504 -0.14431707465071628 0.051269444788621873 -0.0010243075934356165 0.09911845369126332 0.035066408418017884 0.057324291535825966 0 0.29267378470292149 0 0.15426930773485537 -0.04433442774855683 -0.12941148945956413 -0.082827470777115039 -0.14193575565458488 -0.10089627389782668 -0.11791594052350826 -0.12552729093409676 -0.15240397021241359 -0.04658631619171974 -0.16831400122764853 -0.26523211296921023 0.31212429552911775 -0.20547579770338381 0.16069978714285968 -0.078200848072571563 0.25747599632095719 0.23367647090448401 -0.016778007600368284 0.13070754517624286 0.14378379972295419 0 0.20471491663878152 0 0.77917998090614304 0.025756073018889682 0.037111975728367386 0.054236513648037638 -0.06569562499255191 0.18111955233395288 -0.17275024477268031 -0.085357516920687243 -0.089641075371411139 -0.061796295537208966 0.12068434256037983 -0.080721685024460837 0.00190523168150581 0.024733150347230431 -0.3016228001743837 0 0.021610352551921543 -0.08176536163532068 0.89673356520751946 0 -0.099759884157209919 0.33270250161872084 0.037522777438911345
label 0 1 2 3 4 5 6 7 8 9 10 11 12 13 14 15 16 17 18 19 20 21 22 23 24 25 26 27 28 29 30 31 32 33 34 35 36 37 38 39 40 41 42 43 44 45 46 47 48 49 50 51 52 53 54 55 56 57 58 59 60 61 62 63 64 65 66 67 68 69 70 71 72 73 74 75 76 77 78 79
probA -2.3026891995406777 -2.3025222735834476 -2.3028716188550691 -2.3021373645642029 -2.3026361928363848 -2.3026158493018478 -2.302433895720887 -2.2953314761719197 -2.3030115088002887 -2.3022469683906146 -2.3024291953547391 -2.1876926416399054 -2.1096379786200155 -2.3022032400472296 -2.302328888606215 -2.3026812446295772 -2.302734607923592 -2.3024380318771209 -2.3022630315444954 -2.3024067119485867 -2.3022325908114567 -2.3022576253913183 -2.3025818240099265 -2.3026336089357153 -2.302189785505163 -2.3025196653334818 -2.3028134012511536 -2.3029470194083919 -2.3026257491369195 -2.3031178131551591 -2.6106405998885811 -2.3027474005276978 -2.3029240471652956 -2.3030392596421017 -2.3024858574920946 -2.3029318026571701 -2.2731678782843727 -2.2787402917304105 -2.2797221984741443 -2.3024703857764544 -2.2988813158980559 -2.2969728271644017 -2.3028568335005888 -2.302175204134739 -2.4229899078567909 -2.2985960170002779 -2.2695262228979565 -2.3023675418881195 -2.2970293984094834 -2.2954787187982619 -2.2993953242953475 -2.2828892052355565 -2.3019641655501206 -2.3971078673680908 -2.2162365667410766 -2.2951614229771877 -2.2990478730543011 -2.2830181747581682 -2.3021288648757006 -2.3991827561268293 -2.3184772511526428 -2.2302239226386922 -2.2891864855283828 -2.3024054279780439 -2.3025339594590273 -2.458066742088715 -2.3023257032261766 -2.2299967016817139 -2.3027556176072044 -2.2303610505898832 -2.2995031060673257 -2.30225871442275 -2.2993961208441878 -2.302718440655394 -2.2858463583924031 -2.3026193829134081 -2.3025268043400273 -2.296374074603249 -2.3027189175224136 -2.249231645247407 -2.3025406351560127 -2.2285114263012491 -2.3028049480133621 -2.3024742738250139 -2.2161378179421969 -2.3020653129587059 -2.3026228924405885 -2.6204009960229331 -2.3025777085695234 -2.3021466758218954 -2.3027733288284988 -2.2953057043951608 -2.2924459134615809 -2.2674435376109043 -2.2873237950769827 -2.3025934065752507 -2.2642792250103323 -2.3024858255474077 -2.3026118517051022 -2.3024972988835657 -2.3026712746482052 -2.303030716335333 -2.3026982316071294 -2.3025770392740985 -2.3019315632278841 -2.3024633221563762 -2.302674731537012 -2.3199268903758798 -2.3021692515139658 -2.286798171751963 -2.302160721668292 -2.2983819403577685 -2.3021274935241411 -2.3549602064612709 -2.3026179560096742 -2.6450004790757387 -2.3025266366621819 -2.3030010176061686 -2.3023971280155484 -2.4942321590417937 -2.4103629408196889 -2.3023389583697975 -2.3025225102076075 -2.3025001647466392 -2.302651287784105 -2.3028447318782224 -2.2964497620857007 -2.3026093211749274 -2.6176604944429642 -2.3027926432495054 -2.2951876187794071 -2.3030122653744249 -2.2801190713284285 -2.3023260348977583 -2.279683476145705 -2.3025561208904595 -2.3750483499726518 -2.3020413519503578 -2.3027501427795536 -2.3026711823668835 -2.3027537976619668 -2.330289301775704 -2.3030167540899882 -2.3016746418434528 -2.3705975677942956 -2.327029004518522 -2.3022333840321694 -2.3005148760566785 -2.292651287556414 -2.3031254047014071 -2.3020473340220216 -2.3024337464034228 -2.2946173802157581 -2.3025781684257711 -2.3022921026021042 -2.3028352560034819 -2.3026728065674713 -2.3025413854494752 -2.2615605242420749 -2.2985261192878244 -2.3026742975180996 -2.26769257930808 -2.3023546852116996 -2.3026016442785049 -2.2813002636456154 -2.3024169825077845 -2.302756659917208 -2.3027107399356734 -2.2807981613638582 -2.2702518227065851 -2.3023868669044991 -2.3025404558367537 -2.2903388326261576 -2.3026659578227782 -2.3027583569149011 -2.3024586065593526 -2.3024997484629099 -2.3024591990897476 -2.3025380158721878 -2.3025653447103291 -2.3030586567604403 -2.3021793872578513 -2.3023012013099651 -2.3027631886198314 -2.3029176111633527 -2.2926467993496789 -2.2924303457194295 -2.3025560039635975 -2.2856995570028 -2.3021782103192829 -2.3021410406361351 -2.3023975944029229 -2.3026146060472019 -2.2946124267325492 -2.3022755742074184 -2.3027055556291116 -2.3224960113920372 -2.3026042737836563 -2.3027048879142442 -2.3024162344768873 -2.3025909852733446 -2.3023812807092443 -2.3022755742074184 -2.3028016785876195 -2.3023131234111318 -2.2778507588198282 -2.3029658964722795 -2.2942096596307926 -2.302458547232737 -2.2838581782194183 -2.301861952578125 -2.2775000540699422 -2.3027903088878876 -2.3024340360508928 -2.3025856693922635 -2.3021835682905927 -2.625925221897949 -2.302576673429849 -2.3026550776645114 -2.3029393675870984 -2.3211128830002732 -2.301442486615775 -2.2959068757153993 -2.3029806873783643 -2.3021206592568717 -2.2911463574887461 -2.3021417285830887 -2.3025461873095994 -2.3025611780451056 -2.2936975705620646 -2.3024571885367844 -2.3031589331811095 -2.3023143894300264 -2.3031000356941855 -2.3025530071275639 -2.302496412830453 -2.3025329199169859 -2.3024136466981906 -2.302490464558733 -2.3033730931613259 -2.2817265353839487 -2.3022694974830702 -2.3031002680709101 -2.3027291710177393 -2.6061253641989182 -2.2866538435814467 -2.3025028493418778 -2.2576066027731923 -2.3025667318481076 -2.3029756613190591 -2.3029870223596807 -2.302214591689081 -2.3028622287675655 -2.3021749143914416 -2.3025060661400865 -2.302794041111091 -2.302495442930641 -2.6374957976292808 -2.3030248217323837 -2.4959641333738944 -2.3021613834530981 -2.302222383629295 -2.2886688141274862 -2.3027330735036879 -2.6276673925283758 -2.3026099454814464 -2.3028105973930972 -2.3153125543226025 -2.3022516911319726 -2.3004300101726716 -2.6370069672177743 -2.3025002976976605 -2.3014699778042584 -2.3187717177759328 -2.3027113512648101 -2.3020379090271228 -2.3025386379407311 -2.2990921957886394 -2.3023415659618784 -2.3017724820822152 -2.3027893802001222 -2.2788236655902088 -2.3031395231052278 -2.2939156466353574 -2.3027737446136674 -2.2869513339396104 -2.3029043327537781 -2.2779646685575834 -2.3031111650184903 -2.3020643997087196 -2.3024100395874867 -2.3025731234219773 -2.3029332384611783 -2.3027279197194233 -2.3023184332434665 -2.3021373966146026 -2.3244438374354566 -2.300544225283796 -2.3029059955567215 -2.302436713070922 -2.3023264758715993 -2.2923602709039135 -2.3022127770421337 -2.3025609364479993 -2.3025162301509443 -2.2936930676430021 -2.3021453165528167 -2.3032475811448738 -2.3027320663151758 -2.3032237738015198 -2.1090356490428603 -2.2908119358892063 -2.2907915418470424 -2.3032554700145567 -2.2792656446502302 -2.2889371631513598 -2.3532645517250592 -2.3020622879954118 -2.3027722301609379 -2.2978258935587865 -2.3021358721952616 -2.245655444525096 -2.2935803690298817 -2.3025010611457599 -2.3025664492249058 -2.3023130760666799 -2.3562616785225958 -2.3022488929172211 -2.3028337392020259 -2.3025945110142989 -2.303054242742995 -2.3410448894346088 -2.3022300712589701 -2.3022964499888086 -2.3030778775715763 -2.3024286813805115 -2.303146035243202 -2.2901124139802498 -2.3021795062509565 -2.3029604366992156 -2.3024449181382471 -2.3031525248477815 -2.3028744699861718 -2.5869390983590135 -2.3023776616741762 -2.3023017338174623 -2.3024714552990604 -2.2969409558716571 -2.30265739140187 -2.3025346893560572 -2.303178106700329 -2.3028118431704176 -2.3021096484799606 -2.3028591583156546 -2.296849943043803 -2.3031109319562857 -2.2847738220948797 -2.3030511490072216 -2.2963891103969822 -2.3027761899557584 -2.2858080543614641 -2.3028380343399442 -2.2851983105207219 -2.3025465079291689 -2.3024717203272593 -2.3028477934008191 -2.3031586510393454 -2.3026824736473546 -2.3020664614355981 -2.3030298497215389 -2.3034270692331367 -2.3024233549469071 -2.3004763733731015 -2.3023666706018417 -2.3028044928058398 -2.3020557592143964 -2.2943693843518398 -2.3020216698167846 -2.3023941613177064 -2.3022882587597602 -2.2956554314323436 -2.3027961781467794 -2.3021059273323035 -2.3029704019005695 -2.3019775652554175 -2.2757864851424556 -2.3028337337553566 -2.3024424248522326 -2.3026695352764865 -2.2874342819131166 -2.3156413491991548 -2.3030920092783211 -2.3031676871121456 -2.3693427454196683 -2.5624076103733282 -2.3031370018742239 -2.2698977689909805 -2.250862324522541 -2.4433810047494116 -2.3022502951193449 -2.3026939052401469 -2.3020494835358605 -2.3026427246650916 -2.3027627729014433 -2.3025726640453779 -2.3020728553100356 -2.3021388848891728 -2.3030729274849095 -2.3028204644185406 -2.3021671098145187 -2.3023594449866231 -2.2896991491707204 -2.3025721883919448 -2.3030054980167951 -2.6341434076717798 -2.3019063142874847 -2.3023352505544921 -2.3031197395297411 -2.3025561139030537 -2.3027129239371447 -2.3024241343281933 -2.2961425405280007 -2.303047337825161 -2.3021533368359965 -2.302248888841222 -2.3025928729468976 -2.3027575712866288 -2.3031059896753781 -2.2965268181931515 -2.3021777369921343 -2.2847254712327856 -2.3027695517108699 -2.2965264904269742 -2.3806425032024592 -2.285327571949002 -2.3020099009495998 -2.2841566863354728 -2.3031742068538863 -2.3023305772200908 -2.302956995740475 -2.3017936801738115 -2.3028128370335446 -2.321239779157386 -2.3024214676550789 -2.3026533995587792 -2.3814731737167154 -2.3009136524464466 -2.39175853300824 -2.3026531016239531 -2.3025000838414931 -2.294337379711326 -2.3024996693655853 -2.3022515887145949 -2.3209495643091724 -2.295651947699465 -2.4587615861188277 -2.3021599279442801 -2.3022551539132374 -2.3021964478656423 -2.2283096020853721 -2.3028164861938558 -2.3025965915489173 -2.2872645039939217 -2.3023169980829894 -2.3025473753301551 -2.3025675140819817 -2.2973370770432058 -2.3027243459125741 -2.3026687072881669 -2.2801429462458027 -2.3022550986888568 -2.3025135158794643 -2.3025817627026237 -2.3018932442609583 -2.3027342978951473 -2.3028237488475685 -2.3024102022452215 -2.3025001670169365 -2.3028600050101429 -2.3026174227471352 -2.302752570819671 -2.3026514855405704 -2.302729828994968 -2.302631636810196 -2.2893836476649159 -2.302546406041452 -2.303120233546482 -2.3027493181867307 -2.3028878470108274 -2.3026852696564091 -2.3027088852559188 -2.3023670106213219 -2.3024443167256616 -2.3024128667001538 -2.2969888231549391 -2.303014755661652 -2.3023552494454753 -2.3022566699156681 -2.3019544451214848 -2.3017067592365752 -2.3022639828132867 -2.2966496876690332 -2.3027103099195694 -2.2838002306891423 -2.3748816916313737 -2.2962531432586881 -2.3024851929676089 -2.2845963555254141 -2.3027103036202101 -2.4772286459474349 -2.3022069926912061 -2.3025574539146465 -2.3023083601029817 -2.3025736246481463 -2.3025703235807855 -2.3031707698731938 -2.3031291476537419 -2.3025964987518299 -2.302251607806852 -2.3003236464813792 -2.3024433511024305 -2.3025359574819699 -2.3023328332526294 -2.294609957384425 -2.3022439062724973 -2.3027657304053384 -2.3025476766409589 -2.2949138899430377 -2.3024029928796081 -2.3025552884777669 -2.3026602214144174 -2.3095896143751657 -2.3026306084063122 -2.3025428694300638 -2.2870902870476915 -2.3024315967802025 -2.3024852385654597 -2.302728258884577 -2.2978805535025799 -2.3019682755506463 -2.3943168610825403 -2.3024470670723614 -2.2428697287631922 -2.3022345583132258 -2.3024447655221816 -2.3023758885295069 -2.3028408608978483 -2.3029694396345559 -2.3024856209826985 -2.3027305190746845 -2.3025568374041279 -2.3027138905392097 -2.3023765593055376 -2.3025874710131049 -2.3024103352651526 -2.3021309882874883 -2.2887336940341396 -2.3025138195325607 -2.302832439852422 -2.3026254445006793 -2.3031734927153011 -2.3028724578184212 -2.4411031678321899 -2.302766834236635 -2.4507998690256465 -2.3028753227415182 -2.2970966767800696 -2.3029671089080801 -2.3028216397216408 -2.3023192646164961 -2.3026708567182204 -2.424381086518308 -2.3023648938679764 -2.2962573038777387 -2.3021331820700799 -2.2839177553618777 -2.3023712607013276 -2.2962365744400319 -2.3025209886203464 -2.2844949727598505 -2.3022422103704123 -2.2841759906085772 -2.3748162034852136 -2.3025126732721701 -2.3027261800405086 -2.3032303415908153 -2.3025724505132374 -2.3023358600653525 -2.30233367983561 -2.3031019426296657 -2.3032264094720452 -2.3009856430526425 -2.3022892890167346 -2.3031160848055907 -2.3022282486484777 -2.2949231011479245 -2.302433761097193 -2.302750228104411 -2.3020973709414916 -2.2949088317671098 -2.3027425411032585 -2.3021481278452907 -2.3029573194280024 -2.3027557382606099 -2.3031130875243178 -2.2917539584323086 -2.2684245083813139 -2.240095459837161 -2.3027324760909806 -2.24163462093999 -2.2506846979192878 -2.3026604966502759 -2.3024782964689812 -2.3164918086191992 -2.3758351441169596 -2.30228644096049 -2.3027256180727309 -2.3028060423057735 -2.3028222709523938 -2.3021095490023931 -2.3031588834077015 -2.301676169493478 -2.3031971610617412 -2.3031232621147839 -2.3028139488314703 -2.3497134501910781 -2.3028235487939046 -2.3019411229734059 -2.3044495619682572 -2.2551820228851338 -2.2739272933069929 -2.2930545599148773 -2.3023393901181026 -2.2909439572089654 -2.2993419456088509 -2.4511054351847075 -2.3025041239472004 -2.2804481763167184 -2.3023899392753009 -2.302305692151569 -2.3026584857218149 -2.3027797716095542 -2.2963122095173825 -2.3139232686543338 -2.2802072694423088 -2.282917506015353 -2.2908947044529837 -2.3022677822771804 -2.2865865877628422 -2.3001497079495854 -2.2746771636758014 -2.2823097143800015 -2.2917208896419123 -2.3021001524060085 -2.299978713773021 -2.302816841849348 -2.2964592882490873 -2.2660234303268365 -2.3033868454255302 -2.3023344109066417 -2.3009728994763794 -2.2902097349311807 -2.2965256398044307 -2.2659963006453108 -2.3006400926633805 -2.2805191489109413 -2.2716308322184893 -2.3027328237760214 -2.2800354578866493 -2.2991650129892776 -2.2739887062822075 -2.3021312525805646 -2.3030833504428632 -2.3027577934557293 -2.2889764054294481 -2.2803246026070769 -2.4169329243016975 -2.3030100637732613 -2.3245860758532242 -2.2950145141846603 -2.2900439267842989 -2.2350752277859969 -2.3026386849296179 -2.261153487919445 -2.3022829196528081 -2.3023557773481476 -2.3028939681670044 -2.3024174938632931 -2.3023600032930371 -2.302532847651213 -2.3026188001385219 -2.3027313277662502 -2.3022207040455109 -2.3018642349761556 -2.3029531740572216 -2.3028111282833579 -2.3022513196804955 -2.2870934066117039 -2.3022372366341455 -2.2901563824010958 -2.3440972567965925 -2.3026738388596053 -2.3742723485551065 -2.3025075091394909 -2.2990723080290953 -2.3023296064810692 -2.3024024603334619 -2.2998089779653657 -2.3025134678991241 -2.302596946570834 -2.3029100741040067 -2.3025840625722265 -2.3100612795244966 -2.3023258436497747 -2.3005481945195592 -2.3023687766713468 -2.2797529956538289 -2.3024462662271636 -2.2945083950493461 -2.3025225631180115 -2.2757026341425162 -2.3592565656184954 -2.2800507499456169 -2.302696743636818 -2.3027371707379705 -2.3029214603923269 -2.3022872690533811 -2.3033798280094495 -2.3033342297470272 -2.3024047622027108 -2.3021787797885742 -2.3028526339760895 -2.3009575523645638 -2.3024330223369551 -2.3018410669253822 -2.3001662066306219 -2.2930577161220742 -2.3026801275243245 -2.3024879658545978 -2.3025466330870024 -2.2945680763265544 -2.3026094613375068 -2.3019825694670319 -2.3022836590524376 -2.3029106376876038 -2.2551859816061901 -2.2837990364148557 -2.1348970368741362 -2.3026491966794014 -2.3030087353775599 -2.4848102327047341 -2.2528822310698189 -2.2881624240425622 -2.278250755101181 -2.2713025109680167 -2.3025498572970924 -2.2775921364631664 -2.3026870117670093 -2.2837500025452671 -2.5011095341325329 -2.2392001797473435 -2.2690595649268088 -2.2807838112042083 -2.2847059080280308 -2.2678076245069527 -2.3028581260077363 -2.3026075466039897 -2.55945155256964 -2.3024902437518278 -2.3027785920762951 -2.3026706170612008 -2.302496233459304 -2.3025246284656848 -2.5063724802599161 -2.2843513507709945 -2.3029967196627017 -2.287808846526648 -2.4509128892545728 -2.3028924921686453 -2.2516710606359882 -2.3026414324974982 -2.2959155842343311 -2.2844072227751098 -2.516695396898577 -2.3027299369444214 -2.2785949775190932 -2.217631886911966 -2.2352350708058855 -2.301980935016724 -2.2546663951000578 -2.302340924831753 -2.2789252478261903 -2.2178385255260138 -2.3025177209288912 -2.2508379750272387 -2.2930173181015818 -2.3027346452807769 -2.2852652207310928 -2.2689562117176916 -2.2512867934234757 -2.3028241392983237 -2.1849944746814782 -2.3023462294283634 -2.2506858426038336 -2.2850031672820865 -2.2829147175269471 -2.3025003122064702 -2.1736485125373024 -2.2576292350535896 -2.1907391219195897 -2.3025707192217428 -2.2224124150322342 -2.5360771025915931 -2.2296294301596098 -1.9540020141749981 -2.1488917426470202 -2.3022998501453493 -2.283213223258115 -2.3028707499015084 -2.2903195411640729 -2.3029669637124845 -2.3027251692325437 -2.3023612612388171 -2.2868910032158047 -2.3027068839501785 -2.3025886570382657 -2.3025225303216521 -2.3194449887013842 -2.2642981669383277 -2.3029325703910555 -2.3023504973267936 -2.3027603484985937 -2.3579044645374316 -2.3031871734081877 -2.1802552794960444 -2.3026201609394259 -2.2887757636316945 -2.2714579012492186 -2.2894188981310704 -2.2603344051443783 -2.254664080673332 -2.2708417896344786 -2.302715484411753 -2.2480422832436706 -2.3028671990006835 -2.3026702865386568 -2.3010751169612087 -2.3023808212754111 -2.2479180223256585 -2.2445586555206987 -2.302577808672611 -2.3028355465232373 -2.1991599791215304 -2.293553824604309 -2.2230156499614413 -2.1900625485468486 -2.3025618422122323 -2.2682521943531437 -2.1992348512709925 -2.2930270269738018 -2.2232037856191091 -2.3029589044261871 -2.3023605405954495 -2.2373588309510759 -2.2171176463147146 -2.255242925364187 -2.302417065643013 -2.2874092436023439 -2.2737190280247019 -2.2747987158996699 -2.2171662441426068 -2.2867594743613706 -2.223576934658543 -2.0930601002318334 -2.0217804994775497 -2.2731094181837559 -2.2288130817703253 -2.2788501582790155 -2.2108982387059686 -2.2302140049984813 -2.0882005063461566 -2.2317223936898505 -2.1208986247123947 -2.0517978848353979 -2.1912271867099262 -2.3024617960375982 -2.3023993257400193 -2.3030091744840187 -2.3027673536069639 -2.3020168539746684 -2.293581343115394 -2.3032961958615559 -2.3021751779831705 -2.3026060558077663 -2.3030147779161174 -2.1167710443954295 -2.3031054604458072 -2.3301461468978011 -2.3025563949072092 -2.303407681911732 -2.3005408012409383 -2.2168936430911481 -2.2873562648700037 -2.5064961993767558 -2.2032668053918081 -2.2877434976708599 -2.2775615039275299 -2.2443633912491183 -2.2874995995926231 -2.3024722763071983 -2.27990253952763 -2.2193070614218997 -2.3029047334192985 -2.280549769762616 -2.2212549909412509 -2.2801494681113481 -2.279259838847191 -2.3024096921543533 -2.2199542484630217 -2.301505479778438 -2.292107916058141 -2.2765816251404383 -2.2408556210227171 -2.2213964886947393 -2.2472690673917226 -2.3014161655120025 -2.2920200945230076 -2.2771072597469928 -2.2212412046985035 -2.3026783506955995 -2.2750992418247331 -2.1620474027077119 -2.220972903262338 -2.2985755998225188 -2.2204363967537617 -2.2133205438399894 -2.12743631546331 -2.1619625174844055 -2.2206723704397122 -2.18050968075138 -2.212926162675231 -2.2949328606636268 -2.1767630863753769 -2.2029658552587934 -2.0604154120753484 -2.1091589656045242 -2.1974793611742705 -2.2141270771680372 -2.1540005274429248 -2.2455116155880246 -2.3432630678748669 -2.3029681513605387 -2.3040028751492487 -2.3027111068540109 -2.3028500909495664 -2.3022108427511561 -2.2509580495448045 -2.3021014988162252 -2.3023747921797368 -2.3027252265642062 -2.3028399358322704 -2.1779655263188666 -2.3022481216354311 -2.3026113799678529 -2.3025283046753122 -2.3021873551085719 -2.29351357538365 -2.1253761685744048 -2.2815882715293641 -2.3023916756480522 -2.1584499466992719 -2.2285059481406826 -2.2611761737208971 -2.2574666311365368 -2.2762228986599888 -2.3030039893891305 -2.2871553784714531 -2.1361196466124421 -2.3029373104709414 -2.2823728201456848 -2.2245559503911347 -2.3001111602399047 -2.2348022772117724 -2.3024551872416215 -2.1359489313230831 -2.2102173595027463 -2.2590016833177304 -2.1345380144432284 -2.190871152876785 -2.2911239762456099 -2.1769928167479149 -2.209934011094068 -2.326009440362597 -2.134575634712697 -2.2911632955660268 -2.2999217217907071 -2.1989017631143959 -2.2327056473570375 -2.2646290792705814 -2.5319098360039507 -2.2513939147666537 -2.3012425630023281 -2.1587919682630186 -2.2467927956625 -2.2513355178084997 -2.2030944808088515 -2.120495223317636 -2.1215046845859735 -2.163375191590625 -2.0524152220911915 -2.0651513926753471 -2.4176269230747787 -2.0316687640955235 -2.1504170569953152 -2.2336207164932675 -2.2695917307460105 -2.2972637796783397 -2.2745484100435558 -2.2978987106592448 -2.2915734834543802 -2.2958150281465008 -2.3031249214644753 -2.2965555091941496 -2.3019331763739443 -2.2968429918379205 -2.2965647923793169 -2.2842483807157508 -2.3077106346438923 -2.297563926928722 -2.2967246153294369 -2.298293012479665 -2.3003327622467968 -2.2217392303184127 -2.3014526130975748 -2.3024334111854485 -2.2854816249936687 -2.3024400216223038 -2.2960057716193782 -2.2737789602031966 -2.2740786336416408 -2.2971454936434719 -2.2940720983956946 -2.3254168352943423 -2.2938098343201609 -2.3024417443060079 -2.2841869672108124 -2.293930396391759 -2.2538555874244142 -2.2965568525525821 -2.3249671119685211 -2.3025806562908184 -2.3025427475279754 -2.2465255399710204 -2.2670679047090476 -2.3026860290905646 -2.2045014482315208 -2.3023670093886426 -2.3021169784402415 -2.2467402712678854 -2.6343779065661064 -2.2979799559745229 -2.2812204098978328 -2.1708005607096563 -2.2835378355174023 -2.2756442559258208 -2.302911842165102 -2.2517265707001068 -2.2522349487801976 -2.1705965218008778 -2.3025649862913684 -2.1208158664757395 -2.1780086420481699 -2.3026050592381946 -2.2118151854155332 -2.2073182352745744 -2.177413352741421 -2.3024183333894728 -2.2522367231251961 -2.3025796844926916 -2.2219897726200486 -2.2997461169582492 -2.1584265273217293 -2.3023621897458972 -2.2829656811145247 -2.3028599324170678 -2.2970347317294344 -2.2932336113740042 -2.3027458486865808 -2.3027654064253888 -2.3031491501278705 -2.1718742021324489 -2.2867748590599954 -2.3012878127867098 -2.3027615702070623 -2.302235816844254 -2.1763242665327991 -2.3028334890154101 -2.302407904154113 -2.2922959140646273 -2.2365984529172174 -2.2944371877480747 -2.2143439618426584 -2.3022430931958522 -2.2291136863974192 -2.3027705033392221 -2.3025252234289755 -2.2935668315311073 -2.3028113254564322 -2.3025700243340821 -2.3006868698978837 -2.302855238392274 -2.3026904519320794 -2.3029366395192077 -2.2936020684415572 -2.2563421069483836 -2.3027361979104488 -2.2701561912849884 -2.2797487264351006 -2.3031092519164234 -2.263686398092065 -2.2557076500238429 -2.302908315853732 -2.270066685102107 -2.3024911551536604 -2.3026880923911226 -2.2237990146043929 -2.5435223898845414 -2.1946129802181344 -2.3480494919903609 -2.2802233616699858 -2.3025898795285684 -2.1633547295164495 -2.3029088277472631 -2.1995389858287067 -2.2783422212067617 -2.1577077845422385 -2.5281642717394481 -2.1390030030169318 -2.1389332921141495 -2.1688869033448266 -2.1680207507398701 -2.1834159336758021 -2.1700830575116439 -2.1926714602938211 -2.4624353944970871 -2.2971563485338375 -2.3027026903695949 -2.3026299891433544 -2.3025113897847005 -2.302385372796651 -2.3021979781648914 -2.3023624530668974 -2.3024430677078991 -2.3028591552896009 -2.302556647192266 -2.3024579565333667 -2.3027264737339688 -2.3006075108173483 -2.3023597488419054 -2.2875950250958756 -2.3024658213073783 -2.3024704353611392 -2.3030266432740443 -2.3028944417292037 -2.3024113055906832 -2.3022526712079214 -2.2993700495273499 -2.3026997196553705 -2.3024382800779817 -2.5325564258590267 -2.3028836436439395 -2.368450483611257 -2.3024543064391012 -2.3021742340559594 -2.302945825788254 -2.4547576204998167 -2.2967225785827976 -2.3025479849722892 -2.2820265290432498 -2.302929657339388 -2.2949522442485519 -2.3026257954655693 -2.2751717295377532 -2.302446417514501 -2.2823299956659495 -2.3028441586401245 -2.3026536535148683 -2.3024886459173595 -2.3029589812423632 -2.3566761386104731 -2.303019100152075 -2.3024864851566429 -2.5219403316124498 -2.3029144046080283 -2.3006618295605699 -2.3024996759233285 -2.3019285643240774 -2.2996188979364911 -2.2938619385632375 -2.3027153778285552 -2.336170000353369 -2.3027077774651539 -2.295165846130363 -2.3023074695637358 -2.3030499071489068 -2.3025484585061293 -2.3025728446406264 -2.3024466728628514 -2.3025387908778914 -2.3026323443674208 -2.3023140638277133 -2.3030946779967754 -2.3025811229734088 -2.302277002404145 -2.3030805323020602 -2.3027945693064198 -2.302637131587022 -2.3027642411580778 -2.3026660990014682 -2.2581784315544593 -2.2593470375586868 -2.2870982808914952 -2.2940665856407909 -2.1424886884213334 -2.2316895641303147 -2.2932926151641237 -2.3971061503975046 -2.3033205045900238 -2.2760228301745067 -2.3020980045068851 -2.2766635889319691 -2.2962656823086069 -2.3025666296633931 -2.282067629438139 -2.2785478575157785 -2.2769979415178452 -2.2753251210675178 -2.3025848264293334 -2.2963236153971747 -2.2961621099728409 -2.2784783530969812 -2.3026832713263006 -2.2879235209460074 -2.300110199065132 -2.2821348201817178 -2.2964227133382615 -2.2787227470281191 -2.3024419520182233 -2.2994525865475977 -2.2749143403011876 -2.3022264004353703 -2.2945789857023651 -2.3105817893332743 -2.2524210655112515 -2.3022134550371303 -2.2778019427119771 -2.3005596859411535 -2.2946041303264795 -2.3028905977544452 -2.2678156000526348 -2.2925771895833651 -2.3026579330358921 -2.3023012704965939 -2.3028826683034707 -2.2936983902557464 -2.3923751444101038 -2.3022283532112122 -2.3021666676634358 -2.3023536364683421 -2.3029212388393718 -2.3027042908320046 -2.3021828447588439 -2.3516650938329695 -2.302874874814496 -2.3024683804838815 -2.3026608469139185 -2.3023151064257106 -2.3030922339593989 -2.3029936921231262 -2.3028707561099213 -2.349419315374329 -2.3025304459686708 -2.2896972079606281 -2.3024366985836746 -2.4865164840047203 -2.3024328020279325 -2.3312597489094573 -2.3029039252642249 -2.3022782744519907 -2.3033131516849119 -2.3021577562087554 -2.3028299011260933 -2.296641123495923 -2.4069680535091331 -2.302595709686277 -2.302357762909752 -2.3024708459337373 -2.3025942818337271 -2.3028719673960989 -2.2969110051550792 -2.3021274157486253 -2.2853640536981263 -2.3020816648645015 -2.2968943737569187 -2.3026099717758211 -2.2861825105720421 -2.3027311891697564 -2.3304724779497246 -2.3031294968722626 -2.3026867725183555 -2.3023608632743913 -2.302388962303787 -2.3028018655271003 -2.3028458232322526 -2.3025262930078521 -2.3028589110472879 -2.302429783489861 -2.3007014208864489 -2.3029666328422302 -2.3027729713153597 -2.302566506461766 -2.3450600928710204 -2.302166015686812 -2.3032786417013731 -2.3022839657339453 -2.2955902996037154 -2.3018467852853899 -2.302779731497008 -2.302002033116997 -2.3032836569908426 -2.3024894310436701 -2.303375520559293 -2.3024661041931349 -2.302967249973515 -2.3027253595954789 -2.302713947604718 -2.3027015197946703 -2.4031972565152961 -2.3021293684900828 -2.3027017316429998 -2.3021770872909033 -2.3027975703120127 -2.2865205918669869 -2.3025849014351558 -2.2781970734320089 -2.3024503343917138 -2.302429144897137 -2.3024533959500717 -2.3141883123610163 -2.3000184567287518 -2.3024490386664516 -2.3025094315183652 -2.4206027699992965 -2.3026251269289659 -2.3023251379630305 -2.3024222829074348 -2.3025867509767961 -2.3024429468922993 -2.302488359316647 -2.3020077494818181 -2.3028490275975062 -2.2783329234097085 -2.3025045217372755 -2.2938537933287964 -2.3028025169412247 -2.2849415054647784 -2.3029169044062119 -2.2785774783942303 -2.30249274916978 -2.3025562555203569 -2.3020686012388789 -2.3025734530012421 -2.3032849852084314 -2.6220258583124028 -2.3024972920538027 -2.3026981554629473 -2.3028614434086698 -2.3001417533017632 -2.3024712092407045 -2.3022338868481289 -2.3018559616716709 -2.2926994578579207 -2.3022066918293342 -2.30236055280499 -2.3023269141073412 -2.2945256339530453 -2.3021543237130029 -2.3026660910200585 -2.3022538449346066 -2.3024305059362664 -2.5413459593452417 -2.3026975228583377 -2.3023951807003313 -2.302441761259534 -2.3027338639614721 -2.302553349618913 -2.30230518042758 -2.3023250486021971 -2.5085970643651629 -2.3027200178355391 -2.3024318724667241 -2.273970321436932 -2.3025829715346489 -2.3029717829156566 -2.3028749024358306 -2.3028315876660628 -2.3030326154468335 -2.280197183923605 -2.2933783851474727 -2.4751383537406482 -2.3027410993355004 -2.3022991954285721 -2.3030426142429574 -2.3028195696756937 -2.3703031426919421 -2.3020700580770583 -2.3020643300870582 -2.3031490102497876 -2.302496387875359 -2.5383064902274168 -2.2612884950799792 -2.30213261776177 -2.2954330868223676 -2.3022346788986132 -2.2699594338875277 -2.3020527590809365 -2.5218506935767548 -2.3026056966153479 -2.3023963272683856 -2.3021652195573812 -2.3022923557963932 -2.3023796819678859 -2.3033715642928096 -2.302344621798778 -2.3020023682049384 -2.3026164773580748 -2.3001791505438689 -2.3027207478032579 -2.3019782565163442 -2.302392271968507 -2.2930144054945494 -2.3026297160246547 -2.3021701381313511 -2.3022633387884559 -2.2941138353567214 -2.3027199301757428 -2.3020309335253426 -2.3026116607057858 -2.3021736792014007 -2.3025833058973904 -2.2869484113096661 -2.3026361805772342 -2.3023955103113245 -2.2691173960597379 -2.3023044857468369 -2.3022264711606839 -2.3024495853086244 -2.3021644100113456 -2.3029889239692323 -2.1726100199187401 -2.2925755753169366 -2.3028532797201033 -2.3021293994768417 -2.2932779068059399 -2.2971855714982503 -2.3028783769164423 -2.0094041912743594 -2.3022891409563231 -2.5073550773448523 -2.2991465834156397 -2.3024505981401111 -2.2958909599604183 -2.4125056211057232 -2.2624322471626725 -2.2844935537557527 -2.3020572388185778 -2.2988920032380644 -2.2945571893412797 -2.5784573263574107 -2.3028887623117607 -2.2563051600283859 -2.3006316298229352 -2.2727726718157211 -2.2943688381937957 -2.6191629476662173 -2.3028871880627153 -2.3003098404814657 -2.3026554642712442 -2.3003843228610621 -2.3024639346798641 -2.2761485759990538 -2.3023520313797681 -2.2537100938848189 -2.3027714620858228 -2.2234954998163934 -2.3025988135384541 -2.2542298751692615 -2.2724685211430407 -2.296787491970778 -2.4898320174604853 -2.2763241006098252 -2.3025870240601498 -2.2697873245526274 -2.2492195107435045 -2.2487775524915796 -2.2897132664895579 -2.2650622395099229 -2.3028197030665272 -2.4999019215586724 -2.3025608284033448 -2.3028042699413622 -2.302920870992752 -2.3028550939758352 -2.3028503265962548 -2.2962752035950742 -2.3415629226344472 -2.2878420351208515 -2.2947554290350274 -2.2910361855144212 -2.3028441403753428 -2.3030539969327619 -2.3023072521303352 -2.3021199727906803 -2.2805386480924561 -2.4568076749885321 -2.3030338394260372 -2.303045505681113 -2.3027095717898161 -2.3028489455284951 -2.3025893525319181 -2.3031374259453425 -2.3025926161247612 -2.3028505870877831 -2.3032016221790879 -2.3031014015124134 -2.2808543925686839 -2.3026344378709784 -2.3437732351452292 -2.3021202652990982 -2.2646038981117003 -2.3030957670392049 -2.2814822973402928 -2.3027656947281372 -2.3024049102502193 -2.2993856295465416 -2.3027666240919116 -2.3029037554898468 -2.3027245329805504 -2.2737853938360231 -2.3025253879097249 -2.3025628703920709 -2.3005798449606143 -2.3027269828753449 -2.3023777468176352 -2.3030249702143601 -2.2938702459128288 -2.3028428509173273 -2.3024958603275225 -2.3020391163070073 -2.2951780619586404 -2.3030967743701636 -2.3033890280304012 -2.3028495052165399 -2.3022272896218929 -2.3023323089774039 -2.3021880016591063 -2.5083197981015086 -2.316251218489541 -2.300420348716206 -2.3024262346281388 -2.5914428794964159 -2.3029991042240572 -2.2377184256928873 -2.3023638815227314 -2.3026982565327474 -2.2677490230947197 -2.295613653302214 -2.3023952890516499 -2.3028796327342338 -2.3025406290659016 -2.6190356152039151 -2.3023891754390093 -2.3027653431703601 -2.2936597226411943 -2.3027571942445451 -2.3025154924719602 -2.302417511688871 -2.3029404227516235 -2.3027853460226728 -2.3027280719095526 -2.3028194669352002 -2.2790310783394943 -2.2742215683096645 -2.30220179100681 -2.302360872114309 -2.2735102945069365 -2.3030126155433503 -2.2789715696179158 -2.2740824465525589 -2.3023304651867025 -2.2787346148711536 -2.3026134671491749 -2.3565615958375319 -2.3497845009728362 -2.302645682176292 -2.3026564215826402 -2.3024033923668066 -2.3006190039588135 -2.3027138160964267 -2.302673879307215 -2.3029706756915767 -2.2906342677407623 -2.301492066491635 -2.3028802635768848 -2.3025168879504663 -2.293968996336865 -2.3026802555668162 -2.3518735994941848 -2.3023343617068184 -2.3028470846459035 -2.3026375266206287 -2.3027807560140103 -2.48561056930216 -2.3026177927669913 -2.3024161135917529 -2.3024885458756841 -2.3027015963463446 -2.2860800287080729 -2.3030017533854941 -2.3027494663125485 -2.3031110691230747 -2.302631630812451 -2.3028522573695773 -2.3024865887191868 -2.3021853480926993 -2.3026861400231176 -2.3027664626166544 -2.2958208517919725 -2.3029934249023754 -2.3030052254175675 -2.3024379796991075 -2.3026846275239703 -2.302560895387129 -2.3025868690678513 -2.295791829819946 -2.3020574865232328 -2.2792075415404023 -2.3028055741073552 -2.2951968254794397 -2.3025569872335772 -2.2788922782233603 -2.4913244521635063 -2.2790364379357668 -2.3027442247722636 -2.3024843489103932 -2.3025958605579233 -2.3025266893472502 -2.3027144546895593 -2.3026348627486621 -2.3025810072960731 -2.3026216246281215 -2.3026985190283895 -2.3003598165715351 -2.3019786135364848 -2.3024894086251781 -2.3022394892389384 -2.2929631019038244 -2.3027165334785078 -2.3023414084386022 -2.3020266132336258 -2.2948749650050226 -2.3024052001960587 -2.3021586886503065 -2.3027842573270227 -2.3029495492235252 -2.3023772626963015 -2.3028347469042076 -2.302464551565143 -2.495356568574076 -2.3024560552028257 -2.4626914881269548 -2.2859047748835875 -2.301878112348767 -2.3023391281412842 -2.3027865787647337 -2.3020350091450204 -2.3021562024781628 -2.3157723177692962 -2.3026235619396562 -2.3025103934509414 -2.3027273964265729 -2.295106826711367 -2.3023136716219579 -2.3021889010532246 -2.3028236722817863 -2.3026656207668559 -2.302270244971472 -2.3021503678873878 -2.295106826711367 -2.3021317760096358 -2.2788973813494797 -2.3023053184256654 -2.2946443473749909 -2.3027803715698658 