svm_type c_svc
kernel_type rbf
gamma 0.0078125
nr_class 2
total_sv 316
rho -113.37225893789756
label 0 1
probA -0.32192521086421089
probB 0.022051768165585389
nr_sv 156 160
SV
376.16646559704458 1:-0.413043 2:-0.938208 3:-0.843121 4:-0.950539 5:-0.733426 6:-0.953039 7:-0.950792 8:-0.749182 9:-0.847279 10:-0.714039 11:-0.952119 12:-0.852882 13:-0.988594 14:-0.764756 15:-0.961661 16:-0.980786 17:-0.961077 18:-0.891553 19:-0.990274 20:-0.975839 21:-0.713342 22:-0.712298 23:-0.986137 24:-0.790606 25:-0.944245 26:-0.921329 27:-0.833608 28:-0.965479 29:-0.954296 30:-0.888162 31:-0.98221 32:-0.712817 33:-0.850485 34:-0.542328 35:-0.714925 36:-0.982674 37:-0.788003 38:-0.925616 39:-0.807692 40:-0.670423 41:-0.852349 42:-0.927519 43:-0.623408 44:-0.902266 45:-0.972271 46:-0.857824 47:-0.823513 48:-0.862094 49:-0.984955 50:-0.757409 51:-0.896113 52:-0.90975 53:-0.95387 54:-0.996507 55:-0.91044 56:-0.811459 57:-0.499619 58:-0.982735 59:-0.866353 60:-0.646326 
1210.4234387194329 1:-0.996451 2:-0.880793 3:-0.851421 4:-0.968294 5:-0.97682 6:-0.990331 7:-0.905543 8:-0.538557 9:-0.675378 10:-0.410242 11:-0.779857 12:-0.388473 13:-0.969683 14:-0.53037 15:-0.865815 16:-0.879988 17:-0.752362 18:-0.900241 19:-0.626342 20:-0.498754 21:-0.840562 22:-0.84355 23:-0.983197 24:-0.761932 25:-0.851065 26:-0.94262 27:-0.4698 28:-0.793425 29:-0.768739 30:-0.803688 31:-0.483124 32:-0.885641 33:-0.807887 34:-0.493953 35:-0.801154 36:-0.84207 37:-0.351684 38:-0.750349 39:-0.730769 40:-0.468075 41:-0.896453 42:-0.892752 43:-0.674363 44:-0.643896 45:-0.697935 46:-0.816035 47:-0.803017 48:-0.81345 49:-0.818182 50:-0.716058 51:-0.547988 52:-0.382534 53:-0.821169 54:-0.749214 55:-0.943007 56:-0.675742 57:-0.485899 58:-0.616713 59:-0.770987 60:-0.624513 
1541.534094328169 1:-0.418367 2:-0.817971 3:-0.694127 4:-0.91841 5:-0.709318 6:-0.94337 7:-0.954751 8:-0.790933 9:-0.522177 10:-0.696203 11:-0.827738 12:-0.535829 13:-0.957977 14:-0.766471 15:-0.904153 16:-0.860183 17:-0.791567 18:-0.991633 19:-0.616211 20:-0.523298 21:-0.873606 22:-0.8695 23:-0.968074 24:-0.972458 25:-0.907279 26:-0.978969 27:-0.636663 28:-0.827945 29:-0.814442 30:-0.915923 31:-0.501158 32:-0.829104 33:-0.958245 34:-0.951625 35:-0.91542 36:-0.860284 37:-0.563681 38:-0.825662 39:-0.923077 40:-0.799531 41:-0.95628 42:-0.966411 43:-0.949045 44:-0.742306 45:-0.725664 46:-0.958665 47:-0.981213 48:-0.951599 49:-0.833482 50:-0.958649 51:-0.652563 52:-0.474299 53:-0.774408 54:-0.745023 55:-0.853185 56:-0.865095 57:-0.987805 58:-0.633978 59:-0.904634 60:-0.978707 
7330.1308316516152 1:-0.939663 2:-0.887745 3:-0.992115 4:-0.728176 5:-0.496987 6:-0.875691 7:-0.943439 8:-0.920548 9:-0.988971 10:-0.509206 11:-0.860759 12:-0.971717 13:-0.957076 14:-0.985422 15:-0.98722 16:-0.818504 17:-0.99718 18:-0.874497 19:-0.9769 20:-0.996932 21:-0.846758 22:-0.958631 23:-0.952111 24:-0.980004 25:-0.999542 26:-0.87044 27:-0.774853 28:-0.962192 29:-0.94287 30:-0.954987 31:-0.920799 32:-0.943784 33:-0.928933 34:-0.989418 35:-0.947697 36:-0.956464 37:-0.953574 38:-0.959089 39:-0.892308 40:-0.946009 41:-0.981208 42:-0.91043 43:-0.856688 44:-0.903619 45:-0.679646 46:-0.995003 47:-0.937375 48:-0.920953 49:-0.982915 50:-0.973122 51:-0.991056 52:-0.821015 53:-0.916588 54:-0.948306 55:-0.887328 56:-0.977245 57:-0.740854 58:-1 59:-0.914036 60:-0.767333 
1361.0469058958706 1:-0.838509 2:-0.908084 3:-0.977174 4:-0.980131 5:-0.540566 6:-0.319521 7:-0.7681 8:-0.635769 9:-0.455766 10:-0.682394 11:-0.86186 12:-0.875223 13:-0.965481 14:-0.439474 15:-0.665335 16:-0.943837 17:-0.726414 18:-0.602253 19:-0.582168 20:-0.854267 21:-0.336638 22:-0.922527 23:-0.544213 24:-0.482739 25:-0.88681 26:-0.636246 27:-0.786134 28:-0.688219 29:-0.781079 30:-0.704144 31:-0.844279 32:-0.769033 33:-0.84205 34:-0.687831 35:-0.92343 36:-0.734118 37:-0.203369 38:-0.530916 39:-0.674359 40:-0.711268 41:-0.834324 42:-0.466117 43:-0.907245 44:-0.912749 45:-0.79764 46:-0.731092 47:-0.414176 48:-0.716162 49:-0.769731 50:-0.709855 51:-0.45098 52:-0.481658 53:-0.524803 54:-0.467691 55:-0.3652 56:-0.672491 57:-0.66311 58:-0.48895 59:-0.592344 60:-0.394443 
2710.4264649695333 1:-0.776398 2:-0.794799 3:-0.985474 4:-0.748468 5:-0.957348 6:-0.195212 7:-0.711538 8:-0.554759 9:-0.444258 10:-0.826812 11:-0.72262 12:-0.903743 13:-0.922257 14:-0.454909 15:-0.678115 16:-0.875259 17:-0.729516 18:-0.728077 19:-0.605674 20:-0.850815 21:-0.490706 22:-0.964648 23:-0.593363 24:-0.503867 25:-0.887726 26:-0.766065 27:-0.989189 28:-0.726027 29:-0.723949 30:-0.658735 31:-0.923724 32:-0.71089 33:-0.770139 34:-0.677249 35:-0.869478 36:-0.778543 37:-0.249795 38:-0.572757 39:-0.782051 40:-0.767136 41:-0.815149 42:-0.556865 43:-0.763933 44:-0.815692 45:-0.477286 46:-0.725642 47:-0.349843 48:-0.636872 49:-0.787071 50:-0.682977 51:-0.460612 52:-0.662158 53:-0.608847 54:-0.415299 55:-0.478135 56:-0.648923 57:-0.92378 58:-0.48895 59:-0.678308 60:-0.627629 
3771.8995477463304 1:-0.99024 2:-0.895984 3:-0.91077 4:-0.911224 5:-0.888271 6:-0.79558 7:-0.877828 8:-0.989095 9:-0.888756 10:-0.552934 11:-0.732801 12:-0.935591 13:-0.915053 14:-0.690725 15:-0.951877 16:-0.829146 17:-0.98618 18:-0.791794 19:-0.830598 20:-0.82512 21:-0.805452 22:-0.977435 23:-0.923966 24:-0.768534 25:-0.869243 26:-0.848111 27:-0.998825 28:-0.829041 29:-0.84415 30:-0.849098 31:-0.996345 32:-0.842274 33:-0.977857 34:-0.949735 35:-0.910944 36:-0.908929 37:-0.933032 38:-0.88145 39:-0.957265 40:-0.85493 41:-0.934803 42:-0.955215 43:-0.946258 44:-0.878086 45:-0.850737 46:-0.850784 47:-0.816112 48:-0.880822 49:-0.895193 50:-0.973811 51:-0.877881 52:-0.935288 53:-0.854976 54:-0.847363 55:-0.92541 56:-0.828525 57:-0.789253 58:-0.881215 59:-0.75319 60:-0.791742 
8192 1:-0.94898 2:-0.929712 3:-0.939822 4:-0.972099 5:-0.93185 6:-0.968232 7:-0.76414 8:-0.820844 9:-0.916567 10:-0.868239 11:-0.886901 12:-0.948663 13:-0.910851 14:-0.824496 15:-0.877196 16:-0.879988 17:-0.982513 18:-0.8893 19:-0.976494 20:-0.940556 21:-0.76043 22:-0.976307 23:-0.769796 24:-0.796453 25:-0.896128 26:-0.894327 27:-0.791774 28:-0.881644 29:-0.776508 30:-0.956573 31:-0.954185 32:-0.7761 33:-0.943273 34:-0.946334 35:-0.918247 36:-0.882941 37:-0.923172 38:-0.883775 39:-0.961538 40:-0.885446 41:-0.918696 42:-0.884502 43:-0.931529 44:-0.933886 45:-0.958112 46:-0.827618 47:-0.917449 48:-0.839475 49:-0.932934 50:-0.868367 51:-0.882697 52:-0.773834 53:-0.810742 54:-0.936081 55:-0.99107 56:-0.780171 57:-0.905869 58:-0.997928 59:-0.96642 60:-0.880551 
8192 1:-0.937445 2:-0.967302 3:-0.971363 4:-0.939548 5:-0.957348 6:-0.763812 7:-0.886312 8:-0.808381 9:-0.972668 10:-0.684695 11:-0.8459 12:-0.884017 13:-0.996098 14:-0.867086 15:-0.925319 16:-0.949749 17:-0.968411 18:-0.902816 19:-0.854509 20:-0.884947 21:-0.955803 22:-0.95299 23:-0.847091 24:-0.973213 25:-0.973574 26:-0.954044 27:-0.79342 28:-0.947397 29:-0.932358 30:-0.892921 31:-0.958085 32:-0.935753 33:-0.966259 34:-0.996599 35:-0.994346 36:-0.9749 37:-0.99014 38:-0.998605 39:-0.995726 40:-0.971362 41:-0.984276 42:-0.838539 43:-0.985271 44:-0.944877 45:-0.80885 46:-0.977288 47:-0.90037 48:-0.958896 49:-0.827872 50:-0.842178 51:-0.995872 52:-0.707607 53:-0.956398 54:-0.91198 55:-0.916218 56:-0.952458 57:-0.884909 58:-0.883287 59:-0.78677 60:-0.911711 
6690.6950113462981 1:-0.583851 2:-0.79467 3:-0.842498 4:-0.559924 5:-0.625174 6:-0.686464 7:-0.437783 8:-0.628914 9:-0.429873 10:-0.816456 11:-0.704458 12:-0.737611 13:-0.590875 14:-0.668429 15:-0.742212 16:-0.628732 17:-0.67762 18:-0.779244 19:-0.416008 20:-0.514861 21:-0.599752 22:-0.679955 23:-0.654694 24:-0.556687 25:-0.562667 26:-0.493704 27:-0.488132 28:-0.71863 29:-0.679388 30:-0.846718 31:-0.862556 32:-0.425634 33:-0.638338 34:-0.524565 35:-0.71681 36:-0.596624 37:-0.526705 38:-0.597397 39:-0.42735 40:-0.501878 41:-0.608821 42:-0.148497 43:-0.613654 44:-0.780183 45:-0.480826 46:-0.759709 47:-0.274125 48:-0.624954 49:-0.623868 50:-0.688146 51:-0.463708 52:-0.570826 53:-0.736493 54:-0.656305 55:-0.565594 56:-0.253962 57:-0.748476 58:-0.584254 59:-0.683009 60:-0.358608 
8192 1:-0.354925 2:-0.748069 3:-0.825897 4:-0.466075 5:-0.541261 6:-0.566759 7:-0.738122 8:-0.665057 9:-0.677056 10:-0.673763 11:-0.573473 12:-0.710042 13:-0.748161 14:-0.527226 15:-0.672724 16:-0.782737 17:-0.575518 18:-0.402735 19:-0.455724 20:-0.502589 21:-0.513011 22:-0.591952 23:-0.554295 24:-0.580834 25:-0.71817 26:-0.401013 27:-0.362162 28:-0.675342 29:-0.734232 30:-0.689272 31:-0.796271 32:-0.550916 33:-0.751792 34:-0.48904 35:-0.738485 36:-0.597956 37:-0.612161 38:-0.376569 39:-0.27094 40:-0.504695 41:-0.559732 42:-0.428403 43:-0.561306 44:-0.847142 45:-0.643068 46:-0.760164 47:-0.375463 48:-0.460294 49:-0.588678 50:-0.258442 51:-0.306846 52:-0.111568 53:-0.308057 54:-0.511002 55:-0.515167 56:-0.339293 57:-0.640244 58:-0.546271 59:-0.609805 60:-0.334718 
2491.0723570078303 1:-0.772848 2:-0.954428 3:-0.983814 4:-0.906574 5:-0.917014 6:-0.880295 7:-0.699661 8:-0.965415 9:-0.753536 10:-0.857307 11:-0.869015 12:-0.972668 13:-0.843014 14:-0.859654 15:-0.930511 16:-0.846586 17:-0.898181 18:-0.623813 19:-0.960689 20:-0.988111 21:-0.914085 22:-0.912749 23:-0.900861 24:-0.976985 25:-0.844955 26:-0.907309 27:-0.874031 28:-0.956712 29:-0.945155 30:-0.842951 31:-0.933959 32:-0.876646 33:-0.887389 34:-0.964475 35:-0.979974 36:-0.999556 37:-0.914544 38:-0.780102 39:-0.84359 40:-0.999061 41:-0.951294 42:-0.721273 43:-0.94785 44:-0.933717 45:-0.837758 46:-1 47:-0.90037 48:-0.835826 49:-0.965064 50:-0.570641 51:-0.843825 52:-0.541824 53:-0.572196 54:-0.855396 55:-0.949836 56:-0.915482 57:-0.893293 58:-0.962017 59:-0.926797 60:-0.976629 
8192 1:-0.974268 2:-0.754119 3:-0.999585 4:-0.898542 5:-0.921187 6:-0.813076 7:-0.68552 8:-0.962923 9:-0.908415 10:-0.715765 11:-0.893231 12:-0.932264 13:-0.870029 14:-0.914535 15:-0.772364 16:-0.808158 17:-0.898181 18:-0.630249 19:-0.980547 20:-0.700863 21:-0.817018 22:-0.785634 23:-0.779038 24:-0.897378 25:-0.858092 26:-0.982604 27:-0.723149 28:-0.671233 29:-0.730576 30:-0.858021 31:-0.850128 32:-0.810472 33:-0.887811 34:-0.975057 35:-0.955943 36:-0.972679 37:-0.736647 38:-0.79033 39:-0.923932 40:-0.961502 41:-0.983893 42:-0.937537 43:-0.740446 44:-0.991545 45:-0.972861 46:-0.997729 47:-0.985767 48:-0.98565 49:-0.918654 50:-0.881461 51:-0.844513 52:-0.568661 53:-0.697314 54:-0.864478 55:-0.821668 56:-0.918326 57:-0.785442 58:-0.81837 59:-0.976494 60:-0.861335 
3696.6233915754046 1:-0.773292 2:-0.751802 3:-0.854742 4:-0.640245 5:-0.8637 6:-0.745396 7:-0.70871 8:-0.979748 9:-0.943419 10:-0.865362 11:-0.751789 12:-0.925609 13:-0.933063 14:-0.929398 15:-0.777556 16:-0.850724 17:-0.969257 18:-0.946259 19:-0.842351 20:-0.769128 21:-0.826931 22:-0.930425 23:-0.928166 24:-0.918506 25:-0.961964 26:-0.825782 27:-0.923384 28:-0.830685 29:-0.915905 30:-0.866349 31:-0.837943 32:-0.764215 33:-0.983551 34:-0.975057 35:-0.964896 36:-0.981564 37:-0.983566 38:-0.936774 39:-0.914103 40:-0.895775 41:-0.907958 42:-0.647613 43:-0.698248 44:-0.932364 45:-0.953982 46:-0.979559 47:-0.756334 48:-0.876687 49:-0.867653 50:-0.977946 51:-0.983488 52:-0.972081 53:-0.77188 54:-0.996507 55:-0.791727 56:-0.612759 57:-0.599466 58:-0.956492 59:-0.868368 60:-0.653596 
7630.4529053666229 1:-0.82165 2:-0.922245 3:-0.759909 4:-0.854153 5:-0.865554 6:-0.883057 7:-0.487557 8:-0.909955 9:-0.768401 10:-0.871116 11:-0.674739 12:-0.808913 13:-0.912652 14:-0.854509 15:-0.966054 16:-0.953296 17:-0.908335 18:-0.966533 19:-0.674975 20:-0.871524 21:-0.866997 22:-0.752915 23:-0.824407 24:-0.897378 25:-0.914916 26:-0.903155 27:-0.811986 28:-0.739178 29:-0.911335 30:-0.733095 31:-0.748751 32:-0.872149 33:-0.933783 34:-0.724112 35:-0.880551 36:-0.824078 37:-0.875103 38:-0.782427 39:-0.547009 40:-0.697183 41:-0.806711 42:-0.873895 43:-0.881369 44:-0.832939 45:-0.897935 46:-0.915966 47:-0.96641 48:-0.910738 49:-0.981895 50:-0.902136 51:-0.817681 52:-0.672546 53:-0.888784 54:-0.959483 55:-0.907288 56:-0.484762 57:-0.81936 58:-0.94337 59:-0.717931 60:-0.44482 
2348.3721126142677 1:-0.750665 2:-0.397528 3:-0.91492 4:-0.521031 5:-0.776078 6:-0.93186 7:-0.941176 8:-0.714909 9:-0.752098 10:-0.972382 11:-0.831591 12:-0.740939 13:-0.959478 14:-0.90253 15:-0.811502 16:-0.817913 17:-0.959103 18:-0.895736 19:-0.852077 20:-0.98466 21:-0.910781 22:-0.697255 23:-0.626969 24:-0.900019 25:-0.912167 26:-0.732312 27:-0.843478 28:-0.787397 29:-0.950183 30:-0.915526 31:-0.801389 32:-0.737873 33:-0.928722 34:-0.593348 35:-0.901755 36:-0.965349 37:-0.665571 38:-0.99814 39:-0.273504 40:-0.3723 41:-0.764525 42:-0.598114 43:-0.559713 44:-0.709165 45:-0.557522 46:-0.624347 47:-0.756334 48:-0.254044 49:-0.964044 50:-0.975879 51:-0.757138 52:-0.991992 53:-0.627172 54:-0.517988 55:-0.721865 56:-0.39293 57:-0.41997 58:-0.917818 59:-0.726662 60:-0.569462 
456.9737182881542 1:-0.93079 2:-0.476571 3:-0.845404 4:-0.667301 5:-0.640705 6:-0.951197 7:-0.54638 8:-0.806512 9:-0.984176 10:-0.898734 11:-0.843148 12:-0.932264 13:-0.87183 14:-0.756181 15:-0.845447 16:-0.865208 17:-0.867156 18:-0.861947 19:-0.526646 20:-0.887248 21:-0.957043 22:-0.945092 23:-0.803823 24:-0.998491 25:-0.997709 26:-0.829417 27:-0.968978 28:-0.951781 29:-0.861517 30:-0.817965 31:-0.947606 32:-0.867652 33:-0.995782 34:-0.31746 35:-0.980445 36:-0.859618 37:-0.540674 38:-0.779637 39:-0.726496 40:-0.676995 41:-0.958198 42:-0.725398 43:-0.678344 44:-0.876902 45:-0.659587 46:-0.708835 47:-0.791631 48:-0.343549 49:-0.982405 50:-0.878015 51:-0.940144 52:-0.663023 53:-0.739021 54:-0.559204 55:-0.814839 56:-0.90898 57:-0.602134 58:-0.974448 59:-0.991269 60:-0.875876 
6134.7734052643982 1:-0.331854 2:-0.880021 3:-0.955177 4:-0.742126 5:-0.92675 6:-0.918969 7:-0.902149 8:-0.932388 9:-0.841285 10:-0.675489 11:-0.860759 12:-0.717409 13:-0.862825 14:-0.689867 15:-0.866613 16:-0.841561 17:-0.85531 18:-0.838777 19:-0.873151 20:-0.807862 21:-0.988435 22:-0.802557 23:-0.923125 24:-0.982267 25:-0.976018 26:-0.783721 27:-0.780964 28:-1 29:-0.988574 30:-0.840968 31:-0.934934 32:-0.978799 33:-0.966681 34:-0.956916 35:-0.928613 36:-0.645935 37:-0.926869 38:-0.841004 39:-0.901709 40:-0.942723 41:-0.935187 42:-0.826753 43:-0.992038 44:-0.898208 45:-0.633628 46:-0.70293 47:-0.882152 48:-0.83534 49:-0.900293 50:-0.840799 51:-0.903681 52:-0.94611 53:-0.666351 54:-0.849109 55:-0.944583 56:-0.891914 57:-0.869665 58:-0.974448 59:-0.795836 60:-0.874838 
1221.7299668266114 1:-0.169476 2:-0.88105 3:-0.808882 4:-0.717607 5:-0.66713 6:-0.937845 7:-0.94457 8:-0.999688 9:-0.906018 10:-0.67664 11:-0.980737 12:-0.992157 13:-0.859823 14:-0.818494 15:-0.996805 16:-0.665386 17:-0.946693 18:-0.919228 19:-0.869909 20:-0.704314 21:-0.279637 22:-0.955246 23:-0.857593 24:-0.871345 25:-0.858092 26:-0.990913 27:-0.429847 28:-0.513973 29:-0.706581 30:-0.612929 31:-0.76581 32:-0.960167 33:-0.951497 34:-0.88133 35:-0.921074 36:-0.89649 37:-0.820049 38:-0.879126 39:-0.95641 40:-0.825352 41:-0.864621 42:-0.621685 43:-0.835191 44:-0.825161 45:-0.0778761 46:-0.734726 47:-0.892969 48:-0.909765 49:-0.910493 50:-0.914542 51:-0.80117 52:-0.669083 53:-0.95387 54:-0.794621 55:-0.810112 56:-0.908167 57:-0.872713 58:-0.781768 59:-0.631968 60:-0.711763 
6410.7872485731978 1:-0.839397 2:-1 3:-0.854119 4:-0.975904 5:-0.741307 6:-0.856814 7:-0.957579 8:-0.930519 9:-0.935747 10:-0.998849 11:-0.880022 12:-0.709329 13:-0.997299 14:-0.507503 15:-0.863419 16:-0.506355 17:-0.908899 18:-0.919871 19:-0.742655 20:-0.511793 21:-0.292028 22:-0.757052 23:-0.935728 24:-0.890209 25:-0.833652 26:-0.774374 27:-0.649354 28:-0.513973 29:-0.718007 30:-0.4535 31:-0.7005 32:-0.983296 33:-0.98566 34:-0.924414 35:-0.99411 36:-0.750333 37:-0.746919 38:-0.962808 39:-0.945299 40:-0.766197 41:-0.929818 42:-0.796111 43:-0.843153 44:-0.927629 45:-0.444248 46:-0.968658 47:-0.990891 48:-0.744862 49:-0.810532 50:-0.755341 51:-0.704162 52:-0.724489 53:-0.619589 54:-0.94621 55:-0.865791 56:-0.799269 57:-0.740854 58:-0.756215 59:-0.427804 60:-0.837445 
823.70388638739894 1:-0.601597 2:-0.693615 3:-0.909525 4:-0.986895 5:-0.908206 6:-0.866483 7:-0.746041 8:-0.246923 9:-0.909854 10:-0.933257 11:-0.832966 12:-0.833393 13:-0.754765 14:-0.576676 15:-0.928115 16:-0.763523 17:-0.856438 18:-0.637329 19:-0.535562 20:-0.776414 21:-0.989674 22:-0.977435 23:-0.717286 24:-0.968685 25:-0.828152 26:-0.124757 27:-0.873561 28:-0.750137 29:-0.916819 30:-0.637914 31:-0.747776 32:-0.660777 33:-0.729228 34:-0.540438 35:-0.880551 36:-0.902266 37:-0.989318 38:-0.376104 39:-0.384615 40:-0.292019 41:-0.712752 42:-0.869181 43:-0.723726 44:-0.826852 45:-0.657227 46:-0.505337 47:-0.705095 48:-0.459321 49:-0.846742 50:-0.722261 51:-0.801858 52:-0.899362 53:-0.795893 54:-0.813482 55:-0.912016 56:-0.83015 57:-0.284299 58:-0.662293 59:-0.546004 60:-0.740847 
3625.6517058888417 1:-0.945874 2:-0.705973 3:-0.569205 4:-0.814838 5:-0.873899 6:-0.782689 7:-0.679864 8:-0.0774264 9:-0.741549 10:-0.883199 11:-0.818657 12:-0.895187 13:-0.901846 14:-0.62927 15:-0.877796 16:-0.812592 17:-0.816951 18:-0.352856 19:-0.862614 20:-0.68744 21:-0.726146 22:-0.87815 23:-0.986137 24:-0.761177 25:-0.826625 26:-0.324679 27:-0.751821 28:-0.604384 29:-0.889397 30:-0.830656 31:-0.782381 32:-0.855445 33:-0.722902 34:-0.868481 35:-0.786312 36:-0.919591 37:-0.830731 38:-0.943282 39:-0.311538 40:-0.567136 41:-0.870757 42:-0.870359 43:-0.688694 44:-0.758539 45:-0.684366 46:-0.797865 47:-0.612297 48:-0.471482 49:-0.957414 50:-0.740868 51:-0.505332 52:-0.984201 53:-0.922907 54:-0.891722 55:-0.953513 56:-0.481512 57:-0.28125 58:-0.616022 59:-0.690396 60:-0.750195 
8192 1:-0.803682 2:-0.956488 3:-0.966591 4:-0.923483 5:-0.927793 6:-0.908725 7:-0.994344 8:-0.876616 9:-0.967394 10:-0.970512 11:-0.969868 12:-0.956625 13:-0.935014 14:-0.892811 15:-0.942492 16:-0.986255 17:-0.977577 18:-0.965084 19:-0.895846 20:-0.891467 21:-0.987815 22:-0.933716 23:-0.987398 24:-0.941803 25:-0.983044 26:-0.944307 27:-0.999295 28:-0.964384 29:-0.988574 30:-0.978683 31:-0.99866 32:-0.915355 33:-0.979334 34:-0.992819 35:-0.967841 36:-0.958352 37:-0.9735 38:-0.933519 39:-0.949145 40:-0.949296 41:-0.919463 42:-0.931202 43:-0.944865 44:-0.939381 45:-0.929794 46:-0.96298 47:-0.917449 48:-0.96376 49:-0.931914 50:-0.979325 51:-0.887513 52:-0.972297 53:-0.930964 54:-0.940622 55:-0.951937 56:-0.916904 57:-0.947409 58:-0.958391 59:-0.997649 60:-0.958452 
712.11553122104306 1:-0.987578 2:-0.870237 3:-0.803279 4:-0.100824 5:-0.901715 6:-0.983425 7:-0.506787 8:-0.762268 9:-0.977943 10:-0.905063 11:-0.794166 12:-0.859061 13:-0.626895 14:-0.743604 15:-0.986821 16:-0.947975 17:-0.981667 18:-0.634111 19:-0.747112 20:-0.873058 21:-0.815779 22:-0.898458 23:-0.860534 24:-0.686097 25:-0.828763 26:-0.716734 27:-0.965687 28:-0.325479 29:-0.8734 30:-0.55463 31:-0.920312 32:-0.863155 33:-0.857866 34:-0.972033 35:-0.704323 36:-0.649045 37:-0.588332 38:-0.886564 39:-0.94188 40:-0.0826291 41:-0.944391 42:-0.54508 43:-0.857484 44:-0.94792 45:-0.504425 46:-0.577561 47:-0.980643 48:-0.899064 49:-0.964554 50:-0.646451 51:-0.45098 52:-0.888107 53:-0.838231 54:-0.560601 55:-0.501773 56:-0.357172 57:-0.681402 58:-0.368094 59:-0.852921 60:-0.799013 
2990.205012286377 1:-0.918367 2:-0.988157 3:-0.955592 4:-0.863031 5:-0.96662 6:-0.956262 7:-0.881222 8:-0.745755 9:-0.938624 10:-0.85069 11:-0.913043 12:-0.953654 13:-0.957377 14:-0.961126 15:-0.967252 16:-0.850133 17:-0.872797 18:-0.924055 19:-0.956636 20:-0.996165 21:-0.76993 22:-0.775103 23:-0.950011 24:-0.7608 25:-0.883144 26:-0.855381 27:-0.984489 28:-0.902466 29:-0.991316 30:-0.893317 31:-0.895211 32:-0.763572 33:-0.898355 34:-0.758503 35:-0.916127 36:-0.866726 37:-0.96138 38:-0.834031 39:-0.883333 40:-0.940376 41:-0.812081 42:-0.736005 43:-0.863854 44:-0.983429 45:-0.724484 46:-0.82739 47:-0.641902 48:-0.795938 49:-0.872243 50:-0.818746 51:-0.835569 52:-0.90975 53:-0.826224 54:-0.608453 55:-0.626789 56:-0.848029 57:-0.983994 58:-0.956492 59:-0.874077 60:-0.663464 
8192 1:-0.807897 2:-0.946189 3:-0.945424 4:-0.766646 5:-0.828002 6:-0.76151 7:-0.884615 8:-0.993457 9:-0.983457 10:-0.871692 11:-0.87672 12:-0.876411 13:-0.989194 14:-0.876233 15:-0.967252 16:-0.97517 17:-0.854181 18:-0.884151 19:-0.974063 20:-0.967402 21:-0.898802 22:-0.975931 23:-0.965974 24:-0.96529 25:-0.923623 26:-0.903674 27:-0.955817 28:-0.887671 29:-0.984689 30:-0.98374 31:-0.956866 32:-0.983296 33:-0.962674 34:-0.998866 35:-0.985393 36:-0.999778 37:-0.862366 38:-0.965132 39:-0.980769 40:-0.865023 41:-0.97047 42:-0.993518 43:-0.918193 44:-0.996111 45:-0.958112 46:-0.929821 47:-0.996584 48:-0.995379 49:-0.994645 50:-0.943143 51:-0.877193 52:-0.902392 53:-0.971248 54:-0.88299 55:-0.951937 56:-0.974401 57:-0.96189 58:-0.886395 59:-0.851914 60:-0.819268 
4062.5820933522823 1:-0.915262 2:-0.927909 3:-0.981946 4:-0.99535 5:-0.767733 6:-0.889503 7:-0.875566 8:-0.987849 9:-0.921602 10:-0.926064 11:-0.812328 12:-0.998336 13:-0.960078 14:-0.977705 15:-0.953075 16:-0.994384 17:-0.995205 18:-0.893484 19:-0.959271 20:-0.97814 21:-0.981413 22:-0.996051 23:-0.899391 24:-0.973401 25:-0.990988 26:-0.807088 27:-0.964277 28:-0.963836 29:-0.918419 30:-0.980765 31:-0.979286 32:-1 33:-0.968157 34:-0.83938 35:-0.987395 36:-0.952355 37:-0.981717 38:-0.939098 39:-0.998504 40:-0.86338 41:-0.960882 42:-0.653506 43:-0.968949 44:-0.948597 45:-0.668437 46:-0.941404 47:-0.864503 48:-0.92752 49:-0.883718 50:-0.904549 51:-0.980392 52:-0.931826 53:-0.97346 54:-0.881593 55:-0.873408 56:-0.958147 57:-0.923018 58:-0.892265 59:-0.997649 60:-0.798754 
8192 1:-0.985359 2:-0.937693 3:-0.957356 4:-0.898542 5:-0.890589 6:-0.933011 7:-0.910633 8:-0.96635 9:-0.928315 10:-0.846087 11:-0.922675 12:-0.879026 13:-0.974786 14:-0.873517 15:-0.942492 16:-0.919598 17:-0.977436 18:-0.919871 19:-0.940426 20:-0.954362 21:-0.935977 22:-0.984017 23:-0.879437 24:-0.991888 25:-0.935691 26:-0.916396 27:-0.917979 28:-0.954521 29:-0.913391 30:-0.929011 31:-0.999269 32:-0.92708 33:-0.981021 34:-0.965608 35:-0.968312 36:-0.96235 37:-0.972473 38:-0.981404 39:-0.936111 40:-0.971362 41:-0.934036 42:-0.650265 43:-0.989053 44:-0.96652 45:-0.69056 46:-0.984102 47:-0.930828 48:-1 49:-0.878873 50:-0.877326 51:-0.974544 52:-0.976842 53:-0.964297 54:-0.855746 55:-0.90545 56:-0.985372 57:-0.881288 58:-0.917472 59:-0.793486 60:-0.902363 
8192 1:-0.805679 2:-0.993821 3:-0.891471 4:-0.915451 5:-0.891748 6:-0.99954 7:-0.937783 8:-0.979124 9:-0.983457 10:-0.99626 11:-0.987617 12:-0.926084 13:-0.949272 14:-0.802201 15:-0.990216 16:-0.994088 17:-0.98618 18:-0.979083 19:-0.930294 20:-1 21:-0.933292 22:-0.964648 23:-0.989918 24:-0.987172 25:-0.918735 26:-0.971959 27:-0.986134 28:-0.917534 29:-0.940814 30:-0.985128 31:-0.958816 32:-0.920655 33:-0.988191 34:-0.917611 35:-0.959713 36:-0.976011 37:-0.906327 38:-0.994421 39:-0.935897 40:-0.97723 41:-0.922339 42:-0.987625 43:-0.879976 44:-0.943186 45:-0.854572 46:-0.979559 47:-0.986336 48:-0.888362 49:-0.99745 50:-0.874225 51:-0.816993 52:-0.828374 53:-0.862875 54:-0.889976 55:-0.999212 56:-0.994311 57:-0.819741 58:-0.920753 59:-0.897918 60:-0.994807 
8192 1:-0.954303 2:-0.962152 3:-0.861797 4:-0.998732 5:-0.9242 6:-0.82965 7:-0.799774 8:-0.931765 9:-0.904819 10:-0.979287 11:-0.750138 12:-0.735948 13:-0.913552 14:-0.894526 15:-0.966054 16:-0.875259 17:-0.992385 18:-0.824296 19:-0.917325 20:-0.772579 21:-0.768278 22:-0.905228 23:-0.884478 24:-0.999245 25:-0.79195 26:-0.752304 27:-0.746416 28:-0.771233 29:-0.950183 30:-0.750149 31:-0.672718 32:-0.999679 33:-0.9593 34:-0.984883 35:-0.969608 36:-0.873834 37:-0.693509 38:-0.864249 39:-0.854274 40:-0.796714 41:-0.997315 42:-0.896288 43:-0.872014 44:-0.954007 45:-0.754572 46:-0.907109 47:-0.73043 48:-0.808099 49:-0.773046 50:-0.786699 51:-0.966976 52:-0.860405 53:-0.99842 54:-0.825707 55:-0.740775 56:-0.720845 57:-0.994665 58:-0.808874 59:-0.980524 60:-0.654635 
7225.1264832360521 1:-0.848713 2:-0.872554 3:-0.927578 4:-0.732826 5:-0.777005 6:-0.808932 7:-0.966063 8:-0.712105 9:-0.853992 10:-0.910529 11:-0.845625 12:-0.968627 13:-0.755365 14:-0.795341 15:-0.949481 16:-0.68726 17:-0.860951 18:-0.999356 19:-0.771834 20:-0.802493 21:-0.74556 22:-0.957127 23:-0.649023 24:-0.913601 25:-0.809975 26:-0.888096 27:-0.824442 28:-0.863562 29:-0.918876 30:-0.958755 31:-0.833069 32:-0.850948 33:-0.894559 34:-0.612245 35:-0.934621 36:-0.911373 37:-0.928307 38:-0.734775 39:-0.876709 40:-0.801878 41:-0.953979 42:-0.767531 43:-0.925557 44:-0.986135 45:-0.868732 46:-0.928004 47:-0.803017 48:-0.910252 49:-0.769476 50:-0.780841 51:-0.838321 52:-0.702846 53:-0.980095 54:-0.722319 55:-0.913329 56:-0.799675 57:-0.913491 58:-0.997928 59:-0.849228 60:-0.545573 
3994.842531795071 1:-0.862467 2:-0.978115 3:-0.973646 4:-0.983936 5:-0.961984 6:-0.996777 7:-0.957579 8:-0.69528 9:-0.927835 10:-0.921461 11:-0.857457 12:-0.945336 13:-0.847216 14:-0.985994 15:-0.951877 16:-0.956843 17:-0.84572 18:-0.907965 19:-0.925025 20:-0.973538 21:-0.846758 22:-0.990222 23:-0.824197 24:-0.97359 25:-0.85855 26:-0.866546 27:-0.958402 28:-0.805479 29:-0.892824 30:-0.859806 31:-0.887901 32:-0.861227 33:-0.887389 34:-0.689909 35:-0.85758 36:-0.844736 37:-0.797864 38:-0.853324 39:-0.830556 40:-0.74554 41:-0.955896 42:-0.816441 43:-0.753185 44:-0.889077 45:-0.641003 46:-0.901885 47:-0.674922 48:-0.947951 49:-0.809767 50:-0.681599 51:-0.620571 52:-0.969917 53:-0.872354 54:-0.764233 55:-0.867367 56:-0.644047 57:-0.804497 58:-0.804558 59:-0.934184 60:-0.786549 
8192 1:-0.988021 2:-0.895469 3:-0.900809 4:-0.716339 5:-0.738062 6:-0.805709 7:-0.923643 8:-0.984733 9:-0.926636 10:-0.989068 11:-0.988167 12:-0.913725 13:-0.90845 14:-0.810204 15:-0.997604 16:-0.731008 17:-0.985051 18:-0.906999 19:-0.847214 20:-0.829338 21:-0.899628 22:-0.946596 23:-0.826087 24:-0.941143 25:-0.951883 26:-0.97871 27:-0.782374 28:-0.941918 29:-0.973949 30:-0.901448 31:-0.945412 32:-0.991648 33:-0.993674 34:-0.922525 35:-0.924608 36:-0.934251 37:-0.869556 38:-0.88238 39:-0.953846 40:-0.94554 41:-0.998466 42:-0.952269 43:-0.827627 44:-0.903619 45:-0.772271 46:-0.974336 47:-0.873612 48:-0.962544 49:-0.959964 50:-0.900758 51:-0.782938 52:-0.734444 53:-0.892891 54:-0.958784 55:-0.954301 56:-0.845185 57:-0.89253 58:-0.802486 59:-0.915044 60:-0.759543 
8192 1:-0.966726 2:-0.950566 3:-0.967836 4:-0.975481 5:-0.853964 6:-0.873849 7:-0.487839 8:-0.791556 9:-0.774634 10:-0.846951 11:-0.860759 12:-0.939394 13:-0.876632 14:-0.881949 15:-0.930911 16:-0.792787 17:-0.90354 18:-0.867739 19:-0.614184 20:-0.998466 21:-1 22:-0.8695 23:-0.722747 24:-0.861158 25:-0.86573 26:-0.97845 27:-0.876851 28:-0.858904 29:-0.916362 30:-0.866349 31:-0.819666 32:-0.836171 33:-0.900042 34:-0.708617 35:-0.716574 36:-0.860062 37:-0.917009 38:-0.979544 39:-0.802564 40:-0.891549 41:-0.94209 42:-0.646435 43:-0.835987 44:-0.942509 45:-0.856047 46:-0.682943 47:-0.75548 48:-0.747537 49:-0.990055 50:-0.769814 51:-0.718266 52:-0.713234 53:-0.838863 54:-0.97066 55:-0.867892 56:-0.767574 57:-0.916921 58:-0.930594 59:-0.814305 60:-0.866528 
8192 1:-0.937001 2:-0.996138 3:-0.977381 4:-0.919679 5:-0.965229 6:-0.959024 7:-0.71069 8:-0.968531 9:-0.988012 10:-0.963751 11:-0.931205 12:-0.933214 13:-0.827405 14:-0.960269 15:-0.944489 16:-0.885604 17:-0.877027 18:-0.892518 19:-0.655522 20:-0.905657 21:-0.984304 22:-0.762317 23:-0.852552 24:-0.923033 25:-0.829374 26:-0.902116 27:-0.951586 28:-0.957534 29:-0.937386 30:-0.938529 31:-0.845985 32:-0.769997 33:-0.887389 34:-0.732048 35:-0.850866 36:-0.939138 37:-0.98521 38:-0.859135 39:-0.874786 40:-1 41:-0.846596 42:-0.91868 43:-0.892914 44:-0.903619 45:-0.832448 46:-0.81558 47:-0.798178 48:-0.755807 49:-0.889583 50:-0.973122 51:-0.786378 52:-0.703712 53:-0.735861 54:-0.981139 55:-0.871044 56:-0.806583 57:-0.942454 58:-0.929903 59:-0.831766 60:-0.775123 
8192 1:-0.0896185 2:-0.603759 3:-0.970533 4:-0.578525 5:-0.721836 6:-0.482965 7:-0.854638 8:-0.804019 9:-0.674419 10:-0.719217 11:-0.933957 12:-0.973143 13:-0.717545 14:-0.719594 15:-0.61262 16:-0.688442 17:-0.80849 18:-0.681738 19:-0.627558 20:-0.852349 21:-0.933912 22:-0.717939 23:-0.777778 24:-0.863799 25:-0.811044 26:-0.808127 27:-0.937485 28:-0.66411 29:-0.853748 30:-0.850486 31:-0.926648 32:-0.95824 33:-0.989878 34:-0.84127 35:-0.870185 36:-0.972457 37:-0.85456 38:-0.730358 39:-0.854701 40:-0.867606 41:-0.84698 42:-0.754862 43:-0.982882 44:-0.87555 45:-0.714454 46:-0.960481 47:-0.855964 48:-0.990514 49:-0.920694 50:-0.997932 51:-0.980736 52:-0.902824 53:-0.670774 54:-0.564792 55:-0.714511 56:-0.913043 57:-0.926067 58:-0.687155 59:-0.97448 60:-0.99221 
5286.3122556476983 1:-0.327418 2:-0.835479 3:-0.984644 4:-0.849081 5:-0.855818 6:-0.584715 7:-0.719457 8:-0.883783 9:-0.929034 10:-0.843498 11:-0.770501 12:-0.754486 13:-0.580069 14:-0.427469 15:-0.984026 16:-0.473249 17:-0.775208 18:-0.869027 19:-0.983384 20:-0.599233 21:-0.553903 22:-0.744265 23:-0.891199 24:-0.984531 25:-0.80249 26:-0.701155 27:-0.768273 28:-0.188493 29:-0.756399 30:-0.956772 31:-0.995857 32:-0.916479 33:-0.980177 34:-0.311413 35:-0.879138 36:-0.713905 37:-0.83484 38:-0.950721 39:-0.64359 40:-0.758685 41:-0.807862 42:-0.884502 43:-0.60629 44:-0.926277 45:-0.624779 46:-0.763797 47:-0.879875 48:-0.924845 49:-0.875303 50:-0.879394 51:-0.621603 52:-0.94005 53:-0.963981 54:-0.660496 55:-0.624163 56:-0.528647 57:-0.897104 58:-0.510359 59:-0.981195 60:-0.639055 
8192 1:-0.976043 2:-0.86689 3:-0.957668 4:-0.981399 5:-0.704219 6:-0.870166 7:-0.779977 8:-0.816482 9:-0.935267 10:-0.938435 11:-0.94689 12:-0.828164 13:-0.933664 14:-0.88395 15:-0.877995 16:-0.994384 17:-0.981385 18:-0.964602 19:-0.971631 20:-0.811697 21:-0.977695 22:-0.911245 23:-0.847091 24:-0.872854 25:-0.936913 26:-0.862651 27:-0.851939 28:-0.989589 29:-0.852377 30:-0.935356 31:-0.877909 32:-0.987793 33:-0.911008 34:-0.600151 35:-0.938037 36:-0.973345 37:-0.908381 38:-0.752673 39:-0.811966 40:-0.932394 41:-0.734612 42:-0.961108 43:-0.870621 44:-0.986473 45:-0.962242 46:-0.809675 47:-0.994307 48:-0.927764 49:-0.899273 50:-0.762233 51:-0.825937 52:-0.812791 53:-0.896998 54:-0.894516 55:-0.940906 56:-0.8013 57:-0.964558 58:-0.634669 59:-0.997314 60:-0.90496 
2614.1572186752369 1:-0.907276 2:-0.956231 3:-0.974061 4:-0.863031 5:-0.956421 6:-0.910681 7:-0.919683 8:-0.728618 9:-0.707025 10:-0.876295 11:-0.765272 12:-0.968865 13:-0.657512 14:-0.87709 15:-0.965655 16:-0.849837 17:-0.609928 18:-0.97329 19:-0.895035 20:-0.527133 21:-0.866171 22:-0.957503 23:-0.995799 24:-0.836257 25:-0.948522 26:-0.822147 27:-0.984489 28:-0.903562 29:-0.718464 30:-0.790997 31:-0.668332 32:-0.545133 33:-0.907634 34:-0.9452 35:-0.942749 36:-0.962239 37:-0.603533 38:-0.944677 39:-0.838462 40:-0.705164 41:-0.46999 42:-0.312905 43:-0.852707 44:-0.765303 45:-0.869617 46:-0.977288 47:-0.628807 48:-0.714703 49:-0.936504 50:-0.83184 51:-0.95184 52:-0.836165 53:-0.974724 54:-0.661195 55:-0.782797 56:-0.659894 57:-0.705793 58:-0.796961 59:-0.999328 60:-0.885225 
8192 1:-0.933008 2:-0.911689 3:-0.984022 4:-0.844008 5:-0.748725 6:-0.959484 7:-0.860294 8:-0.913694 9:-0.772237 10:-0.93786 11:-0.818382 12:-0.859537 13:-0.590875 14:-0.993997 15:-0.91234 16:-0.84363 17:-0.628825 18:-0.93757 19:-0.866261 20:-0.71582 21:-0.84304 22:-0.954494 23:-0.84163 24:-0.964535 25:-0.884977 26:-0.959756 27:-0.86792 28:-0.913973 29:-0.866088 30:-0.856038 31:-0.790667 32:-0.559268 33:-0.997469 34:-0.545351 35:-0.996937 36:-0.934696 37:-0.695152 38:-0.808926 39:-0.650427 40:-0.635681 41:-0.735762 42:-0.352976 43:-0.982086 44:-0.779506 45:-0.831858 46:-0.832841 47:-0.636208 48:-0.642223 49:-0.963024 50:-0.594073 51:-0.874785 52:-0.647441 53:-0.87109 54:-0.767377 55:-0.842154 56:-0.859407 57:-0.668826 58:-0.837707 59:-0.997985 60:-0.789665 
1851.4659048976314 1:-0.672582 2:-0.879763 3:-0.92156 4:-0.68717 5:-0.798795 6:-0.695672 7:-0.81052 8:-0.98224 9:-0.834812 10:-0.922325 11:-0.772152 12:-0.879263 13:-0.987693 14:-0.875661 15:-0.840855 16:-0.972805 17:-0.90354 18:-0.941432 19:-0.721581 20:-0.886865 21:-0.970673 22:-0.656262 23:-0.925226 24:-0.709111 25:-0.957076 26:-0.976892 27:-0.947826 28:-0.923836 29:-0.928702 30:-0.957168 31:-0.978799 32:-0.985223 33:-0.957191 34:-0.811413 35:-0.877253 36:-0.893381 37:-0.540674 38:-0.771734 39:-0.994017 40:-0.880751 41:-0.873058 42:-0.7802 43:-0.669586 44:-0.807575 45:-0.982301 46:-0.889166 47:-0.735838 48:-0.882525 49:-0.892388 50:-0.866988 51:-0.893361 52:-0.987664 53:-0.945656 54:-0.763884 55:-0.985555 56:-0.717188 57:-0.97561 58:-0.852901 59:-0.906985 60:-0.640613 
8192 1:-0.669033 2:-0.985839 3:-0.809712 4:-0.755231 5:-0.912842 6:-0.778545 7:-0.998869 8:-0.819598 9:-0.976025 10:-0.980437 11:-0.992295 12:-0.932739 13:-0.988894 14:-0.729884 15:-0.908347 16:-0.903636 17:-0.881258 18:-0.993564 19:-0.834245 20:-0.922148 21:-0.890128 22:-0.895449 23:-0.811804 24:-0.7691 25:-0.877034 26:-0.739063 27:-0.945476 28:-0.986301 29:-0.972121 30:-0.957565 31:-0.99537 32:-0.861227 33:-0.879165 34:-0.628874 35:-0.873483 36:-0.988894 37:-0.811011 38:-0.506741 39:-0.745299 40:-0.99108 41:-0.793289 42:-0.556276 43:-0.76035 44:-0.845451 45:-0.764012 46:-0.767431 47:-0.686877 48:-0.961328 49:-0.676909 50:-0.916609 51:-0.953216 52:-0.931393 53:-0.938705 54:-0.928048 55:-0.907814 56:-0.957741 57:-0.971799 58:-0.564227 59:-0.661854 60:-0.670735 
8192 1:-0.998225 2:-0.864573 3:-0.888566 4:-0.932361 5:-0.710709 6:-0.917127 7:-0.809389 8:-0.838916 9:-0.810357 10:-0.902762 11:-0.779857 12:-0.811765 13:-0.976287 14:-0.604688 15:-0.932508 16:-0.931422 17:-0.978 18:-0.94819 19:-0.887741 20:-0.808629 21:-0.859975 22:-0.550959 23:-0.887839 24:-0.941143 25:-0.833652 26:-0.715695 27:-0.99812 28:-0.937534 29:-0.900823 30:-1 31:-0.973925 32:-0.844523 33:-0.922817 34:-0.440287 35:-0.749087 36:-0.905375 37:-0.729663 38:-0.735937 39:-0.751282 40:-0.891549 41:-0.920614 42:-0.777254 43:-0.909236 44:-0.9628 45:-0.781711 46:-0.878719 47:-0.421008 48:-0.92144 49:-0.569042 50:-0.783598 51:-0.940832 52:-0.917541 53:-0.993681 54:-0.691233 55:-0.922521 56:-0.76026 57:-0.945884 58:-0.711326 59:-0.754869 60:-0.970397 
1354.2303716962915 1:-0.979148 2:-0.93898 3:-0.964308 4:-0.863031 5:-0.653222 6:-0.911142 7:-0.829186 8:-0.959184 9:-0.906977 10:-0.68786 11:-0.832691 12:-0.942721 13:-0.943569 14:-0.876519 15:-0.953075 16:-0.963346 17:-0.783669 18:-0.950764 19:-0.917325 20:-0.75302 21:-0.692689 22:-0.830763 23:-0.582861 24:-0.801924 25:-0.746124 26:-0.937946 27:-0.47262 28:-0.860822 29:-0.971207 30:-0.890938 31:-0.988546 32:-1 33:-0.988612 34:-0.996221 35:-0.832725 36:-0.877388 37:-0.900164 38:-0.427708 39:-0.623504 40:-0.510798 41:-0.921381 42:-0.978786 43:-0.548169 44:-0.919513 45:-0.99882 46:-0.850102 47:-0.97495 48:-0.747294 49:-0.908453 50:-0.532736 51:-0.663571 52:-0.994589 53:-0.847077 54:-0.579462 55:-0.998687 56:-0.877286 57:-0.956555 58:-0.775207 59:-0.760913 60:-0.556998 
5957.4302797567889 1:-0.659716 2:-0.946962 3:-0.953102 4:-0.931093 5:-0.818266 6:-0.90884 7:-0.815611 8:-0.992834 9:-0.969312 10:-0.915708 11:-0.97661 12:-0.897564 13:-0.852619 14:-0.87709 15:-0.945088 16:-0.925805 17:-0.892822 18:-0.840386 19:-0.982573 20:-0.574305 21:-0.86204 22:-0.997367 23:-0.858433 24:-0.947557 25:-0.755289 26:-0.975334 27:-0.73114 28:-0.824658 29:-0.952468 30:-0.764426 31:-0.954429 32:-0.969804 33:-0.971742 34:-0.942555 35:-0.79173 36:-0.757441 37:-0.69433 38:-0.470479 39:-0.818376 40:-0.707042 41:-0.751486 42:-0.733648 43:-0.790207 44:-0.776463 45:-0.766962 46:-0.828299 47:-0.863365 48:-0.814423 49:-0.965064 50:-0.772571 51:-0.982112 52:-0.931393 53:-0.951343 54:-0.840028 55:-0.576362 56:-0.840715 57:-0.76753 58:-1 59:-0.773002 60:-0.775123 
8192 1:-0.682343 2:-0.993048 3:-0.989209 4:-0.932361 5:-0.835883 6:-0.819982 7:-0.644796 8:-0.95046 9:-0.938144 10:-0.772152 11:-0.809301 12:-0.95508 13:-0.90935 14:-0.752751 15:-0.898163 16:-0.88856 17:-0.89113 18:-0.889944 19:-0.935157 20:-0.821668 21:-0.553903 22:-0.827379 23:-0.725688 24:-0.855499 25:-0.991293 26:-0.962872 27:-0.741951 28:-0.963836 29:-0.981261 30:-0.654967 31:-0.942732 32:-0.967877 33:-0.983973 34:-0.938776 35:-0.960655 36:-0.880942 37:-0.594495 38:-0.958159 39:-0.805128 40:-0.805634 41:-0.830489 42:-0.711255 43:-0.757962 44:-0.857626 45:-0.765782 46:-0.978651 47:-0.890122 48:-0.933114 49:-0.943644 50:-0.760165 51:-0.644995 52:-0.938318 53:-0.896367 54:-0.740133 55:-0.577938 56:-0.964242 57:-0.8125 58:-0.775207 59:-0.987911 60:-0.782394 
3490.5837238078948 1:-0.884206 2:-0.928682 3:-0.801204 4:-0.909533 5:-0.829856 6:-0.77256 7:-0.762443 8:-0.804642 9:-0.780628 10:-0.908803 11:-0.601266 12:-0.819133 13:-0.41798 14:-0.778762 15:-0.821486 16:-0.986403 17:-0.857566 18:-0.423974 19:-0.837082 20:-0.893384 21:-0.761669 22:-0.912749 23:-0.84373 24:-0.993209 25:-0.802184 26:-0.935869 27:-0.86369 28:-0.932603 29:-0.414991 30:-0.654174 31:-0.938589 32:-0.917764 33:-0.90426 34:-0.848828 35:-0.776417 36:-0.789205 37:-0.972062 38:-0.753603 39:-0.48547 40:-0.705634 41:-0.623011 42:-0.420742 43:-0.212978 44:-0.824146 45:-0.652507 46:-0.794231 47:-0.771705 48:-0.420406 49:-0.871733 50:-0.96623 51:-0.937393 52:-0.0267287 53:-0.776935 54:-0.622773 55:-0.983979 56:-0.684681 57:-0.648628 58:-0.407113 59:-0.871054 60:-0.690989 
729.73027419490563 1:-0.814108 2:-0.969876 3:-0.91409 4:-0.685479 5:-0.465925 6:-0.79581 7:-0.830034 8:-0.804019 9:-0.83649 10:-0.842635 11:-0.781233 12:-0.975995 13:-0.787783 14:-0.973989 15:-0.964257 16:-0.770322 17:-0.814413 18:-0.951408 19:-0.498278 20:-0.958581 21:-0.799257 22:-0.848815 23:-0.851292 24:-0.846444 25:-0.89903 26:-0.968064 27:-0.940776 28:-0.966027 29:-0.771024 30:-0.994051 31:-0.893993 32:-0.911982 33:-0.963096 34:-0.836357 35:-0.56155 36:-0.863616 37:-0.739113 38:-0.460251 39:-0.968803 40:-0.8277 41:-0.784468 42:-0.633471 43:-0.986067 44:-0.820426 45:-0.564012 46:-0.959573 47:-0.95047 48:-0.908306 49:-0.981385 50:-0.897312 51:-0.927761 52:-0.785954 53:-0.746919 54:-0.597974 55:-0.875772 56:-0.962617 57:-0.964939 58:-0.813536 59:-0.731363 60:-0.241755 
7509.4180549464545 1:-0.614463 2:-0.951854 3:-0.912222 4:-0.980131 5:-0.675939 6:-0.751151 7:-0.787613 8:-0.654775 9:-0.87533 10:-0.941312 11:-0.913043 12:-0.945811 13:-0.802792 14:-0.938545 15:-0.822684 16:-0.769435 17:-0.738824 18:-0.838134 19:-0.619453 20:-0.926366 21:-0.771995 22:-0.94246 23:-0.89582 24:-0.94303 25:-0.87795 26:-0.975334 27:-0.942186 28:-0.837808 29:-0.932358 30:-0.970652 31:-0.964177 32:-0.966592 33:-0.917124 34:-0.96901 35:-0.819767 36:-0.884496 37:-0.887839 38:-0.496513 39:-0.9 40:-0.805634 41:-0.966251 42:-0.779022 43:-0.982484 44:-0.999324 45:-0.789971 46:-0.845106 47:-0.846855 48:-0.884957 49:-0.820222 50:-0.923501 51:-0.769522 52:-0.798074 53:-0.965877 54:-0.753406 55:-0.860013 56:-0.944738 57:-0.674162 58:-0.883287 59:-0.929483 60:-0.760582 
8192 1:-0.865129 2:-0.871267 3:-0.719859 4:-0.79962 5:-0.885953 6:-0.913904 7:-0.791855 8:-0.871943 9:-0.687125 10:-0.436997 11:-1 12:-0.749733 13:-0.960078 14:-0.802201 15:-0.765575 16:-0.82885 17:-0.846566 18:-0.950764 19:-0.730091 20:-0.91371 21:-0.844279 22:-0.885671 23:-0.888679 24:-0.750613 25:-0.913389 26:-0.875633 27:-0.672385 28:-0.932055 29:-0.568556 30:-0.887369 31:-0.852077 32:-0.822037 33:-0.863349 34:-0.941799 35:-0.867358 36:-0.728343 37:-0.685292 38:-0.635518 39:-0.825641 40:-0.900939 41:-0.502205 42:-0.65822 43:-0.882166 44:-0.831586 45:-0.838938 46:-0.76516 47:-0.696556 48:-0.880579 49:-0.392324 50:-0.762922 51:-0.897489 52:-0.752191 53:-0.818641 54:-0.685644 55:-0.909389 56:-0.935798 57:-0.911585 58:-0.312845 59:-0.839154 60:-0.795897 
996.70747470966182 1:-0.863354 2:-0.995881 3:-0.973023 4:-0.915451 5:-0.850719 6:-0.983425 7:-0.512726 8:-0.925845 9:-0.938144 10:-0.646433 11:-0.892405 12:-0.92038 13:-0.948672 14:-0.872231 15:-0.777756 16:-0.963346 17:-0.774926 18:-0.905712 19:-0.801824 20:-0.846213 21:-0.877323 22:-0.886423 23:-0.855493 24:-0.973213 25:-0.872145 26:-0.946774 27:-0.73631 28:-0.780822 29:-0.989945 30:-0.703549 31:-0.583526 32:-0.940893 33:-0.893294 34:-0.81935 35:-0.977147 36:-0.768325 37:-0.848809 38:-0.960019 39:-0.991453 40:-0.973239 41:-0.928667 42:-0.676488 43:-0.907643 44:-0.963815 45:-0.824189 46:-0.847831 47:-0.953316 48:-0.955491 49:-0.882443 50:-0.583735 51:-0.664947 52:-0.992858 53:-0.969668 54:-0.450227 55:-0.960867 56:-0.869972 57:-0.911585 58:-0.898481 59:-0.87777 60:-0.854064 
4703.7233013478235 1:-1 2:-0.876416 3:-0.74725 4:-0.714648 5:-0.965693 6:-0.930479 7:-0.720871 8:-0.79623 9:-0.62479 10:-0.790564 11:-0.892405 12:-0.82959 13:-0.90845 14:-0.930827 15:-0.543131 16:-0.866095 17:-0.928642 18:-0.95527 19:-0.928673 20:-0.75954 21:-0.967782 22:-1 23:-0.742911 24:-0.722694 25:-0.785076 26:-0.929119 27:-0.936545 28:-0.848767 29:-0.578611 30:-0.816577 31:-0.731692 32:-0.883071 33:-0.970898 34:-0.877551 35:-0.842855 36:-0.960906 37:-0.5341 38:-0.67643 39:-0.834188 40:-0.8723 41:-0.573921 42:-0.982911 43:-0.974522 44:-0.794724 45:-0.985251 46:-0.917783 47:-0.744947 48:-0.925331 49:-0.510136 50:-0.346657 51:-0.561748 52:-0.760848 53:-0.849605 54:-0.765281 55:-0.869993 56:-0.804957 57:-0.821646 58:-0.414365 59:-0.716924 60:-0.942353 
6078.4164854024084 1:-0.731145 2:-0.984037 3:-0.949782 4:-0.22807 5:-0.386648 6:-0.706262 7:-0.603507 8:-0.339773 9:-0.996164 10:-0.764097 11:-0.920198 12:-0.975995 13:-0.967882 14:-0.971702 15:-0.819489 16:-0.528525 17:-0.709773 18:-0.792438 19:-0.890983 20:-0.762608 21:-0.425857 22:-0.463332 23:-0.691241 24:-0.620449 25:-0.866646 26:-0.768142 27:-0.921974 28:-0.980822 29:-0.929616 30:-0.569304 31:-0.469965 32:-0.430132 33:-0.831717 34:-0.738851 35:-0.744375 36:-0.734785 37:-0.983566 38:-0.942352 39:-0.894872 40:-0.483099 41:-0.856951 42:-0.462581 43:-0.695064 44:-0.938451 45:-0.692035 46:-0.78878 47:-0.993168 48:-0.896631 49:-0.498916 50:-0.959338 51:-0.820433 52:-0.482091 53:-0.724487 54:-0.80999 55:-0.660932 56:-0.758635 57:-0.634909 58:-0.746547 59:-0.95366 60:-0.835367 
1568.0502584367118 1:-0.566992 2:-0.731977 3:-0.898527 4:-0.415768 5:-0.132592 6:-0.671271 7:-0.622172 8:-0.124163 9:-0.898825 10:-0.72267 11:-0.956522 12:-0.783482 13:-0.716044 14:-0.842504 15:-0.919728 16:-0.537393 17:-0.554083 18:-0.911183 19:-0.817224 20:-0.805561 21:-0.490293 22:-0.9827 23:-0.778198 24:-0.73439 25:-0.984266 26:-0.358432 27:-0.973208 28:-0.816986 29:-0.582724 30:-0.776324 31:-0.317412 32:-0.631866 33:-0.556727 34:-0.91232 35:-0.766521 36:-0.968014 37:-0.934265 38:-0.936774 39:-0.865812 40:-0.808451 41:-0.935954 42:-0.553329 43:-0.949045 44:-0.912073 45:-0.59764 46:-0.658869 47:-0.756903 48:-0.958896 49:-0.507586 50:-0.94969 51:-0.98624 52:-0.595498 53:-0.906477 54:-0.520084 55:-0.793828 56:-0.889476 57:-0.769817 58:-0.929558 59:-0.851578 60:-0.949623 
8192 1:-0.837622 2:-0.714985 3:-0.94916 4:-0.812725 5:-0.746871 6:-0.965009 7:-0.981335 8:-0.78626 9:-0.89451 10:-0.958573 11:-0.87672 12:-0.759239 13:-0.683626 14:-0.871659 15:-0.89976 16:-0.991723 17:-0.844592 18:-0.703298 19:-0.926646 20:-0.567785 21:-0.93639 22:-0.44528 23:-0.468179 24:-0.887191 25:-0.850454 26:-0.590549 27:-0.949236 28:-0.836164 29:-0.51234 30:-0.793377 31:-0.847691 32:-0.800193 33:-0.725854 34:-0.651172 35:-0.979503 36:-0.767659 37:-0.917831 38:-0.995351 39:-0.760684 40:-0.676526 41:-0.921381 42:-0.91043 43:-0.644108 44:-0.974298 45:-0.905605 46:-0.870543 47:-0.748363 48:-0.855284 49:-0.991585 50:-0.909028 51:-0.834881 52:-0.888107 53:-0.818641 54:-0.710793 55:-0.867367 56:-0.647298 57:-0.866616 58:-0.816989 59:-0.805238 60:-0.784472 
1251.2852818461974 1:-0.818545 2:-0.934604 3:-0.95165 4:-0.866836 5:-0.969402 6:-0.752762 7:-0.780826 8:-0.732357 9:-0.861904 10:-0.885501 11:-0.989543 12:-0.924658 13:-0.406273 14:-0.795055 15:-0.995607 16:-0.904818 17:-0.80849 18:-0.688817 19:-0.480851 20:-0.298945 21:-0.403965 22:-0.952614 23:-0.805503 24:-0.712507 25:-0.951577 26:-0.708425 27:-0.796475 28:-0.52274 29:-0.760283 30:-0.954392 31:-0.948093 32:-0.831031 33:-0.933783 34:-0.982615 35:-0.635057 36:-0.792981 37:-0.255546 38:-0.569503 39:-0.650855 40:-0.721127 41:-0.883413 42:-0.967001 43:-0.93949 44:-0.800473 45:-0.60708 46:-0.866909 47:-0.861657 48:-0.635899 49:-0.496366 50:-0.879394 51:-0.671139 52:-0.635754 53:-0.746603 54:-0.645127 55:-0.681944 56:-0.752133 57:-0.918445 58:-0.904696 59:-0.918737 60:-0.762659 
6121.0811459608249 1:-0.898846 2:-0.94001 3:-0.977796 4:-0.904883 5:-0.791377 6:-0.983886 7:-0.989819 8:-0.896246 9:-0.936706 10:-0.97756 11:-0.805724 12:-0.540345 13:-0.812397 14:-0.887094 15:-0.878994 16:-0.81141 17:-0.973205 18:-0.757039 19:-0.940426 20:-0.493384 21:-0.729038 22:-0.904475 23:-0.967654 24:-0.822675 25:-0.983044 26:-0.746333 27:-0.922444 28:-0.766027 29:-0.935558 30:-0.935356 31:-0.938345 32:-0.889496 33:-0.795445 34:-0.975813 35:-0.822594 36:-0.917592 37:-0.818406 38:-0.602046 39:-0.863248 40:-0.931455 41:-0.886481 42:-0.977018 43:-0.621019 44:-0.904971 45:-0.751622 46:-0.952305 47:-0.755195 48:-0.888362 49:-0.539207 50:-0.994487 51:-0.721362 52:-0.946975 53:-0.972196 54:-0.768075 55:-0.924097 56:-0.853718 57:-0.810976 58:-0.883978 59:-0.865682 60:-0.770449 
121.03916744373745 1:-0.921473 2:-0.995623 3:-0.974269 4:-0.962376 5:-0.759852 6:-0.736648 7:-0.770645 8:-0.837669 9:-0.79813 10:-0.90794 11:-0.795267 12:-0.615924 13:-0.594177 14:-0.908818 15:-0.883387 16:-0.907183 17:-0.781413 18:-0.9321 19:-0.540831 20:-0.805944 21:-0.675754 22:-0.952614 23:-0.839109 24:-0.890964 25:-0.968991 26:-0.962352 27:-0.874501 28:-0.756712 29:-0.695841 30:-0.98136 31:-0.886195 32:-0.943463 33:-0.862505 34:-0.993197 35:-0.814112 36:-0.876277 37:-0.437141 38:-0.968387 39:-0.787607 40:-0.650704 41:-0.997315 42:-0.991161 43:-0.681529 44:-0.704768 45:-0.855457 46:-0.915058 47:-0.895246 48:-0.747781 49:-0.957414 50:-0.87388 51:-0.950464 52:-0.581214 53:-0.718167 54:-0.877751 55:-0.605778 56:-0.605039 57:-0.894055 58:-0.979282 59:-0.784419 60:-0.992729 
8192 1:-0.593611 2:-0.931643 3:-0.909317 4:-0.735151 5:-0.701437 6:-0.950967 7:-0.973699 8:-0.944384 9:-0.597938 10:-0.783084 11:-0.851816 12:-0.849079 13:-0.930662 14:-0.872374 15:-0.868011 16:-0.950044 17:-0.846002 18:-0.953821 19:-0.847822 20:-0.95187 21:-0.905824 22:-0.703648 23:-0.835329 24:-0.775703 25:-0.921638 26:-0.90627 27:-0.941011 28:-0.906712 29:-0.876371 30:-0.806663 31:-0.894846 32:-0.885962 33:-0.952973 34:-0.582011 35:-0.971021 36:-0.883274 37:-0.739523 38:-0.980939 39:-0.674573 40:-0.957981 41:-0.903547 42:-0.738362 43:-0.971537 44:-0.835475 45:-0.830973 46:-0.717011 47:-0.854256 48:-0.967408 49:-0.891368 50:-0.887664 51:-0.865497 52:-0.581863 53:-0.867299 54:-0.995809 55:-0.909915 56:-0.501829 57:-0.936738 58:-0.928004 59:-0.722968 60:-0.942093 
8192 1:-0.772848 2:-0.93499 3:-0.944594 4:-0.649757 5:-0.73389 6:-0.913674 7:-0.812783 8:-0.961676 9:-0.898106 10:-0.531646 11:-0.906302 12:-0.923232 13:-0.974486 14:-0.715592 15:-0.833866 16:-0.60538 17:-0.937103 18:-0.944489 19:-0.635258 20:-0.993097 21:-0.816811 22:-0.806318 23:-0.969334 24:-0.78023 25:-0.991599 26:-0.909386 27:-0.608931 28:-0.660274 29:-0.723035 30:-0.962919 31:-0.745827 32:-0.958561 33:-0.81822 34:-0.513983 35:-0.890682 36:-0.961795 37:-0.846343 38:-0.753835 39:-0.764744 40:-1 41:-0.600767 42:-0.947849 43:-0.945263 44:-0.829726 45:-0.7 46:-0.722462 47:-0.894108 48:-0.778913 49:-0.943134 50:-0.909028 51:-0.868249 52:-0.795693 53:-0.822117 54:-0.737688 55:-0.888378 56:-0.762698 57:-0.636433 58:-0.75846 59:-0.856951 60:-0.644248 
8192 1:-0.925022 2:-0.979853 3:-0.983036 4:-0.931093 5:-0.942976 6:-0.949931 7:-0.988546 8:-0.959651 9:-0.958643 10:-0.903481 11:-0.983352 12:-0.985621 13:-0.973585 14:-0.968272 15:-0.846645 16:-0.992758 17:-0.998026 18:-0.959775 19:-0.918541 20:-0.841611 21:-0.926064 22:-0.841106 23:-0.84331 24:-0.885965 25:-0.958604 26:-0.984941 27:-0.896592 28:-0.960548 29:-0.867459 30:-0.956573 31:-0.907152 32:-0.924831 33:-0.920814 34:-0.813681 35:-0.997644 36:-0.915593 37:-0.940427 38:-0.97536 39:-0.874359 40:-0.979343 41:-0.959923 42:-0.920153 43:-0.88117 44:-0.993405 45:-0.90177 46:-0.998637 47:-0.735269 48:-0.969111 49:-0.737345 50:-0.897312 51:-0.813897 52:-0.972081 53:-0.747709 54:-0.779253 55:-0.932764 56:-0.712718 57:-0.841463 58:-0.979972 59:-0.79315 60:-0.975331 
703.27288533636533 1:-0.896406 2:-0.99395 3:-0.98148 4:-0.995984 5:-0.970329 6:-0.983425 7:-0.992081 8:-0.961832 9:-0.950491 10:-0.903769 11:-0.975922 12:-0.990612 13:-0.967882 14:-0.746177 15:-0.986721 16:-0.960834 17:-0.95177 18:-0.918343 19:-0.838703 20:-0.823778 21:-0.970673 22:-0.97311 23:-0.73703 24:-0.972647 25:-1 26:-0.993249 27:-0.982609 28:-0.896438 29:-0.814899 30:-0.868134 31:-0.978555 32:-0.843238 33:-0.97364 34:-0.860166 35:-0.950995 36:-0.948578 37:-0.962613 38:-0.945607 39:-0.812393 40:-0.859155 41:-0.989645 42:-0.989393 43:-0.962381 44:-0.881806 45:-0.926844 46:-0.984102 47:-0.931398 48:-0.990028 49:-0.765523 50:-0.898001 51:-0.963536 52:-0.866032 53:-0.939021 54:-0.885435 55:-0.883913 56:-0.838683 57:-0.942073 58:-0.99413 59:-0.964741 60:-0.938977 
211.49042113011907 1:-0.687666 2:-0.551493 3:-0.902054 4:-0.456774 5:0.222068 6:-0.94291 7:-0.673077 8:-0.722387 9:-0.869576 10:-0.528193 11:-0.0897083 12:-0.434106 13:-0.662915 14:-0.849936 15:-0.948083 16:-0.914868 17:-0.704132 18:-0.896702 19:-0.894225 20:-0.605369 21:-0.464684 22:-0.959383 23:-0.453476 24:-0.587625 25:-0.476209 26:-0.707906 27:-0.779553 28:-0.556164 29:-0.654479 30:-0.926631 31:-0.831607 32:-0.85416 33:-0.871784 34:0.294785 35:-0.886677 36:-0.851622 37:-0.983566 38:-0.531381 39:-0.758974 40:-0.410329 41:-0.705849 42:-0.605186 43:-0.536624 44:-0.841731 45:-0.141003 46:-0.341812 47:-0.681753 48:-0.99927 49:-0.965574 50:-0.0709855 51:-0.583763 52:-0.710637 53:-0.846445 54:-0.587845 55:-0.906763 56:-0.778139 57:-0.355183 58:-0.606354 59:-0.849563 60:-0.856141 
369.00423786622002 1:0.15528 2:-0.593203 3:0.0554057 4:-0.731558 5:-0.854427 6:-0.60221 7:-0.701357 8:-0.289921 9:-0.668665 10:-0.479862 11:-0.326362 12:0.152941 13:-0.367552 14:-0.854509 15:0.0519169 16:-0.447236 17:-0.749824 18:-0.114722 19:-0.374671 20:-0.239501 21:-0.153242 22:-0.717939 23:-0.498845 24:-0.558951 25:-0.823264 26:-0.669999 27:-0.930905 28:-0.0147945 29:-0.254113 30:-0.929011 31:-0.158036 32:-0.548346 33:-0.484606 34:-0.951625 35:-0.123336 36:-0.561972 37:0.230896 38:-0.567643 39:-0.902564 40:-0.658216 41:-0.561649 42:-0.708898 43:-0.664013 44:-0.803179 45:-0.892625 46:-0.755167 47:-0.161401 48:-0.358142 49:-0.355604 50:-0.801516 51:-0.777778 52:-0.263932 53:-0.452133 54:-0.782745 55:-0.888903 56:0.145063 57:-0.984756 58:-0.571823 59:-0.159167 60:-0.543495 
132.5210584336557 1:0.0292813 2:-0.141092 3:-0.3895 4:-0.628408 5:-0.867408 6:-0.593002 7:-0.941176 8:-0.247546 9:-0.626468 10:-0.168009 11:-0.883324 12:-0.265359 13:-0.907849 14:-0.790482 15:0.468051 16:-0.499261 17:-0.131575 18:-0.85358 19:-0.319554 20:-0.843912 21:-0.812474 22:-0.308763 23:-0.744171 24:-0.608753 25:0.243565 26:-0.192263 27:-0.436428 28:-0.804932 29:-0.714808 30:-0.319849 31:-0.306202 32:-0.288789 33:0.574863 34:-0.590325 35:-0.377783 36:-0.723678 37:-0.171734 38:-0.753603 39:-0.196581 40:-0.731455 41:-0.632215 42:-0.781968 43:-0.447452 44:-0.120054 45:-0.6059 46:-0.300931 47:0.0959294 48:-0.692813 49:-0.74117 50:-0.784976 51:-0.98968 52:-0.468239 53:-0.330806 54:-0.738037 55:-0.553775 56:-0.597725 57:-0.637195 58:-0.896409 59:0.468099 60:-0.379382 
8192 1:-0.488909 2:-0.846035 3:-0.945839 4:-0.924329 5:-0.681966 6:-0.770718 7:-0.738122 8:-0.858233 9:-0.831695 10:-0.928654 11:-0.787562 12:-0.967439 13:-0.994897 14:-0.968272 15:-0.932109 16:-0.992315 17:-0.966718 18:-0.977474 19:-0.820466 20:-0.977373 21:-0.635275 22:-0.89733 23:-0.974795 24:-0.955857 25:-0.833041 26:-0.655459 27:-0.710928 28:-0.892603 29:-0.867916 30:-0.930993 31:-0.981723 32:-0.391584 33:-0.747364 34:-0.880574 35:-0.763223 36:-0.867614 37:-0.617091 38:-0.799163 39:-0.889744 40:-0.848826 41:-0.678236 42:-0.713612 43:-0.747213 44:-0.896517 45:-0.834808 46:-0.690211 47:-0.802448 48:-0.819774 49:-0.810532 50:-0.913163 51:-0.971792 52:-0.770371 53:-0.834439 54:-0.898009 55:-0.944583 56:-0.473385 57:-0.598323 58:-0.78384 59:-0.829416 60:-0.853025 
3351.0254736273232 1:-0.972493 2:-0.935633 3:-0.986927 4:-0.86599 5:-0.891516 6:-0.79512 7:-0.845588 8:-0.943605 9:-0.947255 10:-0.997699 11:-0.905338 12:-0.872846 13:-0.888038 14:-0.91625 15:-0.995607 16:-0.898315 17:-0.751516 18:-0.981657 19:-0.883688 20:-0.506424 21:-0.879802 22:-0.942083 23:-0.94833 24:-0.750613 25:-0.963797 26:-0.723484 27:-0.899882 28:-0.460822 29:-0.889397 30:-0.706127 31:-0.936396 32:-0.937038 33:-0.896246 34:-0.901738 35:-0.898928 36:-0.715238 37:-0.970419 38:-0.345421 39:-0.982906 40:-0.864789 41:-0.911409 42:-0.615793 43:-0.728503 44:-0.845113 45:-0.482006 46:-0.888712 47:-0.847993 48:-0.705947 49:-0.854392 50:-0.92419 51:-0.784658 52:-0.795477 53:-0.421169 54:-0.675166 55:-0.786999 56:-0.920358 57:-0.97561 58:-0.972376 59:-0.731363 60:-0.770969 
5596.9933919405958 1:-0.925909 2:-0.946962 3:-0.775265 4:-0.89516 5:-0.770515 6:-0.961326 7:-0.882353 8:-0.983487 9:-0.685447 10:-0.690736 11:-0.838745 12:-0.860012 13:-0.879934 14:-0.878519 15:-0.858427 16:-0.750517 17:-0.976872 18:-0.849397 19:-0.888146 20:-0.888399 21:-0.827344 22:-0.915382 23:-0.875236 24:-0.770987 25:-0.846483 26:-0.544853 27:-0.675676 28:-0.998904 29:-0.813985 30:-0.751338 31:-0.917388 32:-0.95053 33:-0.961198 34:-0.928949 35:-0.863588 36:-0.86406 37:-0.875103 38:-0.997675 39:-0.869231 40:-0.933333 41:-0.881496 42:-0.941662 43:-0.919984 44:-0.969902 45:-0.753982 46:-0.991824 47:-0.954455 48:-0.979813 49:-0.806962 50:-0.992419 51:-0.951152 52:-0.779894 53:-0.981675 54:-0.908488 55:-0.882075 56:-0.911418 57:-0.858232 58:-0.840815 59:-0.829752 60:-0.914308 
120.3507305541151 1:-0.8252 2:-0.88414 3:-0.95082 4:-0.864722 5:-0.918405 6:-0.927947 7:-0.850679 8:-0.934258 9:-0.941021 10:-0.850115 11:-0.737479 12:-0.858111 13:-0.707039 14:-0.951694 15:-0.887181 16:-0.984629 17:-0.791849 18:-0.931778 19:-0.70618 20:-0.861937 21:-0.706733 22:-0.995111 23:-0.940349 24:-0.976608 25:-0.830902 26:-0.879268 27:-0.920564 28:-0.69589 29:-0.649452 30:-0.913544 31:-0.798465 32:-0.568262 33:-0.768874 34:-0.942555 35:-0.95877 36:-0.981342 37:-0.867297 38:-0.995351 39:-0.864103 40:-0.810329 41:-0.804794 42:-0.352387 43:-0.903264 44:-0.932702 45:-0.979941 46:-0.835112 47:-0.998861 48:-0.689894 49:-0.621828 50:-0.942798 51:-0.97936 52:-0.981604 53:-0.893207 54:-0.849109 55:-0.962968 56:-0.861032 57:-0.976372 58:-0.773135 59:-0.993284 60:-0.625552 
8192 1:-0.901065 2:-0.938208 3:-0.82486 4:-0.759459 5:-0.853037 6:-0.966621 7:-0.968326 8:-0.916186 9:-0.744905 10:-0.840621 11:-0.898734 12:-0.998336 13:-0.827405 14:-0.927683 15:-0.971246 16:-0.734555 17:-0.768439 18:-0.91794 19:-0.593921 20:-0.749952 21:-0.880215 22:-0.909741 23:-0.936148 24:-0.746463 25:-0.984877 26:-0.665844 27:-0.59577 28:-0.694795 29:-0.835466 30:-0.838192 31:-0.881321 32:-0.619659 33:-0.729228 34:-0.986395 35:-0.820709 36:-0.844514 37:-0.992194 38:-0.998605 39:-0.733333 40:-0.878873 41:-0.685906 42:-0.411903 43:-0.98328 44:-0.963476 45:-0.774041 46:-0.826482 47:-0.951608 48:-0.710325 49:-0.815122 50:-0.950379 51:-0.929825 52:-0.799805 53:-0.912164 54:-0.94132 55:-0.84478 56:-0.771638 57:-0.883384 58:-0.93232 59:-0.823036 60:-0.711763 
6542.4885423482683 1:-0.792813 2:-0.934861 3:-0.96244 4:-0.664764 5:-0.874826 6:-0.913444 7:-0.711538 8:-0.662564 9:-0.994725 10:-0.929517 11:-0.979912 12:-0.985027 13:-0.954675 14:-0.924825 15:-0.995407 16:-0.917233 17:-0.852489 18:-0.87675 19:-0.874367 20:-0.655992 21:-0.84304 22:-0.857465 23:-0.800882 24:-0.847576 25:-0.977545 26:-0.970661 27:-0.911633 28:-0.780274 29:-0.895338 30:-0.804085 31:-0.983185 32:-0.601349 33:-0.952341 34:-0.777778 35:-0.922724 36:-0.999556 37:-0.881676 38:-0.774988 39:-0.920513 40:-0.557746 41:-0.837392 42:-0.678845 43:-0.828025 44:-0.96652 45:-0.99941 46:-0.871906 47:-0.642471 48:-0.86404 49:-0.68966 50:-0.676085 51:-0.856553 52:-0.737474 53:-0.579147 54:-0.912679 55:-0.689823 56:-0.523771 57:-0.55564 58:-0.946823 59:-0.963734 60:-0.935082 
7183.7877134318242 1:-0.5 2:-0.845778 3:-0.775265 4:-0.93997 5:-0.658785 6:-0.974217 7:-0.200792 8:-0.688113 9:-0.956365 10:-0.775892 11:-0.969455 12:-0.843375 13:-0.848417 14:-0.779048 15:-0.71246 16:-0.819687 17:-0.689466 18:-0.753821 19:-0.742249 20:-0.975839 21:-0.988435 22:-0.801429 23:-0.742911 24:-0.905678 25:-0.921943 26:-0.746333 27:-0.894242 28:-0.560548 29:-0.77925 30:-0.872695 31:-0.931522 32:-0.609059 33:-0.769717 34:-0.696145 35:-0.974084 36:-0.820524 37:-0.890715 38:-0.670851 39:-0.864957 40:-0.504225 41:-0.741898 42:-0.29228 43:-0.88535 44:-0.680081 45:-0.974631 46:-0.478083 47:-0.789354 48:-0.763833 49:-0.632539 50:-0.620951 51:-0.782938 52:-0.755654 53:-0.664455 54:-0.501921 55:-0.998162 56:-0.609915 57:-0.605183 58:-0.889503 59:-0.728005 60:-0.406388 
6304.9106775876753 1:-0.708962 2:-0.911946 3:-0.813239 4:-0.725217 5:-0.784886 6:-0.939227 7:-0.489253 8:-0.976009 9:-0.962119 10:-0.846375 11:-0.989543 12:-0.858586 13:-0.802792 14:-0.855081 15:-0.717053 16:-0.903045 17:-0.837258 18:-0.877393 19:-0.868288 20:-0.680537 21:-0.830648 22:-0.944716 23:-0.943289 24:-0.94303 25:-0.944856 26:-0.716734 27:-0.983079 28:-0.780274 29:-0.883912 30:-0.931787 31:-0.914463 32:-0.994218 33:-0.81822 34:-0.918367 35:-0.950289 36:-0.819191 37:-0.772391 38:-0.896792 39:-0.78547 40:-0.948357 41:-0.578907 42:-0.614614 43:-0.713376 44:-0.714237 45:-0.974041 46:-0.606632 47:-0.854825 48:-0.900036 49:-0.943134 50:-0.944866 51:-0.927073 52:-0.983335 53:-0.915324 54:-0.589941 55:-0.687722 56:-0.914669 57:-0.951982 58:-0.94268 59:-0.691739 60:-0.471825 
4002.8577097310708 1:-0.566548 2:-0.881565 3:-0.989417 4:-0.838935 5:-0.945294 6:-0.775783 7:-0.868213 8:-0.823337 9:-0.853992 10:-0.533372 11:-0.62328 12:-0.852882 13:-0.971484 14:-0.889095 15:-0.908946 16:-0.923441 17:-0.897335 18:-0.784714 19:-1 20:-0.568552 21:-0.920281 22:-0.482512 23:-0.694602 24:-0.812488 25:-0.962575 26:-0.97819 27:-0.631022 28:-0.873973 29:-0.894196 30:-0.936149 31:-0.986841 32:-0.721812 33:-0.900464 34:-0.854875 35:-0.985864 36:-0.755442 37:-0.989318 38:-0.832171 39:-0.870085 40:-0.929577 41:-0.630489 42:-0.898645 43:-0.982484 44:-0.899899 45:-0.904425 46:-0.975471 47:-0.674922 48:-0.842393 49:-0.73148 50:-1 51:-0.634331 52:-0.945244 53:-0.971248 54:-0.901502 55:-0.676165 56:-0.823649 57:-0.958079 58:-0.806285 59:-0.775353 60:-0.367437 
8192 1:-0.931677 2:-0.997683 3:-0.923843 4:-0.932361 5:-0.982383 6:-0.92058 7:-0.866233 8:-0.902477 9:-0.904339 10:-0.866513 11:-0.644194 12:-0.973856 13:-0.619691 14:-0.743033 15:-0.994808 16:-0.918416 17:-0.865745 18:-0.923733 19:-0.701317 20:-0.709875 21:-0.790582 22:-0.920459 23:-0.927746 24:-0.784192 25:-0.887421 26:-0.917435 27:-0.881551 28:-0.950137 29:-0.856261 30:-0.860797 31:-0.937858 32:-0.870864 33:-0.709405 34:-0.953893 35:-0.984215 36:-0.961795 37:-0.867297 38:-0.93166 39:-0.471368 40:-0.833333 41:-0.755129 42:-0.878609 43:-0.751592 44:-0.766655 45:-0.571091 46:-0.980922 47:-0.683461 48:-0.802748 49:-0.559607 50:-0.781185 51:-0.847265 52:-0.882913 53:-0.857188 54:-0.981139 55:-0.75128 56:-0.900041 57:-0.797256 58:-0.717196 59:-0.746474 60:-0.599065 
8192 1:-0.636646 2:-0.878218 3:-0.912845 4:-0.906996 5:-0.963839 6:-0.855203 7:-0.99802 8:-0.724256 9:-0.950132 10:-0.666858 11:-0.979086 12:-0.879263 13:-0.590875 14:-0.854795 15:-0.903754 16:-0.995566 17:-0.968693 18:-0.861303 19:-0.700912 20:-0.859252 21:-0.871128 22:-0.562618 23:-0.768116 24:-0.972835 25:-0.849538 26:-0.895365 27:-0.749941 28:-0.82411 29:-0.962066 30:-0.925045 31:-0.951261 32:-0.852875 33:-0.809785 34:-0.808768 35:-0.96843 36:-0.794536 37:-0.877979 38:-0.901441 39:-0.601282 40:-0.905634 41:-0.875743 42:-0.981143 43:-0.769108 44:-0.867433 45:-0.666667 46:-0.995003 47:-0.993168 48:-0.644898 49:-0.828382 50:-0.781185 51:-0.787754 52:-0.939184 53:-0.827804 54:-0.921062 55:-0.925148 56:-0.924421 57:-0.753811 58:-0.910912 59:-0.971122 60:-0.768891 
8192 1:-0.786158 2:-0.980433 3:-0.922806 4:-0.984358 5:-0.702828 6:-0.813536 7:-0.788179 8:-0.705562 9:-0.764085 10:-0.989356 11:-0.868465 12:-0.967677 13:-0.860123 14:-0.745891 15:-0.924521 16:-0.986994 17:-0.990974 18:-0.846179 19:-0.968389 20:-0.980825 21:-0.720777 22:-0.701768 23:-0.764755 24:-0.988681 25:-0.958604 26:-0.375568 27:-0.811516 28:-0.890411 29:-0.789305 30:-0.821535 31:-0.838918 32:-0.832959 33:-0.996626 34:-0.891534 35:-0.916598 36:-0.911151 37:-0.952753 38:-0.596002 39:-0.980342 40:-0.86338 41:-0.871524 42:-0.740719 43:-0.781449 44:-0.87555 45:-0.904425 46:-0.834204 47:-0.743809 48:-0.849447 49:-0.424965 50:-0.976568 51:-0.553492 52:-0.701115 53:-0.967141 54:-0.901502 55:-0.699803 56:-0.953677 57:-0.695122 58:-0.731699 59:-0.963062 60:-0.845754 
680.57418760004225 1:-0.924579 2:-0.717044 3:-0.826728 4:-0.923906 5:-0.992582 6:-0.871087 7:-0.84474 8:-0.988472 9:-0.693599 10:-0.716053 11:-0.843148 12:-0.748544 13:-0.664415 14:-0.980277 15:-0.989018 16:-0.847768 17:-0.958539 18:-0.893484 19:-0.941236 20:-0.83931 21:-0.68071 22:-0.857089 23:-0.852132 24:-0.439351 25:-0.872451 26:-0.785798 27:-0.620682 28:-0.932603 29:-0.79159 30:-0.898077 31:-0.775557 32:-0.715387 33:-0.535217 34:-0.694255 35:-0.893509 36:-0.787206 37:-0.453574 38:-0.381218 39:-0.471795 40:-0.510329 41:-0.758006 42:-0.244549 43:-0.591959 44:-0.86439 45:-0.80295 46:-0.660686 47:-0.392542 48:-0.780372 49:-0.389264 50:-0.954514 51:0.102167 52:-0.752191 53:-0.39842 54:-0.534055 55:-0.432961 56:-0.479886 57:-0.956555 58:-0.662293 59:-0.750839 60:-0.559076 
1530.6901985135471 1:-0.708962 2:-0.737642 3:-0.904337 4:-0.93997 5:-0.711173 6:-0.942449 7:-0.943439 8:-0.718648 9:-0.929993 10:-0.705409 11:-0.711613 12:-0.781105 13:-0.804593 14:-0.725311 15:-0.913538 16:-0.834171 17:-0.949231 18:-0.953017 19:-0.973252 20:-0.858869 21:-0.96076 22:-0.845431 23:-0.913884 24:-0.451802 25:-0.830597 26:-0.59003 27:-0.809636 28:-0.823014 29:-0.997715 30:-0.923855 31:-0.936883 32:-0.546418 33:-0.539435 34:-0.58579 35:-0.97856 36:-0.876944 37:-0.406327 38:-0.786146 39:-0.491453 40:-0.371831 41:-0.629147 42:-0.505009 43:-0.373408 44:-0.989516 45:-0.707375 46:-0.494436 47:-0.650441 48:-0.931169 49:-0.964554 50:-0.931082 51:-0.345029 52:-0.451791 53:-0.431912 54:-0.633252 55:-0.733421 56:-0.432751 57:-0.740091 58:-0.393992 59:-0.713902 60:-0.404311 
8192 1:-0.952085 2:-0.932544 3:-0.934634 4:-0.672162 5:-0.810385 6:-0.891344 7:-0.869344 8:-0.966038 9:-0.958523 10:-0.860759 11:-0.757567 12:-0.855734 13:-0.820801 14:-0.97113 15:-0.863818 16:-0.829146 17:-0.941052 18:-0.91794 19:-0.910841 20:-0.778715 21:-0.724907 22:-0.895073 23:-0.816425 24:-0.89285 25:-0.952188 26:-0.923926 27:-0.986839 28:-0.950137 29:-0.889397 30:-0.909181 31:-0.77702 32:-0.850305 33:-0.839097 34:-0.494709 35:-0.771469 36:-0.97179 37:-0.949055 38:-0.702929 39:-0.594444 40:-0.698122 41:-0.898754 42:-0.786682 43:-0.82285 44:-0.922895 45:-0.79823 46:-0.945946 47:-0.708511 48:-0.752645 49:-0.874283 50:-0.91592 51:-0.740626 52:-0.693323 53:-0.955766 54:-0.75131 55:-0.89258 56:-0.618041 57:-0.833841 58:-0.698895 59:-0.889523 60:-0.867567 
8192 1:-0.791038 2:-0.934346 3:-0.963063 4:-0.88755 5:-0.848401 6:-0.882597 7:-0.897907 8:-0.996261 9:-0.840086 10:-0.845512 11:-0.998624 12:-0.796554 13:-0.755365 14:-0.944548 15:-0.860823 16:-0.757464 17:-0.882104 18:-0.944328 19:-0.671733 20:-0.818984 21:-0.98513 22:-0.979316 23:-0.872296 24:-0.868893 25:-0.921943 26:-0.744255 27:-0.985899 28:-0.900822 29:-0.896709 30:-0.960341 31:-0.850372 32:-0.655959 33:-0.946436 34:-0.904006 35:-0.928378 36:-0.834074 37:-0.835661 38:-0.909809 39:-0.975214 40:-0.711268 41:-0.944008 42:-0.85327 43:-0.735669 44:-0.847481 45:-0.866667 46:-0.956393 47:-0.857672 48:-0.950626 49:-0.752136 50:-0.776017 51:-0.961472 52:-0.813657 53:-0.97346 54:-0.870066 55:-0.728168 56:-0.763511 57:-0.998476 58:-0.90953 59:-0.817999 60:-0.579849 
1314.8966705262346 1:-0.926797 2:-0.61483 3:-0.673584 4:-0.964912 5:-0.940195 6:-0.739871 7:-0.594457 8:-0.719271 9:-0.833853 10:-0.52359 11:-0.730875 12:-0.807487 13:-0.893742 14:-0.900243 15:-0.736422 16:-0.827372 17:-0.911719 18:-0.79115 19:-0.759271 20:-0.458869 21:-0.789756 22:-0.682964 23:-0.823146 24:-0.774759 25:-0.683648 26:-0.817993 27:-0.73161 28:-0.565479 29:-0.880256 30:-0.720999 31:-0.940782 32:-0.836492 33:-0.826234 34:0.00151172 35:-0.907645 36:-0.760551 37:-0.71364 38:-0.677359 39:-0.644017 40:-0.805634 41:-0.667498 42:-0.807896 43:-0.813694 44:-0.915117 45:-0.89528 46:-0.441744 47:-0.521776 48:-0.549313 49:-0.755706 50:-0.409028 51:-0.945648 52:-0.0301915 53:-0.24613 54:-0.696123 55:-0.63388 56:-0.766761 57:-0.624619 58:-0.866367 59:-0.784419 60:-0.199169 
8192 1:-0.884206 2:-0.848095 3:-0.761154 4:-0.765377 5:-0.683357 6:-0.941989 7:-1 8:-0.777847 9:-0.927356 10:-0.91542 11:-0.942488 12:-0.91325 13:-0.972985 14:-0.912248 15:-0.874601 16:-0.931126 17:-0.879566 18:-0.797586 19:-0.71388 20:-0.781783 21:-0.608839 22:-0.740128 23:-0.817265 24:-0.810224 25:-0.892309 26:-0.952486 27:-0.86886 28:-0.574247 29:-0.93053 30:-0.730518 31:-0.879371 32:-0.900739 33:-0.958456 34:-0.674981 35:-0.916127 36:-0.798756 37:-0.785949 38:-0.671781 39:-0.724359 40:-0.983099 41:-0.948226 42:-0.305245 43:-0.798567 44:-0.856273 45:-0.561357 46:-0.926868 47:-0.810418 48:-0.99246 49:-0.768966 50:-0.344245 51:-0.856897 52:-0.54875 53:-0.691311 54:-0.513098 55:-0.741563 56:-0.406745 57:-0.585747 58:-0.97134 59:-0.982539 60:-0.42041 
4037.3551908696827 1:-0.809228 2:-0.767765 3:-0.912845 4:-0.800888 5:-0.744089 6:-0.797882 7:-0.594457 8:-0.942982 9:-0.906977 10:-0.60817 11:-0.788387 12:-0.894474 13:-0.921057 14:-0.988852 15:-0.861821 16:-0.896837 17:-0.968129 18:-0.993886 19:-0.955015 20:-0.677469 21:-0.819909 22:-0.943588 23:-0.995379 24:-0.965667 25:-0.791797 26:-0.865767 27:-0.86322 28:-0.991233 29:-0.949726 30:-0.990878 31:-0.938833 32:-0.937681 33:-0.868621 34:-0.323507 35:-0.993168 36:-0.962683 37:-0.927691 38:-0.995351 39:-0.919658 40:-0.786854 41:-0.719655 42:-0.498527 43:-0.984873 44:-0.941833 45:-0.666077 46:-0.51533 47:-0.713066 48:-0.54153 49:-0.986995 50:-0.935217 51:-0.911937 52:-0.482956 53:-0.555766 54:-0.817674 55:-0.89258 56:-0.640796 57:-0.962652 58:-0.837707 59:-0.766958 60:-0.779278 
8192 1:-0.635315 2:-0.833934 3:-0.842706 4:-0.980131 5:-0.66713 6:-0.871087 7:-0.847285 8:-0.780963 9:-0.901702 10:-0.667434 11:-0.855256 12:-0.957457 13:-0.879033 14:-0.962555 15:-0.935703 16:-0.919007 17:-0.979975 18:-0.735479 19:-0.997974 20:-0.407478 21:-0.926477 22:-0.810079 23:-0.732409 24:-0.980004 25:-0.94394 26:-0.592626 27:-0.657814 28:-0.770959 29:-0.802559 30:-0.767599 31:-0.701962 32:-0.998715 33:-0.756221 34:-0.714286 35:-0.625398 36:-0.985562 37:-0.615448 38:-0.856811 39:-0.999145 40:-0.932394 41:-0.984276 42:-0.857985 43:-0.526274 44:-0.950626 45:-0.900295 46:-0.911424 47:-0.711927 48:-0.85723 49:-0.788091 50:-0.631978 51:-0.831441 52:-0.767774 53:-0.834439 54:-0.847014 55:-0.992909 56:-0.986997 57:-0.759146 58:-0.839088 59:-0.745467 60:-0.692028 
8192 1:-0.737356 2:-0.86277 3:-0.949782 4:-0.998732 5:-0.79045 6:-0.870626 7:-0.983032 8:-0.904346 9:-0.981299 10:-0.91542 11:-0.847551 12:-0.973619 13:-0.961279 14:-0.932828 15:-0.992013 16:-0.744014 17:-0.956283 18:-0.862591 19:-0.812766 20:-0.883797 21:-0.949195 22:-0.664536 23:-0.931527 24:-0.891719 25:-0.908195 26:-0.602493 27:-0.971798 28:-0.56274 29:-0.95521 30:-0.750149 31:-0.678567 32:-0.886926 33:-0.963307 34:-0.658352 35:-0.982801 36:-0.750333 37:-0.953164 38:-0.660623 39:-0.695726 40:-0.923944 41:-0.964334 42:-0.680613 43:-0.97293 44:-0.964153 45:-0.311504 46:-0.442199 47:-0.401082 48:-0.677247 49:-0.820732 50:-0.50448 51:-0.885793 52:-0.985067 53:-0.892575 54:-0.944115 55:-0.851609 56:-0.344982 57:-0.974085 58:-0.957182 59:-0.896575 60:-0.8416 
2273.9652218273541 1:-0.899734 2:-0.972194 3:-0.792073 4:-0.97844 5:-0.877608 6:-0.99954 7:-0.830317 8:-0.683751 9:-0.920882 10:-0.752014 11:-0.992295 12:-0.984076 13:-0.840012 14:-0.894526 15:-0.94369 16:-0.825599 17:-0.97659 18:-0.597747 19:-0.815198 20:-0.290892 21:-0.874845 22:-0.855209 23:-0.802142 24:-0.912847 25:-0.851676 26:-0.194859 27:-0.686486 28:-0.791781 29:-0.847349 30:-0.517351 31:-0.976849 32:-0.883713 33:-0.718684 34:-0.944067 35:-0.644245 36:-0.735007 37:-0.568611 38:-0.804742 39:-0.694872 40:-0.993427 41:-0.980441 42:-0.823807 43:-0.499204 44:-0.987149 45:-0.211799 46:-0.353168 47:-0.690863 48:-0.82026 49:-0.967614 50:-0.872502 51:-0.716546 52:-0.751326 53:-0.726382 54:-0.79043 55:-0.844255 56:-0.358797 57:-0.731707 58:-0.796271 59:-0.642042 60:-0.850948 
8192 1:-0.893079 2:-0.863028 3:-0.883793 4:-0.935743 5:-0.770978 6:-0.635129 7:-0.981335 8:-0.704938 9:-0.859506 10:-0.736479 11:-0.970281 12:-0.94082 13:-0.74486 14:-0.972846 15:-0.944089 16:-0.876441 17:-0.957129 18:-0.807562 19:-0.90152 20:-0.841227 21:-0.826105 22:-0.544942 23:-0.786179 24:-0.961139 25:-0.944551 26:-0.862132 27:-0.986839 28:-0.734795 29:-0.94287 30:-0.993655 31:-0.956379 32:-0.724382 33:-0.967313 34:-0.919123 35:-0.898221 36:-0.892492 37:-0.859901 38:-0.994421 39:-0.926068 40:-0.931455 41:-0.912176 42:-0.769004 43:-0.928344 44:-0.847481 45:-0.978171 46:-0.586645 47:-0.795901 48:-0.893713 49:-0.929364 50:-0.758098 51:-0.856209 52:-0.691592 53:-0.98673 54:-0.840727 55:-0.869468 56:-0.654612 57:-0.996951 58:-0.852901 59:-0.945265 60:-0.713841 
3630.9390203234207 1:-0.578527 2:-0.894954 3:-0.828595 4:-0.603889 5:-0.394993 6:-0.747238 7:-0.960407 8:-0.101106 9:-0.630304 10:-0.781358 11:-0.779857 12:-0.934641 13:-0.966081 14:-0.941975 15:-0.728035 16:-0.846881 17:-0.658722 18:-0.901207 19:-0.657953 20:-0.655609 21:-0.6076 22:-0.698759 23:-0.853392 24:-0.91662 25:-0.721836 26:-0.914059 27:-0.633373 28:-0.328219 29:-0.648995 30:-0.779893 31:-0.951505 32:-0.671699 33:-0.914804 34:-0.39607 35:-0.901284 36:-0.797868 37:-0.590797 38:-0.987913 39:-0.598291 40:-0.941784 41:-0.812464 42:-0.802004 43:-0.722134 44:-0.753466 45:-0.673156 46:-0.722462 47:-0.801879 48:-0.630548 49:-0.602448 50:-0.799449 51:-0.594771 52:-0.731414 53:-0.560506 54:-0.886832 55:-0.992383 56:-0.868346 57:-0.886433 58:-0.962017 59:-0.862324 60:-0.979746 
360.59783911574243 1:-0.665484 2:-0.909887 3:-0.861382 4:-0.788205 5:-0.619842 6:-0.98895 7:-0.584842 8:0.00233681 9:-0.92328 10:-0.872842 11:-0.796368 12:-0.617112 13:-0.955876 14:-0.887666 15:-0.841454 16:-0.924328 17:-0.959667 18:-0.999678 19:-0.777508 20:-0.764909 21:-0.878563 22:-0.77059 23:-0.972695 24:-0.935484 25:-0.600855 26:-0.722965 27:-0.86839 28:-0.618082 29:-0.45841 30:-0.632362 31:-0.81991 32:-0.727594 33:-0.99283 34:-0.563114 35:-0.712334 36:-0.940471 37:-0.85456 38:-0.928405 39:-0.718803 40:-0.653991 41:-0.693576 42:-0.588097 43:-0.820064 44:-0.949949 45:-0.752212 46:-0.328185 47:-0.986906 48:-0.429649 49:-0.557057 50:-0.886975 51:-0.978672 52:-0.521048 53:-0.967141 54:-0.939225 55:-0.817991 56:-0.839902 57:-0.597561 58:-0.774862 59:-0.688381 60:-0.806284 
2389.0904352326584 1:-0.914818 2:-0.803811 3:-0.689562 4:-0.816107 5:-0.776078 6:-0.758287 7:-0.624434 8:-0.898115 9:-0.707504 10:-0.6542 11:-0.983489 12:-0.551515 13:-0.921657 14:-0.946549 15:-0.886581 16:-0.923145 17:-0.699337 18:-0.90185 19:-0.880851 20:-0.891083 21:-0.729864 22:-0.928921 23:-0.824827 24:-0.850972 25:-0.879478 26:-0.809165 27:-0.765452 28:-0.710137 29:-0.809415 30:-0.852865 31:-0.868649 32:-0.946033 33:-0.90679 34:-0.832955 35:-0.812699 36:-0.858285 37:-0.736237 38:-0.941423 39:-0.879487 40:-0.714085 41:-0.881496 42:-0.787272 43:-0.90207 44:-0.804193 45:-0.425369 46:-0.0501931 47:-0.787077 48:-0.0599538 49:-0.954864 50:-0.912474 51:-0.572755 52:-0.250947 53:-0.593997 54:-0.825358 55:-0.810112 56:-0.707436 57:-0.48247 58:-0.736878 59:-0.550705 60:-0.78551 
8192 1:-0.746673 2:-0.900103 3:-0.960573 4:-0.974213 5:-0.844692 6:-0.644337 7:-0.733597 8:-0.707431 9:-0.978902 10:-0.96145 11:-0.98459 12:-0.935354 13:-0.988894 14:-0.77619 15:-0.801318 16:-0.976648 17:-0.95318 18:-0.978761 19:-0.843972 20:-0.945542 21:-0.934738 22:-0.673561 23:-0.982357 24:-0.906055 25:-0.987016 26:-0.90627 27:-0.99483 28:-0.93863 29:-0.833638 30:-0.860004 31:-0.978068 32:-0.994218 33:-0.960354 34:-0.807634 35:-0.992696 36:-0.981564 37:-0.899753 38:-0.900046 39:-0.769658 40:-0.838498 41:-0.875743 42:-0.913966 43:-0.861863 44:-0.998309 45:-0.967257 46:-0.909153 47:-0.844577 48:-0.893713 49:-0.895193 50:-0.809442 51:-0.922257 52:-0.348772 53:-0.951659 54:-0.749214 55:-0.937229 56:-0.799675 57:-0.68407 58:-0.500345 59:-0.78039 60:-0.890937 
1320.9735241500937 1:-0.1189 2:-0.88723 3:-0.73065 4:-0.783133 5:-0.852573 6:-0.90884 7:-0.854072 8:-0.770992 9:-0.836011 10:-0.459148 11:-0.795817 12:-0.823886 13:-0.411376 14:-0.699014 15:-0.795927 16:-0.629323 17:-0.786772 18:-0.153982 19:-0.797771 20:-0.443528 21:-0.2152 22:-0.257616 23:-0.802562 24:-0.551783 25:-0.596578 26:-0.483578 27:-0.59953 28:-0.589041 29:-0.622943 30:-0.766409 31:-0.756062 32:-0.574044 33:-0.861029 34:-0.397581 35:-0.759925 36:-0.643048 37:-0.568611 38:-0.16504 39:-0.375641 40:-0.458685 41:-0.805944 42:-0.397171 43:-0.688296 44:-0.780859 45:-0.111504 46:-0.68794 47:-0.44378 48:-0.368357 49:-0.335203 50:-0.141282 51:-0.843825 52:-0.619738 53:-0.556082 54:-0.417394 55:-0.593171 56:0.241772 57:-0.567073 58:-0.0469613 59:-0.245803 60:-0.0371332 
5160.0189743602705 1:-0.796362 2:-0.926365 3:-0.915335 4:-0.972944 5:-0.931386 6:-0.969613 7:-0.746606 8:-0.965104 9:-0.964037 10:-0.949655 11:-0.73858 12:-0.911586 13:-0.897644 14:-0.977991 15:-0.973442 16:-0.751108 17:-0.876745 18:-0.935961 19:-0.875177 20:-0.914477 21:-0.957456 22:-0.820985 23:-0.602184 24:-0.900585 25:-0.897502 26:-0.806569 27:-0.93208 28:-0.962192 29:-0.88734 30:-0.979179 31:-0.931278 32:-0.495342 33:-0.857866 34:-0.693878 35:-0.99788 36:-0.8745 37:-0.778143 38:-0.992097 39:-0.64359 40:-0.978873 41:-0.983126 42:-0.988214 43:-0.921377 44:-0.987825 45:-0.99469 46:-0.975017 47:-0.841446 48:-0.685273 49:-0.930129 50:-0.425224 51:-0.954592 52:-0.73228 53:-0.922275 54:-0.719176 55:-0.992646 56:-0.744413 57:-0.938262 58:-0.858425 59:-0.893889 60:-0.835367 
8192 1:-0.721828 2:-0.826725 3:-0.78398 4:-0.873177 5:-0.87529 6:-0.803867 7:-0.926753 8:-0.997819 9:-1 10:-0.594649 11:-0.763897 12:-0.97552 13:-0.830707 14:-0.959697 15:-0.991613 16:-0.833284 17:-0.989282 18:-0.996782 19:-0.89463 20:-0.843145 21:-0.790169 22:-0.930237 23:-0.776938 24:-0.899076 25:-0.955549 26:-0.995586 27:-0.79906 28:-0.928219 29:-0.77628 30:-0.943883 31:-0.862069 32:-0.590427 33:-0.937157 34:-0.769463 35:-0.945812 36:-0.882941 37:-0.873459 38:-0.993491 39:-0.7 40:-0.992019 41:-0.955896 42:-0.784325 43:-0.865247 44:-0.891782 45:-0.852507 46:-0.914604 47:-0.790492 48:-0.610361 49:-0.841897 50:-0.904893 51:-0.916753 52:-0.961692 53:-0.618325 54:-0.7073 55:-0.968746 56:-0.738724 57:-0.912348 58:-0.969959 59:-0.846206 60:-0.859777 
8192 1:-0.92724 2:-0.90139 3:-0.86906 4:-0.900655 5:-0.944831 6:-0.834254 7:-0.67336 8:-0.961365 9:-0.963558 10:-0.644994 11:-0.974684 12:-0.886869 13:-0.933363 14:-0.93683 15:-0.965056 16:-0.918416 17:-0.887745 18:-0.932422 19:-0.769402 20:-0.757239 21:-0.746799 22:-0.75047 23:-0.826507 24:-0.999623 25:-0.942412 26:-0.811242 27:-0.86745 28:-0.966027 29:-0.88894 30:-0.9651 31:-0.931034 32:-0.906842 33:-0.79418 34:-0.924414 35:-0.949582 36:-0.992448 37:-0.651602 38:-0.984658 39:-0.94359 40:-0.988732 41:-0.938639 42:-0.771361 43:-0.786624 44:-0.878931 45:-0.847198 46:-0.889166 47:-0.630231 48:-0.925331 49:-0.912023 50:-0.330117 51:-0.962848 52:-0.772103 53:-0.696682 54:-0.988823 55:-0.976362 56:-0.995124 57:-0.849085 58:-0.828384 59:-0.952317 60:-0.694625 
8192 1:-0.893079 2:-0.863028 3:-0.883793 4:-0.935743 5:-0.770978 6:-0.635129 7:-0.981335 8:-0.704938 9:-0.859506 10:-0.736479 11:-0.970281 12:-0.94082 13:-0.74486 14:-0.972846 15:-0.944089 16:-0.876441 17:-0.957129 18:-0.807562 19:-0.90152 20:-0.841227 21:-0.826105 22:-0.544942 23:-0.786179 24:-0.961139 25:-0.944551 26:-0.862132 27:-0.986839 28:-0.734795 29:-0.94287 30:-0.993655 31:-0.956379 32:-0.724382 33:-0.967313 34:-0.919123 35:-0.898221 36:-0.892492 37:-0.859901 38:-0.994421 39:-0.926068 40:-0.931455 41:-0.912176 42:-0.769004 43:-0.928344 44:-0.847481 45:-0.978171 46:-0.586645 47:-0.795901 48:-0.893713 49:-0.929364 50:-0.758098 51:-0.856209 52:-0.691592 53:-0.98673 54:-0.840727 55:-0.869468 56:-0.654612 57:-0.996951 58:-0.852901 59:-0.945265 60:-0.713841 
3547.644828636558 1:-0.750665 2:-0.926365 3:-0.935256 4:-0.58402 5:-0.970329 6:-0.879374 7:-0.510747 8:-0.807135 9:-0.682091 10:-0.924051 11:-0.84645 12:-0.780154 13:-0.790185 14:-0.68758 15:-0.83147 16:-0.966302 17:-0.762234 18:-0.857442 19:-0.936373 20:-0.614957 21:-0.834779 22:-0.673561 23:-0.900441 24:-0.907565 25:-0.983655 26:-0.960275 27:-0.693537 28:-0.713425 29:-0.931901 30:-0.837002 31:-0.615207 32:-0.51301 33:-0.970055 34:-0.291383 35:-0.9272 36:-0.885162 37:-0.76212 38:-0.763366 39:-0.749573 40:-0.532864 41:-0.983126 42:-0.533883 43:-0.911226 44:-0.927291 45:-0.824779 46:-0.929593 47:-0.845716 48:-0.775994 49:-0.975775 50:-0.979325 51:-0.96216 52:-0.652635 53:-0.747235 54:-0.934335 55:-0.86264 56:-0.823649 57:-0.864329 58:-0.990331 59:-0.654802 60:-0.766814 
8192 1:-0.892635 2:-0.799176 3:-0.860552 4:-0.656732 5:-0.96662 6:-0.876611 7:-0.877262 8:-0.763515 9:-0.915608 10:-0.552934 11:-0.927903 12:-0.770648 13:-0.800991 14:-0.77276 15:-0.935304 16:-0.51877 17:-0.921873 18:-0.88576 19:-0.823708 20:-0.691659 21:-0.305246 22:-0.712674 23:-0.994119 24:-0.875872 25:-0.973268 26:-0.881864 27:-0.758402 28:-0.899178 29:-0.987203 30:-0.959944 31:-0.322286 32:-0.995503 33:-0.958245 34:-0.68065 35:-0.920132 36:-0.978898 37:-0.754725 38:-0.662947 39:-0.762393 40:-0.809859 41:-0.913327 42:-0.873895 43:-0.974522 44:-0.962124 45:-0.723894 46:-0.762435 47:-0.957301 48:-0.963274 49:-0.853372 50:-0.8153 51:-0.832817 52:-0.959961 53:-0.838863 54:-0.867272 55:-0.855286 56:-0.867534 57:-0.794207 58:-0.88605 59:-0.947952 60:-0.950143 
1420.9520117378327 1:-0.685892 2:-0.409887 3:-0.937954 4:-0.928134 5:-0.916551 6:-0.851289 7:-0.996041 8:-0.391494 9:-0.850875 10:-0.735328 11:-0.909741 12:-0.766845 13:-0.38196 14:-0.704731 15:-0.755192 16:-0.739876 17:-0.932591 18:-0.783105 19:-0.623506 20:-0.652924 21:-0.00536968 22:-0.594584 23:-0.479521 24:-0.566874 25:-0.854426 26:-0.702194 27:-0.802115 28:-0.804932 29:-0.748172 30:-0.967083 31:-0.595224 32:-0.143591 33:-0.855335 34:-0.808768 35:-0.870656 36:-0.809862 37:-0.741988 38:-0.465365 39:-0.859829 40:-0.969014 41:-0.951294 42:-0.0188568 43:-0.807325 44:-0.63747 45:-0.680236 46:-0.879628 47:-0.637347 48:-0.921926 49:-0.906923 50:-0.730531 51:-0.915377 52:-0.830105 53:-0.425592 54:-0.606706 55:-0.832699 56:-0.919545 57:-0.922256 58:-0.788674 59:-0.947616 60:-0.871722 
8192 1:-0.967613 2:-0.913491 3:-0.981739 4:-0.878673 5:-0.82522 6:-0.946593 7:-0.922511 8:-0.997507 9:-0.970271 10:-0.840334 11:-0.843423 12:-0.93773 13:-0.828005 14:-0.960269 15:-0.930511 16:-0.900089 17:-0.97659 18:-0.898793 19:-0.994326 20:-0.943241 21:-0.811235 22:-0.709665 23:-0.883008 24:-0.891341 25:-0.928359 26:-0.96391 27:-0.898002 28:-0.756164 29:-0.984461 30:-0.986119 31:-0.927379 32:-0.954385 33:-0.90679 34:-0.962585 35:-0.938744 36:-0.879387 37:-0.572309 38:-0.794514 39:-0.950855 40:-0.876526 41:-0.921189 42:-0.94284 43:-0.927548 44:-0.896686 45:-0.896165 46:-0.822167 47:-0.882152 48:-0.965949 49:-0.998725 50:-0.772226 51:-0.861369 52:-0.867763 53:-0.884044 54:-0.98044 55:-0.992909 56:-0.945144 57:-0.820884 58:-0.983771 59:-0.891202 60:-0.915866 
1916.3955822587955 1:-0.928128 2:-0.92482 3:-0.672131 4:-0.915451 5:-0.672694 6:-0.990792 7:-0.915724 8:-0.895622 9:-0.999041 10:-0.93901 11:-0.78426 12:-0.927035 13:-0.702236 14:-0.97942 15:-0.866014 16:-0.870825 17:-0.951206 18:-0.97136 19:-0.788855 20:-0.856184 21:-0.972739 22:-0.913877 23:-0.724848 24:-0.972081 25:-0.965936 26:-0.678826 27:-0.930905 28:-0.967671 29:-0.921846 30:-0.925045 31:-0.76581 32:-0.883071 33:-0.946858 34:-0.782313 35:-0.817646 36:-0.807641 37:-0.599836 38:-0.385867 39:-0.82906 40:-0.713146 41:-0.533269 42:-0.480849 43:-0.737659 44:-0.95164 45:-0.975221 46:-0.737906 47:-0.685169 48:-0.782804 49:-0.947214 50:-0.742247 51:-0.738562 52:-0.985067 53:-0.99684 54:-0.942717 55:-0.859488 56:-0.548557 57:-0.897104 58:-0.882597 59:-0.691068 60:-1 
3747.2513139003236 1:-0.658829 2:-0.914006 3:-0.997302 4:-0.917565 5:-0.960593 6:-0.881676 7:-0.981052 8:-0.95451 9:-0.910573 10:-0.819333 11:-0.95432 12:-0.982888 13:-0.811196 14:-0.760469 15:-0.935104 16:-0.99261 17:-0.924411 18:-0.886404 19:-0.980547 20:-0.995781 21:-0.855845 22:-0.969914 23:-0.939509 24:-0.745897 25:-0.892003 26:-0.90627 27:-0.997415 28:-0.785205 29:-0.683958 30:-0.821733 31:-0.971975 32:-0.990042 33:-0.989245 34:-0.908163 35:-0.88597 36:-0.593736 37:-0.817584 38:-0.587634 39:-0.934615 40:-0.520188 41:-0.864621 42:-0.89452 43:-0.649283 44:-0.891444 45:-0.853687 46:-0.839655 47:-0.811842 48:-0.833881 49:-0.791916 50:-0.800138 51:-0.421397 52:-0.853046 53:-0.889415 54:-0.871114 55:-0.966382 56:-0.949208 57:-0.991235 58:-0.954075 59:-0.879785 60:-0.914827 
8192 1:-0.636646 2:-0.971936 3:-0.994812 4:-0.741704 5:-0.996755 6:-0.839779 7:-0.959842 8:-0.920548 9:-0.993766 10:-0.931243 11:-0.89158 12:-0.954843 13:-0.843614 14:-0.699586 15:-0.840655 16:-0.953887 17:-0.85813 18:-0.823652 19:-0.949747 20:-0.909108 21:-0.893846 22:-0.947349 23:-0.887419 24:-0.978495 25:-0.949133 26:-0.884461 27:-0.93114 28:-0.967945 29:-0.766682 30:-0.960738 31:-0.959059 32:-0.974301 33:-0.998735 34:-0.900605 35:-0.896336 36:-0.68303 37:-0.958094 38:-0.647606 39:-0.987179 40:-0.732864 41:-0.782742 42:-0.925162 43:-0.76672 44:-0.989178 45:-0.712094 46:-0.829662 47:-0.816966 48:-0.790344 49:-0.820222 50:-0.977257 51:-0.69109 52:-0.813224 53:-0.896682 54:-0.983234 55:-0.925936 56:-0.910199 57:-0.933689 58:-0.989986 59:-0.956682 60:-0.963126 
514.37536235460118 1:-0.994676 2:-0.898043 3:-0.913675 4:-0.994504 5:-0.965229 6:-0.928177 7:-0.8931 8:-0.945786 9:-0.860465 10:-0.906789 11:-0.951018 12:-0.866904 13:-0.977187 14:-0.95055 15:-0.9373 16:-0.964824 17:-0.885771 18:-0.974899 19:-0.949747 20:-0.901822 21:-0.856258 22:-0.947349 23:-0.862214 24:-0.83871 25:-0.987932 26:-0.880826 27:-0.895182 28:-0.848219 29:-0.922303 30:-0.978584 31:-0.985866 32:-0.99486 33:-0.952973 34:-0.806122 35:-0.926729 36:-0.860284 37:-0.964256 38:-0.882845 39:-0.885897 40:-0.846479 41:-0.863279 42:-0.529169 43:-0.863455 44:-0.928306 45:-0.829499 46:-0.981376 47:-0.8423 48:-0.858689 49:-0.931404 50:-0.830462 51:-0.952528 52:-0.743534 53:-0.979147 54:-0.808243 55:-0.850295 56:-0.914262 57:-0.950457 58:-0.856008 59:-0.876763 60:-0.819787 
8192 1:-0.724933 2:-0.903193 3:-0.931314 4:-0.894314 5:-0.758461 6:-0.914825 7:-0.593326 8:-0.724879 9:-0.695037 10:-0.872842 11:-0.922675 12:-0.950802 13:-0.798289 14:-0.885379 15:-0.798323 16:-0.804316 17:-0.895078 18:-0.944972 19:-0.966363 20:-0.904506 21:-0.864519 22:-0.864235 23:-0.978576 24:-0.998868 25:-0.895669 26:-0.577308 27:-0.937015 28:-0.903562 29:-0.933272 30:-0.902439 31:-0.679542 32:-0.826534 33:-0.817166 34:-0.787604 35:-0.791259 36:-0.946246 37:-0.781019 38:-0.899117 39:-0.783761 40:-0.905164 41:-0.810547 42:-0.78845 43:-0.697054 44:-0.828542 45:-0.859292 46:-0.870089 47:-0.803017 48:-0.97203 49:-0.903863 50:-0.731564 51:-0.889233 52:-0.759117 53:-0.95703 54:-0.820817 55:-0.933815 56:-0.926046 57:-0.750381 58:-0.85808 59:-0.964406 60:-0.735134 
8192 1:-0.842059 2:-0.986354 3:-0.748081 4:-0.93532 5:-0.781178 6:-0.950967 7:-0.996041 8:-0.867581 9:-0.867178 10:-0.875719 11:-0.8071 12:-0.907546 13:-0.539547 14:-0.963127 15:-0.923722 16:-0.91546 17:-0.967282 18:-0.988415 19:-0.823303 20:-0.817066 21:-0.8038 22:-0.776608 23:-0.964293 24:-0.844935 25:-0.894142 26:-0.708945 27:-0.891422 28:-0.912877 29:-0.792505 30:-0.577236 31:-0.706105 32:-0.863155 33:-0.987769 34:-0.861678 35:-0.965838 36:-0.925367 37:-0.899753 38:-0.865644 39:-0.895299 40:-0.671362 41:-0.980441 42:-0.832646 43:-0.957006 44:-0.906324 45:-0.910324 46:-0.911424 47:-0.869627 48:-0.670923 49:-0.927834 50:-0.84907 51:-0.688338 52:-0.937453 53:-0.840442 54:-0.913378 55:-0.929613 56:-0.843966 57:-0.883384 58:-0.993094 59:-0.969443 60:-0.975591 
8192 1:-0.88465 2:-0.888517 3:-0.678979 4:-0.829212 5:-0.538711 6:-0.865792 7:-0.589367 8:-0.858857 9:-0.828339 10:-0.997123 11:-0.884425 12:-0.956982 13:-0.741558 14:-0.847649 15:-0.874601 16:-0.719184 17:-0.862079 18:-0.933065 19:-0.78926 20:-0.912943 21:-0.667493 22:-0.64009 23:-0.941609 24:-0.842671 25:-0.998931 26:-0.868623 27:-0.827967 28:-0.816438 29:-0.859232 30:-0.675193 31:-0.973681 32:-0.965307 33:-0.804091 34:-0.925926 35:-0.82707 36:-0.870724 37:-0.680772 38:-0.967457 39:-0.888462 40:-0.574648 41:-0.790604 42:-0.619918 43:-0.654061 44:-0.73419 45:-0.769617 46:-0.959119 47:-0.935098 48:-0.642709 49:-0.831442 50:-0.580634 51:-0.576883 52:-0.695055 53:-0.79684 54:-0.733496 55:-0.99606 56:-0.918732 57:-0.868521 58:-0.851174 59:-0.994963 60:-0.710205 
8192 1:-0.967613 2:-0.913491 3:-0.981739 4:-0.878673 5:-0.82522 6:-0.946593 7:-0.922511 8:-0.997507 9:-0.970271 10:-0.840334 11:-0.843423 12:-0.93773 13:-0.828005 14:-0.960269 15:-0.930511 16:-0.900089 17:-0.97659 18:-0.898793 19:-0.994326 20:-0.943241 21:-0.811235 22:-0.709665 23:-0.883008 24:-0.891341 25:-0.928359 26:-0.96391 27:-0.898002 28:-0.756164 29:-0.984461 30:-0.986119 31:-0.927379 32:-0.954385 33:-0.90679 34:-0.962585 35:-0.938744 36:-0.879387 37:-0.572309 38:-0.794514 39:-0.950855 40:-0.876526 41:-0.921189 42:-0.94284 43:-0.927548 44:-0.896686 45:-0.896165 46:-0.822167 47:-0.882152 48:-0.965949 49:-0.998725 50:-0.772226 51:-0.861369 52:-0.867763 53:-0.884044 54:-0.98044 55:-0.992909 56:-0.945144 57:-0.820884 58:-0.983771 59:-0.891202 60:-0.915866 
3008.4859720140207 1:-0.960515 2:-0.973996 3:-0.980079 4:-0.699429 5:-0.901715 6:-0.823665 7:-0.963235 8:-0.82988 9:-0.934788 10:-0.859321 11:-0.86186 12:-0.963874 13:-0.67282 14:-0.959983 15:-0.934904 16:-0.96778 17:-0.904668 18:-0.978439 19:-0.733333 20:-0.977373 21:-0.949195 22:-0.623167 23:-0.967444 24:-0.927561 25:-0.943634 26:-0.878229 27:-0.987074 28:-0.855342 29:-0.995887 30:-0.858616 31:-0.936152 32:-0.909091 33:-0.977225 34:-0.839002 35:-0.945105 36:-0.909818 37:-0.593262 38:-0.954905 39:-0.839744 40:-0.961033 41:-0.956855 42:-0.971126 43:-0.907245 44:-0.917146 45:-0.984071 46:-0.781285 47:-0.877597 48:-0.709595 49:-0.899783 50:-0.643349 51:-0.997936 52:-0.794178 53:-0.570616 54:-0.915823 55:-0.999212 56:-0.905323 57:-0.997713 58:-0.964088 59:-0.902283 60:-0.903402 
7734.0860938527112 1:-0.926353 2:-0.940525 3:-0.961403 4:-0.821179 5:-0.924432 6:-0.877072 7:-0.885747 8:-0.833931 9:-0.964996 10:-0.981013 11:-0.981563 12:-0.901367 13:-0.845115 14:-0.919394 15:-0.995607 16:-0.867278 17:-0.880976 18:-0.876911 19:-0.727254 20:-0.966251 21:-0.759603 22:-0.914253 23:-0.916824 24:-0.964912 25:-0.985183 26:-0.914579 27:-0.884606 28:-0.611507 29:-0.980347 30:-0.872893 31:-0.991471 32:-0.956633 33:-0.930409 34:-0.876417 35:-0.8822 36:-0.788316 37:-0.979047 38:-0.840539 39:-0.790598 40:-0.917371 41:-0.964717 42:-0.972893 43:-0.834793 44:-0.980216 45:-0.880236 46:-0.959573 47:-0.997153 48:-0.743889 49:-0.898253 50:-0.871123 51:-0.864121 52:-0.660426 53:-0.687204 54:-0.936081 55:-0.991858 56:-0.960991 57:-0.824695 58:-0.980318 59:-0.988919 60:-0.988055 
6555.5547047015953 1:-0.936114 2:-0.891092 3:-0.933181 4:-0.713803 5:-0.95503 6:-0.825967 7:-0.840498 8:-0.828945 9:-0.86526 10:-0.851554 11:-0.800771 12:-0.907546 13:-0.843614 14:-0.861369 15:-0.957268 16:-0.995566 17:-0.910591 18:-0.681416 19:-0.772644 20:-0.534036 21:-0.896737 22:-0.936818 23:-0.867675 24:-0.950953 25:-0.990071 26:-0.690251 27:-0.826087 28:-0.940274 29:-0.846435 30:-0.974618 31:-0.813574 32:-0.519435 33:-0.891607 34:-0.973545 35:-0.913535 36:-0.771657 37:-0.557929 38:-0.25709 39:-0.691453 40:-0.30939 41:-0.793289 42:-0.718326 43:-0.764331 44:-0.713561 45:-0.943953 46:-0.854645 47:-0.918588 48:-0.963274 49:-0.70496 50:-0.493453 51:-0.636051 52:-0.904556 53:-0.81169 54:-0.764583 55:-0.570584 56:-0.960179 57:-0.85061 58:-0.925414 59:-0.484218 60:-0.974552 
3924.0976929157587 1:-0.985803 2:-0.960608 3:-0.902469 4:-0.755231 5:-0.641168 6:-0.645948 7:-0.789027 8:-0.971647 9:-0.975066 10:-0.570771 11:-0.849477 12:-0.825312 13:-0.810896 14:-0.716736 15:-0.98722 16:-0.847768 17:-0.714004 18:-0.713918 19:-0.656738 20:-0.424353 21:-0.826931 22:-0.936066 23:-0.979416 24:-0.589511 25:-0.995265 26:-0.457095 27:-0.86839 28:-0.955068 29:-0.709324 30:-0.71981 31:-0.844767 32:-0.384838 33:-0.649726 34:-0.557823 35:-0.791495 36:-0.93825 37:-0.51931 38:-0.0864714 39:-0.728205 40:-0.519718 41:-0.700863 42:-0.794343 43:-0.681131 44:-0.787284 45:-0.931563 46:-0.93141 47:-0.897523 48:-0.645628 49:-0.532577 50:-0.330806 51:-0.656691 52:-0.936587 53:-0.618641 54:-0.715683 55:-0.542219 56:-0.658269 57:-0.816311 58:-0.763812 59:-0.38415 60:-0.854064 
3403.8271955226137 1:-0.920142 2:-0.850669 3:-0.969703 4:-0.958994 5:-0.595271 6:-0.819982 7:-0.948529 8:-0.858857 9:-0.890674 10:-0.719217 11:-0.650248 12:-0.73262 13:-0.65421 14:-0.856224 15:-0.944489 16:-0.852793 17:-0.803695 18:-0.96782 19:-0.884498 20:-0.8907 21:-0.722842 22:-1 23:-0.889519 24:-0.539332 25:-0.984877 26:-0.767104 27:-0.694007 28:-0.895342 29:-0.862888 30:-0.745588 31:-0.658097 32:-0.867331 33:-0.540278 34:-0.531368 35:-0.703381 36:-0.834296 37:-0.96138 38:-0.830311 39:-0.963248 40:-0.791549 41:-0.907958 42:-0.925162 43:-0.916799 44:-0.926953 45:-0.987611 46:-0.923688 47:-0.814404 48:-0.608659 49:-0.827872 50:-0.837354 51:-0.980048 52:-0.839628 53:-0.807583 54:-0.951799 55:-0.971898 56:-0.617635 57:-0.665396 58:-0.838398 59:-0.899933 60:-0.880031 
2265.2581735775339 1:-0.628217 2:-0.829557 3:-0.761776 4:-0.851617 5:-0.816875 6:-0.918969 7:-0.864819 8:-0.97227 9:-0.909374 10:-0.969505 11:-0.695652 12:-0.935116 13:-0.80069 14:-0.729598 15:-0.990016 16:-0.899793 17:-0.943026 18:-0.906999 19:-0.809929 20:-0.91908 21:-0.916563 22:-0.869124 23:-0.766436 24:-0.897378 25:-0.731918 26:-0.656497 27:-0.985899 28:-0.78137 29:-0.780622 30:-0.919096 31:-0.605702 32:-0.736588 33:-0.947701 34:-0.877551 35:-0.961126 36:-0.922035 37:-0.973706 38:-0.988842 39:-0.623077 40:-0.799061 41:-0.925216 42:-0.818503 43:-0.976911 44:-0.895502 45:-0.693805 46:-0.973654 47:-0.847993 48:-0.829989 49:-0.682009 50:-0.995865 51:-0.971104 52:-0.664755 53:-0.837599 54:-0.338456 55:-0.886277 56:-0.427062 57:-0.931402 58:-0.537983 59:-0.913365 60:-0.321735 
8192 1:-0.928128 2:-0.92482 3:-0.672131 4:-0.915451 5:-0.672694 6:-0.990792 7:-0.915724 8:-0.895622 9:-0.999041 10:-0.93901 11:-0.78426 12:-0.927035 13:-0.702236 14:-0.97942 15:-0.866014 16:-0.870825 17:-0.951206 18:-0.97136 19:-0.788855 20:-0.856184 21:-0.972739 22:-0.913877 23:-0.724848 24:-0.972081 25:-0.965936 26:-0.678826 27:-0.930905 28:-0.967671 29:-0.921846 30:-0.925045 31:-0.76581 32:-0.883071 33:-0.946858 34:-0.782313 35:-0.817646 36:-0.807641 37:-0.599836 38:-0.385867 39:-0.82906 40:-0.713146 41:-0.533269 42:-0.480849 43:-0.737659 44:-0.95164 45:-0.975221 46:-0.737906 47:-0.685169 48:-0.782804 49:-0.947214 50:-0.742247 51:-0.738562 52:-0.985067 53:-0.99684 54:-0.942717 55:-0.859488 56:-0.548557 57:-0.897104 58:-0.882597 59:-0.691068 60:-1 
3053.8522400409938 1:-0.701863 2:-0.753347 3:-0.91077 4:-0.766646 5:-0.856745 6:-0.909761 7:-0.949095 8:-0.866334 9:-0.910813 10:-0.969505 11:-0.911392 12:-0.992157 13:-0.901846 14:-0.751036 15:-0.875998 16:-0.971623 17:-0.992103 18:-0.935961 19:-0.979331 20:-0.77488 21:-0.888476 22:-0.782249 23:-0.959672 24:-0.926429 25:-0.697396 26:-0.977931 27:-0.945476 28:-0.749041 29:-0.858775 30:-0.994448 31:-0.840136 32:-0.855445 33:-1 34:-0.904762 35:-0.777123 36:-0.728787 37:-0.62613 38:-0.37378 39:-0.794017 40:-0.915962 41:-0.608437 42:-0.663524 43:-0.71457 44:-0.846466 45:-0.669027 46:-0.764706 47:-0.838884 48:-0.953058 49:-0.628969 50:-0.738112 51:-0.708978 52:-0.681203 53:-0.84139 54:-0.396437 55:-0.973473 56:0.0247867 57:-0.826982 58:-0.655387 59:-0.777703 60:-0.322254 
8192 1:-0.994676 2:-0.898043 3:-0.913675 4:-0.994504 5:-0.965229 6:-0.928177 7:-0.8931 8:-0.945786 9:-0.860465 10:-0.906789 11:-0.951018 12:-0.866904 13:-0.977187 14:-0.95055 15:-0.9373 16:-0.964824 17:-0.885771 18:-0.974899 19:-0.949747 20:-0.901822 21:-0.856258 22:-0.947349 23:-0.862214 24:-0.83871 25:-0.987932 26:-0.880826 27:-0.895182 28:-0.848219 29:-0.922303 30:-0.978584 31:-0.985866 32:-0.99486 33:-0.952973 34:-0.806122 35:-0.926729 36:-0.860284 37:-0.964256 38:-0.882845 39:-0.885897 40:-0.846479 41:-0.863279 42:-0.529169 43:-0.863455 44:-0.928306 45:-0.829499 46:-0.981376 47:-0.8423 48:-0.858689 49:-0.931404 50:-0.830462 51:-0.952528 52:-0.743534 53:-0.979147 54:-0.808243 55:-0.850295 56:-0.914262 57:-0.950457 58:-0.856008 59:-0.876763 60:-0.819787 
2132.1841007693133 1:-0.998225 2:-0.857878 3:-0.887529 4:-0.971253 5:-0.757534 6:-0.843002 7:-0.949095 8:-0.751675 9:-0.955646 10:-0.968354 11:-0.834342 12:-0.965538 13:-0.724749 14:-0.747892 15:-0.937899 16:-0.954774 17:-0.829361 18:-0.87852 19:-0.854509 20:-0.917929 21:-0.972325 22:-0.896954 23:-0.897501 24:-0.914167 25:-0.941801 26:-0.897702 27:-0.838543 28:-0.670959 29:-0.97989 30:-0.943089 31:-0.878884 32:-0.914552 33:-0.758119 34:-0.869615 35:-0.960655 36:-0.930475 37:-0.648726 38:-0.877731 39:-0.987607 40:-0.967136 41:-0.741323 42:-0.438421 43:-0.873408 44:-0.940142 45:-1 46:-0.808767 47:-0.79277 48:-0.929709 49:-0.895703 50:-0.657478 51:-0.943584 52:-0.951304 53:-0.975039 54:-0.706951 55:-0.952988 56:-0.964242 57:-0.737043 58:-0.752762 59:-0.990598 60:-0.730979 
6084.0815023912446 1:-0.991127 2:-0.960865 3:-0.974269 4:-0.965335 5:-0.793231 6:-0.914825 7:-0.944005 8:-0.695903 9:-0.905298 10:-0.875144 11:-0.883324 12:-0.832204 13:-0.701636 14:-0.798199 15:-0.999401 16:-0.990541 17:-0.943873 18:-0.903942 19:-0.905167 20:-0.984276 21:-0.884758 22:-0.950357 23:-0.965974 24:-0.925674 25:-0.929275 26:-0.983383 27:-0.943831 28:-0.82274 29:-0.942413 30:-0.921277 31:-0.864506 32:-0.907485 33:-0.805989 34:-0.936508 35:-0.885734 36:-0.930697 37:-0.612983 38:-0.759647 39:-0.873504 40:-0.881221 41:-0.878428 42:-0.91043 43:-0.990048 44:-0.867771 45:-0.829499 46:-0.789689 47:-0.952178 48:-0.929223 49:-0.964554 50:-0.827016 51:-0.991744 52:-0.693323 53:-0.996524 54:-0.899406 55:-0.80302 56:-0.950833 57:-0.78811 58:-0.896754 59:-0.886165 60:-0.911711 
3339.6337333204633 1:-0.232032 2:-0.750772 3:-0.985474 4:-0.792433 5:-0.792304 6:-0.975599 7:-0.605204 8:-0.685621 9:-0.924718 10:-0.904488 11:-0.800771 12:-0.96934 13:-0.985292 14:-0.961984 15:-0.799321 16:-0.829146 17:-0.824284 18:-0.926307 19:-0.87153 20:-0.791755 21:-0.376291 22:-0.858593 23:-0.714766 24:-0.850972 25:-0.899947 26:-0.703752 27:-0.983549 28:-0.760548 29:-0.809415 30:-0.886972 31:-0.855977 32:-0.994218 33:-0.873049 34:-0.946334 35:-0.991754 36:-0.822745 37:-0.670912 38:-0.642957 39:-0.913675 40:-0.957277 41:-0.526366 42:-0.822628 43:-0.980494 44:-0.617518 45:-0.939233 46:-0.83375 47:-0.965272 48:-0.865986 49:-0.883973 50:-0.914542 51:-0.649811 52:-0.661292 53:-0.907741 54:-0.823961 55:-0.998162 56:-0.766761 57:-0.826982 58:-0.900552 59:-0.845534 60:-0.628668 
2934.2146112513797 1:-0.359361 2:-0.956231 3:-0.980494 4:-0.677447 5:-0.738989 6:-0.901934 7:-0.656109 8:-0.990964 9:-0.84656 10:-0.959148 11:-0.889928 12:-0.958883 13:-0.898244 14:-0.828784 15:-0.984425 16:-0.7718 17:-0.852489 18:-0.498954 19:-0.731307 20:-0.951294 21:0.0681537 22:-0.87138 23:-0.912623 24:-0.795888 25:-0.666539 26:-0.800338 27:-0.820917 28:-0.848219 29:-0.867459 30:-0.920682 31:-0.924211 32:-0.809187 33:-0.886546 34:-0.883598 35:-0.877724 36:-0.976455 37:-0.925637 38:-0.878196 39:-0.772222 40:-0.584977 41:-0.581975 42:-0.413671 43:-0.660828 44:-0.656747 45:-0.920354 46:-0.654327 47:-0.970965 48:-0.923872 49:-0.638149 50:-0.749828 51:-0.97592 52:-0.654366 53:-0.845182 54:-1 55:-0.931451 56:-0.649736 57:-0.838415 58:-0.582873 59:-0.644056 60:-0.493638 
8192 1:-0.961402 2:-0.967817 3:-0.941897 4:-0.874445 5:-0.867408 6:-0.786832 7:-0.563348 8:-0.980994 9:-0.719012 10:-0.727273 11:-0.946615 12:-0.912775 13:-0.898544 14:-0.608689 15:-0.840855 16:-0.824712 17:-0.747567 18:-0.914562 19:-0.678622 20:-0.934995 21:-0.823833 22:-0.857841 23:-0.940769 24:-0.847765 25:-0.929886 26:-0.907309 27:-0.893302 28:-0.805753 29:-0.942642 30:-0.940313 31:-0.936639 32:-0.936878 33:-0.881063 34:-0.872071 35:-0.998586 36:-0.923923 37:-0.904273 38:-0.770339 39:-0.962393 40:-0.92723 41:-0.919847 42:-0.957867 43:-0.902468 44:-0.931688 45:-0.915339 46:-0.877583 47:-0.824936 48:-0.960598 49:-0.822007 50:-0.671606 51:-0.878913 52:-0.97338 53:-0.912796 54:-0.878449 55:-0.934077 56:-0.921577 57:-0.926448 58:-0.992403 59:-0.941907 60:-0.802649 
5098.5612496537615 1:-0.583407 2:-0.909372 3:-0.825275 4:-0.779751 5:-0.963375 6:-0.660221 7:-0.940045 8:-0.863842 9:-0.97075 10:-0.998849 11:-0.705008 12:-0.748307 13:-0.640402 14:-0.878519 15:-0.96246 16:-0.940881 17:-0.902129 18:-0.695897 19:-0.793313 20:-0.860019 21:-0.921933 22:-0.939075 23:-0.976896 24:-0.921902 25:-0.67601 26:-0.951967 27:-0.944536 28:-0.674521 29:-0.838894 30:-0.972239 31:-0.909102 32:-0.974944 33:-0.893927 34:-0.764928 35:-0.989869 36:-0.956464 37:-0.948233 38:-0.994886 39:-0.933333 40:-0.774648 41:-0.963567 42:-0.85386 43:-0.783439 44:-0.884342 45:-0.848968 46:-0.908244 47:-0.685169 48:-0.992947 49:-0.851332 50:-0.898001 51:-0.642587 52:-0.746131 53:-0.993681 54:-0.931191 55:-0.870781 56:-0.686713 57:-0.706936 58:-0.973757 59:-0.827401 60:-0.770449 
8192 1:-0.945209 2:-0.932544 3:-0.985267 4:-0.866202 5:-0.947149 6:-0.868785 7:-0.979638 8:-0.985044 9:-0.948454 10:-1 11:-0.88525 12:-0.956625 13:-0.94582 14:-0.943118 15:-0.924121 16:-0.953 17:-0.871104 18:-0.769268 19:-0.81459 20:-0.984276 21:-0.913052 22:-0.835653 23:-0.78954 24:-0.915488 25:-0.961048 26:-0.722446 27:-0.996945 28:-0.911781 29:-0.923218 30:-0.917311 31:-0.964177 32:-0.973338 33:-0.975327 34:-0.782691 35:-0.926375 36:-0.982008 37:-0.760477 38:-0.787076 39:-0.998932 40:-0.844131 41:-0.986961 42:-0.773718 43:-0.918392 44:-0.947413 45:-0.813274 46:-0.880082 47:-0.952178 48:-0.874012 49:-0.976285 50:-0.835631 51:-0.812865 52:-0.762147 53:-0.965561 54:-0.959832 55:-0.892055 56:-0.95449 57:-0.950076 58:-0.870338 59:-0.958361 60:-0.883147 
8192 1:-0.982697 2:-0.905124 3:-0.99834 4:-0.968294 5:-0.938572 6:-0.799724 7:-0.980769 8:-0.988783 9:-0.997602 10:-0.985328 11:-0.808063 12:-0.915746 13:-0.966231 14:-0.893526 15:-0.99401 16:-0.944132 17:-0.875899 18:-0.81432 19:-0.961499 20:-0.910259 21:-0.980793 22:-0.923279 23:-0.94791 24:-0.976042 25:-0.877339 26:-0.802804 27:-0.955112 28:-0.796164 29:-0.949954 30:-0.963613 31:-0.953942 32:-0.792965 33:-0.971742 34:-0.865079 35:-0.94487 36:-1 37:-0.665366 38:-0.770804 39:-0.967094 40:-0.854225 41:-0.922339 42:-0.769593 43:-0.955414 44:-0.951133 45:-0.776696 46:-0.865319 47:-0.939083 48:-0.867445 49:-0.927579 50:-0.835975 51:-0.858273 52:-0.663889 53:-0.814218 54:-0.973454 55:-0.807223 56:-0.805567 57:-0.939787 58:-0.984289 59:-0.95769 60:-0.780317 
7196.4989718574261 1:-0.0718722 2:-0.924305 3:-0.721726 4:-0.291904 5:-0.986092 6:-0.865101 7:-0.46267 8:-0.964169 9:-0.695277 10:-0.967779 11:-0.990644 12:-0.700059 13:-0.840012 14:-0.729884 15:-0.995607 16:-0.877032 17:-0.967565 18:-0.66436 19:-0.823303 20:-0.691659 21:-0.951673 22:-0.868748 23:-0.819786 24:-0.8887 25:-0.918582 26:-0.739582 27:-0.860635 28:-0.863562 29:-0.741773 30:-0.74182 31:-0.762642 32:-0.951173 33:-0.809363 34:-0.88322 35:-0.813406 36:-0.897823 37:-0.952342 38:-0.811251 39:-0.516239 40:-0.826291 41:-0.929434 42:-0.843842 43:-0.96457 44:-0.852553 45:-0.626549 46:-0.928685 47:-0.995445 48:-0.853825 49:-0.959964 50:-0.818401 51:-0.998624 52:-0.580348 53:-0.926066 54:-0.874956 55:-0.984504 56:-0.596099 57:-0.894817 58:-0.981699 59:-0.879785 60:-0.923137 
3218.552624135204 1:-0.10559 2:-0.975798 3:-0.722142 4:-0.88755 5:-0.989337 6:-0.918048 7:-0.675905 8:-0.820221 9:-0.988732 10:-0.712601 11:-0.577876 12:-0.814617 13:-0.794387 14:-0.902244 15:-0.946885 16:-0.949749 17:-0.951488 18:-0.653741 19:-0.959068 20:-0.943241 21:-0.874432 22:-0.699511 23:-0.793321 24:-0.85814 25:-0.891698 26:-0.989355 27:-0.858519 28:-0.939178 29:-0.878885 30:-0.956375 31:-0.633484 32:-0.662705 33:-0.951919 34:-0.469388 35:-0.830369 36:-0.88183 37:-0.198439 38:-0.883775 39:-0.950427 40:-0.866667 41:-0.549377 42:-0.718326 43:-0.867038 44:-0.963476 45:-0.787021 46:-0.810129 47:-0.934529 48:-0.852852 49:-0.992095 50:-0.816334 51:-1 52:-0.736176 53:-0.785782 54:-0.895215 55:-0.927249 56:-0.77245 57:-0.660061 58:-0.883978 59:-0.787777 60:-0.933004 
