svm_type c_svc
kernel_type rbf
gamma 0.0001220703125
nr_class 2
total_sv 282
rho 22.572740665149517
label 0 1
probA -2.0303190188304874
probB 0.07257041324262313
nr_sv 127 155
SV
119.25297540705579 2:0.0732436 3:-0.083871 4:-0.0588235 5:0.0657135 6:0.155032 7:-0.163418 8:-0.0302804 9:0.105376 10:-0.09699 11:0.177542 12:-0.270903 13:-0.128376 14:0.135477 15:0.125293 16:-0.285979 17:0.267215 18:0.167236 19:-0.759563 20:-0.599302 21:-0.394574 22:0.80788 23:-0.161443 24:0.400695 25:0.0346292 26:-0.0759837 27:-0.0464396 28:-0.0690771 29:0.340263 30:-0.113424 31:0.0206107 32:-0.1713 33:0.367647 34:0.157201 35:0.0416323 36:0.218233 37:-0.13423 38:-0.0955529 39:0.197511 40:-0.12112 41:-0.0723581 42:0.340882 43:-0.279419 44:0.417222 45:0.12076 46:0.465108 47:0.301422 48:-0.288785 49:1 50:-0.106362 51:0.0894922 52:0.190457 53:0.171532 54:0.0501767 55:-0.625672 56:-0.309448 57:-0.261463 58:-0.220481 59:-0.0989221 60:-0.562874 61:-0.771119 62:0.291005 63:-0.131036 64:0.280079 65:-0.459677 66:-0.0501008 67:0.0166626 68:-0.0015448 69:-0.196497 70:0.456627 71:-0.0926973 72:0.0199177 73:-0.0830762 74:-0.124717 75:0.846995 76:0.0700747 77:0.351852 78:0.157219 79:-0.171821 80:-0.216498 81:-0.076498 82:-0.315654 83:-0.106844 84:0.172684 85:0.0955598 86:0.440979 87:0.300401 88:0.626981 89:-0.0368159 90:0.390728 91:0.327666 92:-0.0445175 93:0.564777 94:0.152624 95:-0.45567 96:0.804242 97:-0.0575131 98:-0.492038 99:-0.668602 100:0.250237 101:-0.554435 102:-0.283461 103:-0.128821 104:-0.0141202 105:-0.168069 106:0.0938118 107:-0.174746 108:-0.333471 109:-0.00384974 110:-0.0436858 111:0.530364 112:0.723938 113:0.015884 114:0.707892 115:-0.0182823 116:0.340833 117:-0.177461 118:-0.0788686 119:0.208415 120:0.124102 121:-0.31863 122:0.042167 123:0.104935 124:-0.028799 125:0.0285624 126:0.176585 127:0.273122 128:-0.00873531 129:-0.1433 130:0.244136 131:-0.0512896 132:0.168325 133:-0.0162294 134:0.0127447 135:-0.493053 136:-0.440389 137:0.250846 138:0.382204 139:-0.0361639 140:0.146304 141:-0.493296 142:0.4142 143:0.500507 144:0.0913812 145:0.0407382 146:0.0886364 147:0.363675 148:-0.100286 149:-0.0280078 150:-0.249499 151:-0.6115 152:-0.507303 153:-0.356911 154:0.061662 155:-0.503151 156:0.0242049 157:-0.0300491 158:-0.0133444 159:0.412243 160:0.367491 161:0.217447 162:0.173892 163:-0.0308337 164:-0.398176 165:-0.271559 166:0.102528 167:0.111463 168:0.253762 169:0.0180818 170:-0.0142085 171:0.104363 172:0.632052 173:0.337644 174:-0.218729 175:-0.180149 176:0.0417582 177:0.219489 178:-0.150361 179:0.118087 180:-0.349319 181:0.179711 182:0.352724 183:-0.246381 184:0.108536 185:0.25994 186:-0.152593 187:-0.00969039 188:-0.0206476 189:0.424132 190:0.642838 191:0.598214 192:0.52309 193:-0.201233 194:0.446266 195:-0.0814637 196:-0.241007 197:0.547012 198:-0.00761905 199:-0.162421 200:0.524322 201:0.400044 202:-1 203:-0.470024 204:0.327578 205:-0.746968 206:-0.544745 207:-0.184156 208:-0.607531 209:-0.0033877 210:-0.0283518 211:0.171578 212:0.348293 213:0.02373 214:-0.123312 215:-0.0857356 216:-0.166202 217:-0.0553194 218:0.0862147 219:-0.165253 220:0.277651 221:-0.0323461 222:-0.151958 223:-0.0374361 224:0.467988 225:0.251837 226:0.0537717 227:-0.221564 228:0.0945135 229:-0.723582 230:-0.0448954 231:-0.177092 232:-0.311232 233:0.322499 234:-0.0674577 235:0.0885237 236:0.0470615 237:0.374255 238:0.212211 239:0.0805233 240:-0.100863 241:0.137804 242:-0.286613 243:-0.520143 244:-0.304767 245:-0.482759 246:-0.472164 247:0.0537731 248:0.00748688 249:0.365738 250:0.368452 251:-0.0839871 252:-0.226944 253:-0.108693 254:-0.0227974 255:-0.617387 256:-0.225024 257:-0.0993404 258:0.102063 259:0.0776451 260:0.038173 261:-0.302001 262:-0.267123 263:0.290818 264:0.30879 265:0.581461 266:0.000251509 267:0.395866 268:0.15317 269:0.248919 270:0.67948 271:-0.135568 272:-0.484942 273:-0.25516 274:-0.08304 275:0.632696 276:0.183122 277:-0.242495 278:0.160584 279:-0.739319 280:0.063769 281:-0.694215 282:0.218157 283:0.287596 284:0.173848 285:0.118123 286:0.0556226 287:-0.113878 288:-0.105408 289:0.400198 290:0.181776 291:0.0951111 292:-0.40585 293:0.0329395 294:-0.360619 295:0.123043 296:0.366342 297:-0.5363 298:0.265076 299:0.213806 300:0.0384963 301:0.328173 302:0.140192 303:-0.0951957 304:-0.519754 305:-0.61467 306:0.0177883 307:-0.494815 308:-0.330497 309:0.210066 310:-0.058309 311:0.588875 312:0.0855681 313:-0.227984 314:0.159039 315:0.277347 316:0.0442762 317:0.281578 318:-0.015323 319:0.214341 320:-0.140744 321:0.0443091 322:0.294266 323:-0.340875 324:-0.0675697 325:-0.230392 326:-0.182774 327:-0.431325 328:-0.183755 329:0.372177 330:-0.172614 331:-0.0223818 332:0.190387 333:-0.0564516 334:-0.0846108 335:-0.34347 336:-0.120286 337:-0.0119449 338:-0.0308333 339:-0.0530218 340:0.300182 341:0.273262 342:-0.141413 343:-0.47125 344:-0.155593 345:-0.00720981 346:0.329927 347:-0.154845 348:-0.319484 349:0.33383 350:0.941469 351:0.178677 352:-0.0393207 353:-0.197833 354:0.0315921 355:-0.00908724 356:-0.0237309 357:0.00719718 358:-0.207384 359:-0.217708 360:0.137451 361:0.130504 362:0.131506 363:-0.147795 364:-0.0256519 365:-0.254182 366:-0.329281 367:0.151964 368:-0.148661 369:0.570441 370:0.650847 371:0.22473 372:-0.0914044 373:-0.212225 374:0.296782 375:0.214134 376:-0.000108948 377:-0.423878 378:0.0803721 379:-0.44167 380:0.439065 381:0.170864 382:-0.338968 383:0.0209557 384:0.283561 385:0.151512 386:-0.269277 387:-0.159502 388:-0.336601 389:-0.154053 390:0.25664 391:0.0589123 392:-0.702238 393:0.263612 394:0.715305 395:0.319127 396:0.00544442 397:-0.274415 398:0.418541 399:0.129505 400:-0.638 401:-0.37218 402:-0.335627 403:-0.114177 404:-0.0358645 405:0.341356 406:0.15199 407:-0.481868 408:0.386053 409:-0.126507 410:-0.373053 411:-0.844859 412:-0.313777 413:0.169282 414:0.297824 415:-0.139568 416:0.317049 417:-0.0730636 418:-0.0685085 419:0.322225 420:0.326857 421:-0.377583 422:-0.2121 423:-0.209383 424:0.36723 425:0.244439 426:-0.450943 427:-0.178166 428:0.397943 429:-0.267674 430:0.0446979 431:0.00215157 432:0.262716 433:0.411648 434:-0.456389 435:-0.153961 436:-0.328435 437:-0.176201 438:-0.598071 439:-0.165412 440:-0.0948071 441:-0.246427 442:0.00820376 443:0.0552732 444:-0.0590604 445:-0.362869 446:0.0630252 447:-0.18942 448:-0.542842 449:0.0861508 450:-0.528344 451:-0.0478916 452:0.0397771 453:-0.0875141 454:0.207137 455:-0.204892 456:0.0760346 457:-0.315302 458:-0.207075 459:0.284055 460:0.0986987 461:0.439945 462:0.268797 463:0.754396 464:0.250242 465:-0.0168077 466:0.143944 467:0.453337 468:0.158207 469:0.133333 470:0.240343 471:0.0313445 472:-0.198236 473:-0.222431 474:-0.2296 475:0.0105955 476:0.0945395 477:0.0836331 478:-0.22529 479:0.0344523 480:-0.318859 481:0.351467 482:-0.30149 483:0.0452906 484:0.225013 485:-0.20131 486:0.316287 487:-0.244787 488:0.604902 489:0.747095 490:0.113209 491:0.476418 492:-0.138295 493:0.381735 494:-0.15201 495:-0.193801 496:0.0863842 497:0.166804 498:0.311982 499:-0.202494 500:-0.44893 501:-0.234511 502:-0.42428 503:-0.370328 504:0.0449534 505:-0.109163 506:0.603762 507:0.0977597 508:-0.241565 509:-0.116497 510:-0.0883475 511:0.0596783 512:0.0940972 513:-0.214387 514:0.344647 515:0.217595 516:0.43753 517:0.811046 518:-0.15343 519:0.205136 520:-0.446108 521:0.103951 522:-0.606051 523:-0.297764 524:0.35344 525:0.148385 526:0.351974 527:-0.610577 528:0.294154 529:0.388489 530:0.0883085 531:0.00891768 532:0.308789 533:0.179314 534:-0.240945 535:-0.219017 536:0.398668 537:0.171815 538:0.307676 539:0.471854 540:0.24874 541:0.597286 542:0.114125 543:0.648687 544:0.388123 545:0.146162 546:-0.168759 547:-0.178831 548:-0.326082 549:-0.0262855 550:0.271672 551:-0.2081 552:-0.16025 553:0.272326 554:-0.0671913 555:0.0629625 556:0.0996439 557:-0.289206 558:-0.0935002 559:-0.12465 560:-0.0548908 561:-0.00563584 562:-0.387711 563:0.0395843 564:-0.167095 565:-0.10676 566:0.294856 567:-0.272628 568:0.0202031 569:0.168303 570:-0.100244 571:0.392325 572:-0.221075 573:-0.1625 574:0.0191693 575:0.153498 576:-0.0346996 577:0.207928 578:-0.302761 579:0.832703 580:0.314092 581:-0.112078 582:-0.00714875 583:-0.70966 584:-0.633228 585:-0.177387 586:0.317018 587:0.0423977 588:-0.0303988 589:0.36431 590:-0.223843 591:0.0459459 592:-0.597526 593:-0.422643 594:-0.395868 595:-0.786749 596:0.11608 597:-0.804106 598:0.454215 599:-0.309805 600:-0.404992 601:0.134996 602:0.163263 603:0.574349 604:-0.238235 605:0.157483 606:0.332351 607:-0.0439086 608:0.547718 609:-0.027351 610:-0.15924 611:0.261792 612:0.12745 613:-0.0581707 614:0.158485 615:0.11634 616:-0.160624 617:-0.294622 618:-0.15077 619:-0.372846 620:-0.225833 621:-0.110629 622:-0.0413207 623:-0.697982 624:-0.0472393 625:-0.228723 626:-0.0996656 627:0.251482 628:-0.173751 629:-0.205286 630:-0.25249 631:0.413153 632:0.622727 633:-0.011856 634:0.217048 635:0.120547 636:0.176825 637:0.434452 638:0.193515 639:-0.114366 640:0.289474 641:-0.0914656 642:-0.0186137 643:0.2514 644:-0.202844 645:0.39174 646:-0.811222 647:0.357748 648:-0.0236014 649:-0.25167 650:0.414643 
438.74217268523671 2:0.0732436 3:-0.083871 4:-0.0588235 5:0.0657135 6:0.155032 7:-0.163418 8:-0.0302804 9:0.105376 10:-0.09699 11:0.177542 12:-0.270903 13:-0.128376 14:0.0130239 15:-0.070716 16:0.343822 17:-0.328669 18:-0.123254 19:0.0278689 20:-0.150511 21:-0.44839 22:-0.249105 23:-0.109733 24:0.387956 25:0.169348 26:0.0743725 27:0.00451496 28:0.495217 29:-0.510619 30:-0.540323 31:0.055598 32:-0.0980466 33:-0.0817474 34:-0.608773 35:0.255565 36:0.369705 37:0.730967 38:0.376202 39:-0.25469 40:0.0226463 41:-0.0691046 42:-0.232107 43:-0.0159206 44:0.179829 45:0.31886 46:0.12605 47:-0.249889 48:0.277259 49:-0.448465 50:-0.46976 51:0.260684 52:0.137969 53:-0.0099711 54:-0.0705536 55:-0.0838806 56:-0.0192134 57:0.0946951 58:0.419076 59:0.343284 60:-0.0279825 61:0.29678 62:0.124735 63:0.0545096 64:0.317387 65:0.220068 66:0.0271379 67:0.152414 68:-0.139032 69:0.356286 70:0.483433 71:0.309319 72:-0.0781554 73:-0.164114 74:0.0686962 75:-0.420158 76:-0.281017 77:-0.194444 78:-0.200135 79:-0.0345205 80:0.0888022 81:0.100349 82:0.0223996 83:-0.357952 84:-0.335159 85:0.226834 86:0.167655 87:0.114542 88:-0.106577 89:0.335572 90:-0.218111 91:-0.419629 92:0.238124 93:-0.72419 94:-0.126245 95:0.663505 96:-0.645603 97:0.0580506 98:-0.29216 99:-0.360686 100:0.00293803 101:0.130525 102:0.00342841 103:-0.242202 104:0.189899 105:0.13215 106:-0.118515 107:0.126731 108:0.0658658 109:0.234718 110:0.394273 111:-0.164193 112:-0.594112 113:0.25046 114:-0.168431 115:-0.0870181 116:0.0428435 117:-0.204108 118:-0.100998 119:-0.25757 120:-0.175625 121:0.0857602 122:0.459977 123:0.121012 124:0.237541 125:0.368137 126:-0.0757536 127:0.394901 128:-0.161797 129:1 130:0.19789 131:0.00450615 132:-0.0325425 133:-0.0337928 134:-0.0439235 135:0.379579 136:0.118978 137:-0.349756 138:-0.109201 139:0.0560766 140:-0.213552 141:0.0639505 142:-0.4816 143:0.0280311 144:0.0320045 145:0.0388812 146:-0.107851 147:-0.091453 148:-0.153728 149:-0.150999 150:0.132972 151:0.0875815 152:-0.203213 153:-0.0172774 154:-0.186188 155:0.1233 156:0.0158248 157:-0.19922 158:-0.181389 159:-0.152678 160:-0.0666961 161:0.153039 162:0.275289 163:0.361249 164:0.661736 165:0.178207 166:0.172753 167:0.187212 168:0.0675445 169:-0.240923 170:0.282229 171:-0.00117925 172:-0.160539 173:-0.0304119 174:-0.253805 175:0.0426752 176:-0.428571 177:-0.418958 178:-0.0657328 179:-0.572869 180:0.706683 181:-0.377897 182:0.357393 183:0.296338 184:-0.170715 185:-0.0317168 186:0.11358 187:-0.284495 188:-0.256315 189:-0.521755 190:-0.764706 191:-0.432757 192:-0.458612 193:0.114005 194:0.191105 195:0.177172 196:0.0666966 197:-0.472021 198:0.288163 199:0.274533 200:0.0275506 201:-0.0856142 202:0.272691 203:0.0577938 204:0.231775 205:0.234013 206:0.637237 207:-0.284363 208:0.426052 209:0.050941 210:-0.0272705 211:-0.19736 212:-0.247073 213:-0.3209 214:-0.0572682 215:-0.058723 216:0.153986 217:0.152454 218:0.361579 219:0.0751869 220:-0.0643815 221:0.237822 222:-0.0685301 223:-0.314685 224:-0.339942 225:0.301882 226:0.077152 227:-0.362662 228:-0.0173913 229:0.485261 230:0.177245 231:0.239222 232:0.137325 233:-0.550929 234:-0.114597 235:-0.0616221 236:0.258494 237:-0.192133 238:-0.461512 239:0.0977326 240:-0.128864 241:0.0283714 242:0.0824514 243:0.186661 244:-0.0168842 245:0.248536 246:0.170431 247:0.0334619 248:-0.0934702 249:0.0843595 250:-0.648214 251:-0.198431 252:0.147272 253:-0.353236 254:-0.134727 255:0.566306 256:-0.157721 257:0.444855 258:0.0985222 259:0.0453166 260:0.184907 261:0.104002 262:0.00973324 263:-0.117598 264:0.168189 265:-0.840824 266:0.00679074 267:-0.403816 268:-0.293165 269:0.0536486 270:-0.337574 271:0.0924761 272:0.329569 273:0.164281 274:0.27472 275:-0.30338 276:-0.258687 277:0.0734053 278:0.00656934 279:0.289404 280:0.0458439 281:0.209858 282:0.0661698 283:-0.531087 284:0.0609212 285:0.0276459 286:-0.264245 287:-0.0403352 288:-0.127818 289:-0.0418155 290:-0.151864 291:0.511556 292:0.114206 293:-0.210884 294:0.708948 295:0.330764 296:-0.239225 297:-0.194379 298:0.118232 299:-0.360346 300:0.0691256 301:-0.348739 302:-0.227345 303:-0.29226 304:0.404779 305:0.1989 306:0.337977 307:0.681999 308:0.354378 309:-0.427668 310:-0.115293 311:-0.387148 312:0.0746107 313:-0.0126014 314:-0.0881124 315:-0.030082 316:0.189548 317:-0.23803 318:0.234323 319:-0.395721 320:-0.516403 321:-0.211022 322:-0.664057 323:0.505882 324:0.202941 325:0.313419 326:-0.0859756 327:-0.00219566 328:0.335416 329:-0.261611 330:-0.17116 331:0.163007 332:0.582313 333:-0.22039 334:-0.221035 335:0.834517 336:0.121491 337:0.227656 338:-0.15 339:0.226515 340:-0.280155 341:-0.33003 342:0.191957 343:0.202187 344:-0.357664 345:-0.658976 346:-0.492457 347:-0.217246 348:-0.28128 349:-0.150882 350:-0.855329 351:-0.229681 352:-0.167687 353:0.376229 354:-0.224586 355:-0.393376 356:0.354519 357:-0.242667 358:0.047619 359:-0.0851563 360:-0.0926544 361:-0.498265 362:-0.186056 363:0.186142 364:-0.303855 365:0.255004 366:0.128926 367:-0.450762 368:0.181473 369:-0.280683 370:-0.40704 371:-0.0813679 372:0.0597256 373:0.296432 374:-0.101291 375:-0.011514 376:0.185503 377:0.199414 378:0.0647734 379:-0.165601 380:0.237414 381:0.193001 382:0.439279 383:0.356113 384:-0.768844 385:-0.253839 386:-0.129639 387:-0.138575 388:0.164099 389:0.10608 390:-0.524767 391:0.0712655 392:0.11349 393:-0.230884 394:-0.0987312 395:-0.278794 396:-0.328058 397:-0.432066 398:-0.0351078 399:0.0541479 400:0.09225 401:0.538309 402:0.570143 403:0.167532 404:0.0953271 405:-0.397839 406:-0.0289505 407:0.11612 408:0.157247 409:0.382272 410:0.0389303 411:-0.0485568 412:-0.00274041 413:-0.03125 414:0.432443 415:-0.450584 416:-0.141509 417:0.0657933 418:0.0154987 419:0.0451325 420:0.199082 421:-0.210122 422:0.164666 423:-0.33482 424:-0.510561 425:-0.157336 426:-0.19097 427:0.227814 428:-0.0668595 429:0.536311 430:-0.033061 431:0.119173 432:-0.0638352 433:-0.273854 434:0.0995816 435:0.234561 436:0.144559 437:0.221579 438:0.129689 439:-0.17933 440:0.0965936 441:-0.256613 442:-0.536753 443:0.235546 444:0.120022 445:0.380872 446:-0.0703229 447:-0.440798 448:-0.343809 449:-0.460338 450:-0.18213 451:-0.340813 452:-0.0838624 453:-0.0385048 454:-0.284191 455:0.21474 456:0.251984 457:0.0109914 458:-0.117925 459:0.366362 460:-0.304257 461:0.0546786 462:-0.545113 463:-0.8 464:-0.322464 465:-0.581923 466:-0.219067 467:-0.287828 468:0.0260935 469:-0.165265 470:0.671674 471:-0.346439 472:-0.125 473:0.292899 474:-0.143943 475:-0.381805 476:-0.840261 477:-0.114321 478:0.252209 479:0.197123 480:-0.0496278 481:-0.39301 482:-0.064165 483:0.209192 484:0.345464 485:-0.0434358 486:0.0275153 487:0.455691 488:0.0798366 489:-0.453237 490:0.117975 491:-0.226979 492:0.175785 493:-0.132556 494:-0.164824 495:-0.0291171 496:-0.27006 497:-0.133936 498:-0.00760369 499:0.169327 500:0.0858846 501:0.707182 502:0.547895 503:0.605136 504:0.501242 505:-0.0557127 506:-0.190309 507:0.317719 508:0.0400119 509:0.400761 510:0.221603 511:-0.370767 512:0.283333 513:-0.301542 514:-0.356193 515:-0.31329 516:-0.567776 517:-0.581721 518:0.0901243 519:-0.362708 520:0.24727 521:0.0126215 522:0.141906 523:-0.00426829 524:-0.278949 525:0.175557 526:0.11864 527:0.123521 528:-0.169415 529:-0.0524794 530:0.35 531:0.17904 532:-0.186263 533:-0.159796 534:-0.0848543 535:-0.0281105 536:0.486917 537:0.450772 538:0.132075 539:0.286465 540:-0.571634 541:-0.437644 542:-0.0498512 543:-0.51878 544:-0.183366 545:-0.496145 546:0.36348 547:-0.138703 548:0.108655 549:0.0773216 550:-0.214019 551:0.344679 552:-0.285946 553:-0.0672547 554:-0.386925 555:-0.156265 556:0.35286 557:-0.556008 558:0.466806 559:-0.194842 560:-0.366736 561:0.889017 562:0.29391 563:-0.34697 564:0.3491 565:-0.31712 566:-0.039673 567:0.056843 568:0.0813526 569:0.218711 570:0.0648399 571:0.355813 572:-0.108191 573:0.202532 574:0.0595048 575:-0.113062 576:-0.139031 577:-0.505107 578:0.339729 579:-0.574611 580:-0.594793 581:0.0581813 582:-0.297773 583:0.248786 584:0.62654 585:-0.300275 586:0.0258964 587:0.0166442 588:0.0882782 589:-0.249158 590:0.134889 591:-0.319624 592:-0.0995877 593:0.0725222 594:0.589056 595:0.566102 596:-0.0791262 597:0.942522 598:-0.0117642 599:0.135819 600:0.0973001 601:-0.176555 602:0.0692488 603:-0.473281 604:0.0111765 605:-0.0696203 606:-0.268136 607:0.24087 608:-0.363868 609:-0.261553 610:0.628545 611:-0.228198 612:-0.19377 613:-0.198415 614:0.493147 615:-0.0930359 616:0.553331 617:-0.0748008 618:0.391049 619:0.413547 620:-0.104616 621:-0.276654 622:-0.469382 623:0.190327 624:-0.0931365 625:-0.0156054 626:0.458076 627:0.00916442 628:-0.0885684 629:0.288962 630:0.17735 631:-0.101354 632:-0.719091 633:-0.0939858 634:-0.243967 635:-0.169246 636:-0.305117 637:-0.126306 638:-0.134977 639:0.74566 640:0.169691 641:-0.234966 642:0.00332163 643:-0.0996169 644:-0.00167294 645:-0.76393 646:0.221126 647:-0.244602 648:-0.238636 649:-0.0794822 650:-0.390444 
392.36159470894518 2:0.0732436 3:-0.083871 4:-0.0588235 5:0.0657135 6:0.155032 7:-0.163418 8:-0.0302804 9:0.105376 10:-0.09699 11:0.177542 12:-0.270903 13:-0.128376 14:0.0815992 15:-0.159771 16:-0.24572 17:-0.175583 18:0.687917 19:-0.217077 20:0.0730127 21:-0.192104 22:0.241697 23:-0.109554 24:0.0858425 25:0.0712186 26:0.0591927 27:0.00580495 28:0.161086 29:0.445707 30:-0.131113 31:0.081584 32:0.10581 33:0.0722318 34:-0.110041 35:0.549052 36:-0.0943899 37:0.206926 38:0.515024 39:0.0261544 40:-0.0603053 41:-0.185125 42:0.553174 43:0.0438394 44:0.108944 45:0.63365 46:-0.275667 47:0.0288205 48:-0.278037 49:0.207754 50:0.0252994 51:0.0260809 52:-0.0685155 53:0.033815 54:-0.0127208 55:-0.0683582 56:0.0605787 57:0.0392683 58:0.124831 59:-0.0315091 60:-0.312989 61:-0.189512 62:-0.353439 63:-0.168236 64:0.182435 65:-0.0930521 66:-0.0741434 67:0.0123744 68:-0.0151905 69:-0.212332 70:0.366158 71:0.388001 72:0.18727 73:0.138387 74:-0.122171 75:-0.26609 76:-0.00387708 77:0.0200617 78:-0.132581 79:-0.0121837 80:-0.0332721 81:-0.0319953 82:-0.0373326 83:-0.105551 84:0.0687251 85:-0.0916988 86:-0.145361 87:0.288669 88:-0.0446037 89:0.110075 90:0.122373 91:-0.0667504 92:-0.187929 93:0.828441 94:0.109287 95:-0.507629 96:0.110141 97:0.0113473 98:-0.532666 99:-0.243404 100:-0.152896 101:0.120884 102:-0.145228 103:-0.0354024 104:0.215514 105:0.118439 106:0.106596 107:-0.0489381 108:-0.424192 109:-0.643957 110:0.235193 111:0.288349 112:0.380309 113:-0.280847 114:0.683349 115:0.399093 116:0.603638 117:-0.387861 118:0.0106489 119:-0.00353913 120:-0.0359178 121:0.0394004 122:-0.00914808 123:-0.0139581 124:-0.0631127 125:-0.0641066 126:-0.0633446 127:-0.0897071 128:-0.147959 129:0.0502481 130:0.117988 131:-0.0850674 132:-0.115183 133:-0.0351267 134:-0.0159308 135:0.231579 136:0.171776 137:0.120534 138:0.65723 139:0.242035 140:0.174025 141:-0.0487365 142:-0.0898 143:0.278791 144:-0.145284 145:0.538997 146:-0.0477273 147:-0.241453 148:0.326149 149:0.277886 150:0.0499398 151:-0.203914 152:-0.426193 153:0.181122 154:0.0246648 155:-0.370481 156:-0.0602588 157:-0.081985 158:0.561644 159:0.174558 160:-0.424912 161:0.0545745 162:0.48579 163:-0.733156 164:-0.0258259 165:0.0333475 166:-0.155899 167:-0.0476671 168:-0.385773 169:-0.128913 170:0.0968949 171:-0.111675 172:-0.0684816 173:0.0830939 174:-0.101588 175:-0.0687898 176:-0.0190476 177:-0.238181 178:0.188452 179:-0.330584 180:-0.0154703 181:0.178032 182:-0.0438716 183:-0.00312234 184:-0.0147128 185:0.30855 186:0.0938272 187:0.41882 188:0.609708 189:0.047532 190:0.397784 191:-0.257533 192:-0.0452367 193:0.152548 194:0.369156 195:0.451211 196:0.21283 197:-0.0677579 198:0.152381 199:-0.246126 200:0.252152 201:0.0435735 202:-0.661847 203:-0.394005 204:0.0890588 205:-0.0329727 206:0.0717718 207:-0.37452 208:-0.0927748 209:-0.00790464 210:-0.114008 211:0.102824 212:0.169024 213:0.23135 214:0.265302 215:0.0664104 216:0.342906 217:-0.0517377 218:0.061192 219:-0.043847 220:-0.070517 221:0.315082 222:-0.0400114 223:-0.183163 224:-0.342216 225:0.0555556 226:0.113954 227:-0.0988147 228:0.108075 229:0.320634 230:0.111316 231:-0.121584 232:-0.0827379 233:-0.263781 234:0.190263 235:0.0842831 236:-0.0189394 237:-0.029559 238:-0.0449615 239:0.0395349 240:0.010839 241:-0.0121592 242:-0.0523455 243:-0.0268577 244:-0.0357548 245:-0.114102 246:-0.0748424 247:0.069127 248:0.193115 249:-0.180385 250:-0.340774 251:0.0197277 252:-0.159343 253:-0.0968389 254:-0.737401 255:-0.466601 256:0.112632 257:0.127292 258:-0.316195 259:-0.32992 260:0.145484 261:-0.209673 262:-0.0502283 263:0.0573004 264:0.128995 265:0.398408 266:0.134306 267:0.27027 268:0.323085 269:-0.158108 270:0.328641 271:0.237346 272:-0.141684 273:-0.592543 274:0.22 275:-0.0884202 276:0.126586 277:-0.0990854 278:0.143066 279:0.0588945 280:-0.12849 281:-0.0841204 282:-0.14668 283:0.358652 284:0.229198 285:-0.256911 286:0.147422 287:0.198857 288:0.06146 289:-0.217857 290:-0.0918086 291:-0.321111 292:-0.812813 293:-0.576799 294:0.0693215 295:0.81643 296:-0.361981 297:-0.649047 298:0.38676 299:0.514831 300:0.298685 301:-0.570986 302:-0.494136 303:0.329626 304:0.0627809 305:0.210513 306:-0.141663 307:-0.475937 308:0.752402 309:-0.33771 310:-0.499072 311:0.19757 312:-0.00338812 313:-0.117903 314:0.0411128 315:-0.144941 316:-0.154085 317:0.164387 318:0.342763 319:-0.172513 320:-0.192736 321:0.129327 322:-0.190484 323:0.138763 324:-0.354799 325:-0.0883885 326:-0.229268 327:-0.174433 328:-0.166146 329:-0.200043 330:0.167988 331:0.00140766 332:0.422621 333:0.393837 334:-0.0649322 335:0.412473 336:0.0153105 337:-0.308038 338:-0.252833 339:-0.128727 340:-0.228721 341:0.217669 342:0.0402174 343:0.436458 344:0.193216 345:0.00468637 346:0.287591 347:-0.416003 348:-0.360554 349:-0.194382 350:0.00138045 351:-0.108095 352:0.371175 353:-0.664433 354:-0.278386 355:0.199919 356:-0.276104 357:-0.0173819 358:-0.15597 359:0.0148438 360:0.119783 361:-0.528156 362:-0.0343724 363:0.129691 364:0.161565 365:-0.0367083 366:0.0267224 367:0.161928 368:-0.317187 369:-0.159464 370:0.256845 371:0.300202 372:0.931396 373:-0.0126574 374:-0.113834 375:-0.347803 376:-0.514526 377:0.0722186 378:0.27798 379:-0.443068 380:0.16121 381:-0.041755 382:-0.281584 383:0.0197544 384:0.0366116 385:-0.246401 386:-0.361205 387:-0.0186652 388:0.181723 389:-0.0544564 390:0.0125628 391:-0.116275 392:-0.29346 393:-0.330854 394:0.255254 395:0.378794 396:0.491517 397:-0.15765 398:0.510096 399:0.0161568 400:-0.234375 401:0.140094 402:-0.454738 403:0.00119048 404:0.149688 405:-0.0856152 406:0.340169 407:0.309488 408:0.125342 409:0.338587 410:-0.0780298 411:-0.0714071 412:-0.0807798 413:-0.540957 414:0.191197 415:-0.211831 416:-0.365903 417:-0.0608984 418:-0.0394205 419:0.0530045 420:0.176345 421:-0.0541865 422:0.141243 423:0.126406 424:0.105763 425:0.0112472 426:-0.147439 427:-0.315611 428:-0.0980392 429:0.0176735 430:-0.200524 431:-0.274683 432:0.556968 433:0.189591 434:0.342546 435:0.621806 436:-0.168388 437:-0.584359 438:-0.693033 439:-0.291017 440:0.149595 441:-0.21017 442:0.71042 443:-0.0981576 444:-0.103691 445:0.194655 446:-0.597081 447:-0.113153 448:0.408004 449:0.23342 450:0.169398 451:0.025 452:0.282716 453:0.175942 454:-0.160486 455:-0.0875159 456:0.135913 457:0.123707 458:-0.174057 459:-0.0430898 460:-0.449934 461:0.0112102 462:0.123496 463:0.349176 464:0.31401 465:-0.0582146 466:0.171834 467:0.0555723 468:-0.222352 469:-0.198442 470:0.671674 471:-0.188342 472:-0.447539 473:0.809037 474:-0.292701 475:-0.142126 476:0.157294 477:-0.0209083 478:0.195955 479:-0.0384907 480:-0.0508685 481:-0.0290966 482:-0.0832856 483:-0.0516797 484:0.242952 485:0.0156316 486:-0.08199 487:0.326455 488:-0.301894 489:0.0558937 490:0.155294 491:-0.428411 492:-0.267981 493:-0.227497 494:-0.108488 495:-0.0473544 496:-0.609328 497:0.527253 498:0.593548 499:-0.185287 500:-0.261176 501:0.11326 502:0.306821 503:-0.174037 504:-0.0149262 505:-0.19457 506:-0.844437 507:0.151222 508:0.225291 509:0.252665 510:-0.260933 511:-0.336625 512:-0.518889 513:-0.366071 514:-0.193667 515:-0.152784 516:0.0580077 517:-0.070998 518:-0.202578 519:-0.0817041 520:0.268404 521:-0.132957 522:-0.181694 523:0.16372 524:-0.0423934 525:0.493614 526:0.502851 527:0.567308 528:0.231315 529:-0.710175 530:0.421642 531:0.268598 532:0.246217 533:0.0550894 534:0.21562 535:-0.0955757 536:0.135347 537:0.0349903 538:0.00493139 539:0.029272 540:-0.825054 541:-0.786952 542:-0.324405 543:0.0313118 544:-0.0187166 545:-0.29182 546:0.25619 547:-0.0959581 548:0.0217546 549:-0.137567 550:-0.0344255 551:0.0644119 552:0.294063 553:-0.0665197 554:0.00230024 555:-0.120005 556:0.381346 557:0.203666 558:0.0132082 559:-0.340342 560:0.0904876 561:0.106647 562:-0.0940729 563:0.348297 564:0.256298 565:-0.238527 566:-0.0328947 567:-0.344602 568:-0.0764909 569:0.175699 570:-0.507325 571:-0.274341 572:-0.205631 573:0.0769778 574:0.0782748 575:-0.224528 576:0.227294 577:-0.352626 578:-0.277258 579:0.430013 580:-0.377334 581:0.088654 582:0.326918 583:-0.107663 584:0.0711897 585:-0.298352 586:0.218697 587:0.126406 588:0.152967 589:-0.04422 590:-0.0492162 591:-0.294477 592:-0.370441 593:-0.148167 594:-0.084799 595:0.0324345 596:-0.0691748 597:-0.141642 598:-0.261991 599:-0.101405 600:-0.136589 601:0.0813987 602:0.15446 603:0.408457 604:-0.183725 605:0.201229 606:0.0449885 607:-0.395316 608:-0.143393 609:-0.101201 610:0.277267 611:0.340007 612:0.00431413 613:0.0687805 614:-0.397957 615:0.0787087 616:0.0923272 617:-0.0939243 618:0.260088 619:0.131462 620:-0.424918 621:0.709698 622:-0.318889 623:-0.214683 624:0.0730061 625:-0.16239 626:0.183899 627:-0.0706199 628:-0.00490425 629:0.0460833 630:0.11152 631:0.415861 632:0.656818 633:-0.0734533 634:0.0639697 635:0.051499 636:-0.206672 637:-0.14016 638:-0.0501761 639:0.140951 640:-0.000604961 641:0.0564458 642:-0.22186 643:0.0904804 644:0.304057 645:0.44086 646:-0.334557 647:0.463241 648:0.564685 649:-0.0787862 650:-0.346533 
369.21591974809769 2:0.0732436 3:-0.083871 4:-0.0588235 5:0.0657135 6:0.155032 7:-0.163418 8:-0.0302804 9:0.105376 10:-0.09699 11:0.177542 12:-0.270903 13:-0.128376 14:0.10179 15:-0.283011 16:0.174919 17:0.229355 18:-0.532483 19:-0.444126 20:-0.457513 21:-0.30536 22:0.211576 23:-0.0859151 24:0.0733932 25:0.248938 26:0.188263 27:-0.193756 28:0.586382 29:0.109183 30:-0.362123 31:0.216412 32:-0.207989 33:0.405709 34:0.175203 35:-0.272328 36:-0.00531206 37:0.473669 38:-0.214543 39:0.104076 40:0.07993 41:0.491931 42:-0.312171 43:-0.726811 44:-0.0317555 45:-0.617707 46:-0.076361 47:-0.0761328 48:0.462305 49:0.0869548 50:-0.122006 51:0.322775 52:-0.124633 53:-0.067052 54:0.158893 55:-0.0979104 56:-0.169078 57:0.324878 58:0.395839 59:0.168657 60:0.368033 61:0.0387313 62:0.0496032 63:0.246432 64:-0.0847911 65:-0.0787841 66:-0.105672 67:0.660867 68:-0.239186 69:-0.258157 70:0.487621 71:-0.272437 72:-0.72375 73:-0.139296 74:-0.122737 75:-0.10041 76:-0.034463 77:0.0330247 78:0.0704178 79:-0.237113 80:0.262506 81:-0.165794 82:-0.396241 83:0.353028 84:0.0811753 85:0.138996 86:0.706186 87:0.400123 88:-0.284486 89:0.286318 90:-0.533832 91:-0.578053 92:0.138333 93:-0.309211 94:-0.238493 95:0.0656701 96:0.0109368 97:-0.153129 98:-0.117803 99:0.137071 100:-0.049264 101:-0.348561 102:-0.164152 103:-0.172021 104:-0.0324946 105:0.0692295 106:-0.249259 107:0.323638 108:0.228666 109:0.610826 110:0.370778 111:-0.564103 112:-0.682432 113:0.313382 114:-0.920115 115:0.0989229 116:-0.390618 117:0.180422 118:-0.170882 119:0.17037 120:0.20758 121:-0.037045 122:0.00643225 123:-0.0291625 124:0.462418 125:0.907331 126:0.00329717 127:0.0922837 128:-0.131571 129:0.0105459 130:0.236805 131:-0.0719519 132:0.178534 133:0.325923 134:-0.021848 135:0.190316 136:0.322141 137:0.148176 138:-0.293984 139:-0.494861 140:0.0454312 141:-0.185921 142:0.4282 143:0.125253 144:0.189641 145:-0.35701 146:0.107645 147:0.0717949 148:-0.542336 149:-0.534096 150:0.0206578 151:0.116816 152:-0.0646543 153:-0.583024 154:0.0101189 155:0.339138 156:0.157468 157:0.0353944 158:-0.557865 159:0.167384 160:0.690371 161:-0.116596 162:0.0321532 163:0.300343 164:0.272929 165:-0.188934 166:0.105618 167:0.174827 168:0.458276 169:0.051315 170:0.101885 171:0.0743514 172:0.190008 173:-0.0366379 174:0.0185308 175:0.0537155 176:-0.0441392 177:0.110347 178:-0.157678 179:0.0904369 180:0.303373 181:-0.0493786 182:0.245477 183:0.076994 184:0.347034 185:-0.243852 186:-0.374815 187:-0.114091 188:-0.622585 189:-0.292139 190:-0.0685175 191:0.321429 192:-0.00435667 193:0.370334 194:0.0434123 195:-0.506054 196:-0.222122 197:0.275504 198:-0.0840816 199:-0.435439 200:0.137161 201:0.182833 202:0.0787149 203:0.8 204:0.101619 205:0.0577453 206:0.356907 208:0.0110244 209:0.00777917 210:-0.016939 211:-0.112799 212:0.177561 213:0.0628447 214:-0.0035441 215:-0.264147 216:-0.218817 217:-0.281601 218:0.312329 219:0.243675 220:-0.0647088 221:0.0387763 222:-0.138124 223:0.112561 224:0.331817 225:0.394399 226:0.279991 227:-0.666287 228:0.218219 229:0.171023 230:0.284133 231:-0.53818 232:-0.119463 233:-0.334332 234:0.227487 235:-0.0637424 236:0.129706 237:0.09559 238:0.020119 239:0.261744 240:0.10839 241:0.0854827 242:0.0397597 243:-0.196509 244:0.061223 245:-0.243656 246:-0.319722 247:0.126377 248:-0.243131 249:0.207442 250:0.195536 251:0.0350715 252:0.39353 253:0.179252 254:0.0757628 255:0.149312 256:-0.53098 257:0.502375 258:0.0749692 259:-0.122867 260:0.0947337 261:0.030473 262:0.0766643 263:-0.174299 264:0.0753425 265:-0.600655 266:-0.110412 267:-0.288156 268:-0.396102 269:0.225811 270:-0.196264 271:-0.132558 272:0.231691 273:0.276631 274:0.08448 275:0.0296208 276:-0.0557088 277:-0.0501876 278:0.0252585 279:-0.0419986 280:-0.226206 281:-0.0625738 282:0.0514623 283:-0.296784 284:-0.0610451 285:-0.13809 286:0.0655713 287:0.0736216 288:-0.0273081 289:0.043254 290:-0.220893 291:0.183111 292:0.391643 293:-0.110634 294:-0.102016 295:-0.3192 296:-0.190418 297:0.475744 298:0.1777 299:-0.341631 300:0.149729 301:-0.0139872 302:-0.0469083 303:0.12867 304:0.00804353 305:0.119927 306:-0.0518646 307:-0.0858814 308:0.128328 309:0.00537929 310:0.110787 311:-0.1461 312:-0.260381 313:-0.367034 314:0.715154 315:-0.186418 316:-0.26742 317:0.381213 318:0.179632 319:-0.0518504 320:0.0891916 321:-0.0839103 322:-0.215932 323:0.163952 324:-0.379721 325:-0.198683 326:0.127973 327:0.0107343 328:0.123544 329:0.394972 330:-0.307031 331:0.173142 332:-0.3636 333:-0.392874 334:-0.425413 335:-0.593702 336:-0.00595407 337:0.211214 338:0.378167 339:0.0123437 340:-0.074761 341:-0.347665 342:-0.38587 343:0.064375 344:-0.484113 345:-0.51496 346:-0.0888078 347:0.500159 348:0.113419 349:0.1218 350:0.100773 351:-0.408358 352:-0.0384027 353:0.0154155 354:-0.220519 355:-0.210218 356:0.0117623 357:0.0966866 358:-0.238095 359:0.00820313 360:-0.0387451 361:0.248465 362:0.108266 363:-0.14763 364:-0.125461 365:0.000359885 366:0.00265957 367:-0.0294549 368:0.292634 369:0.380726 370:0.318514 371:-0.17655 372:-0.54318 373:-0.252623 374:-0.190305 375:0.0737163 376:-0.0862507 377:0.124919 378:-0.0498041 379:0.138434 380:-0.10674 381:0.0433457 382:0.376335 383:0.179391 384:-0.26705 385:0.103527 386:0.21253 387:-0.0788462 388:0.00957049 389:0.0817326 390:-0.362706 391:0.00799087 392:0.140491 393:0.0568283 394:0.0195282 395:-0.203222 396:-0.65257 397:-0.577218 398:-0.0927031 399:-0.142017 400:0.277 401:0.231217 402:0.267073 403:0.199567 404:-0.218224 405:0.138875 406:-0.0189988 407:-0.100099 408:-0.180492 409:0.0318384 410:0.327353 411:0.893566 412:-0.565272 413:0.108378 414:0.34906 415:-0.373362 416:0.0203841 417:-0.310251 418:0.219227 419:0.290213 420:-0.220325 421:-0.136063 422:-0.0529661 423:0.579682 424:0.458057 425:-0.111847 426:0.0204852 427:0.269751 428:-0.00385728 429:0.127249 430:-0.193126 431:1 432:-0.573245 433:-0.933086 434:0.22211 435:-0.442078 436:-0.461676 437:0.423847 438:-0.114469 439:0.106509 440:-0.176632 441:0.348434 442:-0.722132 443:0.154463 444:0.0739374 445:-0.0888889 446:0.285272 447:0.133762 448:-0.596025 449:-0.613459 450:-0.177978 451:0.0808735 452:-0.288028 453:-0.834739 454:-0.189992 455:0.128256 456:-0.132937 457:0.178664 458:0.0731132 459:0.28892 460:-0.235554 461:0.310913 462:0.938346 463:0.558242 464:0.178502 465:-0.0546249 466:0.439293 467:0.0721836 468:-0.269456 469:0.298754 470:-0.451502 471:-0.116305 472:0.355153 473:-0.741259 474:0.357831 475:-0.148703 476:-0.211899 477:-0.114743 478:0.170434 479:0.154972 480:-0.0812655 481:-0.0375865 482:0.016829 483:0.120981 484:-0.0730395 485:-0.0365441 486:-0.182046 487:0.0219374 488:-0.691051 489:-0.619258 490:-0.164827 491:0.214206 492:0.278534 493:0.258049 494:-0.059997 495:0.205855 496:0.185557 497:-0.560942 498:-0.425576 499:-0.576559 500:-0.095638 501:-0.345304 502:-0.563162 503:0.403138 504:-0.238975 505:0.379242 506:0.736054 507:-0.322471 508:-0.0111974 509:0.0549492 510:-0.288524 511:-0.0880361 512:0.395833 513:0.0742695 514:-0.141008 515:0.00456247 516:-0.0780873 517:0.166807 518:0.226519 519:-0.315728 520:-0.233093 521:0.223111 522:0.132526 523:-0.178354 524:-0.0714632 525:-0.441022 526:-0.00614035 527:-0.817308 528:-0.206159 529:0.363309 530:-0.349254 531:0.21936 532:0.0925495 533:-0.206585 534:-0.242501 535:0.456368 536:0.12607 537:-0.124276 538:0.18675 539:0.109082 540:-0.000539957 541:0.523095 542:-0.140739 543:0.353572 544:0.424149 545:0.247905 546:-0.131878 547:-0.196714 548:-0.0332821 549:-0.0857636 550:0.16404 551:0.279513 552:-0.209879 553:0.0135979 554:0.414044 555:0.114702 556:-0.0372157 557:-0.319319 558:-0.132951 559:-0.333474 560:-0.113371 561:-0.0347543 562:0.141381 563:0.146617 564:-0.293959 565:-0.190987 566:-0.0546252 567:0.0997137 568:0.323682 569:0.256074 570:-0.223006 571:0.275344 572:0.13686 573:0.197389 574:0.0091853 575:-0.242618 576:-0.429902 577:0.240029 578:0.329434 579:-0.930643 580:-0.62309 581:0.0164456 582:-0.195491 583:0.133432 584:0.233545 585:-0.144162 586:-0.125783 587:0.252137 588:0.0473006 589:-0.17486 590:-0.0181826 591:0.259459 592:0.19759 593:0.483078 594:-0.250977 595:0.0446071 596:0.120267 597:0.026393 598:-0.140534 599:-0.0184446 600:-0.216251 601:-0.0315277 602:-0.359155 603:-0.336431 604:0.473725 605:-0.121742 606:0.505255 607:0.48843 608:0.0412544 609:-0.0244917 610:-0.113743 611:-0.489311 612:0.0309667 613:-0.112317 614:0.149514 615:-0.029017 616:-0.113196 617:-0.292829 618:-0.297872 619:0.110146 620:0.040474 621:-0.786769 622:0.408666 623:0.414579 624:-0.00812883 625:0.165676 626:-0.103395 627:0.300809 628:0.0280243 629:0.0602575 630:-0.0928974 631:-0.620116 632:-0.627273 633:-0.0658547 634:-0.316368 635:-0.1657 636:-0.0559318 637:-0.0978566 638:-0.132189 639:0.490668 640:0.0130067 641:-0.153043 642:0.572324 643:0.22679 644:-0.83187 645:-0.249511 646:0.561615 647:-0.769336 648:-0.380536 649:0.293569 650:-0.386396 
434.99472810304826 2:0.0732436 3:-0.083871 4:-0.0588235 5:0.0657135 6:0.155032 7:-0.163418 8:-0.0302804 9:0.105376 10:-0.09699 11:0.177542 12:-0.270903 13:-0.128376 14:0.0403813 15:-0.0641138 16:0.0178158 17:0.363237 18:-0.191864 19:-0.178142 20:0.0580613 21:0.0237097 22:0.371377 23:-0.154907 24:0.00694847 25:-0.0325057 26:-0.206072 27:-0.10307 28:-0.0931345 29:0.209243 30:0.401665 31:0.0503817 32:-0.0432006 33:0.066609 34:-0.132353 35:0.10044 36:0.347546 37:0.223812 38:-0.166466 39:-0.503608 40:0.111323 41:-0.291385 42:0.184391 43:0.181703 44:-0.128449 45:-0.212687 46:-0.571063 47:-0.101288 48:0.149377 49:-0.0521809 50:-0.238323 51:0.30367 52:0.488254 53:0.0265173 54:-0.0949352 55:0.149552 56:-0.186144 57:-0.243659 58:0.774115 59:-0.371808 60:0.139106 61:-0.123207 62:0.0021164 63:-0.254935 64:0.03588 65:0.0179125 66:0.00518284 67:0.0411358 68:-0.124614 69:0.349328 70:0.011169 71:0.220556 72:-0.411994 73:-0.0200529 74:-0.188886 75:0.280965 76:-0.0933372 77:-0.0521605 78:0.274764 79:-0.273664 80:-0.0452616 81:0.069808 82:0.188208 83:-0.0190793 84:-0.0789343 85:-0.0564672 86:-0.014433 87:-0.0869095 88:0.213491 89:0.0664179 90:0.113159 91:0.117272 92:-0.212728 93:0.535931 94:-0.00619112 95:-0.449485 96:0.26867 97:-0.00883899 98:-0.49755 99:0.347493 100:0.137761 101:-0.572827 102:-0.487658 103:-0.107689 104:0.286568 105:0.228802 106:-0.253335 107:-0.0540166 108:-0.32063 109:0.0435138 110:0.459373 111:0.501574 112:-0.195222 113:-0.409761 114:0.287295 115:-0.0870181 116:-0.127094 117:0.182272 118:-0.202662 119:0.230436 120:-0.166832 121:-0.269807 122:0.284448 123:0.230309 124:-0.0917075 125:0.191685 126:0.364085 127:0.195823 128:-0.0411255 129:0.0111663 130:0.367415 131:-0.237544 132:0.23966 133:0.126056 134:-0.279813 135:-0.0816842 136:-0.000729927 137:0.457691 138:0.287159 139:0.0612474 140:0.444302 141:-0.408974 142:-0.2368 143:0.466059 144:-0.0397951 145:0.0558554 146:-0.0516529 147:-0.0428419 148:-0.172476 149:-0.0962007 150:-0.0653831 151:-0.269751 152:-0.357498 153:0.176716 154:0.120162 155:0.120564 156:-0.0427191 157:-0.065588 158:0.161904 159:0.212697 160:0.135601 161:0.201702 162:0.188644 163:-0.140084 164:-0.134862 165:-0.162383 166:0.0758427 167:-0.102463 168:-0.289672 169:-0.181425 170:-0.041863 171:0.0892689 172:0.0176817 173:0.0443008 174:0.167273 175:0.091189 176:0.114286 177:0.113483 178:-0.0755814 179:0.78124 180:-0.169245 181:-0.299966 182:0.150486 183:0.147779 184:-0.175269 185:-0.197426 186:-0.695802 187:-0.0892248 188:-0.154532 189:0.407313 190:0.122395 191:-0.638393 192:-0.103689 193:0.433301 194:0.223133 195:0.391026 196:-0.28717 197:0.165541 198:-0.017415 199:-0.0548272 200:0.199419 201:0.631706 202:-0.0451807 203:0.191607 204:-0.0528777 205:0.527839 206:-0.0276276 207:-0.329294 208:-0.1423 209:0.0343162 210:0.0323162 211:-0.279006 212:0.0229268 213:-0.658055 214:0.326733 215:-0.153961 216:0.0100729 217:-0.412394 218:-0.248408 219:0.14448 220:0.519634 221:0.0931411 222:-0.199205 223:0.167025 224:-0.436464 225:-0.109275 226:0.24794 227:-0.141783 228:0.172464 229:0.0777948 230:-0.00492005 231:0.29135 232:0.00757359 233:0.0263631 234:0.285111 235:0.0129208 236:0.193297 237:-0.12801 238:-0.28359 239:-0.347442 240:-0.344841 241:-0.0453206 242:-0.0499857 243:0.00626679 244:0.54597 245:-0.296031 246:-0.0749737 247:0.33875 248:-0.134146 249:0.140554 250:-0.427381 251:-0.385325 252:-0.255191 253:-0.261666 254:-0.150326 255:0.288433 256:-0.165466 257:-0.106069 258:-0.0270936 259:0.177569 260:-0.0485069 261:-0.204669 262:0.169911 263:0.285783 264:0.0791476 265:0.00526685 266:-0.18008 267:0.494436 268:-0.147131 269:-0.211081 270:0.190173 271:-0.355404 272:0.00273785 273:-0.000374501 274:0.01096 275:0.279146 276:0.299228 277:-0.263837 278:-0.200365 279:-0.194666 280:-0.0840736 281:-0.215171 282:-0.015752 283:0.340888 284:-0.129396 285:-0.146537 286:0.210733 287:-0.0750313 288:0.328771 289:0.0575397 290:-0.485044 291:0.223778 292:0.0654596 293:-0.417293 294:0.161013 295:-0.0645628 296:-0.159761 297:0.206591 298:0.155722 299:-0.214778 300:-0.0724787 301:0.0411875 302:-0.356077 303:0.1121 304:0.545304 305:-0.52176 306:0.304544 307:0.0708588 308:0.167307 309:0.495745 310:-0.35171 311:-0.212596 312:0.0539216 313:-0.0918308 314:0.00517471 315:-0.198382 316:-0.0676068 317:0.0743274 318:0.288661 319:-0.193524 320:-0.0667838 321:0.086195 322:-0.243875 323:0.180995 324:0.252941 325:0.0383732 326:-0.203506 327:-0.170102 328:0.146549 329:-0.197273 330:-0.555908 331:-0.179617 332:0.191473 333:0.490611 334:-0.263561 335:0.118246 336:-0.154664 337:-0.0508713 338:0.600333 339:-0.183152 340:-0.0700387 341:0.0843131 342:0.0871739 343:0.254167 344:-0.0777158 345:-0.186914 346:0.345012 347:-0.324673 348:0.308262 349:-0.0489684 350:0.0984263 351:-0.215367 352:-0.10687 353:-0.0666611 354:-0.0919612 355:-0.451131 356:0.141457 357:0.063145 358:0.0377847 359:0.0520833 360:0.0774903 361:0.481719 362:-0.0182299 363:0.069289 364:0.118622 365:-0.0497669 366:0.00291287 367:0.0102579 368:-0.160714 369:0.0928047 370:-0.0190352 371:0.0983827 372:-0.096247 373:0.00809942 374:0.00603302 375:-0.162123 376:-0.184486 377:0.161679 378:-0.0755456 379:0.0691171 380:0.0129298 381:-0.101273 382:0.114769 383:-0.0660705 384:-0.0193826 385:0.0692179 386:0.189639 387:0.351131 388:-0.0653595 389:-0.181329 390:0.27028 391:0.166667 392:-0.291738 393:-0.211842 394:0.173473 395:0.127339 396:0.24082 397:-0.730048 398:-0.483249 399:0.208959 400:-0.34375 401:0.77337 402:0.420328 403:-0.728571 404:0.155296 405:-0.262279 406:0.155006 407:0.111028 408:0.112238 409:0.33975 410:-0.183649 411:-0.460613 412:-0.693074 413:-0.389894 414:0.395351 415:0.0889125 416:-0.285377 417:-0.0191477 418:0.167677 419:0.313566 420:0.20079 421:-0.0812798 422:-0.65113 423:0.072121 424:-0.270519 425:-0.126593 426:0.190296 427:-0.10836 428:0.0580199 429:0.0823827 430:0.0140259 431:0.238107 432:0.276704 433:0.454523 434:-0.130515 435:0.0481793 436:-0.394758 437:-0.149891 438:0.12926 439:-0.458849 440:-0.259171 441:-0.180298 442:-0.882068 443:-0.071474 444:0.0189877 445:0.0250352 446:-0.285051 447:0.00682594 448:0.0193392 449:0.212939 450:-0.135961 451:0.0139684 452:0.413838 453:-0.0907813 454:-0.0552233 455:0.269377 456:0.095805 457:0.164763 458:0.0818396 459:0.470214 460:-0.280216 461:0.303249 462:-0.139286 463:-0.171429 464:-0.130193 465:-0.398709 466:-0.368589 467:-0.162791 468:-0.186513 469:0.162928 470:0.184549 471:0.00962332 472:0.196147 473:-0.38865 474:-0.236695 475:-0.423456 476:-0.428416 477:-0.112017 478:-0.0506626 479:0.0270066 480:0.167184 481:-0.131058 482:-0.0807791 483:0.0115416 484:0.0525372 485:-0.00316857 486:0.00403002 487:0.113162 488:-0.316747 489:-0.199917 490:0.0295095 491:-0.106541 492:0.213274 493:-0.0105125 494:-0.0219665 495:0.0888384 496:-0.497743 497:-0.0761435 498:0.00276498 499:0.21995 500:0.229748 501:0.011839 502:0.213002 503:-0.0982168 504:0.15528 505:-0.1472 506:-0.151578 507:0.0590631 508:0.0976411 509:0.0970812 510:0.112122 511:0.433409 512:-0.197778 513:0.0475852 514:-0.510147 515:-0.183786 516:-0.296671 517:-0.288758 518:0.0279696 519:-0.0901663 520:-0.191441 521:0.190028 522:-0.329955 523:0.0363821 524:0.0466328 525:0.121024 526:0.510088 527:-0.276257 528:-0.163257 529:-0.422148 530:-0.263433 531:0.133232 532:0.0341967 533:-0.495075 534:0.142332 535:-0.644097 536:-0.15295 537:0.896718 538:-0.0703795 539:-0.0406555 540:-0.309395 541:-0.0886259 542:0.222756 543:0.0693307 544:-0.287644 545:0.271203 546:-0.595598 547:-0.171416 548:0.430598 549:-0.179202 550:-0.226047 551:-0.338647 552:-0.244086 553:-0.76663 554:0.324455 555:-0.187222 556:-0.476683 557:-0.245272 558:-0.469586 559:0.18587 560:-0.0278193 561:-0.237717 562:-0.301794 563:0.13379 564:0.22545 565:-0.254053 566:-0.198963 567:-0.687023 568:0.0343561 569:-0.038142 570:-0.101601 571:0.172394 572:-0.197014 573:-0.155063 574:0.103534 575:-0.149508 576:0.0468095 577:0.136916 578:-0.244502 579:-0.0329971 580:0.369836 581:0.303759 582:0.723948 583:-0.561522 584:-0.410771 585:-0.274245 586:0.165196 587:0.0770918 588:-0.210117 589:-0.0579125 590:-0.197594 591:0.0488837 592:-0.364415 593:-0.185737 594:0.0581379 595:-0.559322 596:-0.156068 597:-0.0914956 598:-0.137673 599:-0.175503 600:-0.0247708 601:-0.0209229 602:-0.0671362 603:-0.143936 604:-0.354902 605:0.249628 606:0.560113 607:0.268888 608:0.415895 609:-0.0391636 610:-0.0467435 611:0.306074 612:-0.042995 613:-0.297439 614:0.273112 615:0.204661 616:-0.00484823 617:-0.0358566 618:0.0676816 619:-0.144831 620:0.146879 621:0.160244 622:-0.244421 623:-0.116562 624:-0.143712 625:0.0233104 626:0.100437 627:0.0412399 628:0.0939981 629:0.367297 630:0.161542 631:-0.180658 632:0.156023 633:0.0618668 634:-0.129177 635:0.364281 636:-0.218397 637:0.21121 638:0.191901 639:0.219184 640:-0.198427 641:-0.172488 642:0.266483 643:0.349838 644:-0.0788373 645:0.0822336 646:0.0606974 647:-0.525553 648:-0.128497 649:0.127227 650:0.0218233 
515.21222644047043 2:0.0732436 3:-0.083871 4:-0.0588235 5:0.0657135 6:0.155032 7:-0.163418 8:-0.0302804 9:0.105376 10:-0.09699 11:0.177542 12:-0.270903 13:-0.128376 14:0.0592986 15:-0.159331 16:0.306571 17:0.0406036 18:0.216758 19:-0.170765 20:-0.0408672 21:-0.245368 22:0.243813 23:0.237822 24:0.2348 25:0.294675 26:0.0738636 27:-0.179825 28:1 29:-0.250075 30:-0.916753 31:0.652417 32:-0.276359 33:-0.124351 34:0.17926 35:0.222176 36:-0.361571 37:0.342873 38:-0.0305364 39:0.493146 40:-0.149618 41:0.251952 42:0.0606551 43:-0.354176 44:-0.0555423 45:0.0115332 46:0.310376 47:0.500222 48:-0.21215 49:0.420355 50:-0.42994 51:-0.148693 52:0.146126 53:0.195376 54:-0.673027 55:-0.16209 56:0.229882 57:0.00245427 58:-0.0805188 59:0.448756 60:-0.0672501 61:-0.28913 62:0.108995 63:0.369572 64:0.18634 65:0.222084 66:0.209905 67:-0.138324 68:0.179454 69:0.248081 70:0.173213 71:0.185395 72:-0.264559 73:-0.221573 74:-0.00237664 75:-0.489375 76:0.336875 77:0.16713 78:-0.235512 79:0.0518588 80:0.0757802 81:-0.232403 82:-0.559732 83:0.0212334 84:0.165339 85:0.143822 86:0.159794 87:0.311053 88:0.115346 89:-0.0910448 90:-0.117046 91:-0.101357 92:0.0578503 93:-0.27252 94:-0.206729 95:0.005 96:-0.064019 97:0.0425227 98:0.235606 99:-0.157124 100:0.226496 101:0.558588 102:-0.16621 103:-0.105739 104:-0.349747 105:0.171223 106:-0.115489 107:0.435365 108:0.415079 109:-0.367242 110:-0.281938 111:-0.271705 112:0.0669643 113:0.135743 114:0.0543792 115:-0.00524376 116:-0.0293801 117:-0.3453 118:0.172962 119:-0.306724 120:0.0520188 121:0.186081 122:-0.350772 123:-0.245513 124:-0.0761846 125:0.0241193 126:-0.149428 127:-0.503933 128:-0.0947743 129:0.382754 130:0.137207 131:-0.03517 132:0.282723 133:-0.0864829 134:-0.412608 135:0.128105 136:0.108029 137:-0.623543 138:-0.331395 139:0.209918 140:-0.0531314 141:-0.0703971 142:-0.2556 143:-0.0732861 144:0.000701853 145:-0.0896588 146:-0.097314 147:-0.26047 148:0.11876 149:0.0712372 150:0.109507 151:0.0896352 152:-0.305696 153:-0.175788 154:0.323552 155:-0.0268657 156:0.336763 157:-0.239093 158:0.202055 159:0.117109 160:-0.0834806 161:0.0193617 162:-0.324663 163:0.454892 164:0.445266 165:-0.0217184 166:0.00393258 167:-0.0727247 168:0.764706 169:0.0424528 170:-0.108955 171:0.59434 172:-0.132753 173:0.0450192 174:0.0256453 175:-0.215711 176:-0.283333 177:-0.00590931 178:0.0203238 179:-0.908952 180:0.171411 181:0.298623 182:0.136868 183:0.175064 184:-0.141056 185:0.145484 186:-0.00641975 187:-0.039371 188:0.139178 189:-0.419196 190:0.038776 191:0.138811 192:-0.48388 193:0.0903927 194:0.341075 195:-0.291667 196:-0.0951364 197:0.400076 198:-0.117007 199:-0.615415 200:0.193392 201:-0.52529 202:-0.473695 203:0.0822542 204:0.224221 205:-0.627343 206:0.372673 207:0.316583 208:0.26289 209:0.0609787 210:0.163383 211:0.203806 212:-0.102927 213:0.232511 214:-0.454545 215:-0.172112 216:0.118088 217:0.217713 218:0.0406051 219:0.0245831 220:-0.657068 221:-0.0187062 222:-0.0166005 223:0.0796127 224:0.0968476 225:0.167815 226:-0.354853 227:-0.602006 228:-0.0993789 229:0.0985122 230:0.0400677 231:-0.104255 232:-0.19377 233:-0.21405 234:0.00203186 235:0.146833 236:-0.0276056 237:0.411204 238:0.053359 239:-0.230233 240:0.0389402 241:-0.0195284 242:-0.140732 243:-0.56043 244:-0.44353 245:-0.000650618 246:-0.121586 247:0.0693679 248:-0.142559 249:0.143822 250:0.223214 251:0.308722 252:0.117817 253:-0.0368791 254:-0.114158 255:0.0151031 256:-0.239793 257:0.411609 258:-0.295567 259:-0.243838 260:-0.0724846 261:0.0310794 262:-0.209565 263:-0.0520259 264:0.13984 265:-0.159118 266:0.226107 267:-0.353736 268:0.0746637 269:0.147162 270:0.0920411 271:0.437209 272:-0.134155 273:-0.122087 274:0.07576 275:-0.0840975 276:-0.192499 277:-0.0768644 278:-0.0253041 279:0.112479 280:0.0504442 281:0.145809 282:0.0953591 283:0.146708 284:0.321694 285:0.129573 286:0.313235 287:0.173559 288:-0.409286 289:-0.0827381 290:0.273355 291:0.403556 292:-0.41337 293:0.0819907 294:0.271018 295:0.635269 296:0.656234 297:-0.542991 298:-0.374966 299:-0.385417 300:0.143023 301:-0.292127 302:0.392324 303:0.176601 304:-0.0581973 305:0.742298 306:-0.0741535 307:-0.00319064 308:-0.425748 309:-0.979091 310:0.247813 311:0.581202 312:0.0795127 313:-0.113413 314:0.102165 315:-0.0719006 316:-0.0161759 317:0.423165 318:0.117515 319:-0.0821126 320:0.26655 321:0.0925644 322:0.364486 323:0.162594 324:-0.921981 325:-0.425858 326:0.15 327:-0.168822 328:-0.166572 329:0.171389 330:0.209093 331:0.514921 332:0.0821161 333:-0.514203 334:-0.11446 335:-0.214264 336:-0.0300539 337:0.010118 338:-0.384 339:0.0903334 340:-0.0883022 341:0.0265368 342:-0.476739 343:-0.0416667 344:-0.236797 345:-0.0311824 346:0.146046 347:0.374243 348:-0.176218 349:0.0395227 350:0.211623 351:0.0569266 352:0.176484 353:-0.133881 354:-0.186425 355:0.0783522 356:-0.227817 357:-0.24484 358:-0.386991 359:0.06875 360:-0.268086 361:-0.790766 362:0.013081 363:-0.138578 364:-0.216553 365:0.0852756 366:-0.192629 367:-0.0583236 368:0.0424107 369:-0.0205272 370:0.152021 371:0.0611523 372:0.158192 373:-0.0779119 374:-0.142834 375:0.132478 376:0.0649332 377:-0.157775 378:0.149098 379:0.167 380:0.223934 381:-0.698834 382:-0.114546 383:0.183396 384:-0.639268 385:-0.225288 386:-0.658313 387:-0.36267 388:0.186508 389:0.184499 390:-0.304559 391:-0.0184279 392:-0.0896084 393:-0.128533 394:-0.113204 395:-0.147089 396:-0.320081 397:-0.192109 398:0.210188 399:-0.114615 400:0.08075 401:-0.0373171 402:-0.0547909 403:0.291558 404:-0.156231 405:0.0364686 406:0.0476478 407:-0.385743 408:-0.0287147 409:-0.175164 410:0.304672 411:0.548406 412:0.227952 413:0.0954787 414:0.0702275 415:0.0462274 416:0.379043 417:-0.0610423 418:-0.0865903 419:0.521385 420:-0.195986 421:-0.450185 422:0.0640301 423:0.257464 424:0.441762 425:0.0793552 426:-0.131671 427:-0.102543 428:0.540341 429:0.372911 430:0.0924014 431:-0.286636 432:-0.280773 433:-0.169393 434:-0.234407 435:-0.0552598 436:-0.604448 437:-0.0885832 438:-0.368596 439:-0.541958 440:0.050262 441:-0.0106795 442:0.216074 443:0.188056 444:0.0146812 445:0.0627286 446:-0.291464 447:0.233657 448:0.0723879 449:-0.540637 450:0.0480514 451:0.0791416 452:-0.602488 453:-0.274171 454:0.00259171 455:-0.120076 456:0.0619331 457:-0.0215517 458:-0.0370283 459:-0.103257 460:0.0904279 461:-0.0533059 462:0.161842 463:0.320192 464:0.0315217 465:-0.284506 466:-0.0423066 467:-0.151616 468:0.144383 469:0.178816 470:0.148444 471:0.00329942 472:0.0596565 473:0.0194997 474:0.0680436 475:-0.0650347 476:-0.00285249 477:-0.00488984 478:0.104086 479:0.205704 480:0.0567618 481:-0.135427 482:-0.119593 483:0.336768 484:0.120195 485:-0.305027 486:0.347137 487:-0.032146 488:0.047902 489:0.410072 490:-0.047855 491:-0.00786075 492:-0.0581436 493:-0.0500986 494:-0.0836073 495:0.0511897 496:-0.162237 497:0.262668 498:0.129032 499:-0.199501 500:-0.279328 501:0.0607735 502:0.312977 503:0.215549 504:0.114286 505:-0.061086 506:0.459037 507:-0.0072556 508:-0.0147805 509:0.319543 510:0.311418 511:-0.100734 512:0.289306 513:-0.0916193 514:-0.126137 515:0.034628 516:0.0914134 517:0.0108635 518:-0.114756 519:-0.242194 520:-0.00422684 521:0.147068 522:0.0734493 523:0.0252033 524:-0.187137 525:0.189081 526:-0.0565789 527:-0.390902 528:-0.341962 529:-0.0322456 530:0.109453 531:0.22378 532:0.0694121 533:0.038672 534:-0.144666 535:0.167624 536:0.247859 537:-0.32167 538:0.535592 539:0.00675507 540:0.37005 541:0.122113 542:-0.424222 543:0.265462 544:-0.325077 545:-0.18706 546:0.393398 547:0.0151207 548:-0.392528 549:0.288565 550:0.0131688 551:0.0968333 552:0.159555 553:0.697905 554:0.367554 555:0.340405 556:0.43671 557:-0.693919 558:-0.0700382 559:-0.393328 560:-0.0160036 561:-0.321098 562:-0.0125068 563:-0.029854 564:-0.309769 565:0.0879362 566:-0.0181419 567:0.130316 568:0.266962 569:0.26712 570:0.271026 571:0.407789 572:0.11843 573:0.256646 574:-0.0373403 575:0.0638468 576:-0.201444 577:-0.298273 578:0.23795 579:-0.115174 580:-0.886814 581:-0.619679 582:-0.610118 583:0.299514 584:0.369412 585:-0.139698 586:0.0413347 587:-0.193432 588:0.292072 589:0.376431 590:0.222567 591:-0.087074 592:-0.46099 593:0.294923 594:0.420156 595:0.0867103 596:-0.257282 597:-0.428739 598:-0.463299 599:0.143884 600:-0.22542 601:-0.0243623 602:-0.226761 603:-0.0702835 604:0.278235 605:-0.279039 606:-0.298641 607:-0.181349 608:-0.4609 609:-0.0349469 610:0.428171 611:-0.371564 612:-0.0077508 613:-0.204085 614:-0.251433 615:-0.172651 616:0.53204 617:-0.262948 618:-0.252018 619:0.386215 620:-0.188468 621:-0.2614 622:0.0900363 623:0.245303 624:-0.230215 625:-0.0480288 626:-0.186986 627:0.192318 628:-0.0608361 629:-0.528348 630:-0.460372 631:0.559381 632:0.453182 633:-0.135872 634:0.276609 635:-0.14668 636:0.0082769 637:0.0975301 638:0.0887617 639:0.0392795 640:0.0795523 641:0.17906 642:-0.0538982 643:-0.132037 644:0.0501882 645:-0.121579 646:0.0568301 647:0.28915 648:0.0342366 649:0.265729 650:-0.325062 
952.83435608047682 2:0.0732436 3:-0.083871 4:-0.0588235 5:0.0657135 6:0.155032 7:-0.163418 8:-0.0302804 9:0.105376 10:-0.09699 11:0.177542 12:-0.270903 13:-0.128376 14:0.0713766 15:-0.147154 16:0.231143 17:0.0735254 18:0.324529 19:-0.00887978 20:-0.0475953 21:-0.111381 22:0.3345 23:-0.0207736 24:0.189925 25:0.186867 26:-0.238976 27:-0.0995872 28:0.314997 29:0.507628 30:-0.240635 31:-0.0152036 32:0.0127724 33:0.419983 34:0.245943 35:-0.0571586 36:0.110519 37:0.13008 38:-0.285156 39:-0.111201 40:-0.00178117 41:0.437272 42:0.0287101 43:-0.267536 44:-0.00939581 45:-0.0195047 46:-0.187614 47:0.0239893 48:-0.102882 49:0.352342 50:-0.375449 51:-0.0539216 52:-0.172594 53:0.206069 54:-0.498469 55:-0.199403 56:0.371383 57:-0.22 58:0.216563 59:0.160033 60:0.0464072 61:-0.288173 62:-0.0509259 63:0.192074 64:0.268833 65:0.0175248 66:-0.0322488 67:0.366332 68:0.254634 69:-0.25048 70:0.428704 71:0.0108188 72:-0.337302 73:0.277215 74:-0.239475 75:-0.202034 76:0.13297 77:-0.351852 78:-0.0938342 79:-0.0413933 80:-0.209615 81:0.0267597 82:-0.149974 83:-0.0851797 84:0.334661 85:0.240508 86:0.303093 87:0.336215 88:0.572344 89:0.298507 90:-0.350418 91:-0.134129 92:-0.0320436 93:0.362601 94:-0.106057 95:-0.670515 96:-0.217742 97:0.0407086 98:-0.234381 99:-0.217678 100:0.146664 101:0.598339 102:-0.198368 103:-0.406425 104:0.0312274 105:-0.0196837 106:0.196393 107:0.00784857 108:-0.303645 109:-0.35476 110:0.210475 111:0.409357 112:0.0803571 113:0.0745089 114:0.339269 115:0.0136054 116:-0.00502633 117:0.0825315 118:0.00449251 119:0.0745183 120:-0.195442 121:-0.0957173 122:-0.0789022 123:0.147807 124:-0.355392 125:-0.0410782 126:0.22908 127:-0.149444 128:-0.0695733 129:0.161135 130:0.199133 131:0.00395662 132:0.0263089 133:-0.0901512 134:-0.281975 135:-0.0970526 136:0.086983 137:0.116585 138:-0.00884732 139:0.176259 140:0.120572 141:0.0281073 142:0.13945 143:0.0553867 144:0.110191 145:0.00557103 146:0.0789256 147:-0.169017 148:-0.232516 149:0.200925 150:-0.353791 151:-0.0616091 152:-0.259275 153:-0.0858071 154:0.233367 155:-0.128524 156:0.0886342 157:-0.0530194 158:0.20418 159:0.175634 160:-0.238737 161:0.0926596 162:0.189066 163:-0.180815 164:-0.0282298 165:0.0324448 166:0.214326 167:0.169211 168:-0.0262483 169:0.0914808 170:-0.0535071 171:0.402358 172:0.0359248 173:-0.863985 174:0.188451 175:0.276858 176:-0.0915751 177:0.172455 178:-0.012505 179:0.526428 180:0.671411 181:-0.429627 182:0.242704 183:-0.121204 184:0.453526 185:0.209837 186:-0.844938 187:0.201 188:0.279594 189:0.00676417 190:0.493801 191:0.472377 192:0.456869 193:-0.132262 194:-0.0549484 195:0.141382 196:-0.044964 197:0.0394937 198:-0.120544 199:-0.327573 200:-0.134632 201:0.281804 202:-0.165663 203:0.059952 204:0.0560552 205:0.128997 206:0.196096 207:-0.157257 208:-0.0634328 209:0.0176913 210:-0.0438191 211:-0.125537 212:-0.449024 213:-0.344993 214:0.220522 215:-0.306748 216:-0.165881 217:-0.0147039 218:0.222361 219:-0.291259 220:-0.0163613 221:0.204988 222:-0.0468218 223:0.0461942 224:-0.219695 225:-0.13843 226:0.0286315 227:-0.311602 228:-0.240166 229:-0.0877364 230:0.0923124 231:0.130741 232:-0.0394398 233:-0.0155033 234:0.285923 235:-0.157964 236:0.0882117 237:0.195828 238:-0.160602 239:0.286512 240:-0.0395424 241:0.597642 242:0.296482 243:-0.179443 244:0.121737 245:-0.273585 246:-0.14916 247:0.475627 248:-0.121334 249:0.0901383 250:-0.289583 251:-0.367559 252:-0.282714 253:0.0632213 254:-0.031025 255:0.0273821 256:0.142411 257:0.280343 258:0.108836 259:-0.0811528 260:-0.0579582 261:-0.283657 262:-0.030161 263:0.231839 264:0.0673516 265:0.369382 266:0.279175 267:0.433227 268:-0.279166 269:-0.194189 270:0.618029 271:-0.184952 272:-0.226215 273:-0.421438 274:0.04944 275:0.03694 276:-0.0661886 277:-0.347561 278:-0.0479927 279:0.0111031 280:-0.325984 281:-0.37987 282:-0.0058435 283:-0.229096 284:-0.290243 285:-0.239738 286:0.205607 287:-0.220238 288:0.952228 289:0.198611 290:-1 291:-0.112 292:-0.28468 293:-0.299678 294:-0.294739 295:0.239822 296:0.0216778 297:-0.423888 298:-0.0825516 299:0.0234816 300:0.106074 301:-0.359133 302:0.0395789 303:0.134008 304:-0.303762 305:-0.148289 306:0.513931 307:0.22627 308:-0.19064 309:-0.452954 310:0.0564538 311:-0.170876 312:-0.0473255 313:-0.0796278 314:-0.0662742 315:-0.174567 316:-0.38034 317:-0.0591655 318:-0.0594059 319:-0.111796 320:-0.204159 321:0.187898 322:0.346047 323:0.00316742 324:0.742415 325:0.10723 326:-0.101677 327:-0.0589778 328:-0.0755467 329:-0.0607158 330:-0.273328 331:0.135135 332:0.0917884 333:-0.12181 334:-0.0237323 335:0.281568 336:-0.258435 337:-0.0725126 338:0.233667 339:-0.0727797 340:-0.104148 341:0.0725563 342:-0.176087 343:-0.19875 344:-0.38128 345:-0.168709 346:-0.458394 347:0.214536 348:-0.00823782 349:-0.177231 350:0.474047 351:0.00180981 352:-0.0892748 353:-0.0636729 354:0.105099 355:0.00918821 356:0.329344 357:0.528517 358:-0.23844 359:-0.188672 360:0.238175 361:-0.28356 362:-0.0754244 363:0.0179394 364:0.188492 365:0.0275569 366:-0.196049 367:0.234613 368:0.0302455 369:-0.259723 370:0.0831812 371:0.139993 372:-0.0488297 373:-0.477177 374:-0.185859 375:0.0730545 376:-0.0363161 377:0.00292778 378:-0.136262 379:0.0401518 380:0.0751032 381:-0.386797 382:0.114101 383:0.214095 384:0.184135 385:0.175744 386:0.451084 387:0.386652 388:-0.405696 389:-0.150211 390:-0.409548 391:-0.238095 392:0.388124 393:0.520678 394:-0.327518 395:-0.272557 396:-0.289187 397:0.00303517 398:-0.00413034 399:-0.374374 400:0.13975 401:0.10724 402:0.0812599 403:0.26039 404:-0.0431464 405:0.0737353 406:0.306996 407:-0.176354 408:-0.14722 409:0.21959 410:-0.0663507 411:0.220535 412:-0.164549 413:-0.0488032 414:0.348071 415:-0.30588 416:-0.107901 417:-0.115606 418:-0.0514376 419:0.108371 420:-0.0140905 421:-0.213434 422:0.141478 423:0.0517642 424:-0.150422 425:0.0960385 426:0.0724394 427:-0.0704816 428:0.110093 429:0.170549 430:-0.113748 431:-0.147621 432:-0.0974059 433:-0.203346 434:0.313641 435:0.407155 436:-0.140588 437:-0.0154477 438:-0.369614 439:-0.187466 440:-0.179728 441:-0.38644 442:0.594507 443:-0.213469 444:0.389038 445:0.285935 446:-0.85272 447:0.540037 448:-0.0212194 449:-0.0338101 450:-0.211692 451:0.0430346 452:-0.112853 453:-0.318297 454:0.00757576 455:-0.141677 456:0.0340136 457:0.297414 458:0.19717 459:-0.257744 460:-0.237428 461:-0.19698 462:0.0492481 463:0.270948 464:-0.435024 465:0.0143589 466:-0.10142 467:0.176684 468:0.0868198 469:-0.0962617 470:0.270601 471:-0.227935 472:-0.124884 473:-0.405056 474:-0.282058 475:0.322616 476:-0.0393915 477:-0.198516 478:0.294865 479:-0.0511106 480:0.310794 481:0.405539 482:-0.220854 483:0.0323063 484:-0.103024 485:-0.525137 486:0.196359 487:0.381407 488:0.109543 489:-0.0877144 490:0.304064 491:0.289163 492:-0.118023 493:0.194809 494:-0.09474 495:0.0724796 496:0.0671389 497:-0.0112298 498:0.00368664 499:-0.708728 500:-0.622325 501:-0.15588 502:-0.46688 503:-0.368046 504:0.396273 505:-0.021776 506:0.0865477 507:0.180244 508:-0.0848014 509:0.41269 510:0.277664 511:-0.618792 512:-0.0915278 513:-0.245536 514:-0.00594822 515:0.10014 516:0.515678 517:0.364732 518:-0.144797 519:-0.362562 520:-0.421803 521:-0.0152085 522:0.131619 523:0.0321138 524:-0.0959302 525:-0.0383797 526:0.223904 527:0.136464 528:-0.0108559 529:0.0504882 530:0.163806 531:-0.206707 532:0.104191 533:0.0262678 534:-0.0684776 535:0.0895869 536:0.295909 537:0.035473 538:-0.00578902 539:0.31974 540:-0.0617351 541:-0.232968 542:-0.126603 543:0.0641062 544:-0.169716 545:-0.162923 546:-0.125516 547:-0.0625909 548:-0.0915701 549:0.098043 550:0.154397 551:-0.30978 552:-0.387291 553:0.0988607 554:0.133898 555:0.293044 556:-0.0677694 557:-0.132383 558:-0.132777 559:0.0503224 560:-0.113072 561:-0.0665462 562:-0.0812942 563:-0.0263158 564:-0.221465 565:-0.254053 566:-0.0610048 567:-0.0757906 568:0.172138 569:0.122105 570:-0.11815 571:0.0588488 572:-0.148976 573:-0.109019 574:-0.0889577 575:0.163341 576:-0.169655 577:-0.151629 578:-0.3416 579:0.450609 580:0.150113 581:0.730238 582:-0.153973 583:-0.268753 584:0.319958 585:-0.225137 586:-0.00540694 587:0.110774 588:0.158074 589:-0.208305 590:0.0729584 591:-0.117979 592:0.288931 593:0.0230661 594:0.0762144 595:0.0604006 596:0.0223301 597:0.181965 598:-0.0650436 599:0.18724 600:-0.306419 601:0.211522 602:0.496479 603:-0.173095 604:0.146667 605:-0.62621 606:-0.393489 607:-0.0570811 608:-0.637089 609:-0.376617 610:-0.126363 611:-0.102223 612:0.012723 613:-0.155854 614:0.210067 615:0.0264781 616:-0.0813659 617:-0.263944 618:-0.281548 619:-0.323827 620:-0.306312 621:-0.546243 622:-0.33835 623:-0.00887265 624:0.120399 625:-0.0855757 626:-0.0602495 627:0.393801 628:-0.29659 629:-0.212271 630:-0.244695 631:0.264217 632:0.54 633:-0.0325501 634:0.00549196 635:0.0739845 636:-0.0154251 637:0.0631729 638:-0.253521 639:0.508247 640:0.427102 641:-0.269355 642:0.15831 643:-0.247863 644:0.017775 645:-0.061828 646:0.177504 647:-0.189259 648:-0.26792 649:0.080735 650:-0.0960049 
285.25273458509287 2:0.0732436 3:-0.083871 4:-0.0588235 5:0.0657135 6:0.155032 7:-0.163418 8:-0.0302804 9:0.105376 10:-0.09699 11:0.177542 12:-0.270903 13:-0.128376 14:-0.00538417 15:0.0689921 16:0.0108746 17:-0.277092 18:-0.0379478 19:-0.670765 20:0.336905 21:-0.473313 22:0.220612 23:0.199678 24:-0.27099 25:0.502777 26:0.216588 27:0.00846556 28:0.0509285 29:-0.147323 30:-0.324662 31:0.0440522 32:-0.15978 33:0.0631488 34:-0.5 35:0.212558 36:-0.302665 37:0.258729 38:0.333534 39:0.244589 40:0.111005 41:-0.320016 42:0.183178 43:-0.0190355 44:-0.187084 45:0.170285 46:0.112167 47:0.0346513 48:0.12095 49:-0.297254 50:0.173353 51:0.104135 52:0.217618 53:-0.142775 54:-0.0172261 55:0.190448 56:-0.0862342 57:-0.0386585 58:-0.111186 59:0.513765 60:0.317365 61:-0.23948 62:-0.142063 63:-0.297297 64:0.113352 65:-0.188586 66:0.196804 67:-0.363636 68:-0.282183 69:0.345969 70:0.080417 71:0.423408 72:-0.0729595 73:-0.522697 74:-0.110783 75:-0.286126 76:-0.0927628 77:0.272531 78:0.119778 79:0.152921 80:-0.112437 81:0.121873 82:0.079171 83:-0.455194 84:0.0176793 85:-0.340412 86:-0.368557 87:-0.309355 88:-0.645868 89:-0.069403 90:0.26778 91:-0.053323 92:0.0529579 93:-0.243927 94:0.0454913 95:0.246186 96:0.0498785 97:-0.436933 98:-0.248673 99:0.232586 100:0.0105651 101:-0.559478 102:-0.0599287 103:0.44136 104:0.0900163 105:0.235027 106:-0.115736 107:0.130194 108:0.187034 109:0.0440971 110:0.0584924 111:-0.393162 112:-0.314431 113:0.111341 114:-0.197425 115:-0.299887 116:0.019866 117:-0.298668 118:-0.0953411 119:-0.154247 120:0.562546 121:0.220343 122:0.839909 123:0.254985 124:-0.0138889 125:-0.437956 126:-0.572765 127:0.364795 128:-0.0688002 129:-0.0736663 130:0.839878 131:0.11313 132:0.114136 133:-0.00933748 134:-0.135867 135:-0.308842 136:-0.462774 137:-0.298232 138:-0.0206016 139:0.211652 140:0.079633 141:-0.40098 142:0.2924 143:0.237082 144:0.00926446 145:0.0553331 146:-0.107851 147:-0.0324786 148:0.0688366 149:-0.29737 150:0.238668 151:-0.182894 152:-0.487244 153:-0.186514 154:0.041361 155:0.146766 156:-0.316495 157:-0.0854522 158:-0.0173299 159:-0.074725 160:0.091928 161:0.259894 162:0.247592 163:0.0649029 164:0.000616371 165:-0.104344 166:0.110112 167:0.147897 168:0.068143 169:-0.484848 170:0.250069 171:-0.368396 172:0.124333 173:0.667625 174:-0.171079 175:-0.195435 176:-0.0684982 177:-0.316932 178:0.153669 179:-0.507485 180:-0.530322 181:0.461874 182:0.221012 183:0.155159 184:-0.302429 185:0.139623 186:0.282469 187:0.0286446 188:-0.0896483 189:-0.0383912 190:-0.210762 191:-0.0298549 192:-0.178042 193:0.00064914 194:-0.159988 195:-0.229879 196:-0.0619005 197:0.169347 198:0.10585 199:-0.357569 200:0.305532 201:0.122509 202:-0.0672691 203:0.279376 204:0.2494 205:-0.0318357 206:0.126727 207:-0.129323 208:-0.0410448 209:0.0154329 210:-0.0755646 211:-0.104359 212:-0.0136128 213:-0.397097 214:-0.143789 215:0.390562 216:0.286755 217:-0.109268 218:0.373294 219:0.374928 220:0.258999 221:0.221551 222:-0.00979001 223:-0.0471356 224:-0.162496 225:0.0816116 226:-0.0197888 227:-0.281058 228:0.123188 229:-0.00862069 230:0.0486316 231:-0.046175 232:-0.139468 233:0.302876 234:0.185021 235:-0.0119268 236:0.464417 237:-0.137902 238:-0.653604 239:0.037907 240:0.249097 241:-0.363301 242:-0.510297 243:0.101388 244:0.189132 245:-0.169486 246:0.179097 247:-0.245662 248:-0.260111 249:0.714841 250:0.0863095 251:-0.720812 252:0.222356 253:-0.0388861 254:-0.260713 255:-0.216601 256:0.0247358 257:0.206728 258:-0.161176 259:0.0720516 260:0.156222 261:0.0850515 262:-0.0859168 263:-0.149844 264:0.111492 265:-0.741573 266:-0.202465 267:-0.547297 268:-0.0392534 269:0.344865 270:-0.249865 271:0.17948 272:0.287817 273:0.316245 274:-0.18848 275:0.592874 276:0.036128 277:-0.697467 278:0.359854 279:0.0166546 280:0.00555203 281:0.391381 282:0.146454 283:0.239204 284:0.135958 285:0.14926 286:-0.165436 287:0.273026 288:-0.695115 289:-0.156746 290:0.327428 291:0.0745556 292:0.0871866 293:0.109918 294:0.522124 295:0.247049 296:0.198563 297:-0.0702576 298:0.283168 299:0.144421 300:0.239425 301:-0.0746351 302:-0.153651 303:0.140903 304:-0.0326473 305:-0.127873 306:-0.454779 307:-0.599043 308:-0.0269695 309:0.189886 310:0.0617546 311:0.0807225 312:-0.0733131 313:-0.0764774 314:0.03703 315:0.3701 316:0.0613853 317:-0.274966 318:0.194248 319:0.420586 320:0.217926 321:0.185544 322:-0.442283 323:-0.0361991 324:-0.103406 325:-0.33992 326:-0.165244 327:-0.264699 328:0.370065 329:0.115893 330:0.452551 331:0.196509 332:0.0909988 333:0.143115 334:-0.662736 335:0.15653 336:0.306209 337:-0.254075 338:0.351667 339:-0.313562 340:0.475193 341:0.255962 342:-0.315761 343:0.493333 344:-0.229712 345:-0.278118 346:0.0277372 347:-0.378706 348:-0.160518 349:-0.199354 350:0.182496 351:-0.464297 352:0.0386322 353:-0.00614388 354:-0.335314 355:-0.304321 356:-0.394552 357:-0.185769 358:-0.149068 359:0.413542 360:-0.0609349 361:0.0844676 362:-0.0121765 363:0.361916 364:-0.353175 365:0.0778722 366:-0.110182 367:-0.213218 368:0.21183 369:0.157195 370:0.204954 371:-0.0658693 372:0.127119 373:0.224292 374:-0.0603302 375:-0.0730545 376:-0.0315224 377:-0.189899 378:0.155183 379:0.012485 380:0.231362 381:-0.420467 382:-0.295374 383:0.093166 384:-0.171572 385:-0.0251619 386:-0.614458 387:-0.127602 388:0.486461 389:0.277564 390:0.0958363 391:0.137231 392:-0.287005 393:-0.618566 394:0.388977 395:0.24262 396:-0.286908 397:-0.672558 398:0.109339 399:0.188063 400:-0.266375 401:-0.00235557 402:-0.0641874 403:-0.0475649 404:-0.0331776 405:-0.0475196 406:-0.0536791 407:-0.216841 408:-0.194622 409:0.058388 410:0.0941097 411:-0.143265 412:-0.296338 413:-0.112467 414:0.202868 415:-0.0749203 416:0.303571 417:-0.160956 418:0.025438 419:0.162162 420:-0.0510248 421:0.143879 422:-0.258239 423:0.433889 424:0.675317 425:0.0573607 426:0.304582 427:-0.0821158 428:0.0218579 429:0.161793 430:-0.0636174 431:0.0655032 432:0.326043 433:0.131227 434:-0.334686 435:-0.103066 436:0.422955 437:0.519189 438:-0.0287245 439:-0.179129 440:0.0893283 441:-0.212071 442:-0.403271 443:-0.0429638 444:0.253691 445:-0.0198312 446:0.0242149 447:-0.210816 448:0.17083 449:-0.170839 450:-0.0228078 451:0.0608434 452:0.162218 453:-0.120854 454:-0.0454545 455:0.220775 456:0.139598 457:-0.0117996 458:0.0134434 459:0.273828 460:-0.223974 461:0.451613 462:-0.235902 463:-0.00906593 464:0.325604 465:-0.209261 466:-0.0197044 467:-0.236937 468:0.173054 469:0.0982477 470:0.241845 471:-0.351114 472:-0.0579445 473:0.166487 474:0.176128 475:-0.611984 476:-0.347188 477:-0.202338 478:-0.0231916 479:0.0180464 480:0.0415633 481:-0.199472 482:-0.0491979 483:0.276999 484:0.0179395 485:-0.0344846 486:-0.182879 487:0.00814509 488:-0.526922 489:0.255672 490:-0.30858 491:-0.458731 492:0.195779 493:-0.293693 494:-0.0893604 495:-0.0730276 496:0.133902 497:-0.32539 498:-0.121544 499:0.505237 500:-0.0368464 501:-0.197316 502:0.00393992 503:-0.0762482 504:-0.20823 505:-0.158937 506:0.289289 507:0.194331 508:0.123022 509:-0.241878 510:-0.383328 511:0.00423251 512:-0.172778 513:-0.214083 514:-0.420574 515:0.259125 516:-0.0713941 517:0.105831 518:0.382827 519:0.33061 520:0.183163 521:0.00219505 522:-0.222995 523:0.108943 524:-0.0896318 525:0.388179 526:0.0140351 527:-0.18824 528:0.379123 529:-0.0237025 530:0.315174 531:0.405793 532:0.176804 533:0.166727 534:-0.110215 535:0.124908 536:0.142959 537:-0.118364 538:0.321612 539:0.0197648 540:-0.0305976 541:-0.0331986 542:0.0740614 543:0.170008 544:0.27329 545:0.405297 546:-0.236761 547:0.0113405 548:-0.0908312 549:-0.0522832 550:-0.0777686 551:-0.0356527 552:-0.00649351 553:-0.407571 554:-0.80339 555:-0.263444 556:-0.163336 557:-0.21094 558:0.398679 559:-0.338099 560:-0.245438 561:-0.0195809 562:0.169386 563:-0.14927 564:-0.0226221 565:-0.250069 566:0.897927 567:0.729553 568:0.354473 569:0.537764 570:-0.166576 571:0.233677 572:-0.256314 573:0.0348892 574:-0.0131789 575:0.138468 576:0.184909 577:0.115759 578:0.32803 579:-0.319882 580:-0.42558 581:0.168601 582:-0.239483 583:0.0261738 584:-0.609996 585:-0.125069 586:0.183978 587:-0.141925 588:-0.256323 589:0.377329 590:0.102762 591:0.232432 592:-0.515699 593:-0.254331 594:0.146078 595:-0.367026 596:0.0535194 597:-0.340176 598:-0.514535 599:-0.125679 600:-0.0351503 601:0.0269418 603:0.184015 604:-0.14902 605:0.172748 606:0.778006 607:0.628938 608:0.174912 609:-0.0709335 610:-0.01823 611:-0.135562 612:-0.0282246 613:-0.148049 614:-0.0742587 615:-0.0469713 616:0.17812 617:-0.0205179 618:-0.0733676 619:0.266488 620:0.141014 621:-0.0822094 622:0.180851 623:0.0137439 624:-0.273926 625:-0.00176001 626:0.0688657 627:0.00269542 628:-0.0681924 629:-0.0273898 630:0.0179731 631:0.230561 632:0.0760227 633:-0.134943 634:0.279084 635:0.107028 636:-0.216704 637:-0.241134 638:0.160798 639:-0.382378 640:-0.181791 641:0.267915 642:0.118012 643:-0.0851754 644:0.206817 645:0.56696 646:0.457525 647:0.18065 648:-0.250583 649:-0.0637528 650:-0.38094 
35.348217334774901 2:0.0732436 3:-0.083871 4:-0.0588235 5:0.0657135 6:0.155032 7:-0.163418 8:-0.0302804 9:0.105376 10:-0.09699 11:0.177542 12:-0.270903 13:-0.128376 14:-0.0150247 15:0.20892 16:-0.0481259 17:0.104527 18:0.17289 19:-0.0269126 20:0.0941939 21:-0.061094 22:0.278533 23:-0.295845 24:0.278373 25:0.240608 26:0.143318 27:0.0571465 28:-0.0135763 29:0.172899 30:0.0770031 31:-0.0307888 32:-0.240671 33:0.113322 34:-0.107759 35:0.119538 36:-0.2669 37:0.16972 38:-0.13747 39:-0.153139 40:0.196183 41:-0.584071 42:0.0739992 43:0.528842 44:-0.290913 45:0.102442 46:0.107965 47:-0.176144 48:-0.234579 49:0.0385299 50:-0.233533 51:-0.184263 52:-0.0128874 53:-0.102457 54:-0.130153 55:0.329851 56:0.0732369 57:0.214634 58:0.367468 59:0.339635 60:0.0953478 61:-0.157555 62:0.107937 63:-0.199818 64:-0.255266 65:0.175248 66:-0.0265621 67:0.106959 68:0.105433 69:-0.0776152 70:0.510052 71:0.13376 72:0.334055 73:0.176289 74:0.110005 75:0.00212508 76:0.183515 77:0.160957 78:0.182109 79:-0.0281943 80:-0.0892611 81:0.151251 82:-0.211509 83:-0.587888 84:0.378237 85:0.109395 86:0.178608 87:-0.431923 88:0.257336 89:0.372388 90:0.0187158 91:0.5483 92:-0.084628 93:-0.0625 94:0.174563 95:0.00494845 96:-0.264693 97:-0.218825 98:0.277256 99:0.395778 100:0.206315 101:0.0648176 102:0.0171421 103:0.0343107 104:-0.42614 105:-0.0233849 106:-0.113513 107:-0.0951062 108:-0.183616 109:0.109193 110:0.139868 111:0.218848 112:-0.0723938 113:0.219767 114:0.0889076 115:0.079932 116:0.0385352 117:0.122779 118:0.0618136 119:-0.095753 120:-0.0738172 121:-0.109261 122:0.335334 123:0.523679 124:-0.197712 125:0.278642 126:-0.427235 127:0.0375644 128:0.223098 129:-0.363213 130:0.244901 131:-0.0237397 132:0.128141 133:0.0984882 134:-0.300182 135:0.0829474 136:-0.139903 137:-0.314216 138:0.154196 139:0.158402 140:-0.0607033 141:0.122486 142:-0.143 143:0.153116 144:-0.0930657 145:0.542247 146:-0.0698347 147:-0.349786 148:-0.0498131 149:0.204092 150:-0.494585 151:-0.186881 152:-0.453651 153:-0.256494 154:-0.00126486 155:-0.213599 156:0.0628313 157:0.0629876 158:0.00479747 159:0.327594 160:0.131957 161:0.0781383 162:0.485308 163:-0.421584 164:-0.14682 165:0.0403568 166:-0.283848 167:0.178427 168:-0.107216 169:-0.0538165 170:0.00776268 171:-0.2 172:0.0928992 173:0.0456178 174:0.213518 175:0.415287 176:0.097619 177:0.364448 178:0.05002 179:-0.0857776 180:0.328899 181:0.00235136 182:0.414008 183:0.00858643 184:-0.0627043 185:0.236268 186:-0.162963 187:0.219283 188:0.466568 189:0.0407678 190:0.250857 191:-0.230748 192:-0.276067 193:0.115709 194:0.335155 195:-0.211895 196:-0.130246 197:0.0516749 198:0.404626 199:-0.147 200:0.150237 201:0.558572 202:-0.0401606 203:0.409353 204:0.146823 205:-0.165932 206:0.48048 207:-0.0801064 208:-0.319878 209:0.149059 210:0.0911821 211:-0.275936 212:-0.0206098 213:-0.504209 214:-0.443519 215:-0.4448 216:-0.318903 217:-0.381135 218:0.297202 219:-0.0586544 220:0.0710079 221:0.0504677 222:-0.045403 223:-0.188273 224:-0.0695483 225:-0.246097 226:0.0724588 227:-0.0672441 228:-0.0306418 229:0.298943 230:0.208487 231:0.0490279 232:0.440983 233:-0.0283104 234:0.379226 235:0.0387623 236:0.258494 237:0.0991657 238:-0.194454 239:0.0442442 240:0.20554 241:-0.358511 242:-0.000786613 243:-0.371531 244:-0.248723 245:0.031311 246:-0.428571 247:-0.164968 248:0.0981013 249:0.277598 250:-0.465476 251:-0.296493 252:-0.391719 253:-0.308078 254:-0.338704 255:-0.10474 256:-0.0300192 257:0.152441 258:0.0140086 259:-0.277967 260:0.323036 261:-0.155852 262:-0.164263 263:-0.0592184 264:0.154871 265:0.0337079 266:0.122359 267:0.0622019 268:0.593192 269:0.0308615 270:0.137351 271:0.123803 272:0.00906913 273:0.014231 274:-0.01808 275:0.163872 276:0.388858 277:-0.0809099 278:-0.0989051 279:0.125996 280:0.141022 281:0.631346 282:0.315492 283:-0.140582 284:-0.107231 285:-0.293075 286:0.132951 287:0.000313283 288:0.319377 289:0.201984 290:-0.388633 291:0.0585556 292:-0.0200557 293:-0.037415 294:0.23648 295:0.151108 296:0.0207799 297:0.174975 298:0.383945 299:0.128531 300:0.200413 301:0.115049 302:-0.123401 303:-0.255783 304:-0.389638 305:-0.292543 306:-0.05015 307:0.0168838 308:-0.332693 309:-0.00571359 310:0.15823 311:-0.0873561 312:-0.0392157 313:-0.0603998 314:-0.0586783 315:-0.188696 316:-0.122563 317:-0.118103 318:0.0117869 319:0.0711257 320:0.132103 321:0.0411243 322:-0.246401 323:0.424736 324:-0.0705882 325:0.112669 326:-0.0330793 327:0.0131739 328:-0.188867 329:0.0411163 330:-0.0569654 331:0.1692 332:-0.0349388 333:-0.285026 334:-0.228037 335:-0.0581584 336:-0.192515 337:-0.167369 338:-0.0440833 339:0.128968 340:-0.0922849 341:0.0765872 342:-0.102609 343:-0.272917 344:-0.273079 345:-0.634102 346:0.107056 347:0.0303634 348:-0.0149534 349:-0.213895 350:-0.0796521 351:0.189207 352:-0.0630355 353:-0.195822 354:-0.205818 355:-0.0528574 356:0.188712 357:0.906573 358:-0.213596 359:-0.133203 360:0.0105384 361:-0.0552442 362:-0.151127 363:-0.350889 364:-0.271259 365:-0.106937 366:-0.263931 367:0.358441 368:0.0587054 369:0.164056 370:0.616688 371:0.106132 372:0.395077 373:-0.171301 374:-0.183319 375:0.0428798 376:-0.371586 377:-0.0505856 378:0.209289 379:-0.0350579 380:-0.312242 381:-0.293346 382:0.16726 383:0.588895 384:-0.617373 385:-0.204415 386:-0.353373 387:0.00774887 388:0.0292951 389:-0.0226662 390:0.268485 391:-0.108774 392:-0.128657 393:0.16989 394:0.154837 395:0.398753 396:0.565966 397:-0.0685592 398:0.67095 399:0.0238833 400:-0.2505 401:0.293826 402:-0.144521 403:-0.0738636 404:0.138006 405:-0.293713 406:-0.450844 407:0.343269 408:-0.0542388 409:0.285805 410:-0.183988 411:-0.159501 412:-0.00161933 413:0.0977394 414:0.0140455 415:-0.216082 416:0.0454852 417:0.0192197 418:0.104897 419:0.0356862 420:0.299103 421:-0.334923 422:-0.168668 423:-0.346064 424:-0.273386 425:-0.00146838 426:0.0097035 427:-0.0619589 428:-0.0977178 429:0.0114476 430:-0.136945 431:0.0409993 432:0.263479 433:-0.239901 434:-0.338489 435:0.109881 436:0.27363 437:1 438:-0.305011 439:0.120226 440:0.0767032 441:-0.0858924 442:0.0678009 443:-0.0503494 444:0.164653 445:-0.0548523 446:-0.123176 447:-0.0169336 448:-0.243352 449:0.0778609 450:0.227192 451:-0.336446 452:0.0542887 453:-0.192243 454:-0.0695774 455:-0.0346252 456:0.287132 457:-0.40431 458:-0.0278302 459:0.408459 460:-0.185377 461:0.118966 462:0.159586 463:0.0858516 464:-0.200302 465:-0.127894 466:-0.0301362 467:-0.083585 468:0.00497367 469:0.0714953 470:0.104292 471:-0.163596 472:-0.177809 473:-0.0433029 474:-0.102636 475:-0.242419 476:0.0192882 477:-0.0967289 478:0.10878 479:0.152448 480:-0.180831 481:0.142433 482:0.123174 483:0.183945 484:-0.181702 485:-0.00866075 486:-0.395775 487:-0.453519 488:-0.556443 489:-0.261345 490:0.0896889 491:-0.060991 492:-0.0154124 493:0.173456 494:0.01315 495:0.0876644 496:-0.683049 497:-0.155505 498:0.591244 499:-0.223067 500:0.754538 501:-0.136148 502:-0.374046 503:0.101391 504:0.408696 505:-0.31759 506:0.0914887 507:0.0141718 508:-0.00656913 509:-0.0371827 510:-0.277077 511:-0.171558 512:0.100972 513:-0.00263799 514:-0.070154 515:0.243917 516:0.0947902 517:0.103238 518:-0.0133517 519:-0.0872483 520:-0.16018 521:0.119395 522:-0.106732 523:0.293496 524:-0.0308261 525:-0.53118 526:0.333772 527:-0.0861686 528:0.246347 529:-0.559609 530:0.0624378 531:0.517683 532:0.372817 533:-0.00269062 534:-0.0177561 535:0.00293327 536:-0.0174833 537:0.35292 538:-0.117925 539:0.257818 540:0.0289777 541:0.0421839 542:-0.197344 543:-0.352725 544:0.153392 545:-0.0910158 546:-0.405089 547:-0.139866 548:-0.214472 549:0.113584 550:0.269805 551:0.382594 552:0.498145 553:-0.0896729 554:0.00217918 555:-0.214356 556:-0.158741 557:0.0983416 558:-0.0337157 559:-0.264087 560:-0.091385 561:-0.258092 562:-0.123165 563:-0.0782839 564:-0.0658098 565:0.323715 566:0.16866 567:0.221919 568:0.353825 569:0.324585 570:-0.0427292 571:-0.0027205 572:-0.0705631 573:0.0426424 574:0.109625 575:0.047619 576:-0.202608 577:-0.129013 578:-0.235377 579:0.0903741 580:0.174024 581:-0.000690989 582:-0.0136101 583:0.121155 584:-0.126012 585:-0.0162088 586:0.16854 587:-0.100765 588:-0.351775 589:-0.086532 590:0.204156 591:0.4047 592:-0.370758 593:-0.364222 594:-0.383026 595:0.188598 596:0.160558 597:0.243988 598:0.138081 599:0.0654743 600:0.187468 601:0.107767 602:-0.130986 603:-0.0608446 604:-0.222353 605:-0.308824 606:-0.10869 607:-0.266239 608:-0.258219 609:-0.136091 610:0.0542225 611:0.148032 612:0.144121 613:-0.623415 614:0.125841 615:0.262604 616:0.193718 617:0.183068 618:0.0128393 619:0.604872 620:-0.0745542 621:-0.377007 622:-0.158666 623:-0.0676757 624:0.201074 625:0.130163 626:0.00160751 627:0.0832884 628:-0.0109762 629:0.0282114 630:-0.0205717 631:-0.0558994 632:0.0606818 633:-0.131386 634:-0.170328 635:-0.0167634 636:-0.149987 637:-0.0916719 638:0.0494425 639:0.168403 640:-0.115547 641:0.0590565 642:-0.0226874 643:-0.0439139 644:-0.200962 645:-0.025782 646:0.142821 647:-0.199781 648:-0.189394 649:0.225084 650:-0.308166 
368.04283335473121 2:0.0732436 3:-0.083871 4:-0.0588235 5:0.0657135 6:0.155032 7:-0.163418 8:-0.0302804 9:0.105376 10:-0.09699 11:0.177542 12:-0.270903 13:-0.128376 14:0.0826179 15:-0.303404 16:0.212402 17:0.00384088 18:0.284001 19:-0.39877 20:-0.177922 21:-0.29775 22:0.138717 23:-0.0450394 24:-0.126954 25:0.141784 26:-0.132123 27:-0.0813983 28:0.243388 29:0.263835 30:-0.353798 31:0.268193 32:-0.0866516 33:0.252811 34:-0.209686 35:0.25371 36:0.0899018 37:0.109044 38:0.186448 39:0.0984848 40:-0.124809 41:0.00793857 42:0.0705621 43:-0.481541 44:0.392959 45:0.735414 46:0.330471 47:0.11717 48:-0.0507788 49:0.115509 50:0.405689 51:-0.290096 52:0.764437 53:0.0976879 54:0.0288575 55:-0.536418 56:-0.0271248 57:-0.0654268 58:-0.149959 59:-0.109784 60:-0.0848687 61:-0.0126713 62:-0.0559524 63:0.48679 64:0.950732 65:0.182615 66:0.175857 67:-0.167116 68:-0.38517 69:0.208853 70:0.160555 71:-0.0686009 72:-0.432561 73:-0.50022 74:-0.376415 75:-0.344566 76:-0.323665 77:0.0936728 78:0.264656 79:0.0808341 80:0.139169 81:-0.17772 82:0.0884398 83:-0.0115707 84:-0.248755 85:-0.436937 86:-0.160567 87:0.111647 88:-0.690388 89:-0.232836 90:-0.0613303 91:-0.156347 92:0.00687183 93:-0.0851468 94:-0.0366083 95:-0.00206186 96:0.447636 97:0.802676 98:-0.686811 99:-0.624802 100:-0.504274 101:-0.409374 102:-0.480252 103:0.0522458 104:0.432476 105:0.252524 106:0.0172925 107:0.206371 108:0.15524 109:-0.460569 110:0.108664 111:-0.446244 112:-0.155647 113:-0.223757 114:-0.0209336 115:-0.140731 116:-0.103399 117:-0.00323834 118:0.0932612 119:-0.0746166 120:0.19346 121:0.353319 122:0.011721 123:0.16837 124:-0.226307 125:-0.475722 126:-0.0680223 127:-0.376458 128:-0.556586 129:-0.049938 130:-0.0615757 131:-0.123901 132:0.414921 133:0.0849266 134:-0.24579 135:0.0833684 136:0.0822384 137:-0.149868 138:-0.0202856 139:-0.288027 140:-0.0627567 141:-0.37197 142:0.0848 143:0.216312 144:0.301797 145:-0.604457 146:-0.0760331 147:0.313675 148:-0.453046 149:-0.126766 150:0.0319896 151:-0.0245228 152:-0.388608 153:-0.237941 154:0.154819 155:0.0436153 156:-0.0228407 157:-0.301647 158:0.57487 159:-0.0143472 160:-0.140018 161:0.397021 162:-0.195809 163:-0.180434 164:0.255054 165:0.0314359 166:-0.248034 167:0.00115207 168:0.0627565 169:-0.234491 170:-0.0155254 171:0.682075 172:-0.0797081 173:-0.259579 174:0.381866 175:-0.369851 176:-0.199267 177:-0.222865 178:-0.176223 179:-0.013238 180:-0.0112933 181:-0.285858 182:-0.227432 183:-0.0190179 184:0.691733 185:0.180878 186:-0.533333 187:0.236958 188:-0.579 189:-0.367824 190:-0.223688 191:-0.0490374 192:0.0669474 193:-0.277183 194:-0.247116 195:0.133013 196:0.069994 197:0.239437 198:-0.42068 199:-0.113429 200:-0.10579 201:-0.486753 202:-0.390964 203:-0.204556 204:-0.0322542 205:-0.140711 206:-0.310511 207:-0.147354 208:0.0106852 209:-0.00608532 210:0.141278 211:-0.092081 212:-0.260244 213:0.29521 214:-0.10396 215:-0.189195 216:0.180347 217:-0.0562791 218:0.168449 219:0.0933007 220:-0.0463024 221:0.0120811 222:-0.0439841 223:-0.153577 224:-0.200195 225:0.359045 226:0.140568 227:-0.117164 228:0.0670807 229:-0.263904 230:-0.176999 231:-0.443223 232:-0.0452272 233:-0.125524 234:-0.226593 235:0.0456865 236:0.102043 237:0.0257449 238:0.239853 239:-0.152326 240:-0.172019 241:0.153371 242:0.0298913 243:-0.142905 244:-0.243615 245:-0.210556 246:0.0586922 247:0.123589 248:-0.131445 249:0.381076 250:0.23869 251:-0.524689 252:-0.0737566 253:-0.288008 254:-0.0510799 255:0.17387 256:-0.349904 257:-0.112005 258:0.23399 259:0.15529 260:-0.0962783 261:-0.0808824 262:-0.215934 263:0.0927835 264:0.0602169 265:-0.451779 266:-0.139713 267:0.219595 268:-0.379907 269:0.49973 270:0.2366 271:0.368536 272:0.306982 273:-0.118925 274:0.21504 275:0.000654965 276:-0.212631 277:-0.0989681 278:0.106569 279:0.126478 280:-0.27078 281:-0.589138 282:-0.253388 283:0.0802833 284:0.338039 285:-0.0212231 286:-0.193322 287:0.246084 288:-0.294686 289:-0.0402778 290:0.109986 291:0.102889 292:0.0334262 293:-0.471357 294:-0.155851 295:0.0680559 296:-0.0620831 297:-0.14085 298:-0.0938086 299:-0.0997528 300:0.0573897 301:-0.0327842 302:-0.107543 303:-0.0117883 304:0.248758 305:0.0935208 306:0.194171 307:-0.174023 308:0.290969 309:-0.169949 310:-0.51418 311:0.103341 312:0.162197 313:-0.231025 314:0.526776 315:-0.144257 316:-0.479054 317:0.487004 318:0.239981 319:-0.388204 320:0.0790861 321:0.186652 322:-0.0296792 323:0.0184012 324:-0.174613 325:0.000727635 326:-0.109832 327:-0.196084 328:0.424879 329:-0.0853217 330:-0.207111 331:-0.23339 332:0.595736 333:0.94415 334:-0.406103 335:0.0352732 336:0.340516 337:-0.0564924 338:0.406667 339:-0.0591536 340:-0.00876195 341:0.197514 342:-0.409348 343:0.242604 344:-0.230356 345:-0.0337058 346:0.417762 347:-0.18234 348:-0.123358 349:0.472284 350:0.333103 351:-0.0660579 352:0.202417 353:0.0497096 354:-0.222083 355:-0.0147415 356:-0.17499 357:-0.883759 358:-0.248102 359:-0.0983073 360:-0.12413 361:-0.298639 362:-0.0985249 363:-0.190915 364:0.154337 365:0.157253 366:0.217325 367:-0.42966 368:-0.13058 369:0.166865 370:-0.222686 371:-0.120451 372:-0.196731 373:-0.0585651 374:0.0731372 375:0.0460561 376:0.191168 377:-0.0814899 378:0.023643 379:-0.0712145 380:0.289684 381:0.300636 382:0.0697286 383:0.0957021 384:0.00933238 385:0.0738964 386:-0.259518 387:-0.0778281 388:-0.0762138 389:-0.11554 390:-0.292714 391:0.135356 392:0.0224828 393:-0.299316 394:0.242863 395:-0.484823 396:-0.722461 397:-0.494197 398:-0.270766 399:-0.0357232 400:0.08925 401:-0.0728986 402:0.105148 403:-0.239177 404:-0.0639408 405:-0.0244198 406:0.0156815 407:-0.353949 408:0.0434423 409:-0.0196742 410:-0.0824306 411:0.868912 412:-0.0470852 413:0.0699468 414:0.424728 415:-0.114772 416:0.483154 417:-0.16182 418:0.037062 419:0.353975 420:-0.0605252 421:-0.226418 422:-0.359228 423:0.436991 424:0.814122 425:-0.0453637 426:0.0369272 427:0.166531 428:0.190935 429:-0.0151028 430:-0.0137562 431:-0.114033 432:-0.0802391 433:-0.0473358 434:0.211841 435:0.0272572 436:-0.0369341 437:-0.251991 438:-0.189603 439:-0.14255 440:0.0384707 441:0.0740347 442:0.343901 443:0.156925 444:-0.0222735 445:0.283263 446:-0.473463 447:0.272381 448:0.14021 449:-0.262354 450:-0.141608 451:0.168373 452:-0.243586 453:0.00632378 454:-0.213218 455:0.127224 456:0.0992063 457:0.0661638 458:-0.122642 459:0.107625 460:-0.263895 461:0.175475 462:-0.00451128 463:0.0938187 464:-0.097494 465:-0.300646 466:0.128658 467:0.193069 468:0.0996928 469:-0.216511 470:0.718455 471:-0.328568 472:-0.427112 473:0.53362 474:0.00734921 475:-0.225429 476:0.140994 477:-0.198516 478:0.288653 479:0.0839223 480:-0.00558313 481:-0.475107 482:-0.130049 483:0.177865 484:0.0745771 485:-0.127482 486:-0.137437 487:-0.0421373 488:-0.0967323 489:0.2399 490:0.143502 491:0.116508 492:0.0258262 493:0.107753 494:-0.0288404 495:0.0465717 496:-0.0571715 497:-0.543687 498:-0.117512 499:0.0511222 500:-0.0502912 501:0.0931334 502:0.229008 503:0.0400499 504:-0.0963509 505:0.163744 506:-0.0892573 507:0.171334 508:0.0101523 509:0.0309645 510:0.0463751 511:0.161682 512:-0.0968056 513:-0.1528 514:-0.16795 515:0.14752 516:-0.0505306 517:0.0808803 518:0.282228 519:-0.0498979 520:-0.320535 521:0.18799 522:-0.0513616 523:-0.155894 524:0.119549 525:0.103181 526:0.3375 527:-0.48909 528:-0.719415 529:-0.163733 530:0.0583333 531:-0.28628 532:-0.100262 533:-0.500182 534:0.0789474 535:0.122831 536:0.186965 537:0.15806 538:-0.131432 539:-0.219164 540:-0.429086 541:-0.332564 542:-0.149496 543:0.0518215 544:-0.187729 545:-0.041066 546:0.197043 547:-0.0432175 548:0.047529 549:-0.190426 550:-0.0686437 551:0.0807841 552:-0.201878 553:0.124954 554:-0.340194 555:-0.202639 556:0.160177 557:0.021094 558:-0.025895 559:-0.382955 560:-0.121747 561:0.207803 562:0.642741 563:-0.0752985 564:-0.346401 565:-0.24787 566:0.501595 567:0.615049 568:0.267286 569:-0.0112034 570:0.475855 571:0.1061 572:-0.196075 573:0.102453 574:0.0569089 575:-0.122905 576:-0.186306 577:0.00802529 578:0.386055 579:-0.265658 580:-0.303056 581:-0.167081 582:-0.0104482 583:-0.0269833 584:-0.201514 585:-0.0421016 586:0.226665 587:0.111111 588:-0.00607977 589:0.0564534 590:0.1214 591:-0.309988 592:-0.312877 593:-0.377317 594:0.0772264 595:-0.120031 596:-0.093932 597:-0.432551 598:-0.457849 599:-0.091664 600:-0.446001 601:0.240183 602:0.425352 603:0.0810293 604:0.225098 605:0.284252 606:-0.207895 607:0.205325 608:-0.36738 609:0.0485213 610:0.212216 611:0.11113 612:-0.0360486 613:-0.337439 614:0.116123 615:0.110083 616:0.0492201 617:-0.266733 618:-0.0968452 619:-0.336898 620:0.0483341 621:0.412331 622:-0.0963934 623:0.162491 624:-0.44816 625:-0.14612 626:-0.247557 627:0.209434 628:-0.0140121 629:0.113804 630:0.143785 631:0.111992 632:0.377273 633:-0.103201 634:-0.0551903 635:0.283043 636:-0.0712315 637:-0.295915 638:-0.0142312 639:-0.00705295 640:0.19873 641:0.00666187 642:-0.0058912 643:0.0474506 644:-0.0823923 645:-0.0957967 646:0.197562 647:-0.0588275 648:-0.00495338 649:0.00459354 650:-0.11686 
251.38061338185901 2:0.0732436 3:-0.083871 4:-0.0588235 5:0.0657135 6:0.155032 7:-0.163418 8:-0.0302804 9:0.105376 10:-0.09699 11:0.177542 12:-0.270903 13:-0.128376 14:0.0761787 15:-0.214495 16:0.294308 17:0.0112483 18:0.377656 19:-0.125683 20:0.257413 21:-0.204896 22:0.283947 23:-0.0950036 24:-0.00419803 25:0.0677883 26:-0.125678 27:0.0274768 28:-0.101646 29:-0.0373916 30:0.187175 31:0.110941 32:-0.188455 33:0.199394 34:-0.0621197 35:0.338555 36:0.0140428 37:-0.0732685 38:0.188401 39:0.30303 40:0.11355 41:-0.279802 42:-0.110089 43:0.125058 44:0.163416 45:-0.16808 46:-0.372305 47:-0.146268 48:-0.0675234 49:-0.625202 50:-0.10509 51:-0.0339367 52:-0.0443719 53:0.100361 54:-0.0575677 55:0.124925 56:0.0235081 57:0.174146 58:-0.0897055 59:-0.432836 60:-0.178144 61:-0.27861 62:-0.380688 63:-0.150471 64:0.419493 65:-0.0121743 66:0.210193 67:0.0186229 68:0.130278 69:0.172265 70:0.0936337 71:-0.222031 72:-0.270188 73:0.0802115 74:0.107515 75:-0.268367 76:0.00588742 77:0.087963 78:0.0817891 79:-0.196345 80:-0.136416 81:0.303956 82:0.451339 83:0.323978 84:0.471614 85:0.160553 86:-0.0908505 87:0.270145 88:-0.73828 89:-0.316915 90:0.0129571 91:-0.26932 92:-0.061473 93:0.578441 94:0.500404 95:-0.22433 96:-0.271763 97:-0.358337 98:-0.459984 99:0.316887 100:-0.11669 101:-0.515871 102:-0.110258 103:-0.437929 104:-0.425778 105:0.00656124 106:-0.129755 107:0.0877193 108:-0.22763 109:0.0465469 110:0.056045 111:-0.0647773 112:0.0851834 113:0.142112 114:0.192733 115:0.146755 116:0.215175 117:0.330496 118:-0.165391 119:0.349784 120:0.0497894 121:-0.463812 122:0.453974 123:0.138023 124:-0.311275 125:-0.334021 126:0.105769 127:-0.0783835 128:-0.463822 129:0.122208 130:0.356833 131:-0.0391266 132:0.173298 133:0.108937 134:-0.247952 135:-0.01 136:-0.0268856 137:-0.0434374 138:0.0237614 139:-0.063592 140:0.0831622 141:0.0987622 142:-0.0458 143:0.586626 144:0.130124 145:0.196031 146:-0.234298 147:-0.323932 148:-0.58698 149:-0.223819 150:-0.0240674 151:-0.0215028 152:-0.628238 153:0.165121 154:0.550721 155:0.299834 156:-0.0087309 157:-0.119474 158:0.0362689 159:0.0133907 160:0.14968 161:0.0878723 162:0.197254 163:0.234869 164:0.129561 165:-0.0465166 166:0.175 167:0.0187932 168:0.596443 169:0.0617496 170:0.242861 171:0.133962 172:-0.0592198 173:-0.307471 174:-0.39047 175:-0.282803 176:-0.357509 177:0.515678 178:-0.0127807 179:-0.0397189 180:-0.138459 181:0.121935 182:0.366148 183:-0.0539313 184:0.069944 185:0.331878 186:-0.309136 187:0.0424183 188:0.31996 189:0.470567 190:0.572672 191:0.222098 192:0.315713 193:-0.307692 194:0.104281 195:-0.299145 196:0.021208 197:0.35059 198:0.213605 199:-0.509932 200:-0.266035 201:0.0774031 202:-0.150201 203:-0.446523 204:-0.333094 205:0.116318 206:-0.0393393 207:-0.571386 208:0.235244 209:0.0888331 210:0.0064272 211:-0.146409 212:0.0223171 213:-0.0497823 214:-0.211521 215:-0.305787 216:0.179811 217:-0.0897313 218:-0.268198 219:0.0332447 220:0.147579 221:-0.131333 222:0.0130533 223:-0.0509683 224:-0.00844979 225:0.143939 226:0.114469 227:-0.233189 228:-0.103313 229:-0.165044 230:0.169557 231:-0.170893 232:-0.0521578 233:0.0639605 234:0.203674 235:0.0817652 236:0.0924013 237:0.125149 238:-0.0142582 239:-0.12186 240:-0.00170614 241:0.082535 242:0.0815217 243:-0.383841 244:-0.0053916 245:-0.0731945 246:-0.111082 247:-0.05935 248:-0.0877972 249:0.151653 250:0.208036 251:-0.00934472 252:-0.247525 253:0.295283 254:0.0665067 255:-0.248281 256:-0.096842 257:-0.0147757 258:0.457512 259:-0.536215 260:-0.756399 261:-0.264554 262:0.465032 263:0.128506 264:-0.0656393 265:0.0039794 266:0.0832495 267:-0.0892289 268:-0.211639 269:-0.346757 270:0.394965 271:-0.174008 272:-0.552019 273:-0.231858 274:0.03896 275:0.192298 276:0.164368 277:-0.0918738 278:-0.189051 279:0.0944364 280:0.248414 281:0.120646 282:-0.0212285 283:0.042879 284:-0.237741 285:-0.291818 286:-0.412722 287:0.0588189 288:0.141707 289:0.175595 290:-0.0288771 291:-0.187111 292:0.00727716 293:-0.00214823 294:0.082473 295:-0.0201156 296:0.0982555 297:-0.423888 298:-0.161083 299:0.19721 300:0.120712 301:0.112837 302:0.152719 303:-0.1627 304:0.0166785 305:0.12335 306:0.251393 307:-0.162457 308:-0.250755 309:0.20265 310:0.042009 311:-0.174233 312:-0.00735294 313:-0.211182 314:0.160748 315:-0.0275752 316:-0.106802 317:0.201322 318:0.449081 319:0.226484 320:-0.0949033 321:0.429798 322:0.150038 323:0.104374 324:-0.276316 325:-0.0375306 326:-0.0317073 327:-0.148695 328:-0.132917 329:0.0289732 330:-0.192572 331:-0.0273789 332:0.0315831 333:-0.0560905 334:-0.0915389 335:0.0121179 336:-0.0768358 337:0.014615 338:0.255333 339:-0.0573902 340:-0.115669 341:-0.116392 342:-0.056087 343:0.190937 344:-0.356161 345:-0.211428 346:0.259367 347:0.0884603 348:-0.173472 349:0.0656227 350:0.408614 351:-0.22639 352:0.0358017 353:-0.0711573 354:0.025649 355:-0.121769 356:-0.143727 357:-0.666486 358:-0.400449 359:0.34375 360:0.201725 361:-0.210568 362:0.132619 363:0.55497 364:0.245465 365:0.160543 366:-0.100051 367:-0.196219 368:-0.0602679 369:-0.208297 370:-0.509778 371:-0.248652 372:-0.0213882 373:-0.439927 374:-0.532599 375:0.00476443 376:0.263219 377:0.330839 378:0.163053 379:-0.151918 380:-0.356809 381:0.253977 382:-0.0163479 383:-0.123599 384:-0.689878 385:-0.31382 386:-0.0746386 387:-0.415837 388:-0.279178 389:0.0661736 390:-0.176822 391:0.00228311 392:-0.30938 393:-0.269563 394:0.188937 395:0.00883576 396:-0.558369 397:-0.452062 398:0.0105553 399:0.245495 400:-0.19375 401:-0.0451277 402:0.0619375 403:0.0285714 404:0.164486 405:0.0276277 406:-0.391435 407:-0.0566319 408:-0.324294 409:0.20732 410:-0.259648 411:-0.185057 412:-0.559542 413:-0.506383 414:0.493175 415:0.520723 416:-0.0283861 417:-0.0750792 418:0.133423 419:-0.0881658 420:0.213706 421:0.429783 422:0.182674 423:-0.437767 424:0.0592939 425:-0.231067 426:-0.304852 427:-0.218479 428:0.336548 429:0.188625 430:0.0726341 431:-0.617499 432:-0.261572 433:0.29145 434:0.369168 435:0.643101 436:-0.257744 437:-0.137219 438:0.121115 439:0.024879 440:-0.125536 441:-0.00243235 442:0.0749192 443:0.240708 444:0.108725 445:0.0869198 446:-0.0588235 447:-0.246259 448:-0.72173 449:-0.409785 450:-0.0912312 451:-0.198795 452:-0.175304 453:0.125913 454:-0.107656 455:0.0228717 456:0.00113379 457:-0.170043 458:0.0746462 459:0.46386 460:0.270401 461:0.752917 462:0.216917 463:-0.204396 464:-0.273671 465:-0.376892 466:-0.0623732 467:0.445183 468:-0.0294032 469:0.158411 470:0.0150215 471:0.0827605 472:0.192897 473:0.0225256 474:-0.114293 475:-0.207344 476:-0.203749 477:0.00685701 478:-0.0963556 479:-0.0113579 480:-0.174163 481:-0.0429443 482:-0.23489 483:0.00157152 484:0.509739 485:-0.194233 486:-0.0497499 487:0.349479 488:0.316376 489:0.229247 490:0.160562 491:-0.0547445 492:-0.102194 493:-0.266754 494:0.108488 495:0.0633219 496:-0.136785 497:-0.203232 498:0.325576 499:-0.199252 500:-0.0686806 501:-0.403315 502:-0.346466 503:0.38602 504:-0.164286 505:0.00226244 506:0.403252 507:0.0512984 508:0.0212004 509:0.0912437 510:-0.132668 511:-0.106095 512:0.0583333 513:-0.054789 514:-0.0598321 515:0.0135704 516:0.0458273 517:0.00939165 518:-0.0540976 519:0.0135687 520:-0.0553892 521:0.0029006 522:-0.16823 523:0.428862 524:-0.0949612 525:-0.0801402 526:0.479605 527:0.254068 528:0.0825678 529:-0.0899281 530:0.220647 531:-0.164329 532:-0.426368 533:-0.0443269 534:-0.129174 535:-0.0193107 536:0.339914 537:-0.221525 538:-0.252787 539:0.157493 540:0.435565 541:0.0658199 542:-0.104682 543:0.200367 544:0.326766 545:0.240362 546:-0.0318088 547:0.14132 548:-0.700638 549:-0.393707 550:0.431771 551:-0.203361 552:-0.186804 553:-0.163727 554:0.111501 555:-0.0481006 556:-0.115438 557:0.080739 558:0.0792492 559:-0.365854 560:0.0717918 561:-0.266763 562:-0.322458 563:0.348076 564:-0.168509 565:-0.2759 566:-0.523923 567:-0.182525 568:0.361927 569:-0.189577 570:0.0499186 571:0.00443872 572:-0.0614334 573:0.0900316 574:0.309704 575:-0.375366 576:-0.12401 577:0.051374 578:-0.525503 579:-0.436948 580:-0.397142 581:-0.30293 582:-0.233984 583:0.424177 584:0.363252 585:0.0434066 586:0.108601 587:-0.0709627 588:0.109922 589:-0.0391695 590:0.338498 591:-0.126028 592:-0.239137 593:-0.455077 594:-0.0678392 595:-0.157165 596:0.0086165 597:0.437537 598:-0.0100836 599:0.0290642 600:-0.0571829 601:0.0839782 602:0.198944 603:-0.031947 604:-0.11402 605:-0.171817 606:-0.0883107 607:0.00341511 608:-0.130546 609:-0.397874 610:0.00389529 611:-0.00695623 612:0.0252998 613:-0.182927 614:-0.210939 615:0.265506 616:0.297428 617:-0.472908 618:-0.237344 619:-0.153446 620:0.430314 621:0.160565 622:-0.262584 623:-0.306889 624:0.209202 625:0.0446652 626:-0.0498971 627:-0.389218 628:0.0890939 629:0.489729 630:-0.137939 631:-0.422824 632:0.125341 633:-0.25485 634:-0.331374 635:0.524178 636:-0.212064 637:0.0577106 638:0.0181925 639:0.0438368 640:-0.0816697 641:-0.00792222 642:-0.0678742 643:-0.085028 644:-0.0890841 645:0.0166178 646:0.121329 647:-0.10949 648:0.0297203 649:0.0733575 650:-0.0858853 
