svm_type c_svc
kernel_type rbf
gamma 0.00048828125
nr_class 2
total_sv 123
rho 5.0923593631422195
label 0 1
probA -3.5957848417686877
probB -0.48851470264615049
nr_sv 58 65
SV
28.39085128136373 1:0.0132159 2:-0.0839161 3:0.459104 4:-0.0994764 5:-0.357088 6:0.162626 7:0.0239055 8:0.384931 9:0.0542099 10:-0.0427494 11:0.365012 12:-0.328086 13:0.122094 14:-0.270385 15:-0.0253757 16:-0.451095 17:-0.451963 18:0.687974 19:-0.216913 20:0.0420471 21:-0.19235 22:0.249807 23:0.0092987 24:0.24428 25:-0.20119 26:0.170653 27:0.0821665 28:0.165371 29:0.427051 30:-0.168932 31:0.0160696 32:0.177823 33:-0.0108507 34:-0.265375 35:0.396919 36:-0.122353 37:0.206777 38:0.507998 39:-0.240759 40:-0.121452 41:-0.0829881 42:1 43:0.160256 44:0.108793 45:0.633778 46:-0.275693 47:0.0653217 48:-0.421124 49:0.221288 50:0.0880818 51:0.0317149 52:-0.255689 53:-0.0217161 54:-0.223757 55:-0.219481 56:-0.06976 57:-0.0015714 58:-0.126271 59:-0.0777704 60:-0.370194 61:-0.236199 62:-0.164698 63:-0.0655289 64:0.266969 65:-0.238854 66:-0.127968 67:-0.00560749 68:0.020152 69:-0.469486 70:0.010518 71:0.304604 72:0.341483 73:0.138223 74:-0.0373479 75:-0.456536 76:0.0766845 77:0.0199131 78:-0.18715 79:-0.00627737 80:-0.173073 81:-0.125265 82:-0.0939722 83:-0.170783 84:-0.017453 85:-0.091686 86:-0.125021 87:0.422217 88:-0.0446363 89:0.109904 90:0.122351 91:-0.0722021 92:-0.236045 93:0.868277 94:-0.0400267 95:-0.416784 96:0.104199 97:0.111933 98:-0.488479 99:-0.323405 100:-0.222738 101:0.0913265 102:-0.003377 103:-0.0616129 104:0.207761 105:0.0664286 106:0.148151 107:-0.330594 108:-0.76508 109:-0.842409 110:0.293382 111:0.229727 112:0.498491 113:-0.265302 114:0.743937 115:0.399311 116:1 117:-0.480854 118:-0.0481608 119:-0.121642 120:-0.137648 121:0.0838047 122:0.00701546 123:-0.00538932 124:0.00689298 125:-0.158201 126:-0.0734492 127:-0.187609 128:-0.0254335 129:0.122653 130:-0.0187347 131:-0.0849747 132:-0.0742747 133:-0.290017 134:-0.143621 135:0.225281 136:0.252914 137:0.132546 138:0.657203 139:0.347547 140:0.0315933 141:0.299436 142:-0.060502 143:0.312986 144:-0.145373 145:0.833628 146:-0.0283071 147:-0.287784 148:0.64757 149:0.382281 150:0.152113 151:-0.187249 152:-0.335678 153:0.3564 154:-0.112427 155:-0.475027 156:-0.0318709 157:-0.092345 158:0.625492 159:0.186108 160:-0.64015 161:-0.15725 162:0.557097 163:-0.938784 164:0.0632295 165:0.23371 166:-0.164058 167:-0.23447 168:-0.352493 169:-0.129063 170:0.0967282 171:-0.151861 172:-0.392253 173:0.0707207 174:-0.131665 175:-0.183873 176:-0.0189873 177:-0.262406 178:0.440211 179:-0.330347 180:0.0751135 181:0.166703 182:-0.0360326 183:-0.00323342 184:-0.0264867 185:0.114781 186:0.0894077 187:0.632902 188:0.609764 189:0.263299 190:0.510359 191:-0.262509 192:-0.073497 193:0.112326 194:0.321483 195:0.556013 196:0.251993 197:-0.3289 198:0.152486 199:-0.226654 200:0.251873 201:0.128311 202:-0.77249 203:-0.627198 204:0.015162 205:-0.0445711 206:0.157973 207:-0.384471 208:-0.0926512 209:-0.0537273 210:-0.121787 211:0.315484 212:0.148729 213:0.231284 214:0.301185 215:0.305941 216:0.211263 217:0.0533866 218:-0.0273244 219:0.0331473 220:-0.0706757 221:0.315141 222:-0.136071 223:-0.194681 224:-0.361181 225:0.00655518 226:0.204058 227:-0.0988402 228:0.108151 229:0.284717 230:0.0636145 231:-0.184648 232:-0.0506775 233:-0.26275 234:0.24634 235:0.111303 236:-0.222236 237:-0.116144 238:-0.103525 239:-0.124237 240:-0.13975 241:0.00789173 242:-0.0521691 243:-0.0269264 244:0.0646882 245:0.00655311 246:-0.131912 247:-0.125816 248:0.193381 249:-0.412375 250:-0.356106 251:0.167273 252:-0.103891 253:-0.0968141 254:-0.71703 255:-0.501127 256:0.370504 257:0.0630405 258:-0.315862 259:-0.291028 260:0.185257 261:-0.209664 262:-0.0630223 263:-0.140887 264:-0.142074 265:0.625418 266:0.0801917 267:0.38296 268:0.412076 269:-0.418883 270:0.382294 271:0.334907 272:-0.188034 273:-0.71158 274:0.184524 275:-0.186654 276:0.153311 277:0.0592433 278:0.00678578 279:-0.0279737 280:-0.14709 281:-0.156561 282:-0.382206 283:0.40043 284:0.229257 285:-0.256903 286:0.120664 287:0.102627 288:0.0745896 289:-0.690141 290:-0.00397287 291:-0.321337 292:-1 293:-0.599884 294:-0.0799343 295:0.816374 296:-0.434329 297:-0.602617 298:0.457948 299:0.904244 300:0.217701 301:-0.88519 302:-0.698828 303:0.432959 304:-0.137949 305:0.157534 306:-0.26065 307:-0.484683 308:0.953388 309:-0.303608 310:-0.367853 311:0.328615 312:-0.0213559 313:-0.0929089 314:-0.190683 315:-0.194115 316:-0.0704595 317:0.0153026 318:0.414944 319:-0.0585221 320:-0.289884 321:0.19516 322:-0.0127302 323:0.0911259 324:-0.352194 325:-0.103166 326:-0.250407 327:-0.104337 328:-0.166158 329:-0.199727 330:0.235284 331:-0.00941715 332:0.37896 333:0.245084 334:-0.0786431 335:0.475846 336:0.0623499 337:-0.21042 338:-0.335249 339:-0.185856 340:-0.228752 341:0.319525 342:0.0554657 343:0.282856 344:0.180282 345:0.258798 346:0.173383 347:-0.565178 348:-0.395376 349:-0.295092 350:-0.200869 351:-0.116529 352:0.42518 353:-0.664355 354:-0.181001 355:0.267864 356:-0.231685 357:-0.00161333 358:-0.0448974 359:0.075053 360:0.302556 361:-0.527975 362:0.0310004 363:0.0486586 364:0.125881 365:-0.0741409 366:0.141591 367:0.29935 368:-0.528261 369:-0.159336 370:0.256842 371:0.361942 372:1 373:-0.104609 374:-0.113986 375:-0.453846 376:-0.472685 377:0.18459 378:0.387942 379:-0.442889 380:0.223069 381:-0.0416766 382:-0.315949 383:-0.0741965 384:0.253785 385:-0.246529 386:-0.400619 387:-0.0188491 388:0.10046 389:0.240484 390:0.012635 391:-0.0727711 392:-0.355879 393:-0.41021 394:0.255457 395:0.335706 396:0.453103 397:-0.0282099 398:0.417598 399:0.0462349 400:-0.362833 401:0.153268 402:-0.447079 403:-0.00140449 404:0.143812 405:-0.0827276 406:0.335342 407:0.245526 408:0.102282 409:0.378118 410:-0.146163 411:-0.132825 412:0.12279 413:-0.509993 414:0.191099 415:-0.376339 416:-0.542301 417:-0.0325913 418:0.192347 419:0.115561 420:0.128257 421:0.0230836 422:0.0445525 423:0.0676642 424:0.218956 425:0.00447628 426:-0.170273 427:-0.504108 428:-0.0980457 429:-0.0895 430:-0.260439 431:-0.190988 432:0.55722 433:0.189374 434:0.409023 435:0.621865 436:-0.144522 437:-0.584428 438:-0.693099 439:-0.233142 440:0.397254 441:-0.262025 442:0.869822 443:-0.0946939 444:-0.141291 445:0.240187 446:-0.689038 447:-0.113122 448:0.407993 449:0.460752 450:0.133199 451:0.0540758 452:0.214065 453:0.356284 454:-0.206857 455:-0.0978349 456:0.0551491 457:0.00669145 458:-0.114778 459:-0.271685 460:-0.386047 461:-0.0377228 462:0.0663578 463:0.380173 464:0.380674 465:-0.0582051 466:0.0459577 467:0.00629181 468:-0.0258095 469:-0.363115 470:0.533755 471:-0.0831094 472:-0.470324 473:0.813438 474:-0.240718 475:0.0491493 476:0.218601 477:-0.11434 478:0.244185 479:-0.376236 480:-0.0941308 481:0.0346154 482:0.0285127 483:-0.241511 484:0.243194 485:0.0697509 486:-0.221836 487:0.384203 488:-0.223057 489:0.109667 490:0.122451 491:-0.435277 492:-0.281171 493:-0.350899 494:-0.186731 495:-0.0873128 496:-0.638027 497:0.735373 498:0.59351 499:-0.177523 500:-0.209234 501:0.052951 502:0.378439 503:-0.356985 504:-0.039364 505:-0.416309 506:-1 507:0.311433 508:0.238842 509:0.234825 510:-0.367981 511:-0.516393 512:-0.568123 513:-0.464532 514:-0.224259 515:-0.105787 516:0.137282 517:-0.071021 518:-0.173678 519:0.16519 520:0.631108 521:-0.140825 522:-0.0412886 523:0.163774 524:-0.171115 525:0.716707 526:0.439035 527:0.763413 528:0.363831 529:-0.648255 530:0.297621 531:0.253623 532:0.330533 533:-0.00287556 534:0.19681 535:-0.134461 536:-0.0927754 537:0.0347954 538:0.0310727 539:-0.0733003 540:-0.843902 541:-0.780274 542:-0.357003 543:0.0389471 544:0.173713 545:-0.275949 546:0.423087 547:-0.052808 548:0.151531 549:-0.137699 550:-0.14383 551:-0.0325716 552:0.2941 553:-0.0663609 554:0.0260377 555:-0.195164 556:0.381313 557:0.310012 558:-0.0370066 559:-0.2799 560:0.100116 561:0.450424 562:-0.0338125 563:0.348054 564:0.256086 565:-0.232175 566:0.0184347 567:-0.340774 568:-0.0764763 569:0.23173 570:-0.684562 571:-0.221622 572:-0.235738 573:0.0770717 574:0.178741 575:-0.260759 576:0.314502 577:-0.321682 578:-0.250523 579:0.390328 580:-0.344857 581:0.0612312 582:0.208359 583:-0.0586125 584:0.0361075 585:-0.41008 586:0.11246 587:0.126304 588:0.184315 589:-0.0676851 590:-0.140482 591:-0.426928 592:-0.150166 593:0.114823 594:-0.107458 595:0.0612874 596:0.059664 597:-0.167562 598:-0.241033 599:-0.0719237 600:-0.173576 601:0.0134497 602:0.00433437 603:0.611844 604:-0.346415 605:0.0862786 606:0.0451899 607:-0.384851 608:-0.195419 609:-0.0427467 610:0.148867 611:0.34008 612:-0.0164022 613:0.374445 614:-0.393379 615:0.0787302 616:-0.0652065 617:0.101827 618:0.514497 619:0.118501 620:-0.424882 621:0.708014 622:-0.318997 623:-0.394708 624:0.0729236 625:-0.185096 626:0.220017 627:-0.393939 628:0.00419299 629:0.0140074 630:0.111296 631:0.414785 632:0.716654 633:-0.0379937 634:0.0336026 635:0.0251829 636:-0.224894 637:0.0140949 638:-0.0546067 639:0.140917 640:-0.138796 641:-0.33208 642:-0.118342 643:0.12064 644:0.242464 645:0.507731 646:-0.772282 647:0.68907 648:0.875713 649:-0.208559 650:-0.214157 
27.647417325921303 1:0.0132159 2:-0.0839161 3:0.459104 4:-0.0994764 5:-0.357088 6:0.162626 7:0.0239055 8:0.384931 9:0.0542099 10:-0.0427494 11:0.365012 12:-0.328086 13:0.122094 14:-0.327373 15:0.0856023 16:-0.144144 17:0.21362 18:-0.191762 19:-0.177962 20:0.0266029 21:0.0234298 22:0.380323 23:-0.0420779 24:0.125325 25:-0.335316 26:-0.193856 27:-0.0737938 28:-0.0897524 29:0.157592 30:0.381559 31:-0.0336968 32:-0.0423646 33:-0.0184331 34:-0.290808 35:-0.203034 36:0.330878 37:0.223663 38:-0.183184 39:-0.915858 40:0.104874 41:-0.202549 42:0.354693 43:0.315684 44:-0.128664 45:-0.212634 46:-0.570911 47:-0.0695038 48:0.0540397 49:-0.0415726 50:-0.217594 51:0.521579 52:0.458099 53:-0.0304379 54:-0.323101 55:0.0531851 56:-0.4108 57:-0.357572 58:0.709581 59:-0.506008 60:0.101507 61:-0.152165 62:0.294576 63:-0.163111 64:0.0985952 65:-0.0964331 66:-0.021723 67:0.0237554 68:-0.130557 69:0.233638 70:-0.580869 71:0.114314 72:-0.52505 73:-0.0201693 74:-0.12421 75:0.172737 76:-0.020004 77:-0.0523508 78:0.254206 79:-0.287033 80:-0.18735 81:-0.0142698 82:0.143875 83:-0.0792091 84:-0.178795 85:-0.0564633 86:0.00903869 87:0.00780552 88:0.213469 89:0.0662325 90:0.113138 91:0.152904 92:-0.261826 93:0.53787 94:-0.189414 95:-0.347867 96:0.263772 97:0.0897479 98:-0.436828 99:0.383279 100:0.232251 101:-0.625589 102:-0.402579 103:-0.161456 104:0.29967 105:0.188476 106:-0.247847 107:-0.338152 108:-0.614569 109:0.140722 110:0.556434 111:0.460466 112:-0.126358 113:-0.39715 114:0.333599 115:-0.0869013 116:0.0536653 117:0.127512 118:-0.279575 119:0.139963 120:-0.300059 121:-0.394132 122:0.32501 123:0.240991 124:-0.0308906 125:0.120248 126:0.358012 127:0.123534 128:0.113246 129:0.08087 130:0.396253 131:-0.237479 132:0.297046 133:-0.0654109 134:-0.440718 135:-0.101208 136:0.0684632 137:0.536234 138:0.287228 139:0.151472 140:0.351609 141:-0.192516 142:-0.212153 143:0.50535 144:-0.0399281 145:0.257912 146:-0.0339156 147:-0.0814318 148:-0.0683237 149:-0.0223384 150:0.0255282 151:-0.283345 152:-0.242254 153:0.351287 154:0.0136233 155:0.0818149 156:-0.00898321 157:-0.0757804 158:0.209363 159:0.228603 160:0.00502684 161:0.0228333 162:0.145699 163:-0.234168 164:-0.0557755 165:-0.051625 166:0.134841 167:-0.299023 168:-0.251154 169:-0.181577 170:-0.0420156 171:0.0563653 172:-0.28 173:0.0268711 174:0.144548 175:0.0207142 176:0.114334 177:0.157211 178:0.120308 179:0.781711 180:-0.0927568 181:-0.317934 182:0.15993 183:0.147684 184:-0.189472 185:-0.532856 186:-0.703986 187:0.0481681 188:-0.154541 189:0.697192 190:0.193036 191:-0.715712 192:-0.140051 193:0.426512 194:0.130777 195:0.478389 196:-0.385375 197:0.0152768 198:-0.0173125 199:0.0506912 200:0.199174 201:0.913898 202:0.00972947 203:0.15317 204:-0.162105 205:0.522383 206:0.0505814 207:-0.334721 208:-0.142175 209:-0.00957018 210:0.0255497 211:-0.145125 212:-0.000975532 213:-0.657997 214:0.364444 215:0.0361088 216:-0.1882 217:-0.429915 218:-0.417202 219:0.268113 220:0.690811 221:0.0931803 222:-0.309921 223:0.158943 224:-0.456751 225:-0.24359 226:0.368981 227:-0.141775 228:0.172565 229:0.0125499 230:-0.0588704 231:0.251429 232:0.054689 233:0.0278187 234:0.345664 235:0.0357861 236:0.143725 237:-0.271307 238:-0.355648 239:-0.577178 240:-0.627334 241:-0.0259248 242:-0.0498444 243:0.00615869 244:0.707239 245:-0.200142 246:-0.132035 247:0.345348 248:-0.179469 249:-0.0241371 250:-0.467122 251:-0.497697 252:-0.206096 253:-0.283634 254:-0.0271239 255:0.332177 256:0.0280197 257:-0.187562 258:-0.0268374 259:0.277488 260:-0.0274623 261:-0.204657 262:0.200442 263:0.147589 264:-0.211886 265:0.151044 266:-0.309804 267:0.696549 268:-0.112527 269:-0.483819 270:0.212456 271:-0.304496 272:-0.0377436 273:-0.0368536 274:-0.0585238 275:0.214077 276:0.330021 277:-0.138061 278:-0.391265 279:-0.304876 280:-0.0801894 281:-0.326711 282:-0.124413 283:0.381075 284:-0.129408 285:-0.146546 286:0.190466 287:-0.204132 288:0.352248 289:-0.0791268 290:-0.435239 291:0.223613 292:0.115897 293:-0.437954 294:0.0264695 295:-0.0646007 296:-0.148946 297:0.365738 298:0.181061 299:-0.0995803 300:-0.282188 301:-0.150543 302:-0.53662 303:0.164795 304:0.469909 305:-0.624123 306:0.270279 307:0.0653089 308:0.301214 309:0.572936 310:-0.180583 311:-0.178059 312:0.0649347 313:-0.0660694 314:-0.240955 315:-0.249848 316:0.0246171 317:-0.090784 318:0.357933 319:-0.0837406 320:-0.153639 321:0.149503 322:-0.0887431 323:0.145136 324:0.314075 325:0.0297492 326:-0.224211 327:-0.0996273 328:0.146492 329:-0.197001 330:-0.530327 331:-0.265207 332:0.084079 333:0.365947 334:-0.279885 335:0.168456 336:-0.138508 337:0.110487 338:0.614727 339:-0.243036 340:-0.0700211 341:0.175 342:0.110058 343:0.0211927 344:-0.0949867 345:-0.00331387 346:0.239971 347:-0.464253 348:0.461991 349:-0.137428 350:-0.0469665 351:-0.224613 352:-0.14289 353:-0.0664998 354:0.10953 355:-0.636625 356:0.406357 357:0.0805248 358:0.212375 359:0.114495 360:0.240689 361:0.482019 362:0.0482294 363:-0.0173863 364:0.0774885 365:-0.0901203 366:0.11316 367:0.129704 368:-0.346759 369:0.0929931 370:-0.0190254 371:0.15048 372:-0.0640722 373:-0.081963 374:0.00586522 375:-0.21953 376:-0.114208 377:0.302568 378:0.00396733 379:0.0692234 380:0.0668985 381:-0.101205 382:0.152507 383:-0.176052 384:0.183562 385:0.0691032 386:0.16623 387:0.350851 388:-0.171011 389:0.0740323 390:0.270388 391:0.224096 392:-0.353798 393:-0.2841 394:0.173655 395:0.0666287 396:0.183229 397:-0.688505 398:-0.763268 399:0.334467 400:-0.48366 401:0.968342 402:0.44055 403:-0.741292 404:0.150135 405:-0.259913 406:0.148911 407:0.028497 408:0.0887841 409:0.379317 410:-0.258462 411:-0.561203 412:-0.78223 413:-0.348837 414:0.39529 415:-0.034758 416:-0.451248 417:0.0252744 418:0.449482 419:0.391428 420:0.154129 421:-0.00621847 422:-0.837077 423:0.00974576 424:-0.214 425:-0.149812 426:0.174142 427:-0.267148 428:0.0580066 429:-0.0145952 430:-0.0351906 431:0.381123 432:0.276901 433:0.454401 434:-0.132325 435:0.0480507 436:-0.390925 437:-0.149853 438:0.129236 439:-0.417146 440:-0.20125 441:-0.223139 442:-1 443:-0.0679184 444:-0.0144105 445:0.0640187 446:-0.309757 447:0.0407671 448:0.0193726 449:0.436476 450:-0.228334 451:0.0419649 452:0.357805 453:0.0321727 454:-0.0505399 455:0.319772 456:0.00837809 457:0.0547923 458:0.159427 459:0.353934 460:-0.196374 461:0.268746 462:-0.295052 463:-0.152573 464:-0.10688 465:-0.398575 466:-0.655197 467:-0.223386 468:0.0190052 469:0.0966514 470:-0.157331 471:0.1869 472:0.201147 473:-0.492492 474:-0.179428 475:-0.294824 476:-0.398206 477:-0.213806 478:-0.0123139 479:-0.289446 480:0.17906 481:-0.0740666 482:0.0313351 483:-0.166854 484:0.052755 485:0.0499644 486:-0.124689 487:0.161645 488:-0.242031 489:-0.179246 490:-0.0112569 491:-0.111838 492:0.24722 493:-0.0967126 494:-0.0940924 495:0.0540765 496:-0.524502 497:0.0237337 498:0.00258112 499:0.266871 500:0.335514 501:-0.0688818 502:0.279528 503:-0.261249 504:0.162309 505:-0.360086 506:-0.0804062 507:0.206434 508:0.079072 509:0.0755031 510:0.0367064 511:0.357377 512:-0.19671 513:-0.0210372 514:-0.618404 515:-0.13852 516:-0.243902 517:-0.288785 518:0.139744 519:0.154443 520:-0.0202811 521:0.184438 522:-0.214973 523:0.0363956 524:-0.0710801 525:0.288525 526:0.448394 527:-0.26739 528:-0.237901 529:-0.299103 530:-0.534519 531:0.0721423 532:-0.0109527 533:-0.58701 534:0.121773 535:-0.721366 536:-0.457047 537:0.896525 538:-0.0793721 539:-0.150602 540:-0.228719 541:-0.0607388 542:0.203723 543:0.0903383 544:-0.148028 545:0.299978 546:-0.54176 547:-0.137762 548:0.612177 549:-0.179325 550:-0.362453 551:-0.531037 552:-0.244082 553:-0.766643 554:0.461845 555:-0.266891 556:-0.476586 557:-0.178557 558:-0.608959 559:0.450156 560:-0.0192391 561:-0.000969697 562:-0.275562 563:0.133531 564:0.225329 565:-0.249391 566:-0.156466 567:-0.718491 568:0.0344351 569:0.00776371 570:-0.126939 571:0.257396 572:-0.226302 573:-0.154962 574:0.21225 575:-0.183574 576:0.119038 577:0.192062 578:-0.208864 579:-0.105124 580:0.440952 581:0.295832 582:0.675357 583:-0.784964 584:-0.464173 585:-0.38383 586:0.0498743 587:0.0769917 588:-0.237224 589:-0.0816833 590:-0.404821 591:0.0108554 592:-0.140662 593:0.0656543 594:0.064453 595:-0.546883 596:-0.0392573 597:-0.116238 598:-0.113271 599:-0.150433 600:0.00640252 601:-0.118169 602:-0.256612 603:-0.0203352 604:-0.541206 605:0.14657 606:0.560239 607:0.375153 608:0.513199 609:0.0555894 610:-0.232648 611:0.306114 612:-0.0660251 613:-0.110257 614:0.282758 615:0.204689 616:-0.215478 617:0.172434 618:0.283245 619:-0.170415 620:0.146783 621:0.154069 622:-0.244437 623:-0.275729 624:-0.143825 625:0.00421805 626:0.133978 627:-0.21934 628:0.103958 629:0.346018 630:0.161331 631:-0.182833 632:0.197845 633:0.109326 634:-0.176478 635:0.361339 636:-0.236804 637:0.685576 638:0.235056 639:0.219167 640:-0.399974 641:-0.784843 642:0.491189 643:0.387112 644:-0.17423 645:0.0219233 646:-0.247326 647:-0.590405 648:0.0446854 649:0.0376198 650:0.294648 
53.07846365822904 1:0.0132159 2:-0.0839161 3:0.459104 4:-0.0994764 5:-0.357088 6:0.162626 7:0.0239055 8:0.384931 9:0.0542099 10:-0.0427494 11:0.365012 12:-0.328086 13:0.122094 14:-0.284503 15:-0.0106731 16:0.104364 17:-0.144264 18:0.324539 19:-0.00865763 20:-0.0825779 21:-0.111644 22:0.343193 23:0.109903 24:0.401201 25:-0.0515982 26:-0.238891 27:-0.0687796 28:0.319899 29:0.4976 30:-0.282126 31:-0.13824 32:0.0403981 33:0.458399 34:0.140374 35:-0.413854 36:0.0878291 37:0.129945 38:-0.303551 39:-0.415799 40:-0.0442774 41:0.617396 42:0.082305 43:-0.190809 44:-0.00959269 45:-0.0194291 46:-0.187607 47:0.0603181 48:-0.226421 49:0.367524 50:-0.376652 51:-0.109455 52:-0.38929 53:0.184211 54:-0.810712 55:-0.383435 56:0.36 57:-0.327833 58:-0.00823412 59:0.163151 60:0.00476776 61:-0.361241 62:0.22605 63:0.340116 64:0.36626 65:-0.0969427 66:-0.0718341 67:0.355691 68:0.391808 69:-0.517347 70:0.114705 71:-0.124005 72:-0.417154 73:0.277151 74:-0.190041 75:-0.382793 76:0.224593 77:-0.352035 78:-0.145093 79:-0.0376428 80:-0.383169 81:-0.0611996 82:-0.212754 83:-0.149207 84:0.273068 85:0.240463 86:0.334263 87:0.474763 88:0.572199 89:0.298408 90:-0.350286 91:-0.154607 92:-0.0738413 93:0.341932 94:-0.318609 95:-0.609627 96:-0.225907 97:0.144224 98:-0.050192 99:-0.292609 100:0.246212 101:0.584772 102:-0.0653295 103:-0.574028 104:-0.0305664 105:-0.0862857 106:0.246977 107:-0.246161 108:-0.589902 109:-0.428785 110:0.264338 111:0.360754 112:0.172871 113:0.0976721 114:0.387364 115:0.0137427 116:0.211697 117:0.0210034 118:-0.0548383 119:-0.034379 120:-0.335563 121:-0.125093 122:-0.0685692 123:0.157754 124:-0.379459 125:-0.133134 126:0.221691 127:-0.252743 128:0.0763263 129:0.241167 130:0.116264 131:0.00405177 132:0.0737663 133:-0.36671 134:-0.443096 135:-0.117233 136:0.162254 137:0.127935 138:-0.00880045 139:0.276253 140:-0.0315933 141:0.404418 142:0.176116 143:0.083596 144:0.110081 145:0.198009 146:0.152488 147:-0.2125 148:-0.154491 149:0.298997 150:-0.290986 151:0.0204469 152:-0.108678 153:0.0498381 154:0.163052 155:-0.200626 156:0.162401 157:-0.0630881 158:0.253344 159:0.187303 160:-0.425899 161:-0.110633 162:0.146275 163:-0.282562 164:0.0605956 165:0.232402 166:0.313391 167:0.0210686 168:0.0266851 169:0.0912916 170:-0.0536551 171:0.380669 172:-0.25622 173:-1 174:0.166311 175:0.258146 176:-0.0915143 177:0.227593 178:0.19675 179:0.527042 180:0.825081 181:-0.449117 182:0.252906 183:-0.121308 184:0.448726 185:-0.0115797 186:-0.854057 187:0.382256 188:0.279601 189:0.214195 190:0.621049 191:0.605864 192:0.498307 193:-0.206581 194:-0.232707 195:0.156131 196:-0.0766398 197:-0.170687 198:-0.120439 199:-0.3447 200:-0.134848 201:0.446514 202:-0.143057 203:-0.0222495 204:-0.0260495 205:0.119137 206:0.292297 207:-0.145504 208:-0.0633167 209:-0.0269644 210:-0.0511149 211:0.040019 212:-0.484567 213:-0.344975 214:0.255111 215:-0.150962 216:-0.399473 217:0.10301 218:0.175683 219:-0.275692 220:-0.000783784 221:0.205039 222:-0.143532 223:0.0369373 224:-0.23692 225:-0.287848 226:0.0990442 227:-0.311606 228:-0.240159 229:-0.173025 230:0.0435598 231:0.0819048 232:-0.000149365 233:-0.0141129 234:0.346514 235:-0.145011 236:-0.0375079 237:0.239091 238:-0.225665 239:0.164808 240:-0.208824 241:0.630075 242:0.29654 243:-0.17949 244:0.23862 245:-0.174592 246:-0.210177 247:0.58472 248:-0.164881 249:-0.0851171 250:-0.290545 251:-0.468461 252:-0.23542 253:0.0846532 254:0.113059 255:0.0440937 256:0.407232 257:0.227359 258:0.109084 259:-0.0123437 260:-0.0378278 261:-0.283641 262:-0.0390208 263:0.0794112 264:-0.228411 265:0.590527 266:0.259984 267:0.610815 268:-0.259949 269:-0.463177 270:0.737485 271:-0.120703 272:-0.275989 273:-0.51663 274:-0.0137857 275:-0.0499781 276:-0.044069 277:-0.238249 278:-0.214636 279:-0.0801755 280:-0.444173 281:-0.540594 282:-0.104911 283:-0.244301 284:-0.290277 285:-0.239746 286:0.184933 287:-0.366719 288:1 289:0.233803 290:-1 291:-0.112233 292:-0.328804 293:-0.318657 294:-0.502373 295:0.239809 296:0.107019 297:-0.34771 298:-0.104586 299:0.228198 300:-0.0417167 301:-0.630944 302:-0.0718365 303:0.191822 304:-0.599809 305:-0.225493 306:0.519504 307:0.221633 308:-0.0978261 309:-0.424855 310:0.338598 311:-0.126517 312:-0.0874965 313:-0.0535379 314:-0.34087 315:-0.225 316:-0.319037 317:-0.248109 318:-0.00890302 319:0.014364 320:-0.30225 321:0.257175 322:0.751381 323:-0.0822963 324:0.850565 325:0.101974 326:-0.120619 327:0.0209385 328:-0.0755725 329:-0.0604499 330:-0.231455 331:0.179486 332:-0.0431761 333:-0.396873 334:-0.0369422 335:0.339182 336:-0.261149 337:0.0834943 338:0.206413 339:-0.127038 340:-0.104129 341:0.162255 342:-0.195925 343:-0.629176 344:-0.403575 345:0.0215796 346:-0.692266 347:0.131822 348:0.0562304 349:-0.27646 350:0.54883 351:-0.00572884 352:-0.121992 353:-0.0635109 354:0.416628 355:0.00287253 356:0.693441 357:0.555181 358:-0.154399 359:-0.140537 360:0.476004 361:-0.283335 362:-0.0128376 363:-0.073506 364:0.1561 365:0.00450344 366:-0.124444 367:0.380617 368:-0.125195 369:-0.259613 370:0.0831776 371:0.19406 372:-0.0149114 373:-0.611243 374:-0.186048 375:0.0771368 376:0.0466646 377:0.093174 378:-0.0619603 379:0.0402045 380:0.132388 381:-0.38673 382:0.15175 383:0.156443 384:0.439077 385:0.175676 386:0.435214 387:0.386464 388:-0.544977 389:0.114839 390:-0.409603 391:-0.200613 392:0.502601 393:0.492131 394:-0.327411 395:-0.361333 396:-0.386855 397:0.157132 398:-0.193785 399:-0.537651 400:0.0501678 401:0.110976 402:0.0966323 403:0.261376 404:-0.0730493 405:0.0771147 406:0.301905 407:-0.28563 408:-0.177404 409:0.25561 410:-0.133746 411:0.188479 412:-0.001037 413:0.01529 414:0.347987 415:-0.483136 416:-0.250883 417:-0.108399 418:0.177426 419:0.174195 420:-0.0733189 421:-0.149225 422:0.0448039 423:-0.0119703 424:-0.0758444 425:0.0993733 426:0.0539666 427:-0.223827 428:0.11006 429:0.0874762 430:-0.169345 431:-0.0492405 432:-0.0973466 433:-0.203489 434:0.375789 435:0.407034 436:-0.114262 437:-0.0154488 438:-0.369625 439:-0.119683 440:-0.0849425 441:-0.491392 442:0.733576 443:-0.210449 444:0.368335 445:0.334953 446:-1 447:0.724628 448:-0.0211861 449:0.144177 450:-0.317984 451:0.0738937 452:-0.219335 453:-0.244372 454:0.0426975 455:-0.161218 456:-0.0636498 457:0.21028 458:0.283022 459:-0.533457 460:-0.148601 461:-0.2563 462:-0.0357604 463:0.300108 464:-0.441419 465:0.014359 466:-0.308614 467:0.133706 468:0.361567 469:-0.23313 470:-0.035246 471:-0.137092 472:-0.133736 473:-0.510323 474:-0.228993 475:0.617672 476:0.0114427 477:-0.308214 478:0.347069 479:-0.392957 480:0.358866 481:0.497976 482:-0.125859 483:-0.142336 484:-0.102821 485:-0.499644 486:0.092507 487:0.441503 488:0.30252 489:-0.0524843 490:0.280655 491:0.285792 492:-0.116488 493:0.143807 494:-0.172028 495:0.0371048 496:0.050539 497:0.100289 498:0.00350295 499:-0.751597 500:-0.60985 501:-0.270384 502:-0.437619 503:-0.60189 504:0.448057 505:-0.211438 506:0.235694 507:0.344469 508:-0.149247 509:0.398636 510:0.216346 511:-0.83668 512:-0.0737275 513:-0.335329 514:0.00955037 515:0.161354 516:0.629003 517:0.364795 518:-0.0951522 519:-0.191232 520:-0.346662 521:-0.0222312 522:0.325771 523:0.0321249 524:-0.231272 525:0.105342 526:0.0813102 527:0.236876 528:-0.00547733 529:0.274078 530:-0.0156643 531:-0.38373 532:0.101815 533:-0.0334655 534:-0.0941209 535:0.0637307 536:0.110149 537:0.0352741 538:0.0153552 539:0.247875 540:0.0667125 541:-0.209444 542:-0.154331 543:0.0832784 544:-0.00689507 545:-0.144108 546:-0.00936425 547:-0.0152221 548:0.0237742 549:0.0978514 550:0.0716124 551:-0.495396 552:-0.38731 553:0.0990355 554:0.204067 555:0.245661 556:-0.0677057 557:-0.0557357 558:-0.209934 559:0.261979 560:-0.105253 561:0.223394 562:-0.0189512 563:-0.02661 564:-0.221497 565:-0.249391 566:-0.0112193 567:-0.0444487 568:0.17218 569:0.175578 570:-0.149606 571:0.135587 572:-0.17377 573:-0.108951 574:-0.0432643 575:0.138575 576:-0.115326 577:-0.110739 578:-0.332319 579:0.412349 580:0.209905 581:0.761096 582:-0.356921 583:-0.316473 584:0.294214 585:-0.330508 586:-0.149649 587:0.110673 588:0.190278 589:-0.235458 590:0.0772028 591:-0.201956 592:0.87898 593:0.338902 594:0.086181 595:0.0900274 596:0.163837 597:0.163417 598:-0.0386035 599:0.234012 600:-0.446864 601:0.18084 602:0.406988 603:-0.0536884 604:0.0292544 605:-0.945352 606:-0.393094 607:0.00214373 608:-0.820911 609:-0.479259 610:-0.326483 611:-0.102183 612:-0.00757934 613:0.0771201 614:0.219187 615:0.0264929 616:-0.333751 617:-0.104961 618:-0.136508 619:-0.35759 620:-0.306329 621:-0.557672 622:-0.338426 623:-0.145167 624:0.120361 625:-0.106778 626:-0.03162 627:0.331178 628:-0.290011 629:-0.253058 630:-0.244906 631:0.262962 632:0.59578 633:0.0066076 634:-0.0300054 635:0.049346 636:-0.0307918 637:0.402594 638:-0.297978 639:0.508194 640:0.426051 641:-0.976524 642:0.356227 643:-0.226938 644:-0.0691131 645:-0.173184 646:-0.0922683 647:-0.155397 648:-0.122387 649:-0.017937 650:0.131861 
60.418159153226433 1:0.0132159 2:-0.0839161 3:0.459104 4:-0.0994764 5:-0.357088 6:0.162626 7:0.0239055 8:0.384931 9:0.0542099 10:-0.0427494 11:0.365012 12:-0.328086 13:0.122094 14:-0.404019 15:0.402309 16:-0.220976 17:-0.105964 18:0.17291 19:-0.0266725 20:0.0639525 21:-0.061355 22:0.286889 23:-0.201818 24:0.534572 25:0.0179016 26:0.286221 27:0.155724 28:-0.00990421 29:0.116187 30:0.0461036 31:-0.163032 32:-0.334202 33:0.0445887 34:-0.262772 35:-0.17749 36:-0.299282 37:0.169586 38:-0.153726 39:-0.469256 40:0.216749 41:-0.531915 42:0.161553 43:0.707126 44:-0.291207 45:0.102486 46:0.107986 47:-0.146959 48:-0.372803 49:0.0501673 50:-0.21204 51:-0.33958 52:-0.184471 53:-0.184653 54:-0.36564 55:0.278834 56:-0.05224 57:0.219112 58:0.185935 59:0.389052 60:0.055829 61:-0.195682 62:0.431321 63:-0.101192 64:-0.23592 65:0.105478 66:-0.0642311 67:0.0909236 68:0.186202 69:-0.300913 70:0.250248 71:0.0156817 72:0.553908 73:0.176305 74:0.264925 75:-0.147978 76:0.279221 77:0.160806 78:0.153855 79:-0.0234693 80:-0.239787 81:0.0745966 82:-0.277672 83:-0.681629 84:0.320682 85:0.109395 86:0.206792 87:-0.372942 88:0.257285 89:0.372293 90:0.0187028 91:0.679976 92:-0.128546 93:-0.138236 94:0.0443503 95:0.190342 96:-0.273167 97:-0.141176 98:0.701613 99:0.441034 100:0.339517 101:0.0333595 102:0.185939 103:0.0346843 104:-0.622116 105:-0.090381 106:-0.0940409 107:-0.399319 108:-0.415302 109:0.234679 110:0.181496 111:0.154475 112:0.00700034 113:0.246037 114:0.128111 115:0.0800798 116:0.268128 117:0.0639454 118:0.0073475 119:-0.224729 120:-0.184697 121:-0.14598 122:0.380103 123:0.53684 124:-0.170977 125:0.214854 126:-0.440779 127:-0.0489028 128:0.456262 129:-0.319257 130:0.192425 131:-0.0236466 132:0.180296 133:-0.103837 134:-0.463595 135:0.0703652 136:-0.080353 137:-0.38784 138:0.154251 139:0.256878 140:-0.246136 141:0.533363 142:-0.115456 143:0.183951 144:-0.0931896 145:0.837168 146:-0.0598848 147:-0.400284 148:0.10781 149:0.302537 150:-0.445352 151:-0.162379 152:-0.373051 153:-0.146242 154:-0.146704 155:-0.297148 156:0.128759 157:0.0540329 158:0.0458065 159:0.356771 160:0.000813405 161:-0.1284 162:0.556457 163:-0.568596 164:-0.0687726 165:0.243956 166:-0.329159 167:0.0319288 168:-0.0586334 169:-0.05397 170:0.00759404 171:-0.243353 172:-0.181978 173:0.0283611 174:0.192078 175:0.435225 176:0.0976324 177:0.456622 178:0.272524 179:-0.0854768 180:0.451114 181:-0.0113532 182:0.425738 183:0.00850136 184:-0.0751972 185:0.022218 186:-0.168715 187:0.403305 188:0.466635 189:0.2552 190:0.341115 191:-0.230638 192:-0.336367 193:0.0710465 194:0.277044 195:-0.299618 196:-0.185375 197:-0.152714 198:0.404685 199:-0.0829272 200:0.149972 201:0.816191 202:0.0161017 203:0.443354 204:0.0873107 205:-0.178991 206:0.599668 207:-0.0605745 208:-0.319731 209:0.110376 210:0.084856 211:-0.141334 212:-0.0455829 213:-0.50418 214:-0.427852 215:-0.320167 216:-0.583073 217:-0.388053 218:0.269943 219:0.0146745 220:0.111973 221:0.0505113 222:-0.141964 223:-0.199896 224:-0.0845865 225:-0.451282 226:0.152985 227:-0.0671821 228:-0.0305659 229:0.260375 230:0.165962 231:-0.00438095 232:0.56044 233:-0.0269393 234:0.444227 235:0.0631371 236:0.256173 237:0.0867172 238:-0.261443 239:-0.118728 240:0.127157 241:-0.345564 242:-0.000640674 243:-0.371527 244:-0.170443 245:0.171753 246:-0.504425 247:-0.534966 248:0.0850968 249:0.141639 250:-0.51592 251:-0.351758 252:-0.351647 253:-0.336246 254:-0.24855 255:-0.101717 256:0.19485 257:0.0900372 258:0.0142463 259:-0.232735 260:0.37993 261:-0.155832 262:-0.199485 263:-0.287972 264:-0.105832 265:0.185393 266:0.0653754 267:0.0919602 268:0.713782 269:-0.18739 270:0.147646 271:0.212354 272:-0.0311567 273:-0.0201991 274:-0.0922857 275:0.0884278 276:0.421809 277:0.0810102 278:-0.273651 279:0.045318 280:0.258439 281:0.772382 282:0.527972 283:-0.147183 284:-0.107219 285:-0.293075 286:0.104703 287:-0.119784 288:0.342612 289:0.241408 290:-0.329457 291:0.0583883 292:0.00726902 293:-0.052601 294:0.114093 295:0.151095 296:0.105722 297:0.329973 298:0.454658 299:0.372734 300:0.0853458 301:-0.0619056 302:-0.26328 303:-0.288873 304:-0.707964 305:-0.379552 306:-0.151706 307:0.0110217 308:-0.256169 309:0.0455207 310:0.467961 311:-0.0233316 312:-0.0752987 313:-0.0337705 314:-0.33033 315:-0.239735 316:-0.0357841 317:-0.317572 318:0.0661367 319:0.23397 320:0.0614231 321:0.101801 322:-0.0923112 323:0.45679 324:-0.0406386 325:0.107648 326:-0.0508593 327:0.0992716 328:-0.188877 329:0.0413633 330:-0.00262229 331:0.227615 332:-0.204901 333:-0.600192 334:-0.24388 335:-0.0158485 336:-0.183212 337:-0.0349427 338:-0.10285 339:0.0849504 340:-0.0922686 341:0.166636 342:-0.110527 343:-0.735618 344:-0.293534 345:-0.61496 346:-0.0361222 347:-0.0717636 348:0.0476293 349:-0.316312 350:-0.32941 351:0.183111 352:-0.0908075 353:-0.19571 354:-0.0679145 355:-0.0832496 356:0.478507 357:0.940785 358:-0.121408 359:-0.0817444 360:0.142619 361:-0.0550269 362:-0.0936668 363:-0.476799 364:-0.361307 365:-0.160095 366:-0.205342 367:0.519194 368:-0.0921598 369:0.16426 370:0.616656 371:0.1586 372:0.444734 373:-0.277605 374:-0.183474 375:0.0390598 376:-0.317581 377:0.0225683 378:0.313341 379:-0.0349632 380:-0.275475 381:-0.293297 382:0.214502 383:0.601338 384:-0.567412 385:-0.204545 386:-0.392605 387:0.00757148 388:-0.0670059 389:0.282226 390:0.26855 391:-0.064885 392:-0.148352 393:0.12046 394:0.15502 395:0.357062 396:0.533124 397:0.0746111 398:0.608764 399:0.0577996 400:-0.380675 401:0.351103 402:-0.132302 403:-0.0775281 404:0.130673 405:-0.291447 406:-0.461314 407:0.282363 408:-0.0820202 409:0.323763 410:-0.258854 411:-0.229776 412:0.239807 413:0.171693 414:0.0139276 415:-0.381153 416:-0.0776774 417:0.0783763 418:0.371546 419:0.0972257 420:0.258134 421:-0.280565 422:-0.300201 423:-0.436573 424:-0.217333 425:-0.00975649 426:-0.0100088 427:-0.214083 428:-0.0977165 429:-0.0967143 430:-0.193703 431:0.161171 432:0.263552 433:-0.240032 434:-0.370219 435:0.10976 436:0.336561 437:1 438:-0.305021 439:0.217504 440:0.29049 441:-0.100304 442:0.115278 443:-0.0467347 444:0.136256 445:-0.0189159 446:-0.112924 447:0.0102995 448:-0.243318 449:0.276402 450:0.201476 451:-0.342918 452:-0.0361621 453:-0.0911475 454:-0.0718507 455:-0.0359267 456:0.231423 457:-0.61209 458:0.0419154 459:0.278656 460:-0.0904848 461:0.0753534 462:0.116002 463:0.110705 464:-0.183847 465:-0.127877 466:-0.216073 467:-0.140112 468:0.259019 469:-0.0196702 470:-0.271189 471:-0.0493642 472:-0.188904 473:-0.115916 474:-0.0325102 475:-0.0734916 476:0.0732332 477:-0.19711 478:0.153501 479:-0.123186 480:-0.256901 481:0.217499 482:0.260235 483:0.0367601 484:-0.181371 485:0.0441708 486:-0.576135 487:-0.429753 488:-0.54827 489:-0.248525 490:0.0527007 491:-0.0660769 492:-0.00386341 493:0.11869 494:-0.0565168 495:0.0528702 496:-0.712839 497:-0.069878 498:0.59115 499:-0.218958 500:0.917661 501:-0.246681 502:-0.339706 503:-0.00926694 504:0.462662 505:-0.562232 506:0.242248 507:0.155308 508:-0.0513274 509:-0.0619824 510:-0.385509 511:-0.329139 512:0.148936 513:-0.0748764 514:-0.0704775 515:0.313172 516:0.176821 517:0.10323 518:0.0835537 519:0.158152 520:0.0239859 521:0.113298 522:0.046529 523:0.293559 524:-0.158118 525:-0.461043 526:0.222172 527:-0.035141 528:0.386857 529:-0.465603 530:-0.138774 531:0.587497 532:0.534584 533:-0.0642043 534:-0.0421773 535:-0.0290188 536:-0.285926 537:0.352741 538:-0.149125 539:0.179444 540:0.174854 541:0.0741241 542:-0.226843 543:-0.480151 544:0.379573 545:-0.0705508 546:-0.326103 547:-0.102263 548:-0.114727 549:0.113444 550:0.203179 551:0.361016 552:0.49833 553:-0.0895225 554:0.02587 555:-0.295872 556:-0.158715 557:0.195379 558:-0.0925955 559:-0.174113 560:-0.0833526 561:-0.0276364 562:-0.067625 563:-0.0785563 564:-0.0658882 565:0.390398 566:0.230689 567:0.283818 568:0.353893 569:0.387679 570:-0.0459795 571:0.0695627 572:-0.0880076 573:0.0427299 574:0.220394 575:0.0193707 576:-0.150997 577:-0.0869743 578:-0.197261 579:0.0269142 580:0.235048 581:-0.036237 582:-0.191916 583:0.307629 584:-0.168533 585:-0.103666 586:0.0537849 587:-0.100828 588:-0.401699 589:-0.11094 590:0.310889 591:0.464519 592:-0.150642 593:-0.167974 594:-0.466151 595:0.221814 596:0.321185 597:0.226871 598:0.170253 599:0.104961 600:0.348203 601:0.0473808 602:-0.3318 603:0.0747554 604:-0.390367 605:-0.549599 606:-0.108505 607:-0.23724 608:-0.340839 609:-0.0980314 610:-0.113799 611:0.148116 612:0.130283 613:-0.541783 614:0.13434 615:0.262608 616:0.0915728 617:0.438605 618:0.217354 619:0.613679 620:-0.0745702 621:-0.387244 622:-0.158751 623:-0.216469 624:0.20106 625:0.113148 626:0.0321289 627:-0.153686 628:-0.00192989 629:-0.00445773 630:-0.0208316 631:-0.0578516 632:0.0990505 633:-0.101036 634:-0.22126 635:-0.048149 636:-0.167367 637:0.106742 638:0.0646157 639:0.168361 640:-0.290553 641:-0.326952 642:0.130256 643:-0.0174419 644:-0.307121 645:-0.124359 646:-0.138313 647:-0.169043 648:-0.0282776 649:0.154567 650:-0.16117 
10.351842303539872 1:0.0132159 2:-0.0839161 3:0.459104 4:-0.0994764 5:-0.357088 6:0.162626 7:0.0239055 8:0.384931 9:0.0542099 10:-0.0427494 11:0.365012 12:-0.328086 13:0.122094 14:-0.277856 15:-0.0888695 16:0.178023 17:-0.221188 18:0.377696 19:-0.125492 20:0.23257 21:-0.205138 22:0.292343 23:0.0257922 24:0.108535 25:-0.205598 26:-0.0833284 27:0.113198 28:-0.0983192 29:-0.123473 30:0.159986 31:0.0628557 32:-0.257102 33:0.160706 34:-0.210764 35:0.115371 36:-0.0111398 37:-0.0734432 38:0.176746 39:0.112092 40:0.107795 41:-0.18954 42:-0.160648 43:0.251832 44:0.163304 45:-0.168023 46:-0.372267 47:-0.116036 48:-0.187077 49:-0.621079 50:-0.0631567 51:-0.0741908 52:-0.2249 53:0.0578505 54:-0.277947 55:0.0223497 56:-0.121 57:0.16814 58:-0.402381 59:-0.582644 60:-0.229499 61:-0.349192 62:-0.199913 63:-0.0456186 64:0.539451 65:-0.135032 66:0.252925 67:0.00076997 68:0.22047 69:0.0118981 70:-0.443342 71:-0.388646 72:-0.32004 73:0.0801128 74:0.261718 75:-0.458994 76:0.0872467 77:0.0878309 78:0.0451636 79:-0.20395 80:-0.29595 81:0.241043 82:0.421373 83:0.284165 84:0.422702 85:0.160566 86:-0.0692685 87:0.401722 88:-0.738398 89:-0.317197 90:0.0129445 91:-0.320024 92:-0.104436 93:0.585803 94:0.466013 95:-0.0812627 96:-0.280285 97:-0.294454 98:-0.38172 99:0.346527 100:-0.166013 101:-0.566719 102:0.037413 103:-0.61759 104:-0.621516 105:-0.0572857 106:-0.11191 107:-0.127365 108:-0.479283 109:0.144993 110:0.0830882 111:-0.152431 112:0.178068 113:0.166767 114:0.235641 115:0.146898 116:0.496875 117:0.285581 118:-0.23914 119:0.273316 120:-0.0312982 121:-0.6941 122:0.508522 123:0.147876 124:-0.321068 125:-0.451945 126:0.0972887 127:-0.175274 128:-0.435324 129:0.199576 130:0.378659 131:-0.0390171 132:0.227627 133:-0.0892832 134:-0.404887 135:-0.0264888 136:0.0404928 137:-0.0636796 138:0.0238 139:0.0160571 140:-0.0758822 141:0.500902 142:-0.0150594 143:0.629301 144:0.130027 145:0.424956 146:-0.294684 147:-0.373438 148:-0.663534 149:-0.160415 150:0.0708592 151:0.0789889 152:-0.610508 153:0.337992 154:0.581793 155:0.285113 156:0.03536 157:-0.130172 158:0.0785681 159:0.0063828 160:0.0212299 161:-0.1165 162:0.157609 163:0.211288 164:0.232742 165:0.117281 166:0.262701 167:-0.156151 168:0.683287 169:0.0616539 170:0.242725 171:0.102674 172:-0.380222 173:-0.370755 174:-0.428509 175:-0.457468 176:-0.357478 177:0.637134 178:0.196414 179:-0.0394015 180:-0.0592432 181:0.10985 182:0.377376 183:-0.0540236 184:0.0594357 185:0.144606 186:-0.315547 187:0.199713 188:0.320019 189:0.773529 190:0.711896 191:0.308191 192:0.337426 193:-0.403023 194:-0.0246064 195:-0.412232 196:0.00772805 197:0.288282 198:0.213794 199:-0.609217 200:-0.266253 201:0.173514 202:-0.123452 203:-0.697342 204:-0.51198 205:0.106296 206:0.0379983 207:-0.601166 208:0.235294 209:0.0474144 210:-0.000510994 211:0.0148561 212:-0.00159923 213:-0.0497306 214:-0.189259 215:-0.149791 216:0.0155771 217:0.00246943 218:-0.442142 219:0.12936 220:0.210811 221:-0.131305 222:-0.0780992 223:-0.0611803 224:-0.022616 225:0.140691 226:0.204689 227:-0.23319 228:-0.103247 229:-0.259697 230:0.124956 231:-0.236762 232:-0.0149792 233:0.0654762 234:0.260349 235:0.10864 236:-0.0302647 237:0.12766 238:-0.0710822 239:-0.313153 240:-0.156957 241:0.104505 242:0.0816511 243:-0.383844 244:0.0982154 245:0.05304 246:-0.170078 247:-0.350277 248:-0.126655 249:-0.0107124 250:0.346834 251:0.119515 252:-0.197908 253:0.347715 254:0.227665 255:-0.260191 256:0.112533 257:-0.0894751 258:0.457734 259:-0.522023 260:-0.803841 261:-0.264506 262:0.55347 263:-0.0509975 264:-0.414666 265:0.149417 266:0.016853 267:-0.119815 268:-0.184572 269:-0.650101 270:0.463705 271:-0.108916 272:-0.615043 273:-0.300631 274:-0.0259714 275:0.119378 276:0.191978 277:0.0678709 278:-0.378091 279:0.0108487 280:0.42004 281:0.109321 282:-0.135203 283:0.0541075 284:-0.237658 285:-0.291752 286:-0.497127 287:-0.0542556 288:0.157923 289:0.182817 290:0.0650517 291:-0.18734 292:0.0419837 293:-0.0167974 294:-0.0646769 295:-0.0201203 296:0.214964 297:-0.34771 298:-0.198848 299:0.467123 300:-0.0220013 301:-0.064538 302:0.0610159 303:-0.174008 304:-0.195994 305:0.0644838 306:0.207116 307:-0.169348 308:-0.164904 309:0.264665 310:0.320216 311:-0.130688 312:-0.0273243 313:-0.188791 314:-0.0233254 315:-0.0717762 316:-0.0184683 317:0.0588033 318:0.527027 319:0.420406 320:-0.184046 321:0.513225 322:0.472145 323:0.0471457 324:-0.26616 325:-0.0498355 326:-0.0494622 327:-0.0764018 328:-0.132933 329:0.0292297 330:-0.146037 331:-0.0500636 332:-0.120013 333:-0.31505 334:-0.105628 335:0.057597 336:-0.0465266 337:0.192257 338:0.230641 339:-0.110875 340:-0.115651 341:-0.042521 342:-0.056436 343:-0.0695894 344:-0.37802 345:-0.0368629 346:0.140585 347:-0.00755525 348:-0.155564 349:-0.0131976 350:0.445145 351:-0.235718 352:0.0266325 353:-0.0710046 354:0.292778 355:-0.178977 356:-0.0294652 357:-0.663682 358:-0.369501 359:0.423552 360:0.42264 361:-0.210387 362:0.2093 363:0.513414 364:0.220214 365:0.167268 366:-0.00975421 367:-0.101217 368:-0.230234 369:-0.20816 370:-0.510013 371:-0.212987 372:0.0134403 373:-0.570591 374:-0.532679 375:-0.00902778 376:0.372008 377:0.525889 378:0.263127 379:-0.151806 380:-0.322578 381:0.25403 382:-0.00245626 383:-0.244327 384:-0.658255 385:-0.313882 386:-0.105784 387:-0.415852 388:-0.405942 389:0.398774 390:-0.176798 391:0.0516583 392:-0.375997 393:-0.345238 394:0.189124 395:-0.0601794 396:-0.676255 397:-0.367783 398:-0.176327 399:0.389106 400:-0.317965 401:-0.0851716 402:0.0770447 403:0.0263483 404:0.160538 405:0.0308711 406:-0.401633 407:-0.154756 408:-0.359072 409:0.242983 410:-0.339246 411:-0.257942 412:-0.584963 413:-0.47311 414:0.493036 415:0.455716 416:-0.161071 417:-0.0522339 418:0.406998 419:-0.0339676 420:0.167795 421:0.546547 422:0.0906805 423:-0.534428 424:0.165489 425:-0.266786 426:-0.330695 427:-0.393052 428:0.336556 429:0.108405 430:0.0263463 431:-0.573306 432:-0.261517 433:0.291356 434:0.439287 435:0.64313 436:-0.241804 437:-0.137185 438:0.121141 439:0.113025 440:-0.0056926 441:0.00827848 442:0.123653 443:0.245469 444:0.0784212 445:0.128262 446:-0.0346756 447:-0.283775 448:-0.721874 449:-0.301171 450:-0.17539 451:-0.191721 452:-0.287752 453:0.295519 454:-0.128386 455:0.0313467 456:-0.101967 457:-0.337482 458:0.151743 459:0.34619 460:0.418683 461:0.740627 462:0.194936 463:-0.186398 464:-0.264376 465:-0.376781 466:-0.25794 467:0.416167 468:0.215931 469:0.0909183 470:-0.397837 471:0.286468 472:0.197737 473:-0.0441329 474:-0.0453011 475:-0.0305977 476:-0.161662 477:-0.084027 478:-0.0599155 479:-0.34027 480:-0.248595 481:0.0198605 482:-0.141617 483:-0.178629 484:0.509839 485:-0.151174 486:-0.185416 487:0.408283 488:0.566788 489:0.305408 490:0.128083 491:-0.0597942 492:-0.099122 493:-0.396823 494:0.0455616 495:0.027579 496:-0.157024 497:-0.126111 498:0.325516 499:-0.192823 500:0.00434783 501:-0.567592 502:-0.310614 503:0.349931 504:-0.216396 505:-0.18294 506:0.65606 507:0.1976 508:-0.0165941 509:0.069516 510:-0.2289 511:-0.254877 512:0.0996195 513:-0.13079 514:-0.057595 515:0.069932 516:0.124191 517:0.00938453 518:0.0281651 519:0.286066 520:0.172469 521:-0.00404204 522:-0.0254991 523:0.429018 524:-0.230174 525:0.0573402 526:0.40916 527:0.380622 528:0.137035 529:0.103813 530:0.0533746 531:-0.326707 532:-0.753038 533:-0.108428 534:-0.156269 535:-0.0528299 536:0.165753 537:-0.221622 538:-0.346951 539:0.0685198 540:0.659911 541:0.0984863 542:-0.131842 543:0.267375 544:0.586942 545:0.268378 546:0.0967838 547:0.214376 548:-0.662829 549:-0.393738 550:0.388039 551:-0.363745 552:-0.18679 553:-0.163609 554:0.173795 555:-0.118416 556:-0.11543 557:0.176206 558:0.0412121 559:-0.315246 560:0.0812283 561:-0.0390303 562:-0.299453 563:0.347771 564:-0.168586 565:-0.273542 566:-0.49869 567:-0.162132 568:0.361969 569:-0.150886 570:0.081341 571:0.0772482 572:-0.078022 573:0.0901175 574:0.485918 575:-0.416075 576:-0.065935 577:0.102327 578:-0.565912 579:-0.537421 580:-0.365714 581:-0.365882 582:-0.451066 583:0.792703 584:0.339193 585:-0.0389462 586:-0.0163152 587:-0.0710327 588:0.134351 589:-0.0625147 590:0.550291 591:-0.212179 592:0.0548075 593:-0.286763 594:-0.0870406 595:-0.133624 596:0.148223 597:0.42476 598:0.0179101 599:0.0663735 600:-0.0457623 601:0.0167768 602:0.0567006 603:0.107829 604:-0.267214 605:-0.378824 606:-0.0880833 607:0.0713761 608:-0.179141 609:-0.513007 610:-0.173083 611:-0.00688457 612:0.00561665 613:0.0412933 614:-0.204982 615:0.26551 616:0.251982 617:-0.35907 618:-0.0833157 619:-0.179441 620:0.430288 621:0.154483 622:-0.262703 623:-0.506479 624:0.209111 625:0.0259902 626:-0.02095 627:-0.891448 628:0.0990124 629:0.472683 630:-0.138184 631:-0.425453 632:0.166044 633:-0.235426 634:-0.396446 635:0.53292 636:-0.230368 637:0.392178 638:0.027218 639:0.0438056 640:-0.245814 641:-0.459373 642:0.0738887 643:-0.0596899 644:-0.185379 645:-0.066935 646:-0.166845 647:-0.0521973 648:0.234358 649:-0.0267618 650:0.145831 
37.378360551307303 1:0.0132159 2:-0.0839161 3:0.459104 4:-0.0994764 5:-0.357088 6:0.162626 7:0.0239055 8:0.384931 9:0.0542099 10:-0.0427494 11:0.365012 12:-0.328086 13:0.122094 14:-0.280278 15:0.0457417 16:0.0383388 17:-0.132401 18:0.311638 19:-0.207748 20:0.00238998 21:-0.19434 22:0.106776 23:-0.0555844 24:0.268054 25:0.0882639 26:0.128482 27:0.262346 28:-0.205856 29:0.328534 30:-0.0442113 31:-0.0418484 32:0.40173 33:-0.353441 34:0.245792 35:-0.26266 36:0.0765237 37:0.314396 38:-0.0666211 39:0.171521 40:0.158557 41:0.120255 42:0.0211027 43:0.13633 44:-0.171679 45:-0.0772821 46:-0.242605 47:-0.121484 48:-0.323285 49:-0.337097 50:-0.425525 51:0.713231 52:0.529317 53:-0.0216276 54:-0.104026 55:-0.603442 56:-0.5164 57:-0.538401 58:-0.767219 59:0.471295 60:0.132728 61:0.0382418 62:0.361199 63:-0.0216388 64:0.440725 65:0.226115 66:-0.187855 67:-0.0219946 68:0.76217 69:0.0662182 70:-0.00904941 71:0.45266 72:0.25511 73:0.0220592 74:-0.0374234 75:-0.249765 76:-0.370481 77:-0.11616 78:0.0158645 79:-0.154358 80:0.732132 81:-0.471227 82:-0.771329 83:0.163691 84:-0.254004 85:-0.260232 86:0.29701 87:0.449471 88:-0.460825 89:0.18965 90:0.161231 91:-0.68905 92:0.0397454 93:0.195207 94:-0.519189 95:0.101578 96:-0.0118235 97:0.0309244 98:-0.548579 99:-0.119891 100:0.0697919 101:-0.760008 102:0.319075 103:0.137855 104:-0.643093 105:0.0774952 106:-0.059104 107:-0.292673 108:-0.0512623 109:-0.00824258 110:0.406801 111:-0.145127 112:-0.219148 113:0.0232791 114:-0.0507658 115:0.600871 116:0.40244 117:-0.51169 118:-0.181839 119:-0.0687298 120:0.164241 121:0.00205487 122:0.0257432 123:0.0599662 124:0.702514 125:0.501768 126:0.218333 127:-0.50927 128:-0.00578035 129:-0.294854 130:0.289764 131:-0.060589 132:0.131966 133:-0.192743 134:-0.530994 135:0.237781 136:0.140526 137:-0.09813 138:0.0541293 139:0.396539 140:-0.0303101 141:0.233228 142:0.27926 143:0.159711 144:0.0939443 145:0.205476 146:0.0388065 147:-0.134148 148:-0.313731 149:-0.0749052 150:-0.158451 151:-0.421801 152:0.687458 153:-0.0535197 154:-0.558927 155:0.00772656 156:-0.357115 157:-0.154406 158:0.0444375 159:0.123168 160:-0.17659 161:0.1701 162:-0.167215 163:0.00289436 164:0.566535 165:0.603448 166:0.284986 167:-0.726977 168:0.220452 169:-0.0231065 170:0.100955 171:-0.0493244 172:0.0162668 173:0.16736 174:-0.294886 175:-0.329151 176:0.298172 177:-0.112452 178:0.102783 179:-0.177232 180:0.0252973 181:0.0758117 182:-0.243691 183:0.174678 184:-0.255765 185:-0.108963 186:0.108941 187:0.0732759 188:0.12311 189:0.320446 190:-0.123626 191:0.307978 192:-0.144856 193:0.118837 194:-0.210513 195:-0.250221 196:-0.0495573 197:0.109274 198:-0.0746669 199:-0.55871 200:-0.0239669 201:-0.506785 202:0.95013 203:0.162924 204:0.920452 205:-0.680043 206:-0.0980066 207:0.0220441 208:-0.0704363 209:-0.0640027 210:-0.01476 211:0.11148 212:-0.0109707 213:-0.0814416 214:-0.0133333 215:0.608703 216:0.0528569 217:0.647225 218:-0.172199 219:-0.386382 220:-0.44 221:-0.413071 222:0.0578571 223:0.183122 224:-0.129578 225:-0.0798216 226:0.0187196 227:-0.308527 228:-0.252485 229:-0.182841 230:-0.207265 231:-0.17341 232:-0.150539 233:0.258525 234:0.581699 235:-0.0129218 236:-0.222996 237:0.0615459 238:-0.252868 239:0.171951 240:-0.00993308 241:0.404271 242:0.0304595 243:-0.341879 244:0.0364147 245:-0.366454 246:0.104602 247:0.476278 248:0.0585322 249:0.159197 250:-0.623521 251:-0.257115 252:-0.24201 253:-0.584926 254:-0.22715 255:-0.00319167 256:0.0945665 257:-0.427976 258:-0.453596 259:-0.0796629 260:-0.0316333 261:-0.109606 262:-0.195877 263:-0.223804 264:0.0159277 265:0.162072 266:0.378594 267:-0.0133618 268:-0.1386 269:-0.422698 270:-0.0157934 271:0.340763 272:-0.0628604 273:-0.458849 274:-0.183429 275:-0.155521 276:0.644232 277:0.351128 278:0.115683 279:0.620719 280:0.0429357 281:0.133922 282:-0.0816512 283:-0.174839 284:0.333862 285:-0.425252 286:-0.482443 287:0.161374 288:0.302463 289:-0.428592 290:-0.041313 291:-0.172119 292:-0.608016 293:-0.720779 294:-0.228368 295:0.0963768 296:-0.168983 297:0.0146838 298:0.149574 299:0.653039 300:-0.00732044 301:0.0118886 302:-0.146178 303:-0.308003 304:-0.0329041 305:0.231707 306:-0.449976 307:-0.225911 308:-0.0728555 309:-0.257793 310:0.858468 311:-0.0658999 312:-0.895804 313:-0.0489897 314:-0.0425876 315:-0.256721 316:-0.142961 317:-0.0913205 318:-0.163593 319:0.47105 320:0.10894 321:0.706997 322:-0.210497 323:-0.571605 324:-0.112598 325:0.0145765 326:-0.082953 327:-0.260715 328:-0.194075 329:0.265358 330:0.23752 331:0.527106 332:0.144538 333:-0.00508393 334:0.459532 335:-0.103303 336:-0.181604 337:-0.378397 338:-0.42304 339:-0.0291936 340:-0.153084 341:0.415657 342:0.0101876 343:-0.210874 344:-0.132747 345:0.0787754 346:0.469281 347:-0.514434 348:-0.198864 349:-0.147417 350:-0.191257 351:0.153405 352:-0.0716314 353:0.0514122 354:-0.282639 355:-0.0791741 356:0.566297 357:-0.27471 358:0.146628 359:0.0709922 360:0.58529 361:0.179978 362:-0.499239 363:-0.0931261 364:-0.257785 365:0.0720361 366:-0.158699 367:0.147078 368:-0.0741754 369:-0.0811895 370:-0.202103 371:0.0760136 372:0.109161 373:0.0307636 374:0.164104 375:-0.216667 376:0.397152 377:0.92968 378:0.300856 379:-0.450559 380:0.0978952 381:0.210249 382:-0.469213 383:0.251749 384:0.124441 385:0.0118857 386:-0.115401 387:0.127036 388:-0.231533 389:0.362097 390:-0.0308293 391:0.14195 392:0.193722 393:-0.1636 394:-0.0340102 395:-0.240262 396:-0.633368 397:-0.376878 398:-0.175803 399:0.450497 400:-0.338633 401:-0.564542 402:0.421306 403:-0.35 404:-0.15157 405:-0.23106 406:0.037986 407:-0.298245 408:-0.176715 409:0.0415331 410:0.213245 411:0.580686 412:0.606882 413:0.356105 414:0.489491 415:-0.415963 416:-0.113436 417:0.132959 418:0.0652267 419:-0.280455 420:0.164859 421:0.323746 422:-0.378981 423:-0.591499 424:-0.126444 425:-0.584602 426:0.240633 427:0.119667 428:0.0925735 429:0.243452 430:-0.269014 431:0.893839 432:-0.201367 433:-0.686915 434:0.78277 435:-0.0508451 436:-0.641998 437:-0.0889232 438:-0.3834 439:-0.278242 440:0.699297 441:0.201114 442:-0.431649 443:0.208857 444:-0.26644 445:-0.182056 446:0.330408 447:0.193924 448:-0.187452 449:-0.215896 450:-0.115618 451:-0.479568 452:0.184081 453:0.230601 454:-0.13549 455:-0.161409 456:0.104927 457:0.0735413 458:-0.126911 459:0.0356258 460:-0.123122 461:0.0438537 462:-0.437862 463:0.133051 464:-0.432256 465:-0.272365 466:-0.536092 467:0.0588714 468:0.519005 469:0.00778285 470:-0.466926 471:-0.315499 472:0.0523787 473:0.09497 474:0.728193 475:0.186731 476:-0.102838 477:-0.58599 478:-0.00275685 479:-0.191758 480:-0.188461 481:-0.0594692 482:0.153713 483:-0.00903427 484:0.0555756 485:0.0410534 486:-0.279028 487:0.103648 488:-0.339709 489:-0.409977 490:-0.110214 491:-0.0813685 492:0.124039 493:-0.00246245 494:-0.145695 495:0.0969218 496:0.00267886 497:-0.587141 498:-0.0316372 499:-0.125129 500:-0.686803 501:-0.714156 502:0.0267537 503:-0.548179 504:-0.118846 505:0.0983691 506:1 507:0.469438 508:0.0983018 509:-0.000382505 510:-0.497605 511:0.0393443 512:-0.0572751 513:-0.191702 514:-0.539073 515:-0.20351 516:0.354903 517:-0.209044 518:0.100621 519:0.411374 520:-0.36985 521:0.0627728 522:0.268376 523:0.286923 524:-0.614634 525:-0.0420888 526:0.35301 527:0.227766 528:-0.0971778 529:-0.137388 530:-0.401663 531:0.554015 532:0.249032 533:-0.767476 534:0.0710682 535:-0.328533 536:-0.0206234 537:0.137356 538:-0.243912 539:0.243272 540:-0.242047 541:-0.0526466 542:-0.0381024 543:-0.0332967 544:0.123206 545:-0.0784507 546:-0.147843 547:0.130553 548:0.0388846 549:-0.489503 550:-0.125617 551:-0.310368 552:-0.313247 553:-0.345919 554:0.188679 555:-0.134777 556:-0.294714 557:-0.0841103 558:0.177866 559:0.157934 560:0.0505987 561:0.129164 562:-0.157036 563:0.1908 564:0.149079 565:0.259324 566:-0.215721 567:-0.435251 568:0.109044 569:0.310937 570:-0.120974 571:-0.166978 572:-0.362279 573:-0.0181855 574:0.571089 575:0.29056 576:-0.453474 577:-0.037109 578:-0.143998 579:0.0210132 580:-0.222971 581:-0.659012 582:-0.759156 583:0.481481 584:0.270719 585:-0.55231 586:0.106794 587:-0.0626125 588:-0.522949 589:-0.346504 590:0.611596 591:0.214806 592:-0.223349 593:-0.199865 594:-0.656566 595:0.891738 596:0.232361 597:0.312668 598:-0.0961263 599:0.0397574 600:-0.537129 601:0.3084 602:0.201592 603:-0.10382 604:0.362112 605:-0.0170775 606:0.189109 607:0.567987 608:-0.525492 609:-0.0178111 610:-0.446624 611:0.0099077 612:-0.0523174 613:0.0246681 614:-0.1574 615:0.303465 616:0.136838 617:0.163721 618:0.122356 619:0.246347 620:-0.0810872 621:0.0567405 622:-0.246828 623:-0.37905 624:0.0756725 625:0.115721 626:0.0710263 627:-0.446626 628:0.118432 629:-0.00770137 630:-0.288704 631:-0.355371 632:0.337302 633:-0.0718126 634:0.322132 635:-0.138994 636:-0.243239 637:0.46757 638:-0.0217978 639:0.483889 640:-0.686821 641:-0.463248 642:0.37505 643:-0.560078 644:-0.444299 645:0.11989 646:0.456328 647:0.123105 648:0.472225 649:-0.266766 650:-0.118046 
11.388452881895946 1:0.0132159 2:-0.0839161 3:0.459104 4:-0.0994764 5:-0.357088 6:0.162626 7:0.0239055 8:0.384931 9:0.0542099 10:-0.0427494 11:0.365012 12:-0.328086 13:0.122094 14:-0.238361 15:0.423655 16:-0.204416 17:-0.100195 18:-0.123956 19:-0.533013 20:0.147849 21:-0.298659 22:0.446612 23:0.124717 24:0.0701215 25:0.0400757 26:0.104175 27:0.374172 28:-0.662751 29:0.344546 30:0.335971 31:-0.229232 32:-0.0455159 33:0.03117 34:-0.548289 35:0.0982006 36:-0.0233603 37:-0.126007 38:0.00928404 39:-0.12033 40:0.0711617 41:-0.12138 42:0.118746 43:0.216184 44:-0.00316711 45:0.156757 46:-0.137542 47:-0.0792225 48:-0.18444 49:-0.228147 50:-0.0685327 51:-0.12209 52:0.0927979 53:-0.0758337 54:-0.329368 55:-0.130202 56:0.15432 57:-0.509527 58:-0.88539 59:0.620294 60:0.0765918 61:0.680414 62:0.0334646 63:0.0265835 64:-0.513194 65:-0.0605096 66:0.0241916 67:-0.0165519 68:-0.0901214 69:-0.234676 70:-0.0563405 71:0.0190255 72:-0.0282565 73:-0.10499 74:-0.0435348 75:-0.10695 76:-0.0789829 77:-0.0293165 78:0.0372224 79:0.00160155 80:0.239437 81:0.00639399 82:-0.440139 83:0.0447188 84:-0.609331 85:-0.334363 86:-0.304274 87:0.459501 88:-0.492769 89:0.144904 90:0.0555556 91:0.0353902 92:-0.0495325 93:-0.187962 94:-0.112993 95:0.0599312 96:-0.222064 97:-0.184874 98:0.0176171 99:0.0967286 100:1 101:-0.653846 102:-0.454359 103:-0.51861 104:-0.316152 105:-0.105905 106:-0.154659 107:0.161156 108:-0.048757 109:0.418535 110:0.510846 111:-0.064579 112:0.14772 113:-0.241822 114:-0.0446075 115:-0.124728 116:-0.221307 117:0.270062 118:-0.0871534 119:-0.0170769 120:-0.0408261 121:-0.248597 122:0.299643 123:0.0501625 124:-0.221214 125:-0.072889 126:0.21615 127:-0.253878 128:0.294078 129:0.176276 130:0.152946 131:-0.0503095 132:0.117013 133:-0.272688 134:-0.583798 135:0.070927 136:0.101632 137:-0.14338 138:0.0351695 139:0.220767 140:-0.0974434 141:0.80771 142:-0.12576 143:0.406215 144:0.183504 145:0.100938 146:0.135492 147:0.162784 148:0.114984 149:-0.187389 150:-0.282535 151:-0.722185 152:-0.416271 153:-0.166354 154:-0.00775724 155:-0.352269 156:0.189949 157:0.0126214 158:-0.127852 159:0.089581 160:0.223117 161:-0.181167 162:0.241195 163:-0.126339 164:0.0986745 165:0.156461 166:0.0507594 167:-0.291138 168:0.228209 169:-0.0148738 170:0.0504613 171:0.105099 172:0.0483324 173:-0.0519058 174:0.357998 175:0.159267 176:0.200774 177:0.519617 178:0.352573 179:-0.167726 180:-0.0833297 181:-0.174461 182:-0.173132 183:0.053842 184:0.132797 185:-0.0886839 186:-0.305701 187:0.492098 188:0.0148803 189:0.141668 190:0.510359 191:0.0198024 192:-0.099619 193:0.23186 194:-0.214652 195:-0.196413 196:-0.212766 197:-0.17243 198:-0.0451972 199:-0.191521 200:0.353719 201:0.295049 202:0.125652 203:0.497546 204:0.440291 205:-0.119672 206:0.53343 207:-0.20612 208:-0.181854 209:0.0285326 210:-0.128058 211:-0.0899183 212:-0.0162162 213:-0.0594093 214:-0.128844 215:-0.268787 216:-0.156562 217:0.160019 218:0.116395 219:0.0437341 220:-0.103405 221:0.0966875 222:0.222937 223:-1 224:-0.104035 225:0.732887 226:-0.495762 227:-0.210387 228:0.11173 229:-0.463488 230:-0.10734 231:-0.276457 232:-0.0872506 233:-0.185676 234:0.275708 235:0.138995 236:-0.70799 237:0.196394 238:0.11437 239:0.473868 240:0.0457908 241:0.0101534 242:-0.283544 243:-0.264194 244:-0.153599 245:-0.182872 246:-0.692212 247:0.169994 248:-0.0182801 249:0.136455 250:0.308528 251:-0.297358 252:-0.789127 253:-0.196978 254:0.207554 255:0.325585 256:0.166598 257:0.0949143 258:0.806305 259:0.277814 260:-0.443733 261:-0.23726 262:-0.209332 263:-0.462522 264:-0.242497 265:0.363283 266:0.0946486 267:0.590893 268:0.316703 269:0.175374 270:0.195876 271:0.448243 272:0.176821 273:0.0386016 274:0.17381 275:-0.581901 276:-0.293703 277:0.525479 278:-0.369789 279:-0.107069 280:0.241485 281:-0.208241 282:-0.851388 283:0.0907312 284:0.0299865 285:0.204361 286:0.192807 287:-0.00450034 288:-0.0106263 289:-0.0267606 290:-0.205846 291:0.0928876 292:0.0504416 293:-0.349166 294:-0.0180723 295:0.0578939 296:-0.253648 297:0.260722 298:-0.00915073 299:0.168226 300:-0.268179 301:-0.131284 302:-0.313075 303:-0.360653 304:0.126943 305:-0.205814 306:0.4126 307:-0.0760226 308:0.395613 309:0.251248 310:0.55836 311:0.0841911 312:-0.519033 313:0.0926039 314:-0.275689 315:0.0220499 316:0.170605 317:0.0579436 318:0.521463 319:-0.224197 320:-0.500912 321:-0.0366911 322:-0.620166 323:-0.0483457 324:-0.617724 325:-0.0965872 326:-0.222862 327:1 328:-0.569793 329:-0.445808 330:0.321167 331:-0.769407 332:-0.299154 333:-0.0705036 334:-0.188113 335:0.0830512 336:0.290094 337:0.311386 338:-0.0664608 339:-0.0520914 340:-0.0774752 341:0.12987 342:-0.0407827 343:-0.0525318 344:-0.129898 345:-0.108569 346:-0.160914 347:-0.336716 348:-0.256857 349:-0.172466 350:-0.0485078 351:-0.267049 352:0.239702 353:-0.134115 354:0.0183684 355:0.129803 356:0.401615 357:0.198653 358:-0.73607 359:-0.11935 360:0.205947 361:-0.332707 362:-0.329022 363:-0.328958 364:-0.132992 365:0.0881443 366:-0.0205148 367:0.245081 368:-0.0855296 369:-0.117289 370:0.0712617 371:-0.0782044 372:-0.0650084 373:-0.395092 374:-0.156112 375:0.260684 376:0.0854791 377:0.489356 378:0.202108 379:-0.0723273 380:0.0454557 381:0.0146615 382:-0.0940444 383:-0.0586657 384:-0.11031 385:-0.139404 386:-0.167865 387:-0.0297503 388:-0.152659 389:0.398274 390:-0.173352 391:-0.194962 392:-0.157353 393:0.0460452 394:0.0467513 395:0.209282 396:-0.1697 397:0.418798 398:0.564071 399:0.376033 400:0.0859389 401:0.270833 402:-0.116838 403:-0.307781 404:-0.240673 405:0.301695 406:-0.150933 407:-0.801564 408:0.248186 409:0.0402787 410:-0.0128419 411:0.490047 412:0.0566816 413:0.122275 414:0.54039 415:-0.182235 416:-0.0984102 417:0.384478 418:-0.728311 419:0.231193 420:0.371367 421:-0.30808 422:0.0893396 423:-0.216234 424:-0.187333 425:-0.287019 426:-0.086139 427:-0.434029 428:0.0801893 429:-0.000238095 430:-0.261889 431:-0.211982 432:0.32362 433:0.0855987 434:0.599332 435:0.34133 436:0.0806474 437:0.0879036 438:-0.526272 439:0.130812 440:0.527179 441:0.0925316 442:0.32514 443:0.0902424 444:0.00627962 445:0.108991 446:-0.0747376 447:0.23217 448:-0.178169 449:0.0251879 450:-0.218638 451:-0.117616 452:-0.149046 453:0.00416612 454:-0.0422428 455:0.221984 456:-0.0287926 457:0.000177792 458:0.0174003 459:-0.181227 460:0.0993299 461:0.137783 462:-0.0468807 463:0.362001 464:-0.0280818 465:0.0933048 466:0.242782 467:-0.132567 468:0.071328 469:0.191984 470:-0.335412 471:-0.22368 472:0.119789 473:-0.665541 474:-0.0223841 475:-0.373749 476:-0.298425 477:-0.522224 478:-0.0992465 479:-0.56048 480:0.142502 481:0.242578 482:0.0485291 483:0.0915888 484:0.182912 485:-0.282135 486:-0.675372 487:-0.426561 488:0.308743 489:0.344197 490:0.273146 491:0.323885 492:-0.336976 493:0.0191086 494:-0.278161 495:0.158943 496:-0.801372 497:0.372958 498:0.421534 499:-0.396061 500:0.449981 501:0.00166894 502:0.415011 503:-0.500231 504:0.171731 505:-0.401717 506:-0.516046 507:0.0856224 508:-0.015006 509:-0.0924996 510:-0.315194 511:-0.333156 512:-0.0973779 513:-0.159067 514:-0.0996166 515:0.00411132 516:0.201759 517:0.154495 518:0.454527 519:-0.0421801 520:0.75535 521:-0.118432 522:0.163612 523:0.0979831 524:-0.580836 525:0.213225 526:-0.113831 527:0.730441 528:0.480387 529:0.246062 530:0.0899246 531:0.0461941 532:-0.290023 533:-0.208354 534:-0.0120549 535:-0.171299 536:0.138047 537:0.376216 538:0.0310727 539:0.191218 540:0.047585 541:-0.317212 542:-0.322324 543:-0.24148 544:0.577677 545:-0.129361 546:0.994515 547:-0.0110478 548:0.0314317 549:-0.127917 550:-0.183346 551:0.00580832 552:-0.11341 553:-0.0145378 554:0.126415 555:-0.141331 556:0.0882251 557:-0.0750709 558:-0.359789 559:0.130355 560:-0.126574 561:0.209333 562:0.075331 563:-0.130927 564:0.0452303 565:-0.0174701 566:0.342425 567:0.424668 568:0.356935 569:0.357806 570:0.25173 571:0.217749 572:-0.0938844 573:-0.0385986 574:-0.0960299 575:0.0991323 576:-0.175046 577:0.2049 578:0.334221 579:0.428037 580:0.818667 581:-0.0848514 582:-0.483344 583:-0.480652 584:-0.273174 585:-0.110214 586:0.126432 587:-0.186614 588:0.0740875 589:0.157168 590:-0.152535 591:-0.262447 592:-0.576113 593:-0.213026 594:-0.385558 595:0.293664 596:0.36145 597:0.210749 598:0.445242 599:0.114818 600:-0.249121 601:0.362671 602:0.0473242 603:0.209393 604:-0.312879 605:-0.533116 606:-0.00593783 607:-0.730502 608:0.0891563 609:0.0318256 610:-0.345015 611:0.78673 612:-0.0165161 613:-0.288607 614:0.0871605 615:0.0486797 616:0.224447 617:-0.0835659 618:0.291852 619:0.265533 620:0.254298 621:-0.22924 622:-0.342577 623:-0.0759908 624:0.0886511 625:0.181707 626:-0.0170992 627:-0.333387 628:0.028692 629:0.152252 630:-0.0552737 631:-0.896552 632:-0.516805 633:-0.071347 634:-0.3958 635:-0.390822 636:-0.267025 637:-0.287744 638:-0.193258 639:0.324167 640:-0.314585 641:-0.729231 642:0.146215 643:-0.496512 644:0.109072 645:0.0847278 646:0.0415998 647:0.0309346 648:0.64435 649:0.152714 650:0.336341 
73.136259194823296 1:0.0132159 2:-0.0839161 3:0.459104 4:-0.0994764 5:-0.357088 6:0.162626 7:0.0239055 8:0.384931 9:0.0542099 10:-0.0427494 11:0.365012 12:-0.328086 13:0.122094 14:-0.294963 15:0.558484 16:-0.301363 17:-0.272392 18:0.0400233 19:-0.506777 20:-0.143399 21:-0.38151 22:0.03734 23:0.112338 24:0.0312613 25:0.148891 26:0.173039 27:0.0108325 28:0.448762 29:0.240925 30:0.211767 31:-0.090784 32:-0.242839 33:0.144084 34:-0.603477 35:-0.447019 36:-0.238446 37:-0.137363 38:0.0165997 39:-0.0391292 40:0.0540262 41:0.113469 42:-0.125325 43:0.152448 44:0.281309 45:0.0217736 46:-0.234187 47:-0.169342 48:-0.260512 49:-0.25345 50:0.122515 51:0.344123 52:-0.216064 53:0.0676692 54:-0.376207 55:-0.706944 56:-0.2666 57:0.132587 58:-0.0440414 59:0.10494 60:0.230083 61:0.471493 62:0.0250875 63:0.156473 64:0.173848 65:-0.441019 66:0.0247692 67:0.18729 68:0.350278 69:-0.399904 70:-0.849176 71:-0.735717 72:0.356713 73:0.0665726 74:0.510705 75:0.027933 76:-0.00107271 77:0.307191 78:-0.0691589 79:0.00429369 80:-0.0881813 81:0.0218208 82:-0.00625543 83:-0.0914667 84:0.0908078 85:-0.109086 86:0.102889 87:0.122076 88:-0.125642 89:0.169904 90:-0.215515 91:-0.272716 92:-0.0442411 93:-0.049614 94:-0.131268 95:0.156384 96:0.287972 97:0.312773 98:0.611751 99:0.52706 100:0.733619 101:0.270212 102:-0.0209578 103:0.0644058 104:-0.133953 105:0.0454095 106:0.00240626 107:-0.215259 108:-0.139661 109:-0.132451 110:0.139412 111:-0.0664953 112:0.015384 113:0.265101 114:-0.0167518 115:-0.0450835 116:0.244867 117:-0.151776 118:-0.0450924 119:-0.296807 120:-0.276751 121:-0.303464 122:1 123:0.0449807 124:0.0800726 125:0.140584 126:0.113523 127:-0.783012 128:-0.183044 129:0.460159 130:0.214499 131:0.0301369 132:0.0129547 133:-0.0998116 134:-0.132847 135:0.0335393 136:-0.162837 137:-0.141579 138:-0.0783143 139:0.479215 140:-0.303393 141:0.216321 142:0.509379 143:0.0664151 144:-0.0304403 145:0.0263717 146:-0.220093 147:-0.118835 148:0.401233 149:0.473489 150:0.385634 151:0.164297 152:0.0922034 153:-0.122482 154:0.028315 155:0.207606 156:0.0418695 157:-0.124197 158:-0.043273 159:-0.121597 160:0.00553115 161:0.316 162:0.466382 163:0.0600579 164:0.301257 165:0.212644 166:-0.248464 167:-0.365552 168:0.315512 169:-0.0669045 170:0.0184173 171:-0.155865 172:-0.347267 173:-0.070045 174:0.23852 175:0.236771 176:0.210502 177:0.22564 178:0.295755 179:-0.26533 180:0.273341 181:0.000566572 182:0.0509479 183:0.0986703 184:0.106083 185:-0.0874788 186:-0.240432 187:0.250287 188:0.0488033 189:0.0318612 190:0.106865 191:0.22539 192:0.197925 193:0.0930233 194:0.00971305 195:-0.143517 196:-0.0999462 197:-0.0445723 198:-0.127806 199:-0.0881106 200:-0.0145179 201:0.0107628 202:-0.180737 203:0.095501 204:0.0521372 205:-0.0277813 206:0.176142 207:0.0407369 208:-0.448231 209:-0.0647414 210:0.00607773 211:0.297003 212:0.0140093 213:0.0451978 214:0.117185 215:0.54477 216:0.031286 217:-0.00378645 218:-0.446176 219:-0.432771 220:0.0188649 221:0.36443 222:-0.0808905 223:-0.0120285 224:-0.157764 225:0.0678662 226:0.114301 227:-0.332351 228:-0.0966203 229:0.0604549 230:0.0612922 231:-0.141238 232:-0.00981543 233:0.0231682 234:0.115795 235:0.0051687 236:-0.180068 237:-0.211444 238:-0.235837 239:0.243206 240:-0.137267 241:0.460932 242:0.561779 243:0.0199083 244:0.193904 245:-0.0547197 246:-0.308142 247:-0.308996 248:-0.132328 249:0.00137124 250:-0.40222 251:-0.451055 252:0.125535 253:-0.0751866 254:0.223282 255:0.157381 256:0.410829 257:0.0669568 258:-0.0910345 259:0.396139 260:-0.307248 261:-0.162352 262:0.198417 263:-0.254368 264:-0.348568 265:0.268824 266:-0.0942093 267:0.0416578 268:0.164478 269:0.0719508 270:0.0624296 271:0.0923687 272:0.00765812 273:-0.263074 274:0.10081 275:0.0469287 276:-0.0761044 277:0.211827 278:0.193828 279:-0.248861 280:-0.314342 281:-0.783174 282:0.0594164 283:-0.43828 284:-0.281401 285:-0.263623 286:-0.0636731 287:0.0174309 288:0.021788 289:-0.252113 290:-0.000678295 291:0.0652774 292:0.136073 293:-0.333915 294:0.0360168 295:0.204749 296:0.00301135 297:0.32566 298:0.301398 299:0.322556 300:-0.0129669 301:-0.165268 302:-0.347821 303:-0.032099 304:-0.0301574 305:-0.191447 306:-0.132332 307:-0.0606435 308:0.100823 309:-0.0681829 310:0.0980583 311:0.232406 312:-0.197416 313:-0.123904 314:0.363312 315:-0.119738 316:-0.193581 317:0.267366 318:0.194229 319:-0.474752 320:0.174032 321:0.149835 322:-0.312155 323:0.206099 324:-0.252932 325:-0.294819 326:-0.0341151 327:0.0229205 328:-0.146292 329:0.225412 330:0.108642 331:0.115475 332:-0.0618299 333:-0.236221 334:-0.281223 335:-0.434765 336:-0.150386 337:0.0830901 338:-0.138361 339:-0.098577 340:-0.00754497 341:0.0257456 342:-0.194696 343:0.174806 344:-0.223949 345:0.234811 346:0.264546 347:0.107803 348:0.0490596 349:0.093936 350:0.123357 351:-0.182007 352:0.0375425 353:0.0443046 354:-0.0815785 355:-0.0252603 356:0.494248 357:0.0415921 358:-0.00687317 359:0.257592 360:0.196661 361:-0.369095 362:-0.0299163 363:0.0931491 364:-0.282532 365:0.043256 366:0.117321 367:-0.0151668 368:-0.187734 369:0.104454 370:0.0560581 371:0.124359 372:0.241725 373:-0.113765 374:-0.118645 375:0.259829 376:0.108836 377:-0.19544 378:0.19816 379:-0.0794183 380:-0.0159666 381:0.0276599 382:0.0430182 383:-0.206935 384:-0.143908 385:-0.0200246 386:-0.020868 387:-0.287731 388:-0.0793106 389:0.287258 390:-0.269194 391:-0.0674699 392:-0.0224419 393:-0.514528 394:0.133604 395:0.370444 396:-0.138093 397:-0.0875033 398:-0.0694832 399:0.94086 400:-0.00423953 401:0.120551 402:0.051268 403:-0.552528 404:-0.0980942 405:0.0865432 406:-0.240863 407:-0.436664 408:0.227535 409:0.107972 410:-0.192594 411:-0.0889454 412:0.116074 413:-0.129778 414:0.279537 415:-0.256251 416:-0.0856677 417:-0.0722798 418:0.372367 419:0.0116308 420:0.0292842 421:0.0688618 422:-0.24824 423:-0.110249 424:0.208 425:0.186571 426:0.0715919 427:-0.110997 428:0.213125 429:0.00907143 430:-0.155924 431:0.0706281 432:-0.252157 433:-0.219033 434:0.591905 435:0.271129 436:0.11855 437:0.060859 438:-0.144601 439:-0.23135 440:0.0496707 441:-0.178937 442:-0.407374 443:-0.0165714 444:-0.117995 445:-0.243738 446:-0.447944 447:0.264641 448:-0.24899 449:0.499199 450:0.0513337 451:-0.0852001 452:0.132291 453:-0.206995 454:-0.238871 455:0.0200571 456:-0.00582787 457:-0.0658639 458:-0.150368 459:-0.286555 460:0.0821443 461:0.108251 462:-0.0877048 463:0.252249 464:0.0556376 465:-0.144644 466:-0.0928032 467:0.0126463 468:0.0110277 469:0.144039 470:-0.679688 471:-0.0891075 472:-0.0315357 473:-0.469219 474:0.121798 475:0.0446812 476:-0.0994141 477:-0.107539 478:0.151443 479:-0.236245 480:-0.0774186 481:-0.0419028 482:0.071512 483:-0.0300623 484:0.0532634 485:-0.0908185 486:-0.035235 487:0.0785523 488:-0.138388 489:-0.198241 490:-0.137025 491:-0.347806 492:-0.041522 493:0.0939424 494:-0.261048 495:0.0681364 496:0.0610911 497:0.0279305 498:0.044528 499:-0.221357 500:-0.184571 501:-0.57624 502:-0.333223 503:-0.405256 504:-0.347939 505:0.00618026 506:0.184915 507:0.1732 508:-0.0763932 509:0.0651588 510:-0.286538 511:-0.424795 512:0.368226 513:-0.28284 514:0.0892994 515:0.266856 516:0.244732 517:-0.0769783 518:0.258534 519:0.249408 520:0.175152 521:-0.0200485 522:0.132054 523:0.0772674 524:-0.494425 525:0.20455 526:-0.338252 527:0.208388 528:0.854712 529:0.411486 530:0.0249468 531:-0.200105 532:-0.0734284 533:0.0746158 534:-0.0664466 535:0.230241 536:-0.163713 537:-0.235676 538:-0.152948 539:-0.749292 540:0.0230986 541:0.175838 542:-0.152425 543:0.0488237 544:0.381599 545:0.29515 546:0.155697 547:0.0958508 548:0.228891 549:-0.184309 550:-0.261166 551:-0.259209 552:-0.48423 553:-0.373677 554:-0.754088 555:-0.410615 556:0.124164 557:0.197892 558:0.532016 559:-0.0280025 560:-0.10506 561:-0.0346667 562:-0.0891678 563:-0.126398 564:-0.0396711 565:0.270036 566:0.246006 567:0.325765 568:0.318352 569:0.171359 570:0.00947268 571:0.0969042 572:-0.350334 573:0.18793 574:0.313709 575:-0.100026 576:-0.0335082 577:-0.364312 578:-0.525965 579:-0.503886 580:-0.477714 581:-0.239869 582:0.0434513 583:0.212272 584:0.0641496 585:-0.39181 586:-0.0892439 587:0.0175027 588:-0.0439465 589:-0.307726 590:0.143682 591:-0.13809 592:0.748139 593:0.766473 594:0.535783 595:0.104521 596:-0.0199116 597:0.195393 598:-0.389622 599:0.00528596 600:-0.360535 601:-0.0717084 602:-0.183653 603:0.556539 604:0.0714235 605:-0.1015 606:0.126827 607:0.74214 608:-0.203416 609:0.408015 610:-0.0697827 611:-0.50657 612:0.0223409 613:0.516372 614:-0.0908565 615:0.0691196 616:-0.106925 617:-0.462636 618:-0.158801 619:-0.591212 620:-0.166003 621:0.122386 622:-0.308867 623:-0.0302106 624:-0.293246 625:-0.0528787 626:-0.0757422 627:-0.452498 628:-0.0695515 629:0.443508 630:0.486625 631:0.198958 632:0.344838 633:0.0650248 634:-0.194787 635:-0.116914 636:-0.20422 637:-0.366699 638:0.185393 639:0.131528 640:-0.210686 641:-0.21332 642:0.442932 643:0.304748 644:0.00632008 645:0.0578267 646:-0.18369 647:0.302105 648:0.189471 649:-0.0240153 650:-0.000995644 
7.8068510177876087 1:0.0132159 2:-0.0839161 3:0.459104 4:-0.0994764 5:-0.357088 6:0.162626 7:0.0239055 8:0.384931 9:0.0542099 10:-0.0427494 11:0.365012 12:-0.328086 13:0.122094 14:-0.242638 15:-0.277499 16:-0.269967 17:-0.0305791 18:-0.0876239 19:0.318059 20:-0.127411 21:-0.0808751 22:-0.0341934 23:0.120961 24:-0.0153373 25:0.365062 26:0.308679 27:0.0664617 28:-0.0260257 29:-0.136344 30:-0.145811 31:0.335151 32:0.0533349 33:-0.393034 34:-0.328519 35:0.479478 36:-0.0804824 37:-0.039011 38:0.0212485 39:-0.0772286 40:-0.272064 41:-0.0330865 42:0.647006 43:0.300366 44:-0.345565 45:0.814827 46:0.350754 47:-0.286703 48:0.511692 49:0.322668 50:0.525936 51:0.239239 52:0.269344 53:0.135692 54:-0.269015 55:-0.339369 56:-0.14632 57:-0.377922 58:0.180817 59:-0.850067 60:-0.160458 61:0.747123 62:0.107283 63:0.114594 64:0.576211 65:0.296561 66:-0.138386 67:0.330719 68:0.443549 69:-0.187506 70:-0.114566 71:-0.00862763 72:-0.168838 73:-0.246827 74:0.0145996 75:-0.462346 76:0.684148 77:-0.160806 78:-0.334813 79:-0.206526 80:-0.0578252 81:-0.145564 82:0.0340573 83:0.119306 84:0.0615773 85:-0.0260592 86:-0.219294 87:0.693666 88:0.334772 89:0.177229 90:-0.287267 91:-0.308832 92:-0.200716 93:0.75558 94:0.20214 95:-0.594468 96:0.115445 97:-0.237983 98:-0.927803 99:0.173546 100:-0.217267 101:-0.706633 102:0.311912 103:-0.142928 104:0.946958 105:-0.181143 106:0.534406 107:-0.0442711 108:-0.514935 109:0.338458 110:-0.179044 111:-0.829867 112:0.015384 113:0.184427 114:-0.465539 115:0.262155 116:0.0703303 117:0.21332 118:-0.0362463 119:-0.166859 120:0.266326 121:0.251986 122:-0.318668 123:0.253218 124:-0.359592 125:-0.659372 126:-0.0726601 127:0.0304578 128:0.578934 129:-0.0892308 130:0.0314146 131:0.0834365 132:0.0606188 133:-0.488252 134:-0.823221 135:-0.588764 136:0.28688 137:0.0396197 138:0.506916 139:0.248796 140:0.45018 141:0.680343 142:0.194452 143:-0.0421754 144:-0.171968 145:0.332619 146:0.453309 147:-0.163494 148:0.286046 149:-0.328669 150:0.798028 151:-0.0384789 152:-0.261322 153:-0.411113 154:-0.0740464 155:0.610543 156:-0.191043 157:-0.0958178 158:0.407868 159:-0.029354 160:-0.739222 161:-0.798 162:-0.201281 163:0.751085 164:0.525047 165:-0.0138724 166:0.360928 167:-0.291659 168:-0.213296 169:-0.180534 170:-0.0820795 171:0.0121051 172:-0.169901 173:-0.345114 174:0.530577 175:-0.0735772 176:0.766995 177:0.148278 178:0.153709 179:0.548949 180:-0.0725189 181:0.154369 182:-0.0601381 183:0.233134 184:0.00705856 185:-0.247524 186:0.491345 187:-0.323994 188:0.0972262 189:-0.698321 190:-0.448303 191:-0.462446 192:-0.419136 193:-0.598837 194:-0.845099 195:0.0475448 196:-0.326143 197:-0.074982 198:0.494383 199:0.153733 200:0.785124 201:0.257015 202:0.509615 203:0.157975 204:0.743147 205:-0.137953 206:0.240386 207:0.12271 208:-0.223052 209:-0.126528 210:-0.412666 211:0.129629 212:0.683192 213:0.326584 214:0.318815 215:0.478159 216:-0.50848 217:0.304798 218:0.210655 219:-0.328511 220:-0.600541 221:-0.645797 222:-0.11352 223:-0.235182 224:0.0109705 225:0.0750056 226:-0.160794 227:-0.0772485 228:-0.363154 229:-0.194074 230:-0.0294601 231:-0.449714 232:0.20973 233:0.0650154 234:0.251525 235:0.217732 236:-0.241231 237:0.0277437 238:-0.16097 239:-0.221829 240:-0.422684 241:-0.569925 242:0.361706 243:-0.694643 244:-0.594746 245:0.555004 246:-0.580177 247:0.879236 248:-0.259478 249:0.687291 250:-0.181139 251:-0.620848 252:-0.355848 253:-0.0982341 254:-0.613253 255:-0.521596 256:0.0975199 257:-0.402774 258:0.338325 259:0.271425 260:-0.202065 261:-0.444789 262:-0.0484999 263:-0.266512 264:-0.356173 265:0.327126 266:-0.48742 267:0.831021 268:-0.349147 269:0.866907 270:0.628441 271:0.245127 272:0.676581 273:-0.50352 274:-0.148476 275:0.00722121 276:0.599964 277:0.0846589 278:0.0205739 279:-0.64029 280:0.498396 281:-0.784646 282:-0.254377 283:-0.431183 284:-0.286473 285:-0.234027 286:-0.20415 287:-0.300472 288:-0.0992148 289:0.186761 290:-0.293282 291:0.11623 292:0.144384 293:0.609997 294:-0.750274 295:-0.109929 296:0.550845 297:0.316453 298:0.483858 299:-0.31385 300:-0.282766 301:-0.161464 302:0.062619 303:-0.185153 304:-0.155861 305:-0.179151 306:0.684674 307:-0.441554 308:0.0622601 309:0.752925 310:0.0537217 311:0.0188322 312:0.149764 313:0.345787 314:-0.688201 315:-0.404866 316:0.406565 317:-0.885144 318:0.834658 319:-0.675107 320:0.10521 321:-0.621459 322:-0.364871 323:0.383457 324:-0.320374 325:-0.0334498 326:-0.162493 327:-0.0798408 328:-0.291967 329:-0.479891 330:0.074253 331:0.0816696 332:0.461991 333:0.770743 334:-0.000955566 335:0.0606936 336:0.278516 337:0.334381 338:0.00443468 339:-0.33053 340:-0.324303 341:-0.104939 342:-0.176229 343:0.5302 344:0.0575339 345:0.265741 346:-0.36339 347:0.445873 348:-0.173393 349:0.161736 350:0.34174 351:-0.399745 352:-0.177007 353:-0.223597 354:0.028604 355:-0.551167 356:0.822805 357:0.772361 358:0.445748 359:0.618468 360:1 361:0.0615871 362:0.527197 363:0.134139 364:-0.208535 365:0.363832 366:-0.552545 367:0.187728 368:0.249959 369:-0.049101 370:1 371:-1 372:-0.299365 373:-0.369163 374:-0.377718 375:0.858333 376:-0.455519 377:-0.689328 378:0.375729 379:0.0733909 380:0.0628428 381:-0.207534 382:0.0424966 383:0.328602 384:-1 385:-0.512131 386:-0.506625 387:0.127904 388:0.339954 389:-0.0608065 390:-0.48748 391:0.306988 392:-0.836975 393:-0.0898285 394:0.200381 395:-0.23377 396:0.455718 397:0.233061 398:0.519553 399:0.21178 400:0.267444 401:0.186969 402:-0.0428351 403:-0.147135 404:-0.352915 405:-0.385416 406:0.307737 407:0.201738 408:0.223345 409:0.149993 410:0.422632 411:-0.501271 412:0.954278 413:0.174419 414:0.152621 415:-0.213414 416:0.181984 417:0.0571866 418:0.0828633 419:0.123617 420:-0.176862 421:0.202054 422:0.202984 423:-0.0717691 424:0.530222 425:-0.293894 426:0.248549 427:0.00336534 428:0.141576 429:0.052381 430:-0.202651 431:0.216931 432:-0.0360378 433:-0.196987 434:0.54326 435:0.220733 436:0.882418 437:-0.101962 438:-0.520922 439:0.235311 440:-0.274249 441:0.437975 442:-0.474435 443:0.0521347 444:-0.212233 445:0.319252 446:0.16486 447:0.89011 448:0.165793 449:-0.0919285 450:-0.611307 451:0.000821512 452:0.0822279 453:-0.0504918 454:-0.293616 455:0.15477 456:-0.130556 457:0.168903 458:0.210224 459:-0.33829 460:-0.4108 461:0.240535 462:0.266755 463:0.561173 464:-0.622635 465:-0.30584 466:0.769249 467:0.256126 468:0.210629 469:0.198884 470:-0.327657 471:0.34501 472:0.0560979 473:-0.98461 474:0.036987 475:-0.500429 476:-0.337605 477:-0.814041 478:-0.181584 479:0.438664 480:-0.0387093 481:0.0988529 482:0.069747 483:-0.0475389 484:0.335848 485:0.0499644 486:-0.743873 487:0.318633 488:0.485428 489:-0.0913126 490:-0.469579 491:-0.0507673 492:0.459122 493:0.0525733 494:-0.275206 495:-0.0859817 496:-0.401666 497:0.504031 498:0.580531 499:0.480088 500:-0.0640631 501:-0.785768 502:0.519408 503:0.263255 504:-0.765607 505:-0.939485 506:0.435206 507:0.28483 508:0.243865 509:0.20306 510:-0.426067 511:-0.264631 512:-0.491003 513:-0.206961 514:-0.499338 515:-0.100253 516:-0.732371 517:0.00644177 518:0.406851 519:0.244976 520:0.596295 521:-0.227971 522:-0.19147 523:0.401431 524:-0.199495 525:0.475041 526:0.0831099 527:1 528:-0.106327 529:0.0883948 530:0.29414 531:-0.0324353 532:0.178005 533:-1 534:-0.0458717 535:-0.231748 536:0.459163 537:0.799228 538:0.03548 539:0.093272 540:0.0398488 541:0.115042 542:-0.0974328 543:-0.358739 544:0.270157 545:-0.34571 546:0.0869609 547:-0.15021 548:-0.0435747 549:0.282627 550:-0.0314913 551:0.382333 552:-0.281039 553:0.115737 554:0.117673 555:0.238753 556:0.299566 557:-0.0157073 558:0.284954 559:-0.0636465 560:-0.0233893 561:0.00509091 562:0.486333 563:0.044218 564:-0.771382 565:0.405005 566:0.438495 567:-0.0080431 568:0.0531877 569:0.647932 570:1 571:-0.0747912 572:-0.391209 573:-0.0434994 574:-0.0210383 575:0.498817 576:0.383101 577:0.420171 578:0.330036 579:-0.239378 580:-0.806857 581:-0.548437 582:-0.237327 583:0.165755 584:-0.720397 585:-0.58152 586:-0.0551651 587:-0.0093127 588:0.00704734 589:0.170388 590:0.62074 591:-0.443422 592:0.778552 593:0.325403 594:0.348807 595:0.69853 596:0.125464 597:0.846449 598:-0.463893 599:0.181629 600:-0.676988 601:-0.169042 602:-0.612207 603:0.927168 604:0.151909 605:-0.289442 606:-0.0330518 607:-0.0700286 608:-0.0319617 609:-0.0536677 610:0.226307 611:-0.304485 612:-0.268853 613:-0.168888 614:-0.0602603 615:0.0944577 616:0.887776 617:0.670698 618:0.427725 619:-0.345064 620:-0.290728 621:0.557258 622:-0.06546 623:0.087257 624:-0.304536 625:-0.105676 626:0.78592 627:-0.433158 628:-0.260912 629:0.361964 630:-0.121968 631:0.0179236 632:-0.238131 633:-0.311608 634:-0.242649 635:-0.402793 636:0.232975 637:-0.801355 638:0.151685 639:0.378056 640:-0.772721 641:0.354302 642:0.443332 643:0.281202 644:-0.370031 645:-0.607498 646:-0.134996 647:-0.100249 648:0.22213 649:-0.23185 650:-0.0201929 
42.230750973337244 1:0.0132159 2:-0.0839161 3:0.459104 4:-0.0994764 5:-0.357088 6:0.162626 7:0.0239055 8:0.384931 9:0.0542099 10:-0.0427494 11:0.365012 12:-0.328086 13:0.122094 14:-0.29097 15:0.0326726 16:0.214076 17:0.241813 18:-0.097144 19:-0.655969 20:-0.190704 21:-0.141468 22:-0.0679673 23:0.228571 24:0.167236 25:0.142509 26:0.4915 27:-0.0507096 28:0.360925 29:0.119241 30:-0.495785 31:0.45379 32:0.29795 33:0.280418 34:-0.258583 35:-0.21957 36:-0.202541 37:0.204212 38:0.167772 39:-0.847308 40:0.109556 41:-0.231606 42:0.221329 43:0.351648 44:-0.328512 45:0.0862086 46:0.236759 47:-0.0159476 48:-0.446526 49:-0.0083647 50:0.123848 51:0.241624 52:0.170013 53:0.0196816 54:-0.589543 55:-0.802797 56:0.0192 57:0.283245 58:-0.205208 59:0.208011 60:0.347585 61:0.215255 62:0.239895 63:0.636145 64:0.241533 65:0.67465 66:-0.117058 67:-0.31295 68:-0.0688483 69:0.298991 70:0.948799 71:-0.00527492 72:-0.453707 73:-0.0960085 74:0.550316 75:0.299665 76:0.246722 77:0.0499348 78:0.342757 79:-0.247617 80:5.24888e-05 81:-0.380899 82:-0.438401 83:0.456199 84:-0.16539 85:0.247362 86:0.198513 87:-0.0110106 88:0.284265 89:0.190287 90:0.0731159 91:0.407743 92:0.0498906 93:-0.1985 94:-0.15458 95:0.12977 96:0.439431 97:0.0640336 98:-0.395929 99:-0.371971 100:0.238506 101:-0.224647 102:-0.23946 103:0.394376 104:1 105:-0.0425714 106:0.0870291 107:-0.34158 108:-0.424552 109:-0.364296 110:0.563603 111:0.373841 112:0.833836 113:-0.186835 114:0.493937 115:0.316038 116:0.288563 117:-0.771262 118:-0.0656654 119:-0.043677 120:0.0190991 121:0.220845 122:0.125287 123:-0.0898488 124:0.121016 125:-0.485853 126:0.132712 127:-0.0759554 128:-0.127399 129:0.321931 130:0.109367 131:0.109998 132:-0.0866158 133:-0.121186 134:0.0454247 135:-0.371067 136:0.350649 137:0.0110503 138:-0.0806439 139:0.0702409 140:-0.778944 141:0.355726 142:0.148507 143:0.279423 144:0.0644672 145:0.232301 146:0.172033 147:0.139631 148:-0.0965747 149:0.157717 150:0.326197 151:-0.156037 152:-0.0171186 153:-0.209988 154:0.13074 155:-0.0923095 156:-0.0790522 157:-0.0165571 158:0.0572872 159:0.184231 160:0.128551 161:0.0212667 162:0.368196 163:-0.0991317 164:0.179773 165:-0.2174 166:-0.472696 167:-0.178975 168:0.381348 169:-0.144475 170:0.101232 171:-0.113075 172:-0.125664 173:0.228274 174:0.257236 175:-0.0136415 176:-0.0497539 177:-0.117996 178:-0.115534 179:-0.91198 180:0.243027 181:0.32981 182:-0.36221 183:-0.0447956 184:-0.133738 185:-0.158091 186:-0.420359 187:0.702227 188:0.642416 189:0.749683 190:0.695166 191:0.741421 192:0.164903 193:0.233256 194:0.40579 195:-0.166333 196:-0.346784 197:0.08555 198:-0.288688 199:-0.694009 200:0.306061 201:-0.113524 202:1 203:-0.09591 204:-0.22695 205:0.563938 206:0.55814 207:0.419442 208:0.0637074 209:-0.0539624 210:-0.230784 211:0.395806 212:0.384935 213:0.252276 214:0.239259 215:0.176736 216:0.111312 217:-0.276341 218:0.0195305 219:0.195086 220:0.275405 221:0.019132 222:-0.0384921 223:-0.0182687 224:0.317932 225:0.0666444 226:0.0241298 227:-0.165249 228:-0.117137 229:-0.839585 230:0.521108 231:-0.292095 232:0.330631 233:0.0506144 234:0.199194 235:-0.0613065 236:1 237:0.0690708 238:-0.208125 239:0.224216 240:-0.474463 241:0.302977 242:-0.296723 243:-0.324792 244:0.127973 245:-0.413769 246:-0.241699 247:-0.494147 248:-0.0403512 249:-0.157943 250:0.0651458 251:0.582061 252:-0.362438 253:0.267795 254:-0.229986 255:-0.123938 256:0.500379 257:-0.289457 258:0.198227 259:-0.40348 260:-0.269461 261:-0.0848787 262:-0.231401 263:-0.381367 264:-0.127686 265:-0.203109 266:0.10609 267:0.247599 268:0.822584 269:-0.610046 270:-0.0500585 271:0.31054 272:-0.599772 273:-0.153071 274:0.136143 275:-0.194223 276:0.191978 277:0.31464 278:-0.4427 279:0.00391429 280:0.514587 281:0.199902 282:-0.935943 283:0.270753 284:-0.058721 285:-0.569475 286:-0.286018 287:-0.023894 288:-0.187009 289:-0.0778028 290:-0.181363 291:0.498293 292:0.728714 293:-0.148968 294:-0.307119 295:0.350293 296:0.546908 297:0.780228 298:0.407156 299:0.656459 300:-0.0400712 301:-0.0871773 302:0.145577 303:-0.353282 304:-0.566619 305:0.322753 306:0.296556 307:-0.195961 308:-0.783392 309:0.0599689 310:0.820065 311:0.402679 312:-0.428452 313:0.289363 314:-0.904794 315:-0.0788777 316:0.335522 317:-0.979711 318:0.358808 319:-0.153858 320:-0.0784107 321:0.288501 322:-0.0543969 323:0.0625778 324:-0.516725 325:0.114638 326:-0.23199 327:-0.171032 328:-0.130098 329:-0.208044 330:-0.0887458 331:0.488165 332:0.480532 333:0.348297 334:0.132155 335:0.103303 336:0.253431 337:0.54278 338:-0.170071 339:-0.110203 340:-0.145175 341:0.415657 342:0.0236093 343:-0.447497 344:-0.133724 345:0.251854 346:-0.16245 347:-0.0625169 348:-0.63029 349:0.05995 350:0.134931 351:-0.512837 352:-0.115709 353:0.227172 354:0.00471065 355:-0.417145 356:0.614934 357:-0.0661643 358:0.880205 359:0.447387 360:0.0411946 361:0.539079 362:0.0842526 363:0.150835 364:-0.419704 365:-0.172251 366:-0.107277 367:0.0749738 368:-0.073761 369:0.631674 370:0.199599 371:0.516657 372:-0.167101 373:-0.310108 374:0.256079 375:0.0492308 376:0.119398 377:-0.251037 378:-0.0952937 379:-0.0230745 380:-0.0182661 381:-0.253351 382:0.455922 383:-0.33651 384:0.494448 385:-0.419072 386:-0.246053 387:0.285993 388:-0.323211 389:0.91129 390:0.164255 391:0.233078 392:-0.0352064 393:-0.0967641 394:0.696701 395:-0.200598 396:0.218968 397:-0.901134 398:-0.565817 399:0.1388 400:-0.376506 401:0.793709 402:-0.144674 403:-0.864607 404:-0.0462422 405:-0.150177 406:0.320179 407:-0.152042 408:0.631575 409:0.542439 410:-0.330608 411:-0.400254 412:-0.714589 413:-0.232122 414:0.381236 415:-0.330484 416:0.237979 417:0.0689303 418:0.161389 419:0.291481 420:0.504989 421:0.104834 422:0.380489 423:-0.558792 424:-0.0892 425:0.206446 426:-0.432366 427:-0.271701 428:-0.262909 429:-0.374524 430:-0.0792046 431:0.000887523 432:0.042813 433:0.422205 434:0.534905 435:-0.330698 436:-0.252372 437:0.112282 438:-0.920016 439:-0.0174007 440:0.0227704 441:-0.303544 442:0.542103 443:0.0975755 444:-0.174171 445:0.368972 446:0.426777 447:-0.253178 448:-0.203094 449:-0.290943 450:0.182687 451:-0.813678 452:-0.408414 453:-0.264699 454:-0.442697 455:0.597906 456:0.0657221 457:0.0835623 458:0.0426757 459:-0.0724442 460:-0.351991 461:0.00353411 462:0.326163 463:0.621447 464:-0.470943 465:-0.0247009 466:0.138354 467:-0.00292425 468:0.374871 469:0.217149 470:-0.0421042 471:0.0368522 472:-0.27894 473:-0.605856 474:-0.0385148 475:-0.261224 476:-0.716221 477:-0.265431 478:-0.62415 479:0.00278313 480:0.019423 481:-0.045659 482:-0.0398683 483:-0.0942056 484:0.352739 485:-0.291103 486:-0.37505 487:0.083557 488:1 489:0.671299 490:-0.0459596 491:0.177469 492:0.038361 493:0.202167 494:-0.38241 495:0.193261 496:-0.125956 497:-0.122597 498:0.497345 499:0.0991685 500:0.461331 501:-0.717949 502:-0.113291 503:0.405486 504:-0.81437 505:-0.0863734 506:0.0814353 507:-0.291512 508:0.301794 509:-0.523033 510:-0.213606 511:0.215779 512:0.580051 513:0.247477 514:-0.254096 515:0.187065 516:0.125485 517:0.00306837 518:0.444311 519:0.599526 520:0.193037 521:0.0797482 522:0.0710073 523:-0.187899 524:-0.287631 525:0.0695708 526:0.130928 527:0.102242 528:0.467346 529:-0.0275174 530:-0.026668 531:0.324876 532:0.0619355 533:-0.845811 534:-0.0368175 535:-0.393168 536:-0.526888 537:0.195985 538:0.0451197 539:0.500531 540:0.199176 541:0.58016 542:0.0515388 543:0.659704 544:0.389679 545:0.343976 546:-0.137821 547:0.0822716 548:-0.143788 549:-0.153235 550:0.105526 551:0.0170668 552:-0.206382 553:-0.853329 554:-0.399371 555:-0.211289 556:-0.231493 557:0.108208 558:-0.496179 559:0.951462 560:0.0100309 561:0.51903 562:0.461632 563:-0.0389667 564:-0.532566 565:-0.0343753 566:0.456769 567:-0.293054 568:-0.0232333 569:0.298869 570:-0.120974 571:-0.0331204 572:-0.215289 573:-0.0103281 574:0.0352901 575:0.144886 576:0.116036 577:0.0803593 578:-0.324139 579:-0.110305 580:0.344 581:-0.059147 582:0.540865 583:0.13314 584:0.306511 585:0.140321 586:0.23689 587:0.00767182 588:-0.172841 589:0.367949 590:-0.0854115 591:0.179325 592:-0.755425 593:0.0110521 594:-0.477756 595:-0.340699 596:0.541291 597:-0.204107 598:0.0949307 599:0.161482 600:0.241039 601:-0.314299 602:-0.350907 603:0.025134 604:-0.183241 605:-1 606:-1 607:-0.0616578 608:-0.130228 609:0.621983 610:0.539401 611:-0.485938 612:-0.0451689 613:0.0707778 614:-0.178612 615:0.00114909 616:0.877764 617:0.035814 618:0.150787 619:0.362561 620:-0.201096 621:0.420791 622:0.407838 623:0.24514 624:-0.471628 625:0.259412 626:0.151925 627:0.228013 628:0.0319337 629:0.0250557 630:0.176022 631:-0.143711 632:0.168953 633:-0.743805 634:-0.422725 635:0.524717 636:-0.411209 637:-0.224201 638:-0.133483 639:0.385139 640:-0.110428 641:-0.619601 642:0.153644 643:-0.156783 644:0.595457 645:-0.662783 646:-0.806373 647:0.836162 648:0.128691 649:0.144347 650:-0.564095 
9.5946762784646342 1:0.0132159 2:-0.0839161 3:0.459104 4:-0.0994764 5:-0.357088 6:0.162626 7:0.0239055 8:0.384931 9:0.0542099 10:-0.0427494 11:0.365012 12:-0.328086 13:0.122094 14:-0.250676 15:0.292311 16:0.230292 17:0.116027 18:-0.354575 19:-0.0864889 20:-0.703313 21:-0.589273 22:-0.161947 23:-1 24:0.427574 25:-0.171174 26:0.213987 27:-0.0051561 28:0.0277661 29:-0.172557 30:-0.23936 31:0.02554 32:0.447933 33:0.198058 34:-0.390235 35:0.250853 36:-0.146511 37:-0.117033 38:0.831838 39:-0.14722 40:-0.0458664 41:0.331521 42:0.505491 43:-0.111056 44:-0.290141 45:-0.79377 46:-0.427102 47:-0.0309675 48:-0.0814585 49:-0.533459 50:-0.273842 51:0.0837592 52:-0.291031 53:0.0963733 54:-0.331791 55:-0.439082 56:0.2178 57:-0.745826 58:0.545121 59:-0.402804 60:-0.466626 61:-0.714803 62:-0.896107 63:0.157668 64:-0.335171 65:0.141707 66:0.14663 67:-0.1251 68:-0.194735 69:0.351658 70:-0.744394 71:0.324452 72:-0.674549 73:-0.277292 74:0.281524 75:-0.418994 76:0.221792 77:-0.466812 78:-0.0704673 79:-0.483899 80:0.714636 81:-0.486451 82:-0.616334 83:1 84:-0.275331 85:0.0997169 86:-0.196824 87:0.09081 88:0.0337794 89:0.171497 90:-0.0851299 91:-0.372202 92:-0.28705 93:0.268569 94:-0.27368 95:-0.422879 96:0.303345 97:-0.281849 98:0.110599 99:-0.457593 100:0.368772 101:0.240777 102:-0.335653 103:0.500965 104:0.0721007 105:-0.168333 106:0.539278 107:-1 108:-0.690499 109:0.422165 110:-0.250368 111:-0.125902 112:0.145037 113:0.389725 114:0.0248883 115:-0.298984 116:0.102272 117:0.58069 118:0.0902957 119:-0.0598256 120:0.155193 121:-0.0916217 122:-0.168569 123:-0.388031 124:-0.323832 125:-0.411008 126:-0.259297 127:-0.423761 128:-0.392935 129:-0.12817 130:0.0637795 131:0.240293 132:-0.873433 133:-0.137603 134:0.103313 135:-0.393961 136:0.435231 137:0.459732 138:0.238211 139:0.411597 140:0.386216 141:0.494815 142:0.950594 143:0.16232 144:0.0837017 145:0.0238938 146:0.130205 147:0.146307 148:-0.279479 149:0.252634 150:0.0387324 151:0.342925 152:-0.165593 153:-0.0815238 154:-0.0473341 155:-0.701769 156:0.106757 157:-0.0609037 158:0.0110622 159:-0.107228 160:-0.554905 161:-0.723 162:-0.536393 163:0.132562 164:0.956963 165:0.331352 166:0.902841 167:-0.788879 168:0.239935 169:0.0261617 170:-0.160965 171:0.206037 172:-0.515881 173:-0.157138 174:0.417845 175:-0.649492 176:0.608767 177:0.495487 178:0.420619 179:-0.382103 180:-0.591784 181:0.259969 182:-0.235254 183:0.0134423 184:0.0763046 185:-0.229298 186:-0.0357154 187:0.0465158 188:-0.508163 189:0.422887 190:0.1229 191:0.252736 192:-0.408975 193:0.163488 194:0.16841 195:0.180535 196:-0.203619 197:-0.273544 198:-0.124271 199:-0.319539 200:0.53719 201:0.754796 202:0.240711 203:-0.296524 204:0.155262 205:-0.188158 206:-0.0738372 207:0.257702 208:-0.179227 209:-0.0678643 210:-0.0532053 211:-0.659993 212:-0.493523 213:0.790451 214:0.228296 215:0.856736 216:0.308908 217:0.297742 218:0.131432 219:-0.310369 220:0.912973 221:0.00703417 222:-0.0325397 223:0.0299322 224:-0.0789873 225:-0.38573 226:-0.350766 227:-0.113517 228:-0.357323 229:-0.328611 230:-0.142739 231:-0.554667 232:0.324229 233:-0.0162058 234:0.197908 235:0.17972 236:-0.109029 237:0.32564 238:0.137788 239:-0.222369 240:0.409827 241:0.00638797 242:-0.014168 243:-0.564738 244:-0.325446 245:0.17128 246:-0.305027 247:-0.236907 248:-0.10896 249:0.128094 250:-0.139197 251:-0.281939 252:0.203954 253:-0.262152 254:0.154828 255:0.0841422 256:0.469519 257:0.0915239 258:0.187291 259:0.0619902 260:0.0925459 261:-0.106711 262:0.394257 263:-0.00863839 264:-1 265:-0.691223 266:0.140575 267:0.1873 268:0.0865124 269:0.443467 270:0.0738017 271:0.510578 272:-0.274986 273:-0.431658 274:0.0105804 275:-0.0171846 276:-0.115187 277:-0.0327312 278:-0.158708 279:-0.304775 280:0.197495 281:-0.0889134 282:-0.318719 283:0.389247 284:0.579206 285:0.0157627 286:-0.213386 287:-0.104334 288:0.179872 289:-0.731268 290:-0.331718 291:0.375676 292:-0.443388 293:-0.12723 294:0.197335 295:0.446346 296:0.502432 297:0.282287 298:0.284187 299:0.314161 300:-0.0463242 301:-0.096858 302:-0.796814 303:-0.48789 304:-0.0920897 305:-0.358503 306:0.250694 307:0.146671 308:0.724638 309:0.662276 310:0.424164 311:0.724722 312:-0.214004 313:0.0405261 314:-0.104148 315:-0.18366 316:0.376805 317:0.286623 318:0.53841 319:-0.35214 320:-0.111109 321:0.0494091 322:-0.0293969 323:0.0710642 324:-0.821242 325:-0.145395 326:-0.0679103 327:-0.2907 328:-0.586514 329:-0.154465 330:0.0414028 331:0.363706 332:-0.265941 333:-0.309947 334:-0.556617 335:-0.386045 336:0.418525 337:0.0569953 338:-0.184941 339:-0.328159 340:-0.343238 341:0.200489 342:-0.249515 343:0.242845 344:0.0995671 345:0.448162 346:0.0110228 347:-0.56157 348:0.339929 349:-0.0138359 350:0.35379 351:-0.0123064 352:0.00881545 353:0.00562031 354:0.734831 355:-0.60754 356:-0.284763 357:-0.116302 358:-0.207683 359:-0.63577 360:-0.70892 361:-0.453831 362:0.126094 363:0.061232 364:-0.361307 365:-0.0288875 366:0.265144 367:0.333963 368:-0.2788 369:0.0925615 370:-0.569259 371:0.195483 372:0.332531 373:-0.145028 374:-0.209753 375:-0.676496 376:-0.126931 377:0.277572 378:0.171268 379:-0.379994 380:0.161947 381:0.0828101 382:0.504711 383:-0.262395 384:-0.323432 385:-0.148403 386:0.31921 387:-0.0259718 388:-0.339133 389:0.536452 390:-0.103836 391:0.11172 392:-0.400971 393:-0.0239306 394:0.0990102 395:-0.0876566 396:0.316074 397:-0.471395 398:-0.804818 399:0.54675 400:0.116764 401:0.187255 402:0.0460309 403:-1 404:-0.289686 405:0.0847458 406:-0.309487 407:-0.269331 408:0.896745 409:0.106007 410:0.119493 411:-0.233249 412:0.14148 413:0.293968 414:0.241251 415:0.361998 416:0.194887 417:-0.351902 418:0.860407 419:-0.00497955 420:0.154129 421:0.273228 422:-0.633255 423:-0.373014 424:-0.0122889 425:0.143527 426:-0.413544 427:-0.224907 428:0.301173 429:-0.272143 430:-0.0926346 431:0.0558969 432:0.217548 433:0.403013 434:0.0323877 435:-0.109597 436:-0.30682 437:-0.202688 438:-0.489916 439:-0.0652268 440:0.317335 441:0.0936203 442:-0.231376 443:0.282204 444:-0.402844 445:0.700935 446:0.246601 447:-0.735833 448:0.0894714 449:0.157659 450:-0.177225 451:-0.597925 452:-0.503362 453:0.332546 454:-0.122762 455:0.160909 456:-0.157835 457:-0.0650396 458:-0.201246 459:-0.116109 460:0.0558455 461:-0.109711 462:0.635942 463:0.290482 464:-0.370154 465:0.236467 466:-0.418191 467:0.435282 468:0.278083 469:0.188128 470:-0.666245 471:-0.0227447 472:0.353634 473:-0.370495 474:0.356014 475:-0.753503 476:-0.735262 477:0.0031412 478:-0.465539 479:-0.428602 480:-0.67819 481:0.22861 482:0.04885 483:0.284424 484:-0.0384716 485:-0.115972 486:-0.0074327 487:0.297889 488:0.428203 489:0.0216935 490:-0.0383309 491:0.0235602 492:0.124488 493:0.263728 494:-0.434627 495:0.0532446 496:-0.132179 497:-0.00760802 498:-0.115929 499:0.0147921 500:-0.208927 501:-0.0204825 502:0.288837 503:-0.127536 504:0.147091 505:0.101073 506:-0.0250508 507:0.0972037 508:0.0899306 509:-0.105272 510:-0.141628 511:0.276639 512:0.214396 513:0.0163592 514:-0.311119 515:0.0215686 516:0.0626182 517:-0.708595 518:-0.408454 519:-1 520:-0.684126 521:0.143048 522:0.00499093 523:-0.131165 524:-0.218206 525:-0.30466 526:0.406641 527:-0.512798 528:0.41457 529:0.321834 530:-0.984529 531:0.202119 532:-0.500975 533:0.0280119 534:0.222033 535:-0.315305 536:0.261376 537:0.554595 538:-0.0788287 539:0.422982 540:-0.628719 541:0.106931 542:-0.255667 543:-0.831196 544:-0.173239 545:-0.881501 546:-0.0144291 547:0.11601 548:-0.524004 549:-0.139234 550:0.0991673 551:-0.0555423 552:0.0447495 553:-0.273347 554:-0.681971 555:0.404212 556:-0.281188 557:0.236522 558:0.00828458 559:-0.294586 560:0.0147161 561:0.0191515 562:0.10507 563:-0.0347629 564:-0.434375 565:-0.0284351 566:-0.0696675 567:0.309987 568:0.0638916 569:0.264716 570:0.675018 571:-0.300639 572:-0.195318 573:0.0807898 574:0.211605 575:0.0958016 576:0.312566 577:0.144957 578:0.164466 579:-0.0475533 580:-0.141714 581:-0.284543 582:-0.519553 583:-0.858485 584:-0.258679 585:-0.190454 586:0.119915 587:0.0909392 588:-0.105638 589:-0.0681404 590:-0.396301 591:-0.296624 592:-0.621416 593:0.0226947 594:-0.331184 595:-0.780841 596:0.124315 597:-0.329175 598:-0.0401483 599:0.00324957 600:-0.62477 601:-0.186409 602:-0.214065 603:0.349953 604:-0.425901 605:0.001485 606:0.473304 607:0.614945 608:0.394928 609:0.540895 610:0.709689 611:0.186622 612:0.27824 613:-0.105423 614:-0.0384059 615:0.0555162 616:-0.417814 617:0.401085 618:-0.521975 619:-0.511085 620:-0.235528 621:0.0973286 622:0.156759 623:0.0805076 624:-0.0440075 625:0.0579706 626:0.299237 627:-0.113266 628:0.202111 629:0.446045 630:-0.22966 631:-0.161548 632:-0.0789751 633:-0.598438 634:-0.919009 635:-0.206606 636:-0.00724992 637:-0.0360503 638:-0.0426966 639:0.150556 640:-0.614214 641:-0.212251 642:0.194872 643:-0.10562 644:-0.331877 645:-0.0535268 646:-0.0661542 647:-0.201018 648:0.174275 649:0.32574 650:0.128096 
