svm_type c_svc
kernel_type rbf
gamma 0.0078125
nr_class 2
total_sv 10
rho 0.02191627025604248
label 0 1
probA -2.6192538697642807
probB -0.1317873982864827
nr_sv 5 5
SV
2 1:0.777778 2:0.777778 3:0.777778 4:0.777778 
2 1:0.777778 2:0.777778 3:0.777778 4:0.777778 
2 1:0.777778 2:0.777778 3:0.777778 4:0.777778 
2 1:0.777778 2:0.777778 3:0.777778 4:0.777778 
1.9997555006023715 1:1 2:1 3:1 4:1 
-2 1:-0.777778 2:-0.777778 3:-0.777778 4:-0.777778 
-2 1:-0.777778 2:-0.777778 3:-0.777778 4:-0.777778 
-2 1:-0.777778 2:-0.777778 3:-0.777778 4:-0.777778 
-1.9997555006023715 1:-1 2:-1 3:-1 4:-1 
-2 1:-1 2:-1 3:-1 4:-1 
